################################################################################
# Neural network connection values (weights and biases).
################################################################################
# Col  Name       Description
################################################################################
# 1    connection Neural network connection value.
# 2    t          Connection type (a = weight, b = bias).
# 3    index      Index enumerating weights.
# 4    l_s        Starting point layer (end point layer for biases).
# 5    n_s        Starting point neuron in starting layer (end point neuron for biases).
# 6    l_e        End point layer.
# 7    n_e        End point neuron in end layer.
################################################################################
#                      1 2         3     4     5     6     7
#             connection t     index   l_s   n_s   l_e   n_e
############################################################
  4.2629239389306839E-01 a         1     0     1     1     1
 -1.7157456088342291E-01 a         2     0     1     1     2
  7.1563986971650007E-01 a         3     0     1     1     3
  1.5848786287439139E-02 a         4     0     1     1     4
 -1.0042986348437479E+00 a         5     0     1     1     5
 -5.5874848195770821E-01 a         6     0     1     1     6
 -7.6356561393452105E-01 a         7     0     1     1     7
 -3.5424163910160750E-01 a         8     0     1     1     8
  9.3656050898755794E-01 a         9     0     1     1     9
  2.6020439988591609E-01 a        10     0     1     1    10
  3.2143801638607139E-02 a        11     0     1     1    11
  3.4743961626808101E-01 a        12     0     1     1    12
  2.6611458154755352E-01 a        13     0     1     1    13
 -6.9053753425051978E-01 a        14     0     1     1    14
  6.6288325720542843E-02 a        15     0     1     1    15
 -2.4253709289301715E+00 a        16     0     2     1     1
 -6.7400199823514273E-01 a        17     0     2     1     2
 -2.1171063598941692E-01 a        18     0     2     1     3
 -2.9628163085765469E-01 a        19     0     2     1     4
 -2.7039058093498292E+00 a        20     0     2     1     5
 -2.1832698347921538E+00 a        21     0     2     1     6
  2.0562902841875599E+00 a        22     0     2     1     7
 -1.2501310622550725E+00 a        23     0     2     1     8
 -3.0712952839806107E+00 a        24     0     2     1     9
  3.0545795114149534E+00 a        25     0     2     1    10
  3.4292515280712826E-01 a        26     0     2     1    11
 -6.0936800699264670E-01 a        27     0     2     1    12
 -2.3533070157178737E-01 a        28     0     2     1    13
 -1.4266737813436881E-01 a        29     0     2     1    14
 -3.6313008975555188E+00 a        30     0     2     1    15
  3.9841893226348540E-01 a        31     0     3     1     1
 -2.2140777702329900E-01 a        32     0     3     1     2
 -4.5261414949527867E-01 a        33     0     3     1     3
  6.4240311168539177E-01 a        34     0     3     1     4
 -1.8798954030709150E-01 a        35     0     3     1     5
 -1.1888304708374253E+00 a        36     0     3     1     6
  5.2962138802575970E-02 a        37     0     3     1     7
 -1.4584341111427892E+00 a        38     0     3     1     8
 -5.3652527703130573E-02 a        39     0     3     1     9
 -1.3014852314119965E-01 a        40     0     3     1    10
  3.2071891752072312E-01 a        41     0     3     1    11
  5.8851487336943165E-01 a        42     0     3     1    12
  7.5564591398020264E-01 a        43     0     3     1    13
 -8.5978098327695718E-01 a        44     0     3     1    14
  1.1688044048303027E-01 a        45     0     3     1    15
 -9.1109783919478798E-02 a        46     0     4     1     1
 -2.8898275157129455E-01 a        47     0     4     1     2
  1.3143970755445294E-01 a        48     0     4     1     3
 -8.0899974125361362E-01 a        49     0     4     1     4
  5.8219959687027711E-01 a        50     0     4     1     5
  6.3025513364597621E-02 a        51     0     4     1     6
 -7.3869678028278721E-02 a        52     0     4     1     7
 -5.6556540824758850E-01 a        53     0     4     1     8
  1.2841269569895311E+00 a        54     0     4     1     9
 -1.3436630560780634E+00 a        55     0     4     1    10
 -6.5201929624659405E-01 a        56     0     4     1    11
 -7.7895169989151847E-01 a        57     0     4     1    12
  1.1338559076698378E+00 a        58     0     4     1    13
  2.1595641643321688E+00 a        59     0     4     1    14
  1.9326904032896461E+00 a        60     0     4     1    15
  4.1246013208057236E-01 a        61     0     5     1     1
  5.1815186331719465E-01 a        62     0     5     1     2
 -4.8567480034303867E-01 a        63     0     5     1     3
  5.6520720301983285E-01 a        64     0     5     1     4
  1.0405625194308050E+00 a        65     0     5     1     5
 -4.8165491090146575E-02 a        66     0     5     1     6
 -2.3065951647875851E-01 a        67     0     5     1     7
 -1.2485822880743622E+00 a        68     0     5     1     8
  5.4752235196958121E-01 a        69     0     5     1     9
  6.8522950173512975E-01 a        70     0     5     1    10
 -4.3747134556571010E-01 a        71     0     5     1    11
  4.4899234905125940E-01 a        72     0     5     1    12
  4.3413235886985024E-01 a        73     0     5     1    13
 -2.3600217946917362E-01 a        74     0     5     1    14
  5.7337065850450253E-01 a        75     0     5     1    15
  2.0462800729136195E+00 a        76     0     6     1     1
 -2.1037545004063898E-01 a        77     0     6     1     2
 -3.6259749019075721E-01 a        78     0     6     1     3
 -5.9805798426327395E-01 a        79     0     6     1     4
  1.2124239991292649E+00 a        80     0     6     1     5
  2.2659164466720003E-01 a        81     0     6     1     6
 -1.6109184503342622E+00 a        82     0     6     1     7
 -1.1522384721215417E+00 a        83     0     6     1     8
  3.6320527963068958E+00 a        84     0     6     1     9
 -2.9158530203150552E+00 a        85     0     6     1    10
 -1.3778017868133251E-02 a        86     0     6     1    11
  4.5237386991795087E-01 a        87     0     6     1    12
  9.5758920916205148E-01 a        88     0     6     1    13
 -1.1724749240287632E-01 a        89     0     6     1    14
  4.6905361879590011E+00 a        90     0     6     1    15
 -4.1994450966299351E-01 a        91     0     7     1     1
 -7.1223073528467029E-01 a        92     0     7     1     2
 -1.0026783436337388E+00 a        93     0     7     1     3
 -8.5850890846445427E-01 a        94     0     7     1     4
  1.0455631256887754E+00 a        95     0     7     1     5
  5.6691034796008521E-01 a        96     0     7     1     6
  2.8368625699785963E-02 a        97     0     7     1     7
 -3.8269466375193367E-01 a        98     0     7     1     8
 -5.1308824785469720E-01 a        99     0     7     1     9
  4.7567270490716984E-01 a       100     0     7     1    10
  1.0827487038940548E-01 a       101     0     7     1    11
 -1.2980281568475133E-01 a       102     0     7     1    12
  1.3495077550241227E-01 a       103     0     7     1    13
  9.4761820721973172E-02 a       104     0     7     1    14
 -8.8427127671471539E-01 a       105     0     7     1    15
  1.5821267247487329E+00 a       106     0     8     1     1
  1.3886168450656124E+00 a       107     0     8     1     2
  1.3531975578170234E+00 a       108     0     8     1     3
  1.3475793879354853E-01 a       109     0     8     1     4
  2.4538651690623120E-04 a       110     0     8     1     5
 -1.4591184710638883E+00 a       111     0     8     1     6
  2.1491314951384732E-01 a       112     0     8     1     7
  6.3880922029381382E-01 a       113     0     8     1     8
 -2.6169314775619759E+00 a       114     0     8     1     9
  9.6072005779090663E-01 a       115     0     8     1    10
  2.6974982175321310E-01 a       116     0     8     1    11
 -4.7012804102804384E-01 a       117     0     8     1    12
  1.3843346096604916E+00 a       118     0     8     1    13
 -4.7495362379679529E+00 a       119     0     8     1    14
 -3.5122119341971212E+00 a       120     0     8     1    15
 -1.4746488484974749E-01 a       121     0     9     1     1
 -1.8899660541618841E+00 a       122     0     9     1     2
  8.0017505556395629E-01 a       123     0     9     1     3
 -3.3645347107860990E-01 a       124     0     9     1     4
 -2.4070118828625534E-02 a       125     0     9     1     5
 -5.7692060374520393E-01 a       126     0     9     1     6
  1.6886131982254193E-01 a       127     0     9     1     7
  1.2407511196573232E-01 a       128     0     9     1     8
 -7.4316720589517582E-01 a       129     0     9     1     9
 -5.7674573207922342E-01 a       130     0     9     1    10
 -2.8513413246992029E-02 a       131     0     9     1    11
 -2.8025855630317043E-01 a       132     0     9     1    12
  2.6976937069903711E-01 a       133     0     9     1    13
 -5.0780710090629189E-01 a       134     0     9     1    14
  3.2404505591061633E-01 a       135     0     9     1    15
 -1.4996780674179822E+00 a       136     0    10     1     1
  6.0545146642548953E-01 a       137     0    10     1     2
 -2.0722847219664517E+00 a       138     0    10     1     3
 -2.3155167742220156E-01 a       139     0    10     1     4
 -1.9117878740953278E+00 a       140     0    10     1     5
  3.0441764369348605E+00 a       141     0    10     1     6
 -2.9641058793418101E-01 a       142     0    10     1     7
 -7.7649002908061815E-01 a       143     0    10     1     8
  2.2845397395311577E+00 a       144     0    10     1     9
 -1.4416249874026050E+00 a       145     0    10     1    10
 -7.4730049587609548E-01 a       146     0    10     1    11
  1.3722196470164996E+00 a       147     0    10     1    12
 -5.6557761013557216E-02 a       148     0    10     1    13
  1.6618892439928108E+00 a       149     0    10     1    14
 -6.8591673987148938E-01 a       150     0    10     1    15
  3.8790556866379894E-01 a       151     0    11     1     1
  5.1635827985477267E-01 a       152     0    11     1     2
  9.1720812365577975E-01 a       153     0    11     1     3
  1.3261549880104157E-02 a       154     0    11     1     4
  3.3425332098005101E-01 a       155     0    11     1     5
 -1.3459798232964687E-01 a       156     0    11     1     6
  4.3650429825664354E-02 a       157     0    11     1     7
 -7.0386782433597073E-01 a       158     0    11     1     8
  8.8330400598509839E-01 a       159     0    11     1     9
  4.3431488454110573E-01 a       160     0    11     1    10
 -7.2890793830991604E-02 a       161     0    11     1    11
  1.1089309547175584E-01 a       162     0    11     1    12
 -1.6213679726652466E-01 a       163     0    11     1    13
 -2.2691367931481934E-01 a       164     0    11     1    14
  9.1639754699415807E-02 a       165     0    11     1    15
  8.9752411883428744E-03 a       166     0    12     1     1
  9.7458042606311768E-01 a       167     0    12     1     2
  2.4361986095420738E+00 a       168     0    12     1     3
 -8.5256105980689001E-02 a       169     0    12     1     4
  2.0584939578924093E+00 a       170     0    12     1     5
 -1.9323710841470010E+00 a       171     0    12     1     6
 -1.6264898817216749E+00 a       172     0    12     1     7
  3.9463597698382351E+00 a       173     0    12     1     8
 -1.8045138237805698E+00 a       174     0    12     1     9
  1.3888558092745102E+00 a       175     0    12     1    10
  7.3015342227637370E-01 a       176     0    12     1    11
 -2.2696013677450899E-01 a       177     0    12     1    12
 -1.3248301368170599E+00 a       178     0    12     1    13
  1.9756236353528176E+00 a       179     0    12     1    14
  1.6883994581599246E+00 a       180     0    12     1    15
 -3.2045792918320309E-01 a       181     0    13     1     1
  6.7468379584994409E-01 a       182     0    13     1     2
 -8.1073961289868912E-01 a       183     0    13     1     3
 -3.7767579127420292E-01 a       184     0    13     1     4
  5.0903422383111054E-02 a       185     0    13     1     5
  3.2938468061440096E-01 a       186     0    13     1     6
 -4.4897823355367877E-01 a       187     0    13     1     7
 -1.8497515272726264E-01 a       188     0    13     1     8
 -5.1292508380929158E-01 a       189     0    13     1     9
 -2.9405171040995831E-01 a       190     0    13     1    10
 -3.4233259148386597E-02 a       191     0    13     1    11
 -1.0813457948075200E-01 a       192     0    13     1    12
 -3.6789763745033638E-01 a       193     0    13     1    13
  7.4553412012149135E-03 a       194     0    13     1    14
  5.5856432782552271E-02 a       195     0    13     1    15
  5.4265039104580082E-02 a       196     0    14     1     1
  6.4254679469646803E-01 a       197     0    14     1     2
 -1.4127244472235659E-01 a       198     0    14     1     3
 -2.3520311148747133E-01 a       199     0    14     1     4
 -3.9861494667234837E-01 a       200     0    14     1     5
 -1.7628216993920136E-02 a       201     0    14     1     6
  6.0988081971100283E-01 a       202     0    14     1     7
 -1.8275363876339970E+00 a       203     0    14     1     8
  6.5189751910794691E-01 a       204     0    14     1     9
  3.8473425815740675E-01 a       205     0    14     1    10
 -4.3554828129010972E-02 a       206     0    14     1    11
 -6.2590745093074374E-01 a       207     0    14     1    12
  9.8364578499468869E-01 a       208     0    14     1    13
 -8.4602205346667203E-01 a       209     0    14     1    14
 -4.2904744918786814E-01 a       210     0    14     1    15
  7.6635582543309655E-02 a       211     0    15     1     1
  2.5600587145037941E-02 a       212     0    15     1     2
  1.9614323781964252E-01 a       213     0    15     1     3
  9.6887706938654353E-02 a       214     0    15     1     4
 -1.5291598402438086E-01 a       215     0    15     1     5
 -6.6027998036839688E-02 a       216     0    15     1     6
  7.4474355216895050E-02 a       217     0    15     1     7
  2.7618801957191919E-01 a       218     0    15     1     8
  1.1366786083365267E-01 a       219     0    15     1     9
  3.3442032993705184E-02 a       220     0    15     1    10
  5.6600800531868986E-02 a       221     0    15     1    11
 -6.7634019464748743E-02 a       222     0    15     1    12
  1.9917262513084394E-01 a       223     0    15     1    13
  4.0018717639427291E-02 a       224     0    15     1    14
 -3.3866110993836455E-02 a       225     0    15     1    15
  1.5502325209929379E-02 a       226     0    16     1     1
 -6.4088951305135824E-02 a       227     0    16     1     2
 -5.3725373241980223E-01 a       228     0    16     1     3
  3.5922009070676836E-01 a       229     0    16     1     4
 -3.7908386935337733E-02 a       230     0    16     1     5
 -1.1818556536855053E-01 a       231     0    16     1     6
 -2.0921152663461037E-01 a       232     0    16     1     7
  8.1128945039823402E-02 a       233     0    16     1     8
 -6.0113452491233066E-02 a       234     0    16     1     9
  9.7158447027757472E-02 a       235     0    16     1    10
  4.2411622875739671E-02 a       236     0    16     1    11
  3.3007340494802036E-02 a       237     0    16     1    12
 -3.1009188469566135E-01 a       238     0    16     1    13
  1.4768287888836237E-01 a       239     0    16     1    14
  8.0664068356690339E-03 a       240     0    16     1    15
 -1.0420118587187058E-01 a       241     0    17     1     1
  3.8876908425470436E-01 a       242     0    17     1     2
 -5.2988197432578432E-01 a       243     0    17     1     3
 -4.6760334466117340E-02 a       244     0    17     1     4
  6.7801741236626323E-01 a       245     0    17     1     5
  3.9220288718491209E-01 a       246     0    17     1     6
 -4.0187064540122097E-01 a       247     0    17     1     7
  1.6453870712189697E-01 a       248     0    17     1     8
 -2.2767946131380956E-01 a       249     0    17     1     9
  5.0442532145271413E-01 a       250     0    17     1    10
  1.7315044554166242E-02 a       251     0    17     1    11
 -3.0955827327428748E-01 a       252     0    17     1    12
 -4.9589467274091970E-01 a       253     0    17     1    13
  7.1918285485211939E-02 a       254     0    17     1    14
  1.3874769733524743E-02 a       255     0    17     1    15
 -2.0209730422061881E-01 a       256     0    18     1     1
 -1.4574473596314874E-01 a       257     0    18     1     2
 -7.2775605626285311E-01 a       258     0    18     1     3
  2.4075040569445966E-01 a       259     0    18     1     4
 -1.2337614577646889E-02 a       260     0    18     1     5
 -6.2386130251368910E-01 a       261     0    18     1     6
  2.3908730488734364E-01 a       262     0    18     1     7
 -6.1008198927207886E-02 a       263     0    18     1     8
  4.8987379744249732E-01 a       264     0    18     1     9
 -4.4886452574265534E-01 a       265     0    18     1    10
 -8.2003728583111501E-02 a       266     0    18     1    11
 -7.2960281434659557E-01 a       267     0    18     1    12
 -2.6515614417519584E-01 a       268     0    18     1    13
  1.9321483254290284E-01 a       269     0    18     1    14
 -4.8871076480216152E-01 a       270     0    18     1    15
 -8.0239646423617095E-01 a       271     0    19     1     1
 -1.8689734744249983E-01 a       272     0    19     1     2
  2.4518457800010083E+00 a       273     0    19     1     3
  3.6471158605084564E+00 a       274     0    19     1     4
  1.6031843474866941E-01 a       275     0    19     1     5
 -2.4447875907496872E+00 a       276     0    19     1     6
 -3.2602913992418725E+00 a       277     0    19     1     7
  9.1892712207064087E-01 a       278     0    19     1     8
 -2.0001167573354479E+00 a       279     0    19     1     9
  1.6414285730060809E+00 a       280     0    19     1    10
 -8.9371414555015438E-01 a       281     0    19     1    11
  1.5877404996483240E+00 a       282     0    19     1    12
 -1.0257361202678861E+00 a       283     0    19     1    13
 -3.3721867203883655E+00 a       284     0    19     1    14
  7.2520278675960759E-01 a       285     0    19     1    15
 -1.8577695025105764E-01 a       286     0    20     1     1
 -2.6643205416464244E-01 a       287     0    20     1     2
  2.1577750212106739E-01 a       288     0    20     1     3
  4.5374992774937234E-01 a       289     0    20     1     4
 -5.6465550215981997E-01 a       290     0    20     1     5
 -2.1218002841373831E-01 a       291     0    20     1     6
 -7.6764979326528496E-02 a       292     0    20     1     7
  1.0780163575066501E+00 a       293     0    20     1     8
 -1.5456114645165625E-01 a       294     0    20     1     9
 -4.3357980823451392E-01 a       295     0    20     1    10
 -9.0797154018854978E-02 a       296     0    20     1    11
 -8.4333511589858454E-02 a       297     0    20     1    12
  9.2591849720209798E-02 a       298     0    20     1    13
  3.2619644467904252E-01 a       299     0    20     1    14
 -1.2158638737324118E-02 a       300     0    20     1    15
 -2.3899028574694964E-01 a       301     0    21     1     1
  3.5432873826392847E-01 a       302     0    21     1     2
  9.2539865907106234E-01 a       303     0    21     1     3
  1.0254068693567255E+00 a       304     0    21     1     4
 -1.3468979440233312E-02 a       305     0    21     1     5
 -5.2903250301253715E-02 a       306     0    21     1     6
  3.8446641623449107E-01 a       307     0    21     1     7
 -6.4710206870183318E-01 a       308     0    21     1     8
 -4.4846479018380880E-01 a       309     0    21     1     9
  1.0676996517288961E+00 a       310     0    21     1    10
  8.5659135407584575E-02 a       311     0    21     1    11
 -1.2892537958338561E+00 a       312     0    21     1    12
  1.3505242057642547E-01 a       313     0    21     1    13
  4.1147040896345649E-01 a       314     0    21     1    14
 -1.1966930944560129E-01 a       315     0    21     1    15
 -2.4299498365699752E+00 a       316     0    22     1     1
 -3.7564750932496355E-01 a       317     0    22     1     2
 -1.0979784847927081E+00 a       318     0    22     1     3
  1.0230707445632514E+00 a       319     0    22     1     4
  2.3068526448272180E+00 a       320     0    22     1     5
  1.5599507306089406E+00 a       321     0    22     1     6
  2.4733300482545824E+00 a       322     0    22     1     7
 -3.8039744202806869E-01 a       323     0    22     1     8
  1.9427834985213743E+00 a       324     0    22     1     9
 -3.8318530096204051E+00 a       325     0    22     1    10
  1.9710055206372334E+00 a       326     0    22     1    11
  1.1188001615225709E+00 a       327     0    22     1    12
  7.9206750126384329E-01 a       328     0    22     1    13
  9.0675612483018375E-01 a       329     0    22     1    14
 -2.4312438738952675E+00 a       330     0    22     1    15
 -1.4709610214604148E-02 a       331     0    23     1     1
  7.0858541523670677E-03 a       332     0    23     1     2
  1.3894432100032100E-01 a       333     0    23     1     3
 -7.8986938577492311E-02 a       334     0    23     1     4
 -2.1173619982214598E-01 a       335     0    23     1     5
  5.5251892506166219E-03 a       336     0    23     1     6
 -1.4986684488661669E-02 a       337     0    23     1     7
 -1.0473759192716858E-01 a       338     0    23     1     8
 -6.3040429464604458E-03 a       339     0    23     1     9
 -1.7382753214040919E-01 a       340     0    23     1    10
 -1.8634081629673133E-02 a       341     0    23     1    11
  1.6304858926270699E-01 a       342     0    23     1    12
  6.1195563471173414E-02 a       343     0    23     1    13
  3.7217791145612827E-02 a       344     0    23     1    14
 -1.6606527246598880E-02 a       345     0    23     1    15
 -6.4419422698342632E-01 a       346     0    24     1     1
 -1.4057770451233059E-01 a       347     0    24     1     2
  1.3789973270082601E-01 a       348     0    24     1     3
 -1.0158058573678090E-01 a       349     0    24     1     4
  6.3340346324324137E-01 a       350     0    24     1     5
  1.0908957405798190E+00 a       351     0    24     1     6
  1.4704108861799816E-02 a       352     0    24     1     7
  1.3747747174399403E+00 a       353     0    24     1     8
 -8.5027691628809066E-01 a       354     0    24     1     9
 -3.3929403868598018E-01 a       355     0    24     1    10
  2.2469938070731669E-02 a       356     0    24     1    11
  7.1001902745576129E-01 a       357     0    24     1    12
 -8.5994059838727460E-02 a       358     0    24     1    13
  4.6957576743929641E-01 a       359     0    24     1    14
 -9.0734973401282434E-02 a       360     0    24     1    15
  9.2765665430433542E-01 a       361     0    25     1     1
  1.2732674189495643E+00 a       362     0    25     1     2
 -6.4343179590530331E-01 a       363     0    25     1     3
 -2.3045599664455376E+00 a       364     0    25     1     4
  1.4200252323186260E+00 a       365     0    25     1     5
  2.9728041170077013E+00 a       366     0    25     1     6
 -5.0638053473048794E-01 a       367     0    25     1     7
  2.4886090186462786E+00 a       368     0    25     1     8
  7.6664746232178682E-01 a       369     0    25     1     9
 -1.1578871821221159E+00 a       370     0    25     1    10
  3.4440128717363161E-01 a       371     0    25     1    11
 -9.3562113484364251E-01 a       372     0    25     1    12
 -1.5989491809094686E-01 a       373     0    25     1    13
  2.5704177083352513E+00 a       374     0    25     1    14
  6.8544230441119722E-02 a       375     0    25     1    15
  1.0275537692058340E-01 a       376     0    26     1     1
  4.3857924872448197E-02 a       377     0    26     1     2
 -3.4391961147683081E-01 a       378     0    26     1     3
 -5.0181938598191855E-01 a       379     0    26     1     4
  3.6331374563702773E-01 a       380     0    26     1     5
  9.6577959594747367E-02 a       381     0    26     1     6
 -3.2900415357738522E-01 a       382     0    26     1     7
 -6.6902574165867823E-01 a       383     0    26     1     8
  1.2859622605513268E-01 a       384     0    26     1     9
  8.1695546646980172E-02 a       385     0    26     1    10
  6.3155795978900808E-02 a       386     0    26     1    11
 -2.0807614570283428E-01 a       387     0    26     1    12
 -1.7477512996247224E-01 a       388     0    26     1    13
 -2.2488640965633959E-02 a       389     0    26     1    14
 -5.7192574687735594E-02 a       390     0    26     1    15
  2.8041474522649745E-01 a       391     0    27     1     1
 -4.8758776266531900E-01 a       392     0    27     1     2
 -4.5308112595943606E-01 a       393     0    27     1     3
 -1.6470761004193655E+00 a       394     0    27     1     4
 -3.4459828495692228E-02 a       395     0    27     1     5
  1.9378347116329969E-01 a       396     0    27     1     6
  3.6846620743398162E-01 a       397     0    27     1     7
 -2.0434240431598756E-02 a       398     0    27     1     8
  7.0156889653831545E-02 a       399     0    27     1     9
 -9.1798792149320307E-01 a       400     0    27     1    10
 -1.0040203715540352E-01 a       401     0    27     1    11
  4.0835920563010947E-01 a       402     0    27     1    12
  1.4872025807603459E-01 a       403     0    27     1    13
 -4.2610826131780155E-01 a       404     0    27     1    14
  1.8733282526682374E-01 a       405     0    27     1    15
  3.1663007392646541E+00 a       406     0    28     1     1
  2.1478628833754146E-01 a       407     0    28     1     2
 -3.5607187917586086E-01 a       408     0    28     1     3
 -1.3561968702245293E+00 a       409     0    28     1     4
 -2.3656843025929102E+00 a       410     0    28     1     5
 -5.5313980031275722E-01 a       411     0    28     1     6
 -5.2236959272945860E-01 a       412     0    28     1     7
 -3.3492091393774398E-01 a       413     0    28     1     8
  2.2105732747043172E-01 a       414     0    28     1     9
  2.3823602871773635E+00 a       415     0    28     1    10
 -9.1283423190325530E-01 a       416     0    28     1    11
 -3.5606655798598857E-01 a       417     0    28     1    12
  1.7376634766990648E-01 a       418     0    28     1    13
 -7.2216925620089711E-01 a       419     0    28     1    14
  1.8178464576231308E+00 a       420     0    28     1    15
  9.0801320946719899E-01 a       421     0    29     1     1
 -4.6361836160310199E-01 a       422     0    29     1     2
  8.2196286005650612E-02 a       423     0    29     1     3
  3.1344796532251296E-01 a       424     0    29     1     4
 -8.3299571292411459E-02 a       425     0    29     1     5
  9.4436483617037159E-02 a       426     0    29     1     6
  3.5840307767058743E-01 a       427     0    29     1     7
 -8.3878597923593312E-01 a       428     0    29     1     8
  8.5882572042159011E-01 a       429     0    29     1     9
 -4.8201845312816660E-01 a       430     0    29     1    10
 -4.7481253205128630E-02 a       431     0    29     1    11
 -3.5448304028748608E-02 a       432     0    29     1    12
 -1.3159480215456701E-01 a       433     0    29     1    13
  3.3334226053854549E-01 a       434     0    29     1    14
  1.5454841926315474E-01 a       435     0    29     1    15
  1.5823467421998480E-01 a       436     0    30     1     1
 -5.7827923560447725E-01 a       437     0    30     1     2
  3.6979415683801109E-01 a       438     0    30     1     3
  9.2805853475446034E-03 a       439     0    30     1     4
 -1.3579942887714375E-01 a       440     0    30     1     5
  5.3887475968222232E-01 a       441     0    30     1     6
  9.5345470112972719E-01 a       442     0    30     1     7
  1.8293350720872535E-02 a       443     0    30     1     8
  2.9998493002987837E-02 a       444     0    30     1     9
 -1.1775705698041881E-01 a       445     0    30     1    10
  1.5000307507317583E-02 a       446     0    30     1    11
  6.1642610463785741E-01 a       447     0    30     1    12
 -1.1259081923235241E+00 a       448     0    30     1    13
 -1.7263981157829036E-01 a       449     0    30     1    14
  2.8273221977601837E-01 a       450     0    30     1    15
  2.3613843651462263E+00 a       451     0    31     1     1
 -2.4059811278973999E+00 a       452     0    31     1     2
 -1.1316823100448823E+00 a       453     0    31     1     3
  7.4421236393633650E-01 a       454     0    31     1     4
 -1.2224060020784646E+00 a       455     0    31     1     5
  1.8588205658860628E+00 a       456     0    31     1     6
 -2.6690357211993718E+00 a       457     0    31     1     7
 -2.6572283836752497E+00 a       458     0    31     1     8
 -4.0551135653244597E-01 a       459     0    31     1     9
  6.6818549212228255E+00 a       460     0    31     1    10
 -1.2083269737079281E+00 a       461     0    31     1    11
  8.5088992528364049E-01 a       462     0    31     1    12
  1.2164272654686217E+00 a       463     0    31     1    13
  1.7169877141608922E+00 a       464     0    31     1    14
  6.9881251092431235E-02 a       465     0    31     1    15
 -1.1345045913515877E+00 a       466     0    32     1     1
 -5.8027707157891566E-02 a       467     0    32     1     2
  5.2126589964696435E-01 a       468     0    32     1     3
  2.9727404023184656E-01 a       469     0    32     1     4
 -9.7717178573123964E-01 a       470     0    32     1     5
 -2.6916967714559742E-01 a       471     0    32     1     6
  7.1254491255874117E-02 a       472     0    32     1     7
  2.9198145605519127E-01 a       473     0    32     1     8
 -5.8126428183746282E-01 a       474     0    32     1     9
  3.0896797390975289E-01 a       475     0    32     1    10
  1.4430807715475952E-01 a       476     0    32     1    11
  6.9122002774543445E-01 a       477     0    32     1    12
  3.5194192250231021E-01 a       478     0    32     1    13
 -5.6795242482731489E-01 a       479     0    32     1    14
 -4.9545338394271154E-01 a       480     0    32     1    15
 -4.0692259256582680E-01 a       481     0    33     1     1
  1.1117519558793367E+00 a       482     0    33     1     2
 -7.5353490111176802E-01 a       483     0    33     1     3
  4.6575246197961745E-01 a       484     0    33     1     4
 -2.8400359085673282E-01 a       485     0    33     1     5
  1.4921323382858789E+00 a       486     0    33     1     6
  5.8874187885166107E-01 a       487     0    33     1     7
  1.0086309493093257E+00 a       488     0    33     1     8
 -8.2615435459764774E-01 a       489     0    33     1     9
 -7.0186375234709530E-01 a       490     0    33     1    10
 -1.9237560303091053E-01 a       491     0    33     1    11
 -4.4304426854144052E-01 a       492     0    33     1    12
 -7.0528840927196856E-01 a       493     0    33     1    13
  2.8514644440773745E-01 a       494     0    33     1    14
  7.5075376607451738E-01 a       495     0    33     1    15
 -9.4033678952988720E-01 a       496     0    34     1     1
  8.7025017826970685E-01 a       497     0    34     1     2
  5.8902925775823611E-01 a       498     0    34     1     3
 -4.4974697373763817E-01 a       499     0    34     1     4
  3.1290263871875386E+00 a       500     0    34     1     5
 -2.4210501151028807E+00 a       501     0    34     1     6
  5.9544189813127995E+00 a       502     0    34     1     7
 -1.1095976909155796E+00 a       503     0    34     1     8
 -4.8479678111582786E-01 a       504     0    34     1     9
 -2.8578421110986714E+00 a       505     0    34     1    10
  1.4900206942316155E-01 a       506     0    34     1    11
 -6.4831091826039533E-01 a       507     0    34     1    12
 -2.4136701978059336E+00 a       508     0    34     1    13
  1.9049874365130268E+00 a       509     0    34     1    14
  5.4975158931616086E-01 a       510     0    34     1    15
 -2.1428911137428641E-01 a       511     0    35     1     1
  6.2376221713143790E-02 a       512     0    35     1     2
  6.8744729921608572E-02 a       513     0    35     1     3
  7.2357739052827996E-02 a       514     0    35     1     4
 -1.0781601695646863E-01 a       515     0    35     1     5
 -9.6221578959827345E-02 a       516     0    35     1     6
 -1.4811171900414069E-01 a       517     0    35     1     7
  2.8979076210206456E-01 a       518     0    35     1     8
 -2.1420082119727196E-01 a       519     0    35     1     9
  1.8798568680437766E-01 a       520     0    35     1    10
  3.8338528305633016E-02 a       521     0    35     1    11
 -2.1921976346823752E-01 a       522     0    35     1    12
  4.0533749865978458E-01 a       523     0    35     1    13
 -2.9938297400837566E-01 a       524     0    35     1    14
 -4.3976041614453287E-02 a       525     0    35     1    15
  8.2834651979097451E-01 a       526     0    36     1     1
 -2.6495632057523276E-02 a       527     0    36     1     2
  3.3716774245442316E-01 a       528     0    36     1     3
 -7.0018926961691230E-01 a       529     0    36     1     4
  6.1569797468927830E-02 a       530     0    36     1     5
 -5.5480475801397422E-01 a       531     0    36     1     6
 -5.1055690534644027E-01 a       532     0    36     1     7
  1.3743779067680950E-01 a       533     0    36     1     8
  6.0720525050077190E-01 a       534     0    36     1     9
  2.5428467155939982E-01 a       535     0    36     1    10
 -6.2444690390168867E-02 a       536     0    36     1    11
  1.7781403254547440E-02 a       537     0    36     1    12
 -5.4285693888745723E-01 a       538     0    36     1    13
 -3.3434827404072875E-01 a       539     0    36     1    14
  3.2394114554291792E-01 a       540     0    36     1    15
 -1.7162257948189381E+00 a       541     0    37     1     1
  1.8352561720638323E+00 a       542     0    37     1     2
 -4.5725591304703345E-01 a       543     0    37     1     3
 -2.9726983916357739E+00 a       544     0    37     1     4
 -1.7050370715886622E+00 a       545     0    37     1     5
 -1.3969012558125644E+00 a       546     0    37     1     6
  4.5884425021275965E-01 a       547     0    37     1     7
 -1.0817909545999831E+00 a       548     0    37     1     8
 -4.5218107076745162E-01 a       549     0    37     1     9
 -3.9482974025341679E+00 a       550     0    37     1    10
  1.2812019702379360E-01 a       551     0    37     1    11
 -2.7793229872736851E-02 a       552     0    37     1    12
 -1.9388780438513971E+00 a       553     0    37     1    13
 -2.2941106511673008E+00 a       554     0    37     1    14
 -2.2938103311267022E-01 a       555     0    37     1    15
  3.5215997179654424E-01 a       556     0    38     1     1
  6.4126524255653072E-01 a       557     0    38     1     2
  7.4433012677400268E-02 a       558     0    38     1     3
  3.5620723817846173E-01 a       559     0    38     1     4
  4.0979555564109721E-01 a       560     0    38     1     5
 -2.7190290536004212E-02 a       561     0    38     1     6
  1.7191124590455409E-01 a       562     0    38     1     7
 -1.0482048134847516E-01 a       563     0    38     1     8
  1.6484715859125151E-01 a       564     0    38     1     9
  1.3009458441138252E-01 a       565     0    38     1    10
 -3.5684665907876299E-02 a       566     0    38     1    11
 -4.5949523643672469E-01 a       567     0    38     1    12
  2.8305685185327728E-01 a       568     0    38     1    13
  8.7289163567380201E-02 a       569     0    38     1    14
  1.2042001631481664E-01 a       570     0    38     1    15
 -1.0740253126705135E-01 a       571     0    39     1     1
  4.7693341908585402E-01 a       572     0    39     1     2
  4.0953492630512506E-01 a       573     0    39     1     3
  6.8831400392611708E-01 a       574     0    39     1     4
 -3.9170305735129596E-01 a       575     0    39     1     5
 -7.7862508517950257E-01 a       576     0    39     1     6
 -4.4233900422261530E-01 a       577     0    39     1     7
  4.8308618704997024E-02 a       578     0    39     1     8
  6.4652914974088471E-01 a       579     0    39     1     9
  5.3592652254647133E-01 a       580     0    39     1    10
  3.5840660381659073E-01 a       581     0    39     1    11
 -2.9636444265509976E-01 a       582     0    39     1    12
  5.6193104486782064E-01 a       583     0    39     1    13
  4.1687607505602764E-01 a       584     0    39     1    14
 -6.4893278080177175E-01 a       585     0    39     1    15
 -1.1100340727335534E+00 a       586     0    40     1     1
  5.5578736995790523E-01 a       587     0    40     1     2
 -3.1608066956367703E-01 a       588     0    40     1     3
  1.3756852290321786E+00 a       589     0    40     1     4
 -6.8171693012903867E-01 a       590     0    40     1     5
  3.2896092116787534E-01 a       591     0    40     1     6
 -2.5853023838922460E+00 a       592     0    40     1     7
  1.8722842016098955E+00 a       593     0    40     1     8
 -2.7930871714852051E-01 a       594     0    40     1     9
  9.6687002093920671E-01 a       595     0    40     1    10
  2.7031348504475355E-01 a       596     0    40     1    11
 -1.0286888908897294E+00 a       597     0    40     1    12
  3.0722597121822477E+00 a       598     0    40     1    13
 -3.6330564047353076E-01 a       599     0    40     1    14
 -5.6945421891636094E-01 a       600     0    40     1    15
 -4.7200747918832570E-01 a       601     0    41     1     1
  3.4622971368373706E-01 a       602     0    41     1     2
  1.1260468322128117E-01 a       603     0    41     1     3
  3.6611944157446963E-01 a       604     0    41     1     4
 -5.1241128623280485E-01 a       605     0    41     1     5
 -6.0041923271033588E-02 a       606     0    41     1     6
  5.4761708282484500E-01 a       607     0    41     1     7
 -5.8312950184961188E-01 a       608     0    41     1     8
 -2.3912394962459063E-01 a       609     0    41     1     9
 -1.4498397188732889E-01 a       610     0    41     1    10
  3.8775056674122572E-02 a       611     0    41     1    11
 -4.1520028801208581E-01 a       612     0    41     1    12
  3.3206462971019307E-01 a       613     0    41     1    13
  1.6272416827631228E-01 a       614     0    41     1    14
 -3.5423603499319828E-01 a       615     0    41     1    15
  5.0742895170043489E-01 a       616     0    42     1     1
 -7.0147805923633111E-01 a       617     0    42     1     2
  7.4719690645666903E-01 a       618     0    42     1     3
  7.3251344144088471E-01 a       619     0    42     1     4
 -7.4949756096980721E-02 a       620     0    42     1     5
 -8.2153280597895395E-01 a       621     0    42     1     6
 -8.5796861953224279E-01 a       622     0    42     1     7
  4.0064450729296036E-01 a       623     0    42     1     8
  1.3190009796114310E-01 a       624     0    42     1     9
  8.8016120811310306E-01 a       625     0    42     1    10
  9.3924423327741161E-02 a       626     0    42     1    11
 -6.9870699979772166E-01 a       627     0    42     1    12
  1.5473768391740450E-01 a       628     0    42     1    13
  8.2572307194019956E-01 a       629     0    42     1    14
  3.0809128643451511E-01 a       630     0    42     1    15
 -1.1056410514973695E-01 a       631     0    43     1     1
 -8.3213216026051806E-01 a       632     0    43     1     2
 -1.7774634499666366E+00 a       633     0    43     1     3
 -1.0253340925959333E+00 a       634     0    43     1     4
  2.1116100445197847E-01 a       635     0    43     1     5
 -2.7469113748299105E+00 a       636     0    43     1     6
  1.6126810154742837E+00 a       637     0    43     1     7
  2.3320391568916188E+00 a       638     0    43     1     8
  3.0749436259113122E-01 a       639     0    43     1     9
  6.6422848115182975E-01 a       640     0    43     1    10
  1.0260555805063039E+00 a       641     0    43     1    11
  8.7568088456853405E-02 a       642     0    43     1    12
 -4.4603800526219362E-01 a       643     0    43     1    13
  1.0977835416124837E+00 a       644     0    43     1    14
  5.2457390640896273E-01 a       645     0    43     1    15
  3.1356856521459620E-01 a       646     0    44     1     1
  5.8347425182691059E-01 a       647     0    44     1     2
 -5.5954614722122487E-01 a       648     0    44     1     3
  3.5820213510595289E-01 a       649     0    44     1     4
  3.3461357374354717E-01 a       650     0    44     1     5
  2.9499130445083044E-01 a       651     0    44     1     6
  6.8662392098663719E-02 a       652     0    44     1     7
  5.7197025570881654E-01 a       653     0    44     1     8
 -7.7527903441943560E-02 a       654     0    44     1     9
  2.2373216960376460E-01 a       655     0    44     1    10
 -9.6516903079347696E-02 a       656     0    44     1    11
 -2.7008736461829203E-01 a       657     0    44     1    12
  4.7664474334395232E-02 a       658     0    44     1    13
  1.0334157015857791E-01 a       659     0    44     1    14
  3.7683115189663746E-01 a       660     0    44     1    15
 -2.3269913241005785E-01 a       661     0    45     1     1
  5.7262143039892821E-01 a       662     0    45     1     2
 -8.8681508533073883E-01 a       663     0    45     1     3
  1.0105733290443226E+00 a       664     0    45     1     4
  9.0535381591906647E-02 a       665     0    45     1     5
  3.3677295722370441E-03 a       666     0    45     1     6
 -2.9969521207716843E-01 a       667     0    45     1     7
 -6.0302037496390119E-02 a       668     0    45     1     8
  1.4138287684702258E-01 a       669     0    45     1     9
  6.1938922196863422E-02 a       670     0    45     1    10
 -1.5896494001331218E-01 a       671     0    45     1    11
  6.7772437190105161E-01 a       672     0    45     1    12
 -2.4183027565259296E-01 a       673     0    45     1    13
 -4.6768756347736573E-01 a       674     0    45     1    14
 -5.3098249181719026E-01 a       675     0    45     1    15
 -2.3934647269019541E-01 a       676     0    46     1     1
 -2.1843935323823223E+00 a       677     0    46     1     2
  2.6388282007660742E+00 a       678     0    46     1     3
  1.0121998266334000E+00 a       679     0    46     1     4
 -8.4579058943826904E-02 a       680     0    46     1     5
  2.4862077519414503E+00 a       681     0    46     1     6
 -1.4320407563009436E+00 a       682     0    46     1     7
  6.6659577358467659E-01 a       683     0    46     1     8
  2.5180740227282278E-01 a       684     0    46     1     9
 -1.5812599543734842E+00 a       685     0    46     1    10
 -5.6845855761938860E-02 a       686     0    46     1    11
  4.5672809930248158E-02 a       687     0    46     1    12
 -1.3590367681282254E+00 a       688     0    46     1    13
 -1.1824309707573832E+00 a       689     0    46     1    14
 -9.9561521263066732E-01 a       690     0    46     1    15
  1.2778478095663751E-01 a       691     0    47     1     1
 -1.9715475573410288E-01 a       692     0    47     1     2
 -1.2957813504030349E-01 a       693     0    47     1     3
  6.1865017325203935E-02 a       694     0    47     1     4
  3.1746638506981770E-02 a       695     0    47     1     5
 -1.5130952240597562E-01 a       696     0    47     1     6
 -2.2924818236806249E-01 a       697     0    47     1     7
 -3.5609393028240333E-01 a       698     0    47     1     8
  9.0738054105452021E-02 a       699     0    47     1     9
  1.5081231777028498E-01 a       700     0    47     1    10
 -2.9697056606989857E-02 a       701     0    47     1    11
  1.4077466233918393E-01 a       702     0    47     1    12
  1.0848989796301425E-01 a       703     0    47     1    13
  5.9638900638318226E-01 a       704     0    47     1    14
  1.8377201452155656E-01 a       705     0    47     1    15
 -3.3862825780185218E-01 a       706     0    48     1     1
  7.7567689191631883E-01 a       707     0    48     1     2
 -8.4988133720959336E-01 a       708     0    48     1     3
  2.3979194733105119E-01 a       709     0    48     1     4
  8.4828776374156339E-02 a       710     0    48     1     5
  1.8131529606707961E-01 a       711     0    48     1     6
  5.8398558368856279E-01 a       712     0    48     1     7
 -4.4046485182896411E-01 a       713     0    48     1     8
 -1.6978376457873615E-01 a       714     0    48     1     9
  1.6277071525226255E-02 a       715     0    48     1    10
 -8.5145293090848020E-02 a       716     0    48     1    11
 -3.6007610476596402E-01 a       717     0    48     1    12
  9.2132803427286569E-01 a       718     0    48     1    13
 -2.5504396058415146E-01 a       719     0    48     1    14
 -2.1372328450593023E-01 a       720     0    48     1    15
  1.8867391849787160E-01 a       721     0    49     1     1
  6.4803955549617265E-01 a       722     0    49     1     2
  9.8561562518896417E-02 a       723     0    49     1     3
  1.1132503935785936E+00 a       724     0    49     1     4
  1.2845914682509654E+00 a       725     0    49     1     5
  1.7120846014121023E+00 a       726     0    49     1     6
 -1.5693812500543245E+00 a       727     0    49     1     7
  6.5139270539151151E-01 a       728     0    49     1     8
 -9.7377788086632555E-02 a       729     0    49     1     9
  5.8106189323923774E-01 a       730     0    49     1    10
 -3.6478437281445514E-01 a       731     0    49     1    11
 -1.0918438399393644E+00 a       732     0    49     1    12
  4.2482690386499167E-01 a       733     0    49     1    13
  9.7972366072119912E-02 a       734     0    49     1    14
 -3.2163236423236052E-01 a       735     0    49     1    15
 -7.6850911811634448E-02 a       736     0    50     1     1
 -4.2981251469777487E-01 a       737     0    50     1     2
 -8.5943126273399062E-02 a       738     0    50     1     3
  8.7635521361164870E-02 a       739     0    50     1     4
  6.7607604325781467E-01 a       740     0    50     1     5
  8.5147458725082281E-02 a       741     0    50     1     6
 -1.5541493930221134E-01 a       742     0    50     1     7
 -2.0371412535229488E-01 a       743     0    50     1     8
  8.3340399981296165E-02 a       744     0    50     1     9
 -1.6434768152870846E-01 a       745     0    50     1    10
  5.6983647673355127E-02 a       746     0    50     1    11
  8.2643211903376618E-02 a       747     0    50     1    12
 -2.3157965725544810E-01 a       748     0    50     1    13
  1.7743214648422054E-01 a       749     0    50     1    14
 -1.2858641292973472E-01 a       750     0    50     1    15
  9.0246017098670139E-02 a       751     0    51     1     1
 -1.0126644659105064E+00 a       752     0    51     1     2
  5.5500984722098401E-01 a       753     0    51     1     3
 -7.0293861936193469E-01 a       754     0    51     1     4
  2.6280019668115823E-01 a       755     0    51     1     5
  8.3074101318205668E-02 a       756     0    51     1     6
  1.0637763136800396E+00 a       757     0    51     1     7
 -1.9731337899349100E-01 a       758     0    51     1     8
 -2.4987064860665842E-01 a       759     0    51     1     9
 -3.5556452186019971E-01 a       760     0    51     1    10
  5.6191129957741483E-02 a       761     0    51     1    11
  2.7972362193776473E-01 a       762     0    51     1    12
  1.7869494485722562E-01 a       763     0    51     1    13
  7.2119345882940222E-02 a       764     0    51     1    14
  3.5527660860191174E-01 a       765     0    51     1    15
  7.2280162090565403E-01 a       766     0    52     1     1
 -1.3202353360061174E+00 a       767     0    52     1     2
 -1.0217181652482406E+00 a       768     0    52     1     3
  3.6571006300680126E-01 a       769     0    52     1     4
 -2.7884677086658023E+00 a       770     0    52     1     5
  4.8910111439785531E-01 a       771     0    52     1     6
  1.5250952133145819E+00 a       772     0    52     1     7
 -3.0124000435929594E+00 a       773     0    52     1     8
  2.1202053458289158E-01 a       774     0    52     1     9
 -1.0158064412103238E-01 a       775     0    52     1    10
 -2.4953895875876483E-01 a       776     0    52     1    11
  3.6167378844941167E-01 a       777     0    52     1    12
 -8.0643721762360654E-01 a       778     0    52     1    13
 -6.2832201957858169E-01 a       779     0    52     1    14
  6.1979850229305355E-01 a       780     0    52     1    15
  6.6930474682190128E-02 a       781     0    53     1     1
  5.3449896931627272E-02 a       782     0    53     1     2
 -1.8973367554556250E-01 a       783     0    53     1     3
  5.4374420210338037E-01 a       784     0    53     1     4
  3.2805753394603898E-01 a       785     0    53     1     5
 -1.3871682191918564E-02 a       786     0    53     1     6
 -2.7343366238677713E-01 a       787     0    53     1     7
  4.6348860245289980E-01 a       788     0    53     1     8
 -6.9603993597449176E-02 a       789     0    53     1     9
  2.9640360070652977E-01 a       790     0    53     1    10
 -2.6034752189884502E-02 a       791     0    53     1    11
  1.0361420422195394E-01 a       792     0    53     1    12
  3.3560619112065336E-02 a       793     0    53     1    13
 -3.8520101757521924E-01 a       794     0    53     1    14
  1.0968854777789824E-01 a       795     0    53     1    15
 -7.7378724259355353E-02 a       796     0    54     1     1
  2.8989233124661434E-01 a       797     0    54     1     2
 -3.8908522821738661E-01 a       798     0    54     1     3
 -7.2337601828713197E-02 a       799     0    54     1     4
  1.1283233019797714E-01 a       800     0    54     1     5
  2.0569281529305428E-01 a       801     0    54     1     6
  5.7292554180207747E-02 a       802     0    54     1     7
 -1.2707949403908950E-01 a       803     0    54     1     8
  6.2571959852646380E-04 a       804     0    54     1     9
  1.6411164024290639E-01 a       805     0    54     1    10
 -5.9121383205667739E-02 a       806     0    54     1    11
 -4.1064892080230847E-01 a       807     0    54     1    12
 -6.5155993286559868E-02 a       808     0    54     1    13
 -6.9069822876699682E-01 a       809     0    54     1    14
 -9.1078155373399486E-02 a       810     0    54     1    15
 -1.0691629771469757E-01 a       811     0    55     1     1
  2.7620686930574232E+00 a       812     0    55     1     2
  1.4052673800512980E+00 a       813     0    55     1     3
 -5.7244534898972677E-01 a       814     0    55     1     4
  8.8607688559035380E-01 a       815     0    55     1     5
 -4.4675461798367055E-01 a       816     0    55     1     6
  7.2242374249515728E-01 a       817     0    55     1     7
  1.9069479264606075E+00 a       818     0    55     1     8
 -1.1788568746645339E-01 a       819     0    55     1     9
 -2.7961452700327805E-01 a       820     0    55     1    10
 -9.2729754593312369E-02 a       821     0    55     1    11
  6.6989698664000941E-01 a       822     0    55     1    12
  9.0769485206299205E-01 a       823     0    55     1    13
 -4.6749264765361592E-01 a       824     0    55     1    14
 -1.3940026748473017E-01 a       825     0    55     1    15
  4.1385989728262358E-02 a       826     0    56     1     1
 -3.5605865172952439E-01 a       827     0    56     1     2
  2.9906088470323400E-01 a       828     0    56     1     3
 -9.5048824508985363E-01 a       829     0    56     1     4
 -1.2024445029312528E-01 a       830     0    56     1     5
 -1.0246685604243108E-01 a       831     0    56     1     6
  2.7394905682969195E-01 a       832     0    56     1     7
 -3.4560531690109042E-01 a       833     0    56     1     8
  2.1714124191451897E-01 a       834     0    56     1     9
 -2.1184721898284470E-01 a       835     0    56     1    10
  2.2513384785918713E-02 a       836     0    56     1    11
  1.6163379335337363E-01 a       837     0    56     1    12
 -1.8037703507641079E-01 a       838     0    56     1    13
 -7.4934369571412626E-02 a       839     0    56     1    14
 -1.6862788767904335E-01 a       840     0    56     1    15
  1.1008339378400621E-01 a       841     0    57     1     1
 -3.4731268246780428E-01 a       842     0    57     1     2
  4.6453728990822390E-01 a       843     0    57     1     3
 -3.5924363614414356E-01 a       844     0    57     1     4
  1.2615158523973860E-01 a       845     0    57     1     5
  3.5998581927819413E-02 a       846     0    57     1     6
  3.5595555476694901E-01 a       847     0    57     1     7
 -1.5666369741022743E-01 a       848     0    57     1     8
  1.1751422121959712E-02 a       849     0    57     1     9
 -2.7532884632030658E-01 a       850     0    57     1    10
  1.7291900263978179E-02 a       851     0    57     1    11
  5.3788632739662734E-01 a       852     0    57     1    12
  2.1461362002430676E-01 a       853     0    57     1    13
  5.5535431161240567E-01 a       854     0    57     1    14
  1.3928033388033900E-01 a       855     0    57     1    15
  2.4129479492452852E-01 a       856     0    58     1     1
 -2.6422702441935297E+00 a       857     0    58     1     2
 -9.8685730327812349E-01 a       858     0    58     1     3
  4.6924867091620387E-01 a       859     0    58     1     4
 -8.9683570167734339E-01 a       860     0    58     1     5
  1.2940527841189262E+00 a       861     0    58     1     6
 -1.1990805233295432E+00 a       862     0    58     1     7
 -1.4401673325054396E+00 a       863     0    58     1     8
 -1.7208406401344748E-02 a       864     0    58     1     9
 -1.3421859957549379E-01 a       865     0    58     1    10
 -1.5474675636601501E-01 a       866     0    58     1    11
 -1.0892249079344516E+00 a       867     0    58     1    12
  1.1789019211176937E+00 a       868     0    58     1    13
  2.8485368097661545E-01 a       869     0    58     1    14
  9.9746841283453250E-02 a       870     0    58     1    15
 -1.4564336192259414E-02 a       871     0    59     1     1
  2.5356522215265236E-02 a       872     0    59     1     2
  1.3478830977685699E-01 a       873     0    59     1     3
 -2.3430429603039896E-01 a       874     0    59     1     4
 -2.0279872750230649E-01 a       875     0    59     1     5
  1.2560811263647931E-01 a       876     0    59     1     6
  2.3555738243685093E-01 a       877     0    59     1     7
  1.2438202215189972E-01 a       878     0    59     1     8
  2.1442397906387241E-02 a       879     0    59     1     9
 -1.5604479658693746E-01 a       880     0    59     1    10
  1.4961972803554151E-02 a       881     0    59     1    11
 -6.5175350480143766E-04 a       882     0    59     1    12
 -2.0078169143455149E-01 a       883     0    59     1    13
 -3.0419725507638457E-01 a       884     0    59     1    14
 -6.6594605649734379E-02 a       885     0    59     1    15
 -4.1499318030553010E-03 a       886     0    60     1     1
 -3.8683162414445449E-01 a       887     0    60     1     2
  3.6520315866302172E-01 a       888     0    60     1     3
  1.7163968520125220E-01 a       889     0    60     1     4
  2.0003564394652742E-01 a       890     0    60     1     5
 -2.9489987015763792E-02 a       891     0    60     1     6
 -3.4798891453880604E-01 a       892     0    60     1     7
  2.7129801486093202E-01 a       893     0    60     1     8
  2.0471368693338468E-03 a       894     0    60     1     9
 -1.8121095333938472E-01 a       895     0    60     1    10
  4.7084605221623721E-02 a       896     0    60     1    11
  4.1591214844420765E-01 a       897     0    60     1    12
 -3.3015526204661172E-01 a       898     0    60     1    13
  2.3741938900211584E-01 a       899     0    60     1    14
  1.3008256922028658E-02 a       900     0    60     1    15
  3.9534121877561390E-02 a       901     0    61     1     1
 -8.5278154156696173E-01 a       902     0    61     1     2
 -7.0293011462959276E-01 a       903     0    61     1     3
 -1.7350862313051312E-02 a       904     0    61     1     4
 -4.0696588951259149E-01 a       905     0    61     1     5
 -2.8247476409619282E-01 a       906     0    61     1     6
  1.6694115573605126E-01 a       907     0    61     1     7
 -8.2945577876393051E-01 a       908     0    61     1     8
  4.1806623653091339E-02 a       909     0    61     1     9
 -1.1967807060537441E-01 a       910     0    61     1    10
  6.8997412358995300E-02 a       911     0    61     1    11
  1.2123626696497325E-01 a       912     0    61     1    12
 -2.1552868425376298E-01 a       913     0    61     1    13
  5.1641060611600759E-02 a       914     0    61     1    14
  8.3773113636429336E-02 a       915     0    61     1    15
 -3.4529891409183786E-03 a       916     0    62     1     1
  1.6083961613674527E-01 a       917     0    62     1     2
  4.1073427606469058E-02 a       918     0    62     1     3
  2.1643291942301079E-01 a       919     0    62     1     4
 -2.3547929103647899E-01 a       920     0    62     1     5
 -7.8586882671436750E-02 a       921     0    62     1     6
 -1.4058213699653552E-01 a       922     0    62     1     7
  4.9432646739611757E-01 a       923     0    62     1     8
 -7.2393333925965905E-02 a       924     0    62     1     9
  2.5287904926129035E-02 a       925     0    62     1    10
 -1.3425509668317135E-02 a       926     0    62     1    11
 -6.8916973507483050E-03 a       927     0    62     1    12
  1.3958845729558139E-01 a       928     0    62     1    13
  5.1560624611081123E-02 a       929     0    62     1    14
  7.3467458339517636E-02 a       930     0    62     1    15
 -3.8352001557274022E-02 a       931     0    63     1     1
  1.3369085453890753E-01 a       932     0    63     1     2
 -1.8646808137328927E-01 a       933     0    63     1     3
  2.8289491420180574E-01 a       934     0    63     1     4
 -2.7672283486096050E-01 a       935     0    63     1     5
 -7.1536287957427822E-02 a       936     0    63     1     6
 -3.8426954886867876E-01 a       937     0    63     1     7
  4.2759874849747304E-02 a       938     0    63     1     8
  6.1753845170193743E-02 a       939     0    63     1     9
  2.3237039296848663E-01 a       940     0    63     1    10
  2.8395263752326169E-03 a       941     0    63     1    11
 -3.7745681963112165E-01 a       942     0    63     1    12
 -1.3792862231124361E-01 a       943     0    63     1    13
 -2.5851874642202322E-01 a       944     0    63     1    14
 -8.9823811656807667E-02 a       945     0    63     1    15
 -2.2598101371416535E-01 a       946     0    64     1     1
  2.5859113416704917E+00 a       947     0    64     1     2
 -1.4518685541097837E-01 a       948     0    64     1     3
 -8.6079963525611558E-01 a       949     0    64     1     4
  5.6424102999268400E-01 a       950     0    64     1     5
 -1.4969694327707006E+00 a       951     0    64     1     6
  6.0469177575755650E-01 a       952     0    64     1     7
  1.0709330420050533E+00 a       953     0    64     1     8
 -9.2029234691914874E-02 a       954     0    64     1     9
  4.1989148130268206E-01 a       955     0    64     1    10
  1.4706649293195356E-01 a       956     0    64     1    11
  6.8567117187364768E-01 a       957     0    64     1    12
  3.0760636440106609E-01 a       958     0    64     1    13
  4.2762327025166452E-01 a       959     0    64     1    14
 -7.2837625222436156E-02 a       960     0    64     1    15
 -3.4241988014624847E-01 b       961     1     1
  4.2281012451481376E-01 b       962     1     2
 -3.4700029570217866E-01 b       963     1     3
  8.8345007587120009E-02 b       964     1     4
 -7.3607624192053522E-01 b       965     1     5
 -9.3160551611008363E-02 b       966     1     6
 -4.4642176076651269E-01 b       967     1     7
  2.7321981793247152E-01 b       968     1     8
  3.2811657829409951E-01 b       969     1     9
 -5.8188029245280948E-01 b       970     1    10
 -4.4013454473997168E-02 b       971     1    11
  3.0383084483858774E-01 b       972     1    12
  4.9921221520252940E-01 b       973     1    13
  5.7765977990640549E-01 b       974     1    14
  6.6534616837490823E-01 b       975     1    15
  1.0432610954688013E+00 a       976     1     1     2     1
  2.9701615802320586E-01 a       977     1     1     2     2
 -1.5547516097290091E+00 a       978     1     1     2     3
 -1.3528202973434308E-01 a       979     1     1     2     4
 -8.0619836815291959E-02 a       980     1     1     2     5
 -4.2721248299476799E-01 a       981     1     1     2     6
  1.4699088386122985E-01 a       982     1     1     2     7
  6.5137906562002101E-01 a       983     1     1     2     8
 -4.5287748117884619E-01 a       984     1     1     2     9
 -1.4561634253845190E+00 a       985     1     1     2    10
 -1.3644322602277814E+00 a       986     1     1     2    11
  1.8986818905220607E-01 a       987     1     1     2    12
 -6.4179176426378923E-02 a       988     1     1     2    13
  4.9251167590934619E-01 a       989     1     1     2    14
 -1.0322279027903658E-01 a       990     1     1     2    15
 -3.5521193505957765E-01 a       991     1     2     2     1
 -2.8026640298843042E-01 a       992     1     2     2     2
  6.7384765164763050E-01 a       993     1     2     2     3
  6.6572075211759030E-01 a       994     1     2     2     4
  3.9139098093588043E-01 a       995     1     2     2     5
 -6.1706317051536275E-01 a       996     1     2     2     6
  6.0749769463860015E-01 a       997     1     2     2     7
 -2.4987902501314177E-01 a       998     1     2     2     8
  6.3241049847433783E-01 a       999     1     2     2     9
  2.8413280857510154E-01 a      1000     1     2     2    10
  1.3608888460105514E-01 a      1001     1     2     2    11
  1.2908693661429649E-01 a      1002     1     2     2    12
 -1.8694511476949505E-01 a      1003     1     2     2    13
 -7.0311682531297659E-01 a      1004     1     2     2    14
 -5.7415707874030009E-01 a      1005     1     2     2    15
  7.3237561564721376E-01 a      1006     1     3     2     1
 -9.6089834117180450E-01 a      1007     1     3     2     2
 -2.3471283869403453E-01 a      1008     1     3     2     3
  1.2478668272316342E+00 a      1009     1     3     2     4
  9.2852617917350577E-01 a      1010     1     3     2     5
  7.9166093307283159E-01 a      1011     1     3     2     6
  6.4179763032519643E-01 a      1012     1     3     2     7
 -6.6445726462508570E-01 a      1013     1     3     2     8
  1.8704411386883123E-02 a      1014     1     3     2     9
 -1.9932464596876751E+00 a      1015     1     3     2    10
  1.1442910327462557E+00 a      1016     1     3     2    11
  5.1868719617216008E-01 a      1017     1     3     2    12
  6.5074517153709355E-01 a      1018     1     3     2    13
  6.5910267508321663E-01 a      1019     1     3     2    14
  9.9212829312786022E-01 a      1020     1     3     2    15
  6.2112021951854257E-01 a      1021     1     4     2     1
 -1.8566254683927783E-01 a      1022     1     4     2     2
  1.3588035409577568E+00 a      1023     1     4     2     3
 -3.3869197411034135E-01 a      1024     1     4     2     4
 -2.6192377881143697E-01 a      1025     1     4     2     5
  2.3684575340650688E-01 a      1026     1     4     2     6
  8.9721726175806343E-02 a      1027     1     4     2     7
 -1.9713780979581280E-01 a      1028     1     4     2     8
  8.6303193783327181E-01 a      1029     1     4     2     9
  2.4556512472114037E-01 a      1030     1     4     2    10
 -1.1900729616055256E-01 a      1031     1     4     2    11
 -3.7218986569839968E-01 a      1032     1     4     2    12
  1.0446159942873967E+00 a      1033     1     4     2    13
  1.5366357362416397E-01 a      1034     1     4     2    14
  8.4922444635119798E-01 a      1035     1     4     2    15
 -2.1238220582710434E-02 a      1036     1     5     2     1
 -3.6786042220817700E-01 a      1037     1     5     2     2
  2.7986176376273424E-02 a      1038     1     5     2     3
 -1.7354705270488491E-01 a      1039     1     5     2     4
 -1.2529486164425890E-01 a      1040     1     5     2     5
 -1.1080485070032323E-01 a      1041     1     5     2     6
  1.0932593129059507E+00 a      1042     1     5     2     7
 -1.4742523354043338E-01 a      1043     1     5     2     8
  7.4283200365862978E-01 a      1044     1     5     2     9
 -2.0123612733436023E+00 a      1045     1     5     2    10
  8.7144199581340931E-01 a      1046     1     5     2    11
  7.7425697465685217E-01 a      1047     1     5     2    12
  2.6276884093925257E-01 a      1048     1     5     2    13
  5.2996005441651131E-02 a      1049     1     5     2    14
  6.1338072167887658E-01 a      1050     1     5     2    15
  7.7805105595375879E-01 a      1051     1     6     2     1
  8.4953990063719698E-01 a      1052     1     6     2     2
 -1.9048241474660771E-01 a      1053     1     6     2     3
 -1.6632793578138476E+00 a      1054     1     6     2     4
 -6.1030429455455737E-01 a      1055     1     6     2     5
  1.0799572478145854E+00 a      1056     1     6     2     6
 -8.3213505882218441E-01 a      1057     1     6     2     7
  1.6324520515296859E+00 a      1058     1     6     2     8
 -3.4208138001822500E-02 a      1059     1     6     2     9
  9.0644885632722028E-01 a      1060     1     6     2    10
 -7.6192973656595941E-02 a      1061     1     6     2    11
 -2.7735799293170665E-01 a      1062     1     6     2    12
  1.0504292572137663E-01 a      1063     1     6     2    13
  1.5891154173168349E+00 a      1064     1     6     2    14
  8.8815176304005095E-01 a      1065     1     6     2    15
 -1.1967179225367641E+00 a      1066     1     7     2     1
  5.1630113800099287E-01 a      1067     1     7     2     2
 -7.9501133632059817E-01 a      1068     1     7     2     3
 -6.4112319913784710E-01 a      1069     1     7     2     4
 -6.7576756919056402E-01 a      1070     1     7     2     5
  9.2754755655857682E-02 a      1071     1     7     2     6
  3.8076743627714177E-01 a      1072     1     7     2     7
  1.3139313930524061E+00 a      1073     1     7     2     8
  1.0116965701031428E+00 a      1074     1     7     2     9
  1.2756257821210237E+00 a      1075     1     7     2    10
 -1.6271328780487471E-01 a      1076     1     7     2    11
 -6.6597792886747542E-01 a      1077     1     7     2    12
 -1.4243693804318100E-01 a      1078     1     7     2    13
  8.0691927484339976E-01 a      1079     1     7     2    14
  4.8315247351525703E-01 a      1080     1     7     2    15
  1.9128288367662566E-01 a      1081     1     8     2     1
  1.0862437175815469E-01 a      1082     1     8     2     2
  6.2125369894096150E-01 a      1083     1     8     2     3
 -1.3336150547226939E-02 a      1084     1     8     2     4
  1.9390974522607485E-01 a      1085     1     8     2     5
  6.0183365673354638E-01 a      1086     1     8     2     6
  4.5559788370147847E-01 a      1087     1     8     2     7
  8.8115326125008719E-01 a      1088     1     8     2     8
  1.0062996286586046E+00 a      1089     1     8     2     9
 -1.4276368370872705E+00 a      1090     1     8     2    10
  3.3923865232586919E-01 a      1091     1     8     2    11
 -3.6413605190998587E-02 a      1092     1     8     2    12
  7.8011574346718182E-01 a      1093     1     8     2    13
  7.1829144732164329E-01 a      1094     1     8     2    14
  9.0294812357620657E-01 a      1095     1     8     2    15
 -3.1110060875709467E-01 a      1096     1     9     2     1
 -1.0560983924385849E+00 a      1097     1     9     2     2
 -1.6462007416668838E+00 a      1098     1     9     2     3
 -3.4058247927456586E-01 a      1099     1     9     2     4
 -1.1068721356814626E+00 a      1100     1     9     2     5
  1.0707416735736952E+00 a      1101     1     9     2     6
 -7.4410040540943734E-01 a      1102     1     9     2     7
 -1.5696728517547198E+00 a      1103     1     9     2     8
 -6.2945431022769538E-01 a      1104     1     9     2     9
  6.0548587730077486E-01 a      1105     1     9     2    10
  2.1870620782783030E+00 a      1106     1     9     2    11
 -9.0770566882775083E-01 a      1107     1     9     2    12
 -9.2275622047795425E-01 a      1108     1     9     2    13
  4.7373870441584431E-01 a      1109     1     9     2    14
  7.5792123544260115E-01 a      1110     1     9     2    15
  1.1019644571839780E+00 a      1111     1    10     2     1
 -1.5729960947011929E+00 a      1112     1    10     2     2
  1.2009134733162297E-01 a      1113     1    10     2     3
  9.5679376803741412E-01 a      1114     1    10     2     4
  1.0101259464591472E+00 a      1115     1    10     2     5
  1.7851473483209050E+00 a      1116     1    10     2     6
 -1.5574108458811757E-02 a      1117     1    10     2     7
 -1.1365540983393032E+00 a      1118     1    10     2     8
 -3.1582851606481127E-01 a      1119     1    10     2     9
 -1.7675073545631705E+00 a      1120     1    10     2    10
  2.0689918259647717E+00 a      1121     1    10     2    11
  5.7190090474321054E-01 a      1122     1    10     2    12
  5.6775642446543584E-01 a      1123     1    10     2    13
  1.1792022750323694E+00 a      1124     1    10     2    14
  4.1162255106997092E-01 a      1125     1    10     2    15
 -1.8365636399224741E-01 a      1126     1    11     2     1
  1.4301694875477083E-01 a      1127     1    11     2     2
  8.0762185985056345E-01 a      1128     1    11     2     3
 -6.5514177703273146E-01 a      1129     1    11     2     4
 -9.8853008874313386E-01 a      1130     1    11     2     5
 -2.0053236073209062E+00 a      1131     1    11     2     6
  3.4544276248129280E-01 a      1132     1    11     2     7
  7.4690058837990847E-01 a      1133     1    11     2     8
  1.7827325667067337E+00 a      1134     1    11     2     9
 -1.3190341903034017E-01 a      1135     1    11     2    10
 -1.2335614977619134E+00 a      1136     1    11     2    11
 -4.9051181358455423E-03 a      1137     1    11     2    12
 -1.3694821053498432E+00 a      1138     1    11     2    13
 -1.4320454114960064E+00 a      1139     1    11     2    14
  7.6659090913358807E-01 a      1140     1    11     2    15
 -3.3783887662305861E-01 a      1141     1    12     2     1
 -5.5278094534402826E-03 a      1142     1    12     2     2
 -6.9179675918844175E-01 a      1143     1    12     2     3
 -4.4984223265854273E-02 a      1144     1    12     2     4
 -1.2358334848531001E-01 a      1145     1    12     2     5
 -1.9834886061767962E-01 a      1146     1    12     2     6
 -8.5451700919081663E-01 a      1147     1    12     2     7
 -5.9284617984581123E-01 a      1148     1    12     2     8
 -5.2611436902805231E-01 a      1149     1    12     2     9
  6.5400665301521743E-01 a      1150     1    12     2    10
 -3.6323813862381199E-01 a      1151     1    12     2    11
 -3.7622320348970489E-01 a      1152     1    12     2    12
 -5.3279916108248415E-01 a      1153     1    12     2    13
 -6.1872011724866138E-01 a      1154     1    12     2    14
 -1.1699747170510568E+00 a      1155     1    12     2    15
  6.4357075839742761E-01 a      1156     1    13     2     1
  2.4858819738771704E-01 a      1157     1    13     2     2
 -9.9546207427331590E-01 a      1158     1    13     2     3
 -7.9801998514371586E-01 a      1159     1    13     2     4
 -5.5480972283464702E-01 a      1160     1    13     2     5
 -9.7343438154817816E-02 a      1161     1    13     2     6
 -1.3900585643876144E+00 a      1162     1    13     2     7
  4.6711900509988602E-01 a      1163     1    13     2     8
 -3.3112186843644992E-01 a      1164     1    13     2     9
 -8.2522957465012314E-01 a      1165     1    13     2    10
  3.4583640369489632E-01 a      1166     1    13     2    11
 -1.0832816139867774E+00 a      1167     1    13     2    12
 -2.2636372721051376E-01 a      1168     1    13     2    13
  2.8956790788819664E-01 a      1169     1    13     2    14
 -3.7380514321625807E-01 a      1170     1    13     2    15
 -1.7414565281983044E-01 a      1171     1    14     2     1
 -3.3301565329647537E-01 a      1172     1    14     2     2
  6.0646107373848401E-01 a      1173     1    14     2     3
 -1.4091588084380394E-01 a      1174     1    14     2     4
 -9.2598067931702235E-02 a      1175     1    14     2     5
 -1.4076562264982460E+00 a      1176     1    14     2     6
  4.9562759269097445E-01 a      1177     1    14     2     7
 -1.0208265143733402E+00 a      1178     1    14     2     8
  7.6145561335087109E-01 a      1179     1    14     2     9
  1.6127699434825942E+00 a      1180     1    14     2    10
 -1.3577078471447285E-01 a      1181     1    14     2    11
  7.9572744266027395E-01 a      1182     1    14     2    12
 -1.2384467264477395E+00 a      1183     1    14     2    13
 -9.7436681128980696E-01 a      1184     1    14     2    14
  7.4190985361996054E-01 a      1185     1    14     2    15
 -4.1661940301779576E-01 a      1186     1    15     2     1
 -1.3133169732054650E-01 a      1187     1    15     2     2
 -5.9077732514295656E-01 a      1188     1    15     2     3
 -1.3732011928094856E-01 a      1189     1    15     2     4
  6.5641708370228230E-02 a      1190     1    15     2     5
  5.4978673557943025E-01 a      1191     1    15     2     6
 -4.5322777255593288E-01 a      1192     1    15     2     7
 -8.7408668814728119E-01 a      1193     1    15     2     8
  5.2132538910705473E-01 a      1194     1    15     2     9
 -1.1250304813627603E+00 a      1195     1    15     2    10
  1.0581046406448057E-01 a      1196     1    15     2    11
  3.9304762152577488E-01 a      1197     1    15     2    12
 -2.9557100234166711E-01 a      1198     1    15     2    13
 -8.4025760043940756E-01 a      1199     1    15     2    14
  6.5151449992715327E-01 a      1200     1    15     2    15
 -4.5015591977291464E-01 b      1201     2     1
  2.2817484429214535E-01 b      1202     2     2
  1.1088269460178286E+00 b      1203     2     3
  6.9719650536731148E-01 b      1204     2     4
  1.0965607094523337E+00 b      1205     2     5
  9.2080679123652517E-02 b      1206     2     6
  5.8604805409466632E-01 b      1207     2     7
  6.7275755874886978E-01 b      1208     2     8
 -9.3379982070665002E-01 b      1209     2     9
  7.1657352296861765E-01 b      1210     2    10
  1.3582519999329218E-01 b      1211     2    11
  5.7224213137127444E-01 b      1212     2    12
  1.4095153936506104E+00 b      1213     2    13
  7.0256051778696094E-01 b      1214     2    14
 -1.0048742833754829E+00 b      1215     2    15
 -8.0901549728776015E-02 a      1216     2     1     3     1
 -8.4132336429911869E-01 a      1217     2     2     3     1
  6.6744484600952378E-02 a      1218     2     3     3     1
  5.2969276130165732E-01 a      1219     2     4     3     1
 -6.8633617459742446E-01 a      1220     2     5     3     1
 -3.3877477726712069E-01 a      1221     2     6     3     1
 -4.6298633380373372E-01 a      1222     2     7     3     1
  2.8698517116992589E-01 a      1223     2     8     3     1
  1.8211193261087980E-01 a      1224     2     9     3     1
 -8.5756049826204814E-02 a      1225     2    10     3     1
 -8.5840733168994554E-01 a      1226     2    11     3     1
  5.0848909566537848E-01 a      1227     2    12     3     1
  1.8869065695406628E-01 a      1228     2    13     3     1
  3.9911999480640781E-01 a      1229     2    14     3     1
 -1.6952914619445755E-01 a      1230     2    15     3     1
  4.7197138410867601E-01 b      1231     3     1
