################################################################################
# Neural network connection values (weights and biases).
################################################################################
# Col  Name       Description
################################################################################
# 1    connection Neural network connection value.
# 2    t          Connection type (a = weight, b = bias).
# 3    index      Index enumerating weights.
# 4    l_s        Starting point layer (end point layer for biases).
# 5    n_s        Starting point neuron in starting layer (end point neuron for biases).
# 6    l_e        End point layer.
# 7    n_e        End point neuron in end layer.
################################################################################
#                      1 2         3     4     5     6     7
#             connection t     index   l_s   n_s   l_e   n_e
############################################################
  5.4985285361620984E-01 a         1     0     1     1     1
 -4.8419322277470733E-01 a         2     0     1     1     2
 -8.3565064185980698E-01 a         3     0     1     1     3
  2.5523595044690167E-01 a         4     0     1     1     4
 -6.8433220970624342E-01 a         5     0     1     1     5
  9.0317792808797204E-01 a         6     0     1     1     6
 -2.7594120258407107E-01 a         7     0     1     1     7
  1.3610685929340764E+00 a         8     0     1     1     8
  3.7701362560698753E-01 a         9     0     1     1     9
 -6.2719985203176709E-01 a        10     0     1     1    10
 -4.6722780180684020E-01 a        11     0     1     1    11
 -5.6438510907875983E-01 a        12     0     1     1    12
 -6.6812481646627994E-02 a        13     0     1     1    13
 -6.5622256019541114E-01 a        14     0     1     1    14
  3.1230575059742266E-01 a        15     0     1     1    15
 -1.6669458135088735E+00 a        16     0     2     1     1
  2.2398768087574927E+00 a        17     0     2     1     2
 -6.0103054999372396E-01 a        18     0     2     1     3
  1.3522744477768522E+00 a        19     0     2     1     4
 -1.2232218846452820E+00 a        20     0     2     1     5
  2.5652415891600522E-01 a        21     0     2     1     6
 -2.6840123565880711E+00 a        22     0     2     1     7
  5.5484234773041852E-01 a        23     0     2     1     8
 -6.1448913320982168E+00 a        24     0     2     1     9
 -1.0547827168434130E+00 a        25     0     2     1    10
 -2.3666986261460096E-01 a        26     0     2     1    11
  1.6766003910678815E+00 a        27     0     2     1    12
 -5.3282173785079436E+00 a        28     0     2     1    13
 -7.4724916888442339E-01 a        29     0     2     1    14
  3.7406127609759349E-01 a        30     0     2     1    15
 -1.3483237169330786E+00 a        31     0     3     1     1
  1.3408075342755496E-01 a        32     0     3     1     2
  6.0779433736142507E-01 a        33     0     3     1     3
  3.6304021827040350E-01 a        34     0     3     1     4
  2.0108800286579159E-01 a        35     0     3     1     5
 -1.1624504589209092E-02 a        36     0     3     1     6
 -3.0995527515688720E-01 a        37     0     3     1     7
  1.1151655274373289E+00 a        38     0     3     1     8
 -4.7057142500851312E-01 a        39     0     3     1     9
  1.0899149649172084E+00 a        40     0     3     1    10
  3.0598842615268601E-01 a        41     0     3     1    11
  5.2393148427982719E-02 a        42     0     3     1    12
 -6.6912955712944672E-02 a        43     0     3     1    13
 -6.9228043041823817E-01 a        44     0     3     1    14
  2.5696817618290685E-01 a        45     0     3     1    15
  9.3295154290402627E-01 a        46     0     4     1     1
 -1.7320496368794607E+00 a        47     0     4     1     2
  2.0187733039972941E-01 a        48     0     4     1     3
 -1.2642669363651713E+00 a        49     0     4     1     4
  2.1005203264358361E+00 a        50     0     4     1     5
 -3.1503013258965956E-01 a        51     0     4     1     6
  1.3703748171706083E+00 a        52     0     4     1     7
 -1.5403942160574615E+00 a        53     0     4     1     8
  2.2527570781057356E+00 a        54     0     4     1     9
 -6.8346938696615511E-01 a        55     0     4     1    10
 -1.7939026872432634E-01 a        56     0     4     1    11
  1.3458413103911011E-02 a        57     0     4     1    12
  3.7678980650975937E+00 a        58     0     4     1    13
 -1.8193427711845689E+00 a        59     0     4     1    14
 -1.5031544462000629E-01 a        60     0     4     1    15
 -4.3999217353545500E-01 a        61     0     5     1     1
 -6.1119757380900852E-01 a        62     0     5     1     2
 -5.1677331653610303E-01 a        63     0     5     1     3
  3.2907268215373658E-01 a        64     0     5     1     4
  6.3846268515115379E-02 a        65     0     5     1     5
 -9.0394796151036894E-01 a        66     0     5     1     6
 -9.6899476279536850E-02 a        67     0     5     1     7
 -8.9097732689401221E-01 a        68     0     5     1     8
  2.2636775002810156E-01 a        69     0     5     1     9
 -3.1361662717652034E-01 a        70     0     5     1    10
  3.9936614353792343E-01 a        71     0     5     1    11
  3.6016156756022771E-01 a        72     0     5     1    12
  1.8731935935509908E-01 a        73     0     5     1    13
  4.0004557283784853E-01 a        74     0     5     1    14
 -7.2325338131681727E-01 a        75     0     5     1    15
  9.2500918728880799E-01 a        76     0     6     1     1
 -3.0615960492383034E+00 a        77     0     6     1     2
 -1.9581461310993603E-01 a        78     0     6     1     3
 -4.1883711954058422E-01 a        79     0     6     1     4
  8.4258222643439085E-01 a        80     0     6     1     5
 -8.7557203232593495E-01 a        81     0     6     1     6
  2.1543820568744807E+00 a        82     0     6     1     7
  3.3029094429292050E-01 a        83     0     6     1     8
  5.0251715462586857E+00 a        84     0     6     1     9
  2.5562367278504189E-01 a        85     0     6     1    10
  3.9052850051224758E-01 a        86     0     6     1    11
 -9.2487169885431497E-01 a        87     0     6     1    12
  6.4272998608168050E+00 a        88     0     6     1    13
 -1.7383452815955689E+00 a        89     0     6     1    14
 -2.1170171698498663E+00 a        90     0     6     1    15
 -8.4434693940268687E-03 a        91     0     7     1     1
  2.8615411391021105E-02 a        92     0     7     1     2
  1.5150641596103984E+00 a        93     0     7     1     3
  1.5719702020476520E-01 a        94     0     7     1     4
  1.0656069430063220E+00 a        95     0     7     1     5
 -9.9311768102868092E-01 a        96     0     7     1     6
  3.1470454105043749E-01 a        97     0     7     1     7
 -9.3662212987788918E-01 a        98     0     7     1     8
  3.9704271443972150E-01 a        99     0     7     1     9
  5.2620428852807444E-01 a       100     0     7     1    10
 -8.3413698544579762E-01 a       101     0     7     1    11
  3.0033848550944076E-01 a       102     0     7     1    12
 -1.0517724862758275E+00 a       103     0     7     1    13
 -1.2615851542437817E-01 a       104     0     7     1    14
 -3.0963489294298890E-01 a       105     0     7     1    15
 -2.0259316285786763E-01 a       106     0     8     1     1
  4.6636041153156658E+00 a       107     0     8     1     2
  9.1770374179418457E-01 a       108     0     8     1     3
  3.3666203525660245E+00 a       109     0     8     1     4
 -5.8346191849944535E+00 a       110     0     8     1     5
 -9.1708691014685984E-01 a       111     0     8     1     6
 -2.2825705487808565E+00 a       112     0     8     1     7
  4.9064815717687278E+00 a       113     0     8     1     8
 -3.6955456233103066E+00 a       114     0     8     1     9
  7.3498724092393677E-02 a       115     0     8     1    10
  6.1451220954260732E-01 a       116     0     8     1    11
 -8.3488865188108152E-01 a       117     0     8     1    12
 -2.6758120382150112E+00 a       118     0     8     1    13
  3.9121103498651850E+00 a       119     0     8     1    14
  7.6197528773283107E-01 a       120     0     8     1    15
  1.8750878728223772E+00 a       121     0     9     1     1
 -2.7556630011776517E-01 a       122     0     9     1     2
 -4.8174491473447467E-01 a       123     0     9     1     3
 -2.6485520605528112E-01 a       124     0     9     1     4
  4.2699769344883412E-02 a       125     0     9     1     5
 -2.3315124899473430E-01 a       126     0     9     1     6
  4.0874508140111254E-01 a       127     0     9     1     7
  3.2613846356528281E-01 a       128     0     9     1     8
  2.7452519544698556E-01 a       129     0     9     1     9
 -3.5270922605655736E-01 a       130     0     9     1    10
  5.7382461488782310E-01 a       131     0     9     1    11
 -7.5433794547008409E-02 a       132     0     9     1    12
 -1.2447201920056303E+00 a       133     0     9     1    13
  7.2587183778159936E-01 a       134     0     9     1    14
  5.6645017250894367E-02 a       135     0     9     1    15
 -2.0252292400376981E+00 a       136     0    10     1     1
 -2.8525589756046208E+00 a       137     0    10     1     2
  6.8673324282088244E-01 a       138     0    10     1     3
 -2.2993661679880466E+00 a       139     0    10     1     4
  6.2778761285852349E+00 a       140     0    10     1     5
 -8.2061765095729278E-01 a       141     0    10     1     6
  1.9865113115959350E+00 a       142     0    10     1     7
 -3.7374904683646775E+00 a       143     0    10     1     8
 -2.1252442719361303E-01 a       144     0    10     1     9
  2.9600408895647712E-01 a       145     0    10     1    10
  1.3380668348052500E+00 a       146     0    10     1    11
  1.2392021930430077E+00 a       147     0    10     1    12
 -1.4189824009610930E+00 a       148     0    10     1    13
 -1.1113218692992799E+00 a       149     0    10     1    14
 -1.4645084345985409E+00 a       150     0    10     1    15
  1.7076975972006663E+00 a       151     0    11     1     1
 -7.7351887759287127E-02 a       152     0    11     1     2
 -8.1760305489549420E-02 a       153     0    11     1     3
 -7.0804602488367063E-01 a       154     0    11     1     4
 -1.3749565879691569E-01 a       155     0    11     1     5
  9.1116188656858310E-01 a       156     0    11     1     6
 -5.3990210274702310E-01 a       157     0    11     1     7
 -2.5501670461786624E-01 a       158     0    11     1     8
 -7.1870073496302855E-01 a       159     0    11     1     9
  3.3123661810499844E-01 a       160     0    11     1    10
  3.9501617412202683E-01 a       161     0    11     1    11
 -1.3982530844482355E-01 a       162     0    11     1    12
  3.4833995371871751E-01 a       163     0    11     1    13
 -3.0785233288986680E-01 a       164     0    11     1    14
  7.2238839449101178E-01 a       165     0    11     1    15
  2.4308424808692686E+00 a       166     0    12     1     1
  1.1148797972433269E-01 a       167     0    12     1     2
 -7.5355758197996869E-01 a       168     0    12     1     3
  2.0074375710835235E+00 a       169     0    12     1     4
 -3.5272467212564811E+00 a       170     0    12     1     5
  2.4501520416736260E+00 a       171     0    12     1     6
 -3.4502203527198888E-01 a       172     0    12     1     7
  5.1096049785640441E-01 a       173     0    12     1     8
  1.8876268516469132E+00 a       174     0    12     1     9
 -1.9153546313352341E+00 a       175     0    12     1    10
 -1.2738876971073489E+00 a       176     0    12     1    11
 -1.1135555913696447E+00 a       177     0    12     1    12
  1.3092171868972384E+00 a       178     0    12     1    13
  2.4136128044248948E+00 a       179     0    12     1    14
  2.7389564331566674E+00 a       180     0    12     1    15
 -8.8159431137368205E-01 a       181     0    13     1     1
 -3.9624677776943312E-01 a       182     0    13     1     2
  2.8206204477445290E-01 a       183     0    13     1     3
  4.1687445433728731E-01 a       184     0    13     1     4
  2.2406650354819843E-01 a       185     0    13     1     5
 -9.0862540429174146E-02 a       186     0    13     1     6
 -7.6125365559602282E-02 a       187     0    13     1     7
 -2.3698854977634762E-01 a       188     0    13     1     8
  8.6853938807881947E-01 a       189     0    13     1     9
  3.9073822591308016E-01 a       190     0    13     1    10
 -5.1745949479995357E-01 a       191     0    13     1    11
  2.7176972982533126E-01 a       192     0    13     1    12
 -1.0567725057891383E-01 a       193     0    13     1    13
  4.9666404177236601E-01 a       194     0    13     1    14
 -6.9819139009720463E-02 a       195     0    13     1    15
 -1.6002420652801872E+00 a       196     0    14     1     1
  1.5340232969373158E-01 a       197     0    14     1     2
  5.4046513751339967E-02 a       198     0    14     1     3
 -1.2068847884198086E+00 a       199     0    14     1     4
  4.9858300253905830E-01 a       200     0    14     1     5
  3.2090149532774570E-01 a       201     0    14     1     6
 -6.4439741433244935E-01 a       202     0    14     1     7
 -8.1342246724272690E-02 a       203     0    14     1     8
 -7.9419586450251456E-01 a       204     0    14     1     9
  6.2178107367121660E-01 a       205     0    14     1    10
 -8.4144823807420110E-02 a       206     0    14     1    11
  3.3529031209549570E-01 a       207     0    14     1    12
 -2.8112037461968964E-01 a       208     0    14     1    13
 -1.3699350815100584E+00 a       209     0    14     1    14
 -8.9716510606899025E-01 a       210     0    14     1    15
  2.5008858844275261E-01 a       211     0    15     1     1
  1.4619949108866212E-01 a       212     0    15     1     2
 -7.7654846347052928E-02 a       213     0    15     1     3
 -1.3293188371404097E-01 a       214     0    15     1     4
 -1.1997987094971446E-01 a       215     0    15     1     5
  2.5677318082249817E-01 a       216     0    15     1     6
 -1.3039652735054119E-03 a       217     0    15     1     7
  5.3067447738738588E-02 a       218     0    15     1     8
 -9.0662842848126646E-02 a       219     0    15     1     9
 -1.6914995286247195E-01 a       220     0    15     1    10
 -5.0029749521971423E-02 a       221     0    15     1    11
 -1.1911831332999584E-01 a       222     0    15     1    12
  3.6870830803371592E-02 a       223     0    15     1    13
 -1.2620763661954640E-01 a       224     0    15     1    14
  4.7817181657322801E-02 a       225     0    15     1    15
  1.5450973067004087E-01 a       226     0    16     1     1
  4.0205562228585234E-02 a       227     0    16     1     2
  1.1906336222690075E-01 a       228     0    16     1     3
  1.2070179091953578E-01 a       229     0    16     1     4
 -1.9080390067520264E-01 a       230     0    16     1     5
 -5.0761504079758310E-02 a       231     0    16     1     6
  5.0819451301769587E-03 a       232     0    16     1     7
  7.1914485689809765E-02 a       233     0    16     1     8
  4.4659499236904265E-01 a       234     0    16     1     9
 -4.8654332292025829E-02 a       235     0    16     1    10
 -3.5545789368899328E-01 a       236     0    16     1    11
  8.0049305005420296E-04 a       237     0    16     1    12
  2.1545614497173369E-03 a       238     0    16     1    13
  5.8294325855359277E-02 a       239     0    16     1    14
  1.0299477245784960E-01 a       240     0    16     1    15
 -6.8563153342325178E-01 a       241     0    17     1     1
 -8.6330523188396305E-02 a       242     0    17     1     2
 -2.9904262149076211E-01 a       243     0    17     1     3
  9.1829835746084887E-02 a       244     0    17     1     4
  9.6469332729684030E-03 a       245     0    17     1     5
 -2.7746033910382190E-01 a       246     0    17     1     6
 -9.2790347430830214E-02 a       247     0    17     1     7
 -2.4026453823034713E-01 a       248     0    17     1     8
  5.6701266162190445E-01 a       249     0    17     1     9
  1.7747726236210429E-01 a       250     0    17     1    10
 -2.7573036207330609E-01 a       251     0    17     1    11
 -1.6805818269397960E-01 a       252     0    17     1    12
 -3.7824989808377985E-01 a       253     0    17     1    13
  5.7417868098155120E-02 a       254     0    17     1    14
  8.2699795024067310E-02 a       255     0    17     1    15
  2.0254169566151478E-01 a       256     0    18     1     1
 -8.3160883303867184E-01 a       257     0    18     1     2
  1.0533796027255424E+00 a       258     0    18     1     3
 -5.1572194198535748E-01 a       259     0    18     1     4
 -2.1436331003499803E-01 a       260     0    18     1     5
 -1.1611112447456157E-01 a       261     0    18     1     6
  4.5686804852322266E-01 a       262     0    18     1     7
 -6.4340486683761022E-01 a       263     0    18     1     8
 -1.4081883157572017E+00 a       264     0    18     1     9
 -8.7934989979059919E-01 a       265     0    18     1    10
 -1.0204785105631733E-01 a       266     0    18     1    11
  6.1513012825094593E-01 a       267     0    18     1    12
  4.0342805978320806E-01 a       268     0    18     1    13
  5.7487502274454827E-01 a       269     0    18     1    14
  5.9362382300066308E-01 a       270     0    18     1    15
  1.2259193608036785E+00 a       271     0    19     1     1
  2.0062872707552667E-01 a       272     0    19     1     2
 -4.5533353871932292E-01 a       273     0    19     1     3
  7.7787529690297874E-01 a       274     0    19     1     4
 -1.3496445611901471E+00 a       275     0    19     1     5
  5.7817975567951019E-01 a       276     0    19     1     6
 -3.9362826206947124E+00 a       277     0    19     1     7
 -1.1753925878223399E+00 a       278     0    19     1     8
  2.2562502046325656E+00 a       279     0    19     1     9
  8.4323492411007162E-01 a       280     0    19     1    10
 -5.5984096000594574E-01 a       281     0    19     1    11
  3.6642444150171878E+00 a       282     0    19     1    12
  1.2518057292813332E+00 a       283     0    19     1    13
  1.2671544668364376E-01 a       284     0    19     1    14
 -1.6848478486550855E+00 a       285     0    19     1    15
  3.7207015688176814E-01 a       286     0    20     1     1
  1.2347481983211039E-01 a       287     0    20     1     2
  5.2288519979203341E-01 a       288     0    20     1     3
 -1.2517917414831689E-01 a       289     0    20     1     4
 -3.8852072636054329E-02 a       290     0    20     1     5
 -1.5987785287014694E-01 a       291     0    20     1     6
 -1.1481413608084734E-01 a       292     0    20     1     7
 -2.6462569241177319E-01 a       293     0    20     1     8
 -3.5869324348540244E-01 a       294     0    20     1     9
  5.2948963771444679E-01 a       295     0    20     1    10
  2.2600231985744665E-01 a       296     0    20     1    11
 -6.4618748750553456E-02 a       297     0    20     1    12
  6.4253982074458718E-02 a       298     0    20     1    13
  9.8124329244812500E-02 a       299     0    20     1    14
  2.2796473936884079E-01 a       300     0    20     1    15
  5.7435028305646640E-01 a       301     0    21     1     1
  1.0564117590399396E+00 a       302     0    21     1     2
 -1.8199847306017963E-01 a       303     0    21     1     3
 -1.1426372566766698E+00 a       304     0    21     1     4
 -3.6414506977256914E-02 a       305     0    21     1     5
 -1.1499135904914576E-01 a       306     0    21     1     6
 -4.8044064470010334E-01 a       307     0    21     1     7
 -1.1060278344048666E+00 a       308     0    21     1     8
  4.0074197272949069E-01 a       309     0    21     1     9
 -3.7333499143976195E-01 a       310     0    21     1    10
  2.0288344301915071E-01 a       311     0    21     1    11
  1.6314181520290727E-01 a       312     0    21     1    12
 -7.2605405228910580E-01 a       313     0    21     1    13
 -5.3909649772246132E-02 a       314     0    21     1    14
 -7.5734521076633832E-01 a       315     0    21     1    15
  1.0391859360840021E+00 a       316     0    22     1     1
  8.0666789864148880E-01 a       317     0    22     1     2
 -8.6492269313341572E-02 a       318     0    22     1     3
  3.5597422801892282E+00 a       319     0    22     1     4
  1.4673372443923829E+00 a       320     0    22     1     5
 -1.0599051907255197E+00 a       321     0    22     1     6
  1.5757094509858458E+00 a       322     0    22     1     7
 -1.1613390174962439E+00 a       323     0    22     1     8
  1.2026515887936471E+00 a       324     0    22     1     9
 -1.3094109633400266E+00 a       325     0    22     1    10
 -1.0977358565718232E+00 a       326     0    22     1    11
 -2.7910653959817684E+00 a       327     0    22     1    12
 -1.7894287165248435E+00 a       328     0    22     1    13
 -2.0796544145572762E+00 a       329     0    22     1    14
  1.2060305146784964E+00 a       330     0    22     1    15
  8.0542855969453903E-02 a       331     0    23     1     1
  3.9254727292917499E-02 a       332     0    23     1     2
  1.3018908932572507E-01 a       333     0    23     1     3
 -2.8600413767162408E-01 a       334     0    23     1     4
 -2.2079789646005060E-03 a       335     0    23     1     5
  9.1893835322081757E-03 a       336     0    23     1     6
 -8.8763295108044787E-02 a       337     0    23     1     7
  1.1707301079395645E-01 a       338     0    23     1     8
 -2.9219921897511963E-01 a       339     0    23     1     9
 -2.5978940582535682E-02 a       340     0    23     1    10
  1.0825228258955925E-01 a       341     0    23     1    11
  1.0769739050212372E-01 a       342     0    23     1    12
  1.5923579145110914E-01 a       343     0    23     1    13
 -1.4496580389600122E-01 a       344     0    23     1    14
 -3.9894178955256022E-02 a       345     0    23     1    15
 -1.4035151324457865E-01 a       346     0    24     1     1
  5.0813700499815617E-01 a       347     0    24     1     2
 -3.3420562014291283E-01 a       348     0    24     1     3
  6.5620726368934790E-01 a       349     0    24     1     4
  1.8294583160026215E-01 a       350     0    24     1     5
 -1.3453950987411309E-01 a       351     0    24     1     6
  4.4619618465049660E-01 a       352     0    24     1     7
  1.2781235633955290E-01 a       353     0    24     1     8
  9.4491048791935195E-01 a       354     0    24     1     9
  9.2847353843874625E-01 a       355     0    24     1    10
 -8.8739795355239004E-01 a       356     0    24     1    11
 -5.0360003288283411E-02 a       357     0    24     1    12
 -5.7267971187526870E-02 a       358     0    24     1    13
 -1.9241145568212387E-01 a       359     0    24     1    14
 -1.0037413589100898E-01 a       360     0    24     1    15
  9.9994082025438545E-03 a       361     0    25     1     1
 -4.5549458038060298E-01 a       362     0    25     1     2
 -5.8887483669547609E-02 a       363     0    25     1     3
 -5.9332898838370729E-01 a       364     0    25     1     4
  7.7005451146647064E-01 a       365     0    25     1     5
 -1.0620102521713075E-01 a       366     0    25     1     6
  2.8302329044160310E+00 a       367     0    25     1     7
  1.0341087239232938E+00 a       368     0    25     1     8
  2.7071223442928165E-02 a       369     0    25     1     9
  4.1178635945600800E-01 a       370     0    25     1    10
  1.2458520035451375E+00 a       371     0    25     1    11
 -2.9011190462058170E+00 a       372     0    25     1    12
 -5.1190406238932762E-01 a       373     0    25     1    13
  3.2403916113221254E-01 a       374     0    25     1    14
  1.7079900440171349E+00 a       375     0    25     1    15
  4.6943489799329480E-01 a       376     0    26     1     1
 -1.0242652563697886E-01 a       377     0    26     1     2
 -2.6767202990817635E-01 a       378     0    26     1     3
  2.0310329349214279E-01 a       379     0    26     1     4
  1.6691807396126837E-01 a       380     0    26     1     5
  1.6646797557430179E-01 a       381     0    26     1     6
  7.2089059695777849E-02 a       382     0    26     1     7
 -1.3556674236695843E-02 a       383     0    26     1     8
  3.2157197955289807E-01 a       384     0    26     1     9
 -3.9252961030524014E-01 a       385     0    26     1    10
  6.5771242778227851E-02 a       386     0    26     1    11
 -9.0777960873404617E-02 a       387     0    26     1    12
 -8.8444721271917076E-02 a       388     0    26     1    13
  7.1396688737737940E-02 a       389     0    26     1    14
 -2.5124117238266869E-01 a       390     0    26     1    15
  8.2811598338675463E-01 a       391     0    27     1     1
  1.2751047252858991E-01 a       392     0    27     1     2
 -1.7068036372274276E-01 a       393     0    27     1     3
  3.8394346605679884E-02 a       394     0    27     1     4
  3.1801048784155822E-01 a       395     0    27     1     5
  2.7137700258969144E-01 a       396     0    27     1     6
  2.9409650459669973E-01 a       397     0    27     1     7
  3.2698739937851551E-01 a       398     0    27     1     8
 -1.7867992510646008E-01 a       399     0    27     1     9
  1.6162926095665797E-01 a       400     0    27     1    10
  4.5012434979845478E-01 a       401     0    27     1    11
 -2.1890982764813005E-01 a       402     0    27     1    12
  2.8831785654360231E-01 a       403     0    27     1    13
  2.7621594008406203E-01 a       404     0    27     1    14
  4.2628610668261624E-02 a       405     0    27     1    15
 -3.3921635547331463E-01 a       406     0    28     1     1
 -1.1331334066034542E+00 a       407     0    28     1     2
  6.0647763518207787E-01 a       408     0    28     1     3
 -4.1553161453430789E+00 a       409     0    28     1     4
 -8.3401636785068645E-01 a       410     0    28     1     5
  2.2359413680680866E+00 a       411     0    28     1     6
 -1.0093770665268789E+00 a       412     0    28     1     7
  1.2904811069900235E+00 a       413     0    28     1     8
 -1.0286452564846347E+00 a       414     0    28     1     9
  1.9568166561619675E+00 a       415     0    28     1    10
 -3.5619719818646545E-01 a       416     0    28     1    11
  4.9610639860251377E-01 a       417     0    28     1    12
  4.7470533420092415E-01 a       418     0    28     1    13
  2.7569807196824514E+00 a       419     0    28     1    14
 -7.7884276225210780E-01 a       420     0    28     1    15
  5.5189804798060460E-01 a       421     0    29     1     1
 -5.3055691684389047E-02 a       422     0    29     1     2
  3.2321627347596305E-01 a       423     0    29     1     3
  3.1962782738189602E-02 a       424     0    29     1     4
 -2.7299578653572287E-01 a       425     0    29     1     5
  5.0691788761576828E-01 a       426     0    29     1     6
 -1.8188065632738634E-01 a       427     0    29     1     7
  1.8517735256655965E-01 a       428     0    29     1     8
 -7.1436794625516020E-01 a       429     0    29     1     9
 -2.0915522852743232E-01 a       430     0    29     1    10
  3.5332051317403740E-01 a       431     0    29     1    11
 -8.5574112434819216E-02 a       432     0    29     1    12
  9.4927846846922626E-01 a       433     0    29     1    13
 -4.7127567773583401E-02 a       434     0    29     1    14
  1.7331166254492184E-01 a       435     0    29     1    15
  1.3263768829492595E-01 a       436     0    30     1     1
 -1.2089204569340635E+00 a       437     0    30     1     2
 -3.0192263126934249E-01 a       438     0    30     1     3
  2.1094104272580630E-01 a       439     0    30     1     4
 -1.7618764649206645E-01 a       440     0    30     1     5
  3.5325440230051108E-01 a       441     0    30     1     6
 -2.7268263398516873E-01 a       442     0    30     1     7
  1.1365414853403435E+00 a       443     0    30     1     8
 -1.7702082560036000E-01 a       444     0    30     1     9
  1.1744382007290416E-01 a       445     0    30     1    10
  4.4299807583282114E-01 a       446     0    30     1    11
  6.4310472222689166E-02 a       447     0    30     1    12
  4.3328863543101953E-01 a       448     0    30     1    13
 -5.7262263011702519E-01 a       449     0    30     1    14
  1.0093805271292612E-01 a       450     0    30     1    15
 -2.0939265889471028E+00 a       451     0    31     1     1
 -1.6669033893183018E+00 a       452     0    31     1     2
  2.6809517170434867E+00 a       453     0    31     1     3
 -2.8361106424628320E+00 a       454     0    31     1     4
  3.4339008992433184E-01 a       455     0    31     1     5
  5.5294215056786644E+00 a       456     0    31     1     6
  8.3153640371560356E-01 a       457     0    31     1     7
  1.2560433426435407E+00 a       458     0    31     1     8
  1.7750984992418626E+00 a       459     0    31     1     9
  4.0116436293021362E-01 a       460     0    31     1    10
  4.1088477014637176E-01 a       461     0    31     1    11
 -1.2705525234811763E+00 a       462     0    31     1    12
 -4.2666476684738819E-01 a       463     0    31     1    13
 -1.9666833461396684E+00 a       464     0    31     1    14
  2.8472143857195569E+00 a       465     0    31     1    15
  2.3905673643233452E-01 a       466     0    32     1     1
  4.0523328440997580E-01 a       467     0    32     1     2
 -4.6949321906185831E-01 a       468     0    32     1     3
 -7.3911898398922660E-01 a       469     0    32     1     4
  1.7945311618658161E-01 a       470     0    32     1     5
 -5.1354453935203082E-01 a       471     0    32     1     6
  9.2487967855179709E-01 a       472     0    32     1     7
 -7.2294462015272442E-03 a       473     0    32     1     8
  2.3929552761625816E-01 a       474     0    32     1     9
 -8.7450725630685977E-01 a       475     0    32     1    10
 -7.0853606196142527E-01 a       476     0    32     1    11
  7.0294178365696813E-01 a       477     0    32     1    12
 -2.6090972375400318E-01 a       478     0    32     1    13
  1.5940996944890554E-01 a       479     0    32     1    14
 -3.3001483407267851E-01 a       480     0    32     1    15
  1.7695453651825127E-01 a       481     0    33     1     1
  3.7328540168255908E-01 a       482     0    33     1     2
 -4.6669801697513358E-01 a       483     0    33     1     3
  7.4657692058115366E-01 a       484     0    33     1     4
  1.3057405308833300E-01 a       485     0    33     1     5
  7.0530619601762420E-02 a       486     0    33     1     6
 -1.9846451424179465E-01 a       487     0    33     1     7
 -6.9732558580878878E-01 a       488     0    33     1     8
  1.0435758683882874E+00 a       489     0    33     1     9
  1.2047097728685265E+00 a       490     0    33     1    10
 -8.4455938008192166E-01 a       491     0    33     1    11
 -6.8944243586870491E-01 a       492     0    33     1    12
  7.0619727461881027E-02 a       493     0    33     1    13
  4.8226655489221004E-01 a       494     0    33     1    14
  2.5381586679134732E-01 a       495     0    33     1    15
  9.2705150383202178E-02 a       496     0    34     1     1
 -5.8908720790147868E-02 a       497     0    34     1     2
 -1.1979880814685213E+00 a       498     0    34     1     3
  2.8823488449870656E+00 a       499     0    34     1     4
 -1.4112639142545802E-01 a       500     0    34     1     5
 -9.4176805465142177E-01 a       501     0    34     1     6
 -3.1708001075854841E-01 a       502     0    34     1     7
 -8.0092497725412881E-01 a       503     0    34     1     8
 -1.0507827975612463E+00 a       504     0    34     1     9
  1.1386228300854029E+00 a       505     0    34     1    10
 -3.6570562211341140E-01 a       506     0    34     1    11
  1.7589217668016368E+00 a       507     0    34     1    12
 -2.2403912382609628E+00 a       508     0    34     1    13
  1.1431893025378714E+00 a       509     0    34     1    14
 -3.7932153229262573E+00 a       510     0    34     1    15
 -9.5432210818732499E-01 a       511     0    35     1     1
  1.4591067449805212E-01 a       512     0    35     1     2
 -2.1682532521768003E-01 a       513     0    35     1     3
  4.0293974614597727E-01 a       514     0    35     1     4
  4.0919175903638520E-02 a       515     0    35     1     5
 -8.5624772941239005E-02 a       516     0    35     1     6
  2.0018481523429379E-01 a       517     0    35     1     7
 -1.7833070078177490E-01 a       518     0    35     1     8
  3.1202114354922217E-01 a       519     0    35     1     9
 -1.0760556560929231E-01 a       520     0    35     1    10
  1.6599797672294249E-04 a       521     0    35     1    11
 -1.9088726353290530E-01 a       522     0    35     1    12
 -2.1997034475181371E-01 a       523     0    35     1    13
  1.1437541594608160E-01 a       524     0    35     1    14
  6.1922428951411708E-02 a       525     0    35     1    15
 -4.8072499480387515E-01 a       526     0    36     1     1
  9.1589995441536742E-01 a       527     0    36     1     2
  6.7642423451353212E-02 a       528     0    36     1     3
 -1.2858408483197501E+00 a       529     0    36     1     4
  4.6646779139466465E-02 a       530     0    36     1     5
  8.1387631530485272E-01 a       531     0    36     1     6
 -7.5015182048100260E-01 a       532     0    36     1     7
  1.5435731669287417E-01 a       533     0    36     1     8
 -6.8518226659329984E-01 a       534     0    36     1     9
 -3.6310692996997657E-01 a       535     0    36     1    10
  7.9238596319279853E-01 a       536     0    36     1    11
  1.9271583940887746E-01 a       537     0    36     1    12
  1.3950086975706133E-01 a       538     0    36     1    13
 -3.0691026283431450E-01 a       539     0    36     1    14
 -5.3185067506020367E-01 a       540     0    36     1    15
 -1.4398845674456633E+00 a       541     0    37     1     1
  1.4832220705335821E+00 a       542     0    37     1     2
 -8.2687315220239321E-01 a       543     0    37     1     3
 -4.5000655610468931E-01 a       544     0    37     1     4
  6.3781600894979329E-01 a       545     0    37     1     5
 -3.9920770521863154E+00 a       546     0    37     1     6
  1.4551286536096488E-02 a       547     0    37     1     7
  3.4971918348547626E-02 a       548     0    37     1     8
 -3.0291566346926380E+00 a       549     0    37     1     9
  1.1892151482706917E-01 a       550     0    37     1    10
 -5.0414557541007632E-01 a       551     0    37     1    11
  1.7674847587375333E+00 a       552     0    37     1    12
  1.7624691270377688E+00 a       553     0    37     1    13
  9.4243005174369998E-01 a       554     0    37     1    14
 -6.6106661974625081E-01 a       555     0    37     1    15
 -8.0587508774763716E-01 a       556     0    38     1     1
 -9.3785954374816419E-02 a       557     0    38     1     2
  1.1077783468086991E-01 a       558     0    38     1     3
  5.5205957420913432E-01 a       559     0    38     1     4
 -2.7014518714739222E-01 a       560     0    38     1     5
  5.1827551602926861E-03 a       561     0    38     1     6
 -3.1248170159258881E-01 a       562     0    38     1     7
  2.4653608030638394E-01 a       563     0    38     1     8
 -3.5085199654684679E-01 a       564     0    38     1     9
  3.6697383550490514E-01 a       565     0    38     1    10
  3.4124855572995383E-01 a       566     0    38     1    11
 -2.2941179008438409E-01 a       567     0    38     1    12
  4.3295255228689411E-01 a       568     0    38     1    13
 -1.3472529598606064E-01 a       569     0    38     1    14
  2.3737738051314525E-01 a       570     0    38     1    15
 -2.3325829810792845E-01 a       571     0    39     1     1
 -1.8517424351206596E-01 a       572     0    39     1     2
  2.1253622508330502E-02 a       573     0    39     1     3
 -1.7750221824809034E-02 a       574     0    39     1     4
 -5.3957419496380343E-01 a       575     0    39     1     5
  4.6578223859566559E-01 a       576     0    39     1     6
  1.6845708784930599E-01 a       577     0    39     1     7
  3.7123135193933510E-01 a       578     0    39     1     8
 -3.1468707581087590E-01 a       579     0    39     1     9
 -6.0001127677858379E-01 a       580     0    39     1    10
  6.4343654338114037E-02 a       581     0    39     1    11
  1.4707318415212983E-01 a       582     0    39     1    12
  3.2383488042251080E-01 a       583     0    39     1    13
  2.0223673046274482E-01 a       584     0    39     1    14
  3.7347660830451590E-01 a       585     0    39     1    15
 -9.3096574870519411E-01 a       586     0    40     1     1
  1.1340073908127757E+00 a       587     0    40     1     2
 -5.9867722447012578E-02 a       588     0    40     1     3
  3.7038099040029476E-01 a       589     0    40     1     4
  6.8503984775377946E-01 a       590     0    40     1     5
 -2.8622334117179637E-01 a       591     0    40     1     6
 -4.0133320589802701E-01 a       592     0    40     1     7
 -1.6340139642694314E+00 a       593     0    40     1     8
 -8.1304630751334850E-01 a       594     0    40     1     9
 -8.5687401064918545E-01 a       595     0    40     1    10
 -1.0815239632358361E-02 a       596     0    40     1    11
 -3.4979763419975723E-01 a       597     0    40     1    12
  4.2741669333042284E-03 a       598     0    40     1    13
 -2.3626245803320360E+00 a       599     0    40     1    14
  2.0106862027247741E+00 a       600     0    40     1    15
 -2.8375150201633209E-01 a       601     0    41     1     1
  4.9757424952443938E-02 a       602     0    41     1     2
 -1.4807592213307069E-01 a       603     0    41     1     3
  1.4086553984955659E+00 a       604     0    41     1     4
  2.7973499138848312E-01 a       605     0    41     1     5
 -2.1719416225386373E-01 a       606     0    41     1     6
 -1.8259236942112039E-01 a       607     0    41     1     7
 -1.7018277891019165E-01 a       608     0    41     1     8
  3.1043709892002536E-01 a       609     0    41     1     9
 -2.0186868770821886E-01 a       610     0    41     1    10
 -2.8396768194935723E-01 a       611     0    41     1    11
 -1.9846191242641958E-01 a       612     0    41     1    12
 -4.4779941164368946E-02 a       613     0    41     1    13
 -1.3765906839858685E-01 a       614     0    41     1    14
 -3.6383630528384520E-01 a       615     0    41     1    15
  2.5389602924500326E-01 a       616     0    42     1     1
  3.4060228928984126E-01 a       617     0    42     1     2
  1.9371714191495856E-01 a       618     0    42     1     3
 -1.8151881191450556E-01 a       619     0    42     1     4
 -1.4444003147379456E-01 a       620     0    42     1     5
 -6.5422477904191123E-01 a       621     0    42     1     6
 -3.6046882478892789E-01 a       622     0    42     1     7
  5.5721352498579280E-01 a       623     0    42     1     8
 -3.9476291321250484E-01 a       624     0    42     1     9
 -6.4313435933053864E-01 a       625     0    42     1    10
 -2.9016000026113148E-01 a       626     0    42     1    11
  3.1396689155577068E-01 a       627     0    42     1    12
 -2.5705362787008856E-01 a       628     0    42     1    13
 -1.0632765474665997E+00 a       629     0    42     1    14
 -1.0127818956162489E+00 a       630     0    42     1    15
  2.3056839132153531E-01 a       631     0    43     1     1
  1.3491813088767117E+00 a       632     0    43     1     2
 -1.8825911392124777E+00 a       633     0    43     1     3
 -1.7558315740786421E+00 a       634     0    43     1     4
 -1.8714933465133730E+00 a       635     0    43     1     5
  6.3686534561706676E-01 a       636     0    43     1     6
 -2.2391967538896029E+00 a       637     0    43     1     7
 -7.9316492691413543E-01 a       638     0    43     1     8
 -1.3576726776640917E+00 a       639     0    43     1     9
  9.3077883788658278E-01 a       640     0    43     1    10
 -2.4937149799011986E+00 a       641     0    43     1    11
 -2.0949444161471978E-01 a       642     0    43     1    12
  2.4599619693332175E+00 a       643     0    43     1    13
  3.5812870332963946E+00 a       644     0    43     1    14
 -2.4481989694643666E-01 a       645     0    43     1    15
 -6.4437572892469186E-01 a       646     0    44     1     1
 -4.2340114174109394E-01 a       647     0    44     1     2
  2.5220863858524822E-01 a       648     0    44     1     3
 -3.2410321276462595E-01 a       649     0    44     1     4
 -2.2853375982254140E-01 a       650     0    44     1     5
 -2.3380231368807650E-01 a       651     0    44     1     6
 -1.9705965796436994E-01 a       652     0    44     1     7
 -4.7188484843663371E-02 a       653     0    44     1     8
 -3.9591441113374998E-01 a       654     0    44     1     9
  1.2605088351247897E+00 a       655     0    44     1    10
  3.4377970504224836E-01 a       656     0    44     1    11
 -4.4804859250901670E-02 a       657     0    44     1    12
  8.0491404795478658E-02 a       658     0    44     1    13
 -5.2707284703839841E-01 a       659     0    44     1    14
 -3.4444041263804230E-02 a       660     0    44     1    15
 -7.3034465702235107E-01 a       661     0    45     1     1
 -6.3237868489943762E-03 a       662     0    45     1     2
  5.7475064843607016E-01 a       663     0    45     1     3
  1.3873728327863102E-01 a       664     0    45     1     4
 -1.0990488468000499E-02 a       665     0    45     1     5
  5.4207249750007869E-01 a       666     0    45     1     6
 -5.0347107021158266E-01 a       667     0    45     1     7
 -1.7066136263675780E-01 a       668     0    45     1     8
 -1.1471886783448430E-02 a       669     0    45     1     9
  9.9961435706805060E-02 a       670     0    45     1    10
 -3.0079149157624502E-01 a       671     0    45     1    11
  2.5099452925954990E-01 a       672     0    45     1    12
  5.4282292771987561E-01 a       673     0    45     1    13
 -4.7306134977057629E-01 a       674     0    45     1    14
 -3.5711935286251273E-01 a       675     0    45     1    15
 -6.7812913354591675E-01 a       676     0    46     1     1
 -2.1451669142382452E+00 a       677     0    46     1     2
  1.9686575579155139E+00 a       678     0    46     1     3
  1.4487705645214044E-01 a       679     0    46     1     4
  1.7924754342416160E-01 a       680     0    46     1     5
 -3.2459288963828996E+00 a       681     0    46     1     6
  1.7925438443303668E-01 a       682     0    46     1     7
  1.0013526124724856E+00 a       683     0    46     1     8
  3.1434111276476311E+00 a       684     0    46     1     9
  1.1367836204848389E+00 a       685     0    46     1    10
  5.7374985113510824E-01 a       686     0    46     1    11
 -4.6448678403975174E-01 a       687     0    46     1    12
 -1.5589006030473134E+00 a       688     0    46     1    13
 -2.6307738133970719E+00 a       689     0    46     1    14
  6.0376451952459997E-01 a       690     0    46     1    15
  2.7584551281457714E-01 a       691     0    47     1     1
 -1.2049494858766341E-01 a       692     0    47     1     2
  9.4576237366565369E-02 a       693     0    47     1     3
 -1.1130324739778379E+00 a       694     0    47     1     4
 -4.0264795016738408E-02 a       695     0    47     1     5
  2.6034211644945832E-01 a       696     0    47     1     6
 -1.0671149978115553E-01 a       697     0    47     1     7
  3.1040740483776846E-01 a       698     0    47     1     8
 -8.4824019053814148E-02 a       699     0    47     1     9
  2.0145596520215134E-01 a       700     0    47     1    10
  1.3114516364657780E-01 a       701     0    47     1    11
  2.5636836272036390E-01 a       702     0    47     1    12
 -8.8354962471552945E-02 a       703     0    47     1    13
  5.9605976420467457E-02 a       704     0    47     1    14
 -1.2831052132626201E-02 a       705     0    47     1    15
  5.7153538421334149E-01 a       706     0    48     1     1
 -2.9634285889689954E-01 a       707     0    48     1     2
 -3.1461570898286779E-02 a       708     0    48     1     3
  1.7929273802660123E-01 a       709     0    48     1     4
  2.0887547568552037E-01 a       710     0    48     1     5
  8.9626768895731901E-02 a       711     0    48     1     6
  2.4753208265269047E-01 a       712     0    48     1     7
 -4.3300835288350448E-01 a       713     0    48     1     8
  1.1092387075079863E-01 a       714     0    48     1     9
  2.7260700728131065E-01 a       715     0    48     1    10
 -2.2100232292378333E-01 a       716     0    48     1    11
 -9.0660805540504014E-02 a       717     0    48     1    12
 -1.1190989623844662E-01 a       718     0    48     1    13
  4.1597977886061549E-01 a       719     0    48     1    14
  5.1147460990773497E-01 a       720     0    48     1    15
  1.2643740591407719E+00 a       721     0    49     1     1
 -2.3914982570345558E-01 a       722     0    49     1     2
  6.1273239748299524E-01 a       723     0    49     1     3
  1.6149665479451718E+00 a       724     0    49     1     4
  4.9185884037397165E-01 a       725     0    49     1     5
  1.5928685397941175E-01 a       726     0    49     1     6
  5.3442157231384457E-01 a       727     0    49     1     7
 -3.7146749324215178E-01 a       728     0    49     1     8
  1.5059579908195675E+00 a       729     0    49     1     9
  3.1028941351980949E-01 a       730     0    49     1    10
  1.2783190580076833E+00 a       731     0    49     1    11
 -3.6233682980631965E-01 a       732     0    49     1    12
 -8.3490285447375701E-01 a       733     0    49     1    13
 -1.1956932731371517E+00 a       734     0    49     1    14
  3.4180939012766903E-01 a       735     0    49     1    15
  4.0823891786145416E-01 a       736     0    50     1     1
  2.1396472895981891E-01 a       737     0    50     1     2
 -1.5010673259619464E-01 a       738     0    50     1     3
 -1.4527753619222610E-02 a       739     0    50     1     4
  6.3859807792727041E-02 a       740     0    50     1     5
  2.7149518469267248E-01 a       741     0    50     1     6
  3.1651317082206110E-01 a       742     0    50     1     7
 -4.3159709720428895E-03 a       743     0    50     1     8
  2.5827488863842984E-01 a       744     0    50     1     9
 -4.4756798113483648E-01 a       745     0    50     1    10
 -1.6456990386460857E-01 a       746     0    50     1    11
 -7.8330742255939400E-03 a       747     0    50     1    12
  2.8404190203697565E-02 a       748     0    50     1    13
  3.1374068985424425E-01 a       749     0    50     1    14
  2.2614527347831394E-02 a       750     0    50     1    15
  2.1992781378431514E-01 a       751     0    51     1     1
  1.2534959588585898E-01 a       752     0    51     1     2
 -3.1908410144374560E-01 a       753     0    51     1     3
 -2.5414342630076842E-01 a       754     0    51     1     4
 -5.9673167105892759E-02 a       755     0    51     1     5
  1.1013191188747025E-01 a       756     0    51     1     6
 -5.3650706882637633E-03 a       757     0    51     1     7
 -1.8002380545747540E-01 a       758     0    51     1     8
  4.4258559410423565E-01 a       759     0    51     1     9
 -3.4790622011544792E-01 a       760     0    51     1    10
  2.1616516814167699E-03 a       761     0    51     1    11
 -1.2418110995587599E-01 a       762     0    51     1    12
 -5.1100668600356070E-01 a       763     0    51     1    13
 -5.1087938200743130E-02 a       764     0    51     1    14
 -7.9845431778439280E-02 a       765     0    51     1    15
  9.0205709525354116E-01 a       766     0    52     1     1
  6.2030101410148164E-01 a       767     0    52     1     2
 -9.9027477363949989E-01 a       768     0    52     1     3
 -6.1815182023870963E-01 a       769     0    52     1     4
  5.8721906887453079E-01 a       770     0    52     1     5
 -3.6244314803368033E-01 a       771     0    52     1     6
  1.3392080075741697E+00 a       772     0    52     1     7
  1.0634902663634200E+00 a       773     0    52     1     8
 -8.3230133822802754E-01 a       774     0    52     1     9
 -9.4322057309934249E-01 a       775     0    52     1    10
  1.0492147429531271E+00 a       776     0    52     1    11
  2.1022810495576277E-01 a       777     0    52     1    12
  1.3029259055885706E-01 a       778     0    52     1    13
  5.3289129727893614E-01 a       779     0    52     1    14
 -1.3582534833469300E+00 a       780     0    52     1    15
 -3.2388432846922699E-01 a       781     0    53     1     1
  1.1481492220899227E-02 a       782     0    53     1     2
  7.6685659592736613E-02 a       783     0    53     1     3
 -5.4230096363283731E-01 a       784     0    53     1     4
 -1.1285011689516149E-01 a       785     0    53     1     5
  3.0846456452018192E-02 a       786     0    53     1     6
  2.0949997807526213E-01 a       787     0    53     1     7
  5.8461005744876129E-02 a       788     0    53     1     8
 -2.1326195609298784E-01 a       789     0    53     1     9
  1.1302890609504306E-01 a       790     0    53     1    10
  1.2764864235419446E-01 a       791     0    53     1    11
  1.4059377055854039E-01 a       792     0    53     1    12
 -7.0583088924660420E-02 a       793     0    53     1    13
  1.9733926235990806E-01 a       794     0    53     1    14
  2.0312166654443137E-01 a       795     0    53     1    15
  2.2986497800918365E-01 a       796     0    54     1     1
 -3.5719055320675526E-03 a       797     0    54     1     2
 -1.2234397728272640E-01 a       798     0    54     1     3
  1.0220682889113945E-01 a       799     0    54     1     4
  9.4224227492921905E-02 a       800     0    54     1     5
 -1.4147346199581168E-01 a       801     0    54     1     6
  2.8717660946484602E-01 a       802     0    54     1     7
 -1.1888976684798039E-01 a       803     0    54     1     8
  6.8617701278976567E-02 a       804     0    54     1     9
  2.8907279889374737E-01 a       805     0    54     1    10
  2.1001966645687350E-01 a       806     0    54     1    11
 -6.0807435459463634E-02 a       807     0    54     1    12
  1.6533522481676576E-02 a       808     0    54     1    13
  6.2653139772317692E-02 a       809     0    54     1    14
  1.7294940488536825E-01 a       810     0    54     1    15
  3.8070211147345101E-01 a       811     0    55     1     1
 -1.8431734692330712E-01 a       812     0    55     1     2
  3.7781898636223654E-01 a       813     0    55     1     3
  9.1083523596987581E-01 a       814     0    55     1     4
  3.0636114292365751E-01 a       815     0    55     1     5
 -2.5372004098933147E+00 a       816     0    55     1     6
 -1.9903023733405373E-01 a       817     0    55     1     7
 -2.0377064478094858E-01 a       818     0    55     1     8
 -5.4219878896704965E-01 a       819     0    55     1     9
 -8.7114703666817372E-01 a       820     0    55     1    10
  4.9678458398845327E-01 a       821     0    55     1    11
 -1.6417889053787479E-01 a       822     0    55     1    12
 -4.3692052324784714E-01 a       823     0    55     1    13
 -3.1763913597732407E+00 a       824     0    55     1    14
  7.1273855058556726E-02 a       825     0    55     1    15
  1.1928912917201502E-01 a       826     0    56     1     1
  1.9119569619675944E-01 a       827     0    56     1     2
 -6.3400574401035761E-02 a       828     0    56     1     3
  3.4619822379737619E-01 a       829     0    56     1     4
  1.0785043750575821E-01 a       830     0    56     1     5
  3.6093138652609302E-01 a       831     0    56     1     6
 -4.3724813755248726E-01 a       832     0    56     1     7
  7.3950021936104948E-02 a       833     0    56     1     8
  4.2268121108476847E-01 a       834     0    56     1     9
 -2.8038414555596314E-01 a       835     0    56     1    10
 -9.4211650002875819E-02 a       836     0    56     1    11
 -2.9216731341062105E-02 a       837     0    56     1    12
  3.8074073021505526E-02 a       838     0    56     1    13
  1.4272246118080220E-04 a       839     0    56     1    14
 -1.5315115174199737E-01 a       840     0    56     1    15
 -1.0708068726727564E-01 a       841     0    57     1     1
 -5.5197021647560442E-02 a       842     0    57     1     2
 -2.6122887915720983E-01 a       843     0    57     1     3
 -1.0953469364435152E-01 a       844     0    57     1     4
  7.1024978114159906E-02 a       845     0    57     1     5
 -1.6880077672818344E-01 a       846     0    57     1     6
  3.2405618297217170E-01 a       847     0    57     1     7
  1.0049433826491330E-01 a       848     0    57     1     8
 -4.0869786888222281E-01 a       849     0    57     1     9
 -2.9768681937412778E-01 a       850     0    57     1    10
  4.5379314846068669E-01 a       851     0    57     1    11
  1.4882713664753550E-03 a       852     0    57     1    12
 -1.2951110491673867E-01 a       853     0    57     1    13
  3.1481353587681687E-01 a       854     0    57     1    14
 -1.7727894199531951E-02 a       855     0    57     1    15
  1.6580054236699701E-01 a       856     0    58     1     1
  3.6200515340262363E-01 a       857     0    58     1     2
 -3.2957062668098329E-02 a       858     0    58     1     3
 -3.8030054740976804E-01 a       859     0    58     1     4
  1.9855887205753156E-01 a       860     0    58     1     5
  2.9449659610498644E+00 a       861     0    58     1     6
  8.6942417539698813E-01 a       862     0    58     1     7
  1.1747062741688202E-01 a       863     0    58     1     8
  1.8543165295675756E-01 a       864     0    58     1     9
 -1.8237133804095990E-01 a       865     0    58     1    10
  8.7980938397797426E-01 a       866     0    58     1    11
  1.6146223356704217E-01 a       867     0    58     1    12
 -1.8332664094220663E-01 a       868     0    58     1    13
  8.4478045672934088E-01 a       869     0    58     1    14
 -1.2485089209826204E-01 a       870     0    58     1    15
  3.4169025070335451E-01 a       871     0    59     1     1
  1.8442079483532089E-02 a       872     0    59     1     2
 -2.4813613417637565E-02 a       873     0    59     1     3
 -7.4605051461379178E-03 a       874     0    59     1     4
  1.2721863813141325E-02 a       875     0    59     1     5
 -7.6762603861729686E-02 a       876     0    59     1     6
  5.4162215463357392E-04 a       877     0    59     1     7
 -1.6427967185439135E-01 a       878     0    59     1     8
  7.1989700794964459E-02 a       879     0    59     1     9
 -4.4124895416159876E-03 a       880     0    59     1    10
 -1.0422495785769267E-01 a       881     0    59     1    11
 -1.0967422581366032E-01 a       882     0    59     1    12
 -3.6966089504680028E-01 a       883     0    59     1    13
 -1.7623013098179668E-01 a       884     0    59     1    14
 -1.4667920422515694E-02 a       885     0    59     1    15
 -2.0767476305628332E-01 a       886     0    60     1     1
  3.0990860012456642E-02 a       887     0    60     1     2
 -7.0021469591777046E-04 a       888     0    60     1     3
  2.0601099059287416E-02 a       889     0    60     1     4
 -8.8369303479828243E-02 a       890     0    60     1     5
 -8.8599290639668871E-02 a       891     0    60     1     6
  1.4335264409235467E-02 a       892     0    60     1     7
  1.2800759484478622E-01 a       893     0    60     1     8
 -6.0027287966871644E-02 a       894     0    60     1     9
 -1.1105600437725079E-01 a       895     0    60     1    10
  6.0414628077428111E-02 a       896     0    60     1    11
  5.0393801720588285E-02 a       897     0    60     1    12
  6.1520938280728202E-02 a       898     0    60     1    13
  7.6537178315322293E-02 a       899     0    60     1    14
 -1.5136486896040752E-01 a       900     0    60     1    15
 -3.5959114714008727E-01 a       901     0    61     1     1
  5.9553069356049849E-02 a       902     0    61     1     2
 -2.6577778529879709E-01 a       903     0    61     1     3
 -3.8951108104643350E-01 a       904     0    61     1     4
 -1.2897995114357530E-01 a       905     0    61     1     5
  9.5166743081750704E-01 a       906     0    61     1     6
  6.7256186510787533E-02 a       907     0    61     1     7
  2.2298623547347757E-01 a       908     0    61     1     8
 -1.8611754642003475E-01 a       909     0    61     1     9
  1.5071182398687061E-01 a       910     0    61     1    10
 -7.0395400095940797E-01 a       911     0    61     1    11
  9.3623958393011728E-02 a       912     0    61     1    12
  1.7388712525920560E-01 a       913     0    61     1    13
  1.1855251891464789E+00 a       914     0    61     1    14
 -7.7416889967600294E-02 a       915     0    61     1    15
 -2.7348873360143278E-01 a       916     0    62     1     1
  5.8741553340605906E-03 a       917     0    62     1     2
  1.0799489947433460E-02 a       918     0    62     1     3
  7.1106494760856065E-02 a       919     0    62     1     4
 -2.6980957093249658E-02 a       920     0    62     1     5
 -2.1561302495777379E-01 a       921     0    62     1     6
 -2.8553091470948760E-01 a       922     0    62     1     7
  2.1149964425673205E-02 a       923     0    62     1     8
 -2.5877941708825923E-02 a       924     0    62     1     9
  1.3689069169602341E-01 a       925     0    62     1    10
  8.1469786684797471E-02 a       926     0    62     1    11
 -5.1726135674274684E-02 a       927     0    62     1    12
  4.5205263510507479E-03 a       928     0    62     1    13
 -8.8720221347714928E-02 a       929     0    62     1    14
  4.4127824408513525E-02 a       930     0    62     1    15
 -1.5725188041848481E-01 a       931     0    63     1     1
  2.6705793447602131E-02 a       932     0    63     1     2
  5.2742936672588246E-02 a       933     0    63     1     3
  8.9350370769162690E-02 a       934     0    63     1     4
  3.9397276709054310E-02 a       935     0    63     1     5
 -2.1763866069697499E-01 a       936     0    63     1     6
 -8.0836880958082363E-02 a       937     0    63     1     7
  1.1233563460237557E-01 a       938     0    63     1     8
 -3.7495509752973472E-02 a       939     0    63     1     9
  1.1244999160419936E-01 a       940     0    63     1    10
 -1.9388692490226477E-02 a       941     0    63     1    11
 -6.5439241652136305E-03 a       942     0    63     1    12
  1.4484326365898958E-01 a       943     0    63     1    13
 -8.6185799563139584E-02 a       944     0    63     1    14
  2.4975997700032379E-02 a       945     0    63     1    15
 -9.9129614451362678E-04 a       946     0    64     1     1
  6.0531228513108166E-02 a       947     0    64     1     2
 -1.5072807139775785E-01 a       948     0    64     1     3
  2.8342893142396330E-01 a       949     0    64     1     4
 -1.3796463178294024E-01 a       950     0    64     1     5
  7.4144622434880836E-01 a       951     0    64     1     6
 -8.0443127050081509E-01 a       952     0    64     1     7
 -3.7777467186834846E-01 a       953     0    64     1     8
 -6.7025954998253756E-01 a       954     0    64     1     9
  6.1782736480459850E-02 a       955     0    64     1    10
 -1.3240785316022707E+00 a       956     0    64     1    11
 -3.7722747491605160E-02 a       957     0    64     1    12
  3.6364864042881212E-01 a       958     0    64     1    13
  5.6588265980710040E-01 a       959     0    64     1    14
  2.9317795937473656E-01 a       960     0    64     1    15
 -5.2139550929320866E-01 b       961     1     1
 -8.0262261916380695E-01 b       962     1     2
  6.6481187110802508E-05 b       963     1     3
  4.7084054225617289E-01 b       964     1     4
 -2.9725538440032839E-01 b       965     1     5
  7.1236904133285173E-01 b       966     1     6
 -8.3074419481604733E-01 b       967     1     7
 -6.1427735194634503E-01 b       968     1     8
  2.3847809792758243E-01 b       969     1     9
  9.2753923148135597E-01 b       970     1    10
  1.9784261901379771E-01 b       971     1    11
 -1.6152063654736612E-01 b       972     1    12
 -8.9209004305809392E-01 b       973     1    13
  5.0459364957671192E-02 b       974     1    14
  1.8116612358916651E-02 b       975     1    15
 -4.7123389250934355E-01 a       976     1     1     2     1
  2.5157831632238326E-02 a       977     1     1     2     2
 -4.0323352579012650E-02 a       978     1     1     2     3
  1.8069862740640466E-01 a       979     1     1     2     4
 -1.2440931704291642E+00 a       980     1     1     2     5
  5.3613969680259353E-02 a       981     1     1     2     6
  4.0704790933747520E-01 a       982     1     1     2     7
  3.3234068218874568E-01 a       983     1     1     2     8
  5.7644092848333228E-01 a       984     1     1     2     9
 -2.4821551266555522E-01 a       985     1     1     2    10
 -5.0349293979539456E-01 a       986     1     1     2    11
 -5.8032792491236695E-01 a       987     1     1     2    12
  1.4467623471459498E-01 a       988     1     1     2    13
 -1.4339116418105763E-01 a       989     1     1     2    14
  5.9830768779511778E-01 a       990     1     1     2    15
  4.0400907079768644E-01 a       991     1     2     2     1
  6.9503266429879385E-01 a       992     1     2     2     2
 -7.0275241850713777E-01 a       993     1     2     2     3
 -2.5895007950891449E+00 a       994     1     2     2     4
 -7.4523816563460454E-01 a       995     1     2     2     5
 -5.1848306711459091E-01 a       996     1     2     2     6
  4.3620541315655426E-01 a       997     1     2     2     7
 -4.8871754261181893E-01 a       998     1     2     2     8
 -9.9018848317681629E-01 a       999     1     2     2     9
  8.9434744992092996E-01 a      1000     1     2     2    10
 -1.0448921484419322E+00 a      1001     1     2     2    11
 -1.0585927451944167E-01 a      1002     1     2     2    12
  5.8285659860323713E-01 a      1003     1     2     2    13
 -3.6764634004239366E-01 a      1004     1     2     2    14
  4.1362862470755873E-01 a      1005     1     2     2    15
 -1.9670316752034947E-01 a      1006     1     3     2     1
  4.8548556525393494E-01 a      1007     1     3     2     2
 -7.1553609925947548E-01 a      1008     1     3     2     3
  5.0906465926222999E-01 a      1009     1     3     2     4
 -2.5968769125439478E-01 a      1010     1     3     2     5
  5.1733520119742714E-02 a      1011     1     3     2     6
  2.1518875238946886E-01 a      1012     1     3     2     7
 -7.8349068081722673E-01 a      1013     1     3     2     8
 -9.7295189695848594E-01 a      1014     1     3     2     9
  7.4854606859909667E-01 a      1015     1     3     2    10
 -1.4770045157663070E+00 a      1016     1     3     2    11
 -4.1943862739827470E-01 a      1017     1     3     2    12
  8.0793874457322112E-01 a      1018     1     3     2    13
  4.9835385435671592E-01 a      1019     1     3     2    14
  8.5762805654890129E-01 a      1020     1     3     2    15
 -3.3679891582743554E-01 a      1021     1     4     2     1
 -3.9520616397357466E-01 a      1022     1     4     2     2
 -6.9106552988558323E-01 a      1023     1     4     2     3
  2.8236015463406383E-01 a      1024     1     4     2     4
 -5.1241241369831103E-01 a      1025     1     4     2     5
  1.3389157770366775E-01 a      1026     1     4     2     6
 -2.4570354988864171E-01 a      1027     1     4     2     7
 -3.7234712087206207E-01 a      1028     1     4     2     8
 -5.6776263968745633E-01 a      1029     1     4     2     9
  6.4064577221680363E-01 a      1030     1     4     2    10
  2.8043017992058900E-01 a      1031     1     4     2    11
  1.6681461769984646E-01 a      1032     1     4     2    12
  1.0075189372065847E+00 a      1033     1     4     2    13
 -3.8835286032012772E-01 a      1034     1     4     2    14
  5.5859946616020228E-01 a      1035     1     4     2    15
  9.4547062099409218E-01 a      1036     1     5     2     1
  1.2925004587471969E+00 a      1037     1     5     2     2
  5.7240407318859321E-02 a      1038     1     5     2     3
  1.4189932426284144E+00 a      1039     1     5     2     4
 -8.6733607187047645E-01 a      1040     1     5     2     5
  5.1285049959490285E-02 a      1041     1     5     2     6
  8.8517765890448546E-02 a      1042     1     5     2     7
 -1.3685025168976664E-01 a      1043     1     5     2     8
 -2.4229676338397374E-01 a      1044     1     5     2     9
 -7.7327925338698944E-01 a      1045     1     5     2    10
 -1.3240981368499374E+00 a      1046     1     5     2    11
 -8.0595969229261780E-02 a      1047     1     5     2    12
 -9.2204869800118205E-01 a      1048     1     5     2    13
  1.2082867791945460E+00 a      1049     1     5     2    14
 -1.1088894599554079E-01 a      1050     1     5     2    15
  7.8755591792131652E-01 a      1051     1     6     2     1
 -5.0410955211824338E-01 a      1052     1     6     2     2
  6.5666442993234286E-01 a      1053     1     6     2     3
  1.0010378050070172E+00 a      1054     1     6     2     4
 -4.3025182646693616E-01 a      1055     1     6     2     5
  1.9850033060172095E-01 a      1056     1     6     2     6
 -7.4025225023116392E-01 a      1057     1     6     2     7
  4.3646478090629398E-01 a      1058     1     6     2     8
  4.0647536701746367E-01 a      1059     1     6     2     9
 -5.2127485325063516E-01 a      1060     1     6     2    10
  3.5180475388410493E-01 a      1061     1     6     2    11
  8.1729999261325836E-01 a      1062     1     6     2    12
 -2.0367203541051920E-01 a      1063     1     6     2    13
  2.3467004724765667E-01 a      1064     1     6     2    14
 -2.8078088302108078E-01 a      1065     1     6     2    15
 -1.5926364473051793E-01 a      1066     1     7     2     1
  7.0957214240292088E-01 a      1067     1     7     2     2
  2.2190375672753351E-01 a      1068     1     7     2     3
  2.3681895701281892E+00 a      1069     1     7     2     4
  6.0280791131739808E-01 a      1070     1     7     2     5
 -5.9162033472077713E-01 a      1071     1     7     2     6
  4.1616063205070380E-01 a      1072     1     7     2     7
 -4.5344261934882940E-01 a      1073     1     7     2     8
  2.0486801730375545E-01 a      1074     1     7     2     9
 -1.4722467137838404E+00 a      1075     1     7     2    10
  1.1054922863171165E-02 a      1076     1     7     2    11
 -7.6439672874060993E-01 a      1077     1     7     2    12
  1.0408841135847109E+00 a      1078     1     7     2    13
 -1.4180080235698163E+00 a      1079     1     7     2    14
 -2.9275108254746479E-01 a      1080     1     7     2    15
  1.7237259457947224E-03 a      1081     1     8     2     1
  5.2054341062433973E-01 a      1082     1     8     2     2
 -3.6736501790791409E-01 a      1083     1     8     2     3
  2.1755673122340227E+00 a      1084     1     8     2     4
 -1.1145859866918970E+00 a      1085     1     8     2     5
  4.2835753823585376E-01 a      1086     1     8     2     6
 -9.9959798366419661E-02 a      1087     1     8     2     7
 -5.8706091527208148E-01 a      1088     1     8     2     8
 -4.4765573505763401E-01 a      1089     1     8     2     9
  1.0563255765842317E-01 a      1090     1     8     2    10
  7.3565432630421479E-02 a      1091     1     8     2    11
 -6.4640994469320567E-01 a      1092     1     8     2    12
  7.8357817424833964E-01 a      1093     1     8     2    13
  9.4645578526163746E-02 a      1094     1     8     2    14
  8.9188129620016454E-01 a      1095     1     8     2    15
 -3.7371937207985106E-01 a      1096     1     9     2     1
  1.0058738748885188E-01 a      1097     1     9     2     2
 -5.9393881680293324E-02 a      1098     1     9     2     3
  2.6283328935224887E-01 a      1099     1     9     2     4
 -1.1384942118495656E+00 a      1100     1     9     2     5
 -2.2868045620828509E-01 a      1101     1     9     2     6
  4.8658102591165592E-01 a      1102     1     9     2     7
  4.6711726053350515E-03 a      1103     1     9     2     8
  5.7267099875619132E-01 a      1104     1     9     2     9
 -3.2496466445248717E-01 a      1105     1     9     2    10
 -8.0988154060665796E-01 a      1106     1     9     2    11
 -1.6235884885382212E-01 a      1107     1     9     2    12
 -2.2520517361755456E-02 a      1108     1     9     2    13
  3.7489495299054282E-01 a      1109     1     9     2    14
  2.6123474940378821E-02 a      1110     1     9     2    15
  2.0884829029326199E-01 a      1111     1    10     2     1
 -3.1869458929217309E-01 a      1112     1    10     2     2
 -4.3576227031231540E-01 a      1113     1    10     2     3
 -8.2434497203189494E-01 a      1114     1    10     2     4
 -9.4228287502148045E-01 a      1115     1    10     2     5
 -7.0348827345070897E-01 a      1116     1    10     2     6
 -2.1931093591876222E-01 a      1117     1    10     2     7
  7.5887197760384295E-01 a      1118     1    10     2     8
  5.6122744589178064E-01 a      1119     1    10     2     9
 -2.1504286196517777E-01 a      1120     1    10     2    10
 -1.3832800362491146E-01 a      1121     1    10     2    11
  5.7405726001659363E-01 a      1122     1    10     2    12
 -5.6801524029905393E-01 a      1123     1    10     2    13
 -6.0623482715456978E-01 a      1124     1    10     2    14
 -3.9303034229487344E-01 a      1125     1    10     2    15
 -3.4255403048768901E-01 a      1126     1    11     2     1
 -6.9462650350677002E-01 a      1127     1    11     2     2
 -8.3337229047879691E-01 a      1128     1    11     2     3
  1.0630281301514615E+00 a      1129     1    11     2     4
 -1.2578043590087986E+00 a      1130     1    11     2     5
 -3.1023463534566226E-01 a      1131     1    11     2     6
 -3.6424528447697069E-01 a      1132     1    11     2     7
  1.4371436005709615E-01 a      1133     1    11     2     8
 -1.1781755656376990E-01 a      1134     1    11     2     9
 -1.6167960596830097E-01 a      1135     1    11     2    10
 -1.3370147619375258E-01 a      1136     1    11     2    11
 -5.0824505067236381E-01 a      1137     1    11     2    12
  1.3735036978393292E-01 a      1138     1    11     2    13
 -4.2118148273919126E-01 a      1139     1    11     2    14
  6.5579064040250101E-01 a      1140     1    11     2    15
 -1.1095974718627164E+00 a      1141     1    12     2     1
 -1.4185194764404971E+00 a      1142     1    12     2     2
  5.6844606330409975E-01 a      1143     1    12     2     3
  6.0630665604257739E-01 a      1144     1    12     2     4
 -1.8048295955674238E+00 a      1145     1    12     2     5
  6.4760750618114105E-01 a      1146     1    12     2     6
  3.7785338672733298E-01 a      1147     1    12     2     7
  8.0028038085976933E-03 a      1148     1    12     2     8
 -9.2807139295568764E-01 a      1149     1    12     2     9
 -3.4087758528668949E-01 a      1150     1    12     2    10
  5.4439137452742048E-01 a      1151     1    12     2    11
 -2.9242427481769434E-01 a      1152     1    12     2    12
  1.0211471980069122E+00 a      1153     1    12     2    13
 -1.1007796265125269E+00 a      1154     1    12     2    14
  7.4823144628712657E-01 a      1155     1    12     2    15
  3.5017374787834343E-01 a      1156     1    13     2     1
  1.4685202458374966E+00 a      1157     1    13     2     2
 -9.7736871159244532E-01 a      1158     1    13     2     3
  7.2473969625264478E-02 a      1159     1    13     2     4
 -1.8720811175246269E-01 a      1160     1    13     2     5
 -3.3364487317716546E-01 a      1161     1    13     2     6
 -9.4886029865080745E-01 a      1162     1    13     2     7
  6.5994704098278163E-03 a      1163     1    13     2     8
  9.5928402732633766E-01 a      1164     1    13     2     9
  6.2631579167819806E-01 a      1165     1    13     2    10
 -1.5051709377223732E+00 a      1166     1    13     2    11
  1.5902025592345295E+00 a      1167     1    13     2    12
  1.4525495475186339E+00 a      1168     1    13     2    13
 -1.3153541406570295E+00 a      1169     1    13     2    14
  8.3683374840302671E-01 a      1170     1    13     2    15
  7.7030616855631540E-01 a      1171     1    14     2     1
  7.4365498985587930E-01 a      1172     1    14     2     2
  7.9390699005433940E-01 a      1173     1    14     2     3
 -1.8291891891597909E+00 a      1174     1    14     2     4
  2.1314074939196964E-01 a      1175     1    14     2     5
  5.9799799918349261E-01 a      1176     1    14     2     6
  2.4716555379736987E-01 a      1177     1    14     2     7
  5.1728501225794188E-01 a      1178     1    14     2     8
 -2.4030207666391190E-01 a      1179     1    14     2     9
  3.7910544623573106E-01 a      1180     1    14     2    10
  2.5139281146614467E-01 a      1181     1    14     2    11
  7.2413029285188391E-01 a      1182     1    14     2    12
 -1.6397051756325515E-01 a      1183     1    14     2    13
 -6.7499445142707296E-02 a      1184     1    14     2    14
 -2.7012619769886076E-01 a      1185     1    14     2    15
 -1.1812270899808130E+00 a      1186     1    15     2     1
 -5.7512259676990274E-01 a      1187     1    15     2     2
 -4.5413937028980195E-01 a      1188     1    15     2     3
 -7.9062958296955721E-01 a      1189     1    15     2     4
 -1.1056918280992607E+00 a      1190     1    15     2     5
  2.2472008662006507E-01 a      1191     1    15     2     6
 -6.5594794625598585E-02 a      1192     1    15     2     7
 -2.7927221045129569E-01 a      1193     1    15     2     8
 -3.3196416460635564E-01 a      1194     1    15     2     9
  5.5376212902868349E-01 a      1195     1    15     2    10
  7.3984094379015064E-01 a      1196     1    15     2    11
 -2.9071715659441588E-01 a      1197     1    15     2    12
  1.5031548540203448E+00 a      1198     1    15     2    13
 -5.1045911878733830E-01 a      1199     1    15     2    14
 -4.4946735326752840E-01 a      1200     1    15     2    15
 -1.2868862600559977E-02 b      1201     2     1
  6.7168761918843078E-01 b      1202     2     2
 -2.0545157817909060E-01 b      1203     2     3
 -7.0461117880770729E-01 b      1204     2     4
  2.1471659014943261E+00 b      1205     2     5
 -5.8749997443966495E-01 b      1206     2     6
 -7.9774300649089924E-01 b      1207     2     7
 -3.5849196988290688E-01 b      1208     2     8
  3.4630489192300601E-01 b      1209     2     9
 -7.2527605977670551E-01 b      1210     2    10
  1.3235266312522516E+00 b      1211     2    11
 -1.4149954828870583E+00 b      1212     2    12
 -1.5835240384079654E+00 b      1213     2    13
  8.5005064300394506E-01 b      1214     2    14
  7.8943642686629054E-03 b      1215     2    15
  7.7914108833113682E-01 a      1216     2     1     3     1
 -5.3976336801993519E-01 a      1217     2     2     3     1
 -4.3997869204756423E-01 a      1218     2     3     3     1
  7.8634712826389772E-02 a      1219     2     4     3     1
 -3.1888722188901264E-01 a      1220     2     5     3     1
  9.8627397308725795E-01 a      1221     2     6     3     1
  5.5001568579180682E-01 a      1222     2     7     3     1
 -7.0338812925432970E-01 a      1223     2     8     3     1
  5.7060782092502027E-01 a      1224     2     9     3     1
  6.4402382691058635E-01 a      1225     2    10     3     1
 -2.5008824577950173E-01 a      1226     2    11     3     1
 -4.8257463980399951E-01 a      1227     2    12     3     1
 -2.9736576638672546E-01 a      1228     2    13     3     1
 -5.8078239149976640E-01 a      1229     2    14     3     1
 -6.7353789310061074E-01 a      1230     2    15     3     1
  3.3095418204042132E-01 b      1231     3     1
