################################################################################
# Neural network connection values (weights and biases).
################################################################################
# Col  Name       Description
################################################################################
# 1    connection Neural network connection value.
# 2    t          Connection type (a = weight, b = bias).
# 3    index      Index enumerating weights.
# 4    l_s        Starting point layer (end point layer for biases).
# 5    n_s        Starting point neuron in starting layer (end point neuron for biases).
# 6    l_e        End point layer.
# 7    n_e        End point neuron in end layer.
################################################################################
#                      1 2         3     4     5     6     7
#             connection t     index   l_s   n_s   l_e   n_e
############################################################
  3.5241952559417178E-01 a         1     0     1     1     1
  7.1597894846048638E-01 a         2     0     1     1     2
  1.0682771514049583E-01 a         3     0     1     1     3
  7.6698764088500460E-01 a         4     0     1     1     4
  1.5643380969594831E-01 a         5     0     1     1     5
  1.1087419589005976E+00 a         6     0     1     1     6
 -2.2236683944539445E-01 a         7     0     1     1     7
  7.1586714968168752E-01 a         8     0     1     1     8
  3.9194216566054985E-01 a         9     0     1     1     9
  1.1277175716785472E+00 a        10     0     1     1    10
 -6.6929015755038557E-01 a        11     0     1     1    11
 -8.7094333596065485E-02 a        12     0     1     1    12
 -4.3831418081152773E-01 a        13     0     1     1    13
  5.8518972564492899E-01 a        14     0     1     1    14
  9.7568832475449868E-02 a        15     0     1     1    15
 -2.0802580574897549E-03 a        16     0     2     1     1
 -6.9673576339995813E-01 a        17     0     2     1     2
 -1.6840864956266510E-01 a        18     0     2     1     3
  1.1726490322129495E+00 a        19     0     2     1     4
 -1.4881218717061180E+00 a        20     0     2     1     5
  3.5148314726807722E-01 a        21     0     2     1     6
 -8.2103200590256620E-01 a        22     0     2     1     7
 -5.9799653919037898E-01 a        23     0     2     1     8
  4.8904899215610398E-01 a        24     0     2     1     9
 -9.6195136700645822E-01 a        25     0     2     1    10
 -8.8333860932290487E-01 a        26     0     2     1    11
  7.8908737420864031E-02 a        27     0     2     1    12
  7.4539204733482467E-01 a        28     0     2     1    13
  9.4565408178591537E-01 a        29     0     2     1    14
  5.8463617118098354E-01 a        30     0     2     1    15
 -1.8306368009981394E-01 a        31     0     3     1     1
  6.3650120887896888E-01 a        32     0     3     1     2
  1.2826918319545572E-01 a        33     0     3     1     3
 -6.4522706937698848E-01 a        34     0     3     1     4
  1.1891564183632044E+00 a        35     0     3     1     5
  9.6187550891868798E-03 a        36     0     3     1     6
 -5.9452323647078475E-01 a        37     0     3     1     7
  7.1069141382323939E-02 a        38     0     3     1     8
  2.2351649940835441E-01 a        39     0     3     1     9
 -6.8374780344524588E-01 a        40     0     3     1    10
  5.7821070908082556E-02 a        41     0     3     1    11
  7.6179515297660017E-01 a        42     0     3     1    12
 -1.5086283143022611E-01 a        43     0     3     1    13
 -6.8626136427687268E-01 a        44     0     3     1    14
  3.6954904228929775E-01 a        45     0     3     1    15
 -1.1146551583005022E-01 a        46     0     4     1     1
 -7.4861670401263203E-01 a        47     0     4     1     2
 -1.2095994721187948E+00 a        48     0     4     1     3
  5.3120638979159651E-01 a        49     0     4     1     4
  4.0911656566411420E-01 a        50     0     4     1     5
 -1.3338724567605418E+00 a        51     0     4     1     6
 -9.8406965568321858E-01 a        52     0     4     1     7
  5.5378069721418388E-01 a        53     0     4     1     8
  5.4967167446552900E-01 a        54     0     4     1     9
  1.5990475188276354E-01 a        55     0     4     1    10
  1.9760801528802177E-02 a        56     0     4     1    11
 -9.3044619329268041E-01 a        57     0     4     1    12
 -9.8021847671297124E-02 a        58     0     4     1    13
 -3.3718807371050985E-01 a        59     0     4     1    14
  1.3496446731027643E-02 a        60     0     4     1    15
  3.3104805805583543E-01 a        61     0     5     1     1
 -1.0491880727280072E-01 a        62     0     5     1     2
  4.6002008266311267E-01 a        63     0     5     1     3
 -6.2653007385951021E-01 a        64     0     5     1     4
 -7.8231461100412203E-01 a        65     0     5     1     5
 -3.6025387514607699E-01 a        66     0     5     1     6
 -2.2887503304511722E-01 a        67     0     5     1     7
  6.3758881470707673E-01 a        68     0     5     1     8
 -1.0075887244380946E+00 a        69     0     5     1     9
 -5.6056161380250558E-01 a        70     0     5     1    10
  4.6745369201233450E-01 a        71     0     5     1    11
 -2.7333209293464628E-01 a        72     0     5     1    12
  4.3606904461967622E-01 a        73     0     5     1    13
  4.4134536263407970E-01 a        74     0     5     1    14
 -1.6801787199329671E-01 a        75     0     5     1    15
 -9.5408593213704429E-01 a        76     0     6     1     1
 -1.0767463091685079E+00 a        77     0     6     1     2
 -1.2521713801982767E-01 a        78     0     6     1     3
  9.5622578171903727E-01 a        79     0     6     1     4
 -7.4900433784598697E-01 a        80     0     6     1     5
  8.6118830049707773E-01 a        81     0     6     1     6
 -1.0907168186217655E+00 a        82     0     6     1     7
 -7.3597010760789083E-01 a        83     0     6     1     8
  1.0290658255146898E+00 a        84     0     6     1     9
 -6.4570715201197726E-01 a        85     0     6     1    10
 -1.0721910649986446E+00 a        86     0     6     1    11
  3.2193456934178538E-01 a        87     0     6     1    12
  6.8998836554677578E-01 a        88     0     6     1    13
 -7.8716437560909208E-02 a        89     0     6     1    14
 -3.4614472203638397E-01 a        90     0     6     1    15
 -1.2730308397113051E-03 a        91     0     7     1     1
 -2.9255460739276923E-01 a        92     0     7     1     2
  6.3892742490068100E-01 a        93     0     7     1     3
  4.0571044694179226E-01 a        94     0     7     1     4
 -1.5226593334319629E+00 a        95     0     7     1     5
 -7.9193432198430924E-01 a        96     0     7     1     6
 -2.2477425385890849E-02 a        97     0     7     1     7
 -7.6772271230746736E-01 a        98     0     7     1     8
  1.7557828310533691E-01 a        99     0     7     1     9
  2.1957411588981103E-02 a       100     0     7     1    10
 -4.1447905513718813E-01 a       101     0     7     1    11
  6.3827317555277607E-01 a       102     0     7     1    12
  7.4617344506009220E-01 a       103     0     7     1    13
 -9.7392496034727971E-01 a       104     0     7     1    14
 -8.0544533810742203E-01 a       105     0     7     1    15
  4.4942913257987804E-01 a       106     0     8     1     1
 -9.8158134773282268E-01 a       107     0     8     1     2
  6.4291061066818578E-01 a       108     0     8     1     3
  4.5257277904642623E-01 a       109     0     8     1     4
  7.8478037875971751E-01 a       110     0     8     1     5
 -1.3105631766196660E-01 a       111     0     8     1     6
  7.5897725282438022E-01 a       112     0     8     1     7
 -9.0388949351145975E-01 a       113     0     8     1     8
 -1.9871896756197893E-01 a       114     0     8     1     9
  1.0726744954301877E+00 a       115     0     8     1    10
  2.8243940059430944E-01 a       116     0     8     1    11
  3.2581477522037516E-01 a       117     0     8     1    12
 -2.5693471393814982E-01 a       118     0     8     1    13
  2.1857691220009029E-01 a       119     0     8     1    14
 -1.5130341710069765E-03 a       120     0     8     1    15
 -8.9527160535558670E-01 a       121     0     9     1     1
 -3.5952375478263698E-01 a       122     0     9     1     2
  6.5926998086363708E-01 a       123     0     9     1     3
  2.6597474231819684E-01 a       124     0     9     1     4
  6.9416782474892869E-01 a       125     0     9     1     5
 -2.6456201096943072E-01 a       126     0     9     1     6
 -1.7754522085037314E-01 a       127     0     9     1     7
 -8.0828699218158051E-01 a       128     0     9     1     8
  7.4553329575229521E-01 a       129     0     9     1     9
  2.4969987462733134E-01 a       130     0     9     1    10
 -7.8042698442966296E-01 a       131     0     9     1    11
 -4.5695901795063010E-01 a       132     0     9     1    12
  2.9430979539840990E-01 a       133     0     9     1    13
 -4.0788767407946891E-01 a       134     0     9     1    14
  5.6250462640787924E-02 a       135     0     9     1    15
  4.6734571043993006E-01 a       136     0    10     1     1
  7.3724048350928251E-01 a       137     0    10     1     2
 -9.0747881859097723E-01 a       138     0    10     1     3
 -1.1692561922380678E+00 a       139     0    10     1     4
  6.2516922128314695E-02 a       140     0    10     1     5
 -4.8737493380964315E-02 a       141     0    10     1     6
 -1.1321051703168450E+00 a       142     0    10     1     7
 -9.6217936307569141E-02 a       143     0    10     1     8
  6.2044074227218970E-01 a       144     0    10     1     9
 -7.7019978127234087E-02 a       145     0    10     1    10
  6.0159819476698628E-01 a       146     0    10     1    11
 -1.8573155700381497E-01 a       147     0    10     1    12
 -5.8890003932696167E-01 a       148     0    10     1    13
  1.6194994525680659E-01 a       149     0    10     1    14
  7.4096909763262531E-01 a       150     0    10     1    15
  1.2799989875034907E+00 a       151     0    11     1     1
 -6.6695559688549511E-01 a       152     0    11     1     2
 -5.4390820964888742E-01 a       153     0    11     1     3
 -7.2520581399320816E-01 a       154     0    11     1     4
  4.9319576106004054E-01 a       155     0    11     1     5
  1.3062938877391912E+00 a       156     0    11     1     6
 -9.1427028590762016E-01 a       157     0    11     1     7
  1.1637917469362242E+00 a       158     0    11     1     8
 -2.6011641964559723E-01 a       159     0    11     1     9
  3.9664872302983450E-01 a       160     0    11     1    10
  4.0050758924108659E-01 a       161     0    11     1    11
 -3.1069072287451288E-01 a       162     0    11     1    12
 -1.8719399737594652E-01 a       163     0    11     1    13
  8.8437054008970550E-01 a       164     0    11     1    14
  2.2077072494929402E+00 a       165     0    11     1    15
 -1.2284325632275064E+00 a       166     0    12     1     1
  2.9625010310034516E-01 a       167     0    12     1     2
  4.8825396312148567E-01 a       168     0    12     1     3
 -1.1908843743299955E+00 a       169     0    12     1     4
 -2.3679848192990122E-01 a       170     0    12     1     5
  7.4250893170864496E-01 a       171     0    12     1     6
  4.8763518214421359E-01 a       172     0    12     1     7
  2.9132022194306284E-01 a       173     0    12     1     8
 -9.7760237314629272E-01 a       174     0    12     1     9
 -4.2505819615025503E-02 a       175     0    12     1    10
 -2.2496834925037174E-01 a       176     0    12     1    11
 -9.6917615854327110E-01 a       177     0    12     1    12
  4.4790872247923003E-01 a       178     0    12     1    13
  1.0381277493948866E+00 a       179     0    12     1    14
  6.0466839679147855E-01 a       180     0    12     1    15
  1.1274159154242489E+00 a       181     0    13     1     1
 -4.6948316881125185E-01 a       182     0    13     1     2
 -5.5912079216134947E-01 a       183     0    13     1     3
 -2.5354773846806694E-01 a       184     0    13     1     4
  4.4354511110968348E-01 a       185     0    13     1     5
  7.8808309324914139E-01 a       186     0    13     1     6
  2.3768343464088512E-01 a       187     0    13     1     7
  4.8499190161143563E-01 a       188     0    13     1     8
 -9.5948345423584602E-01 a       189     0    13     1     9
  1.7310852764519583E-01 a       190     0    13     1    10
 -2.2387125024288559E-01 a       191     0    13     1    11
 -1.3349964824463296E+00 a       192     0    13     1    12
 -1.6765428693012591E-01 a       193     0    13     1    13
  8.2255900850426500E-02 a       194     0    13     1    14
 -5.3533517273551379E+00 a       195     0    13     1    15
  3.6532748630853817E-01 a       196     0    14     1     1
 -1.0006558174216040E-01 a       197     0    14     1     2
 -5.1523984638818565E-01 a       198     0    14     1     3
  1.6054003652237334E+00 a       199     0    14     1     4
  2.2854762666674016E+00 a       200     0    14     1     5
 -3.8373075102610060E-01 a       201     0    14     1     6
 -4.2655144905025366E-01 a       202     0    14     1     7
 -1.2288078577802295E+00 a       203     0    14     1     8
 -1.7895364957670976E-01 a       204     0    14     1     9
 -1.9826080992816970E-02 a       205     0    14     1    10
 -8.2918510314273372E-02 a       206     0    14     1    11
 -1.2255257620269706E-01 a       207     0    14     1    12
  1.3393040858697430E-01 a       208     0    14     1    13
 -1.7584720534881100E+00 a       209     0    14     1    14
 -4.4242774386970392E-02 a       210     0    14     1    15
  8.8397418873917666E-01 a       211     0    15     1     1
  5.4939601630479795E-01 a       212     0    15     1     2
  7.6146098195871523E-02 a       213     0    15     1     3
  3.4428293227211004E-01 a       214     0    15     1     4
  1.2445034587084425E+00 a       215     0    15     1     5
 -6.4137094843097486E-01 a       216     0    15     1     6
 -3.7458399052486524E-01 a       217     0    15     1     7
 -3.7223173367686607E-01 a       218     0    15     1     8
  1.3074873515759218E+00 a       219     0    15     1     9
  2.2446550869878859E-01 a       220     0    15     1    10
  3.9083635593773702E-01 a       221     0    15     1    11
 -3.8642641877764500E-01 a       222     0    15     1    12
  2.4612662786221723E-01 a       223     0    15     1    13
 -6.6857250044866579E-01 a       224     0    15     1    14
  3.9553898328337804E+00 a       225     0    15     1    15
 -3.3033687928160249E-01 a       226     0    16     1     1
 -1.8442740476772029E-01 a       227     0    16     1     2
  4.1070665971775333E-01 a       228     0    16     1     3
 -3.5348571539272639E-01 a       229     0    16     1     4
 -5.6042335183811132E-01 a       230     0    16     1     5
 -1.3114406233204107E-01 a       231     0    16     1     6
 -3.8887435960044153E-01 a       232     0    16     1     7
  4.5484066497989506E-01 a       233     0    16     1     8
 -4.9263357715008016E-01 a       234     0    16     1     9
  3.1007143295114536E-01 a       235     0    16     1    10
  3.0451376845936273E-01 a       236     0    16     1    11
 -2.9576633223418275E-01 a       237     0    16     1    12
 -1.1249800474620902E-01 a       238     0    16     1    13
  2.4341565958106728E-01 a       239     0    16     1    14
  3.1478122288880589E-01 a       240     0    16     1    15
  5.1913320912756189E-01 a       241     0    17     1     1
  1.0005181863354138E+00 a       242     0    17     1     2
  1.8694053974203018E-01 a       243     0    17     1     3
  2.3457689003364410E-01 a       244     0    17     1     4
  6.4016308286013701E-01 a       245     0    17     1     5
  2.9664034578042003E-01 a       246     0    17     1     6
 -8.0798605086045716E-01 a       247     0    17     1     7
  3.6668728274415685E-01 a       248     0    17     1     8
  1.2682735983091148E-01 a       249     0    17     1     9
  4.7541871950724779E-01 a       250     0    17     1    10
  1.0516542612347037E-01 a       251     0    17     1    11
 -1.3473250012358945E-01 a       252     0    17     1    12
  6.3399828488080856E-01 a       253     0    17     1    13
  3.3211552947882761E-01 a       254     0    17     1    14
 -1.8700585752926591E-02 a       255     0    17     1    15
 -2.1656324855539330E-01 a       256     0    18     1     1
 -6.9307716114155662E-02 a       257     0    18     1     2
  6.3630905997620046E-01 a       258     0    18     1     3
 -3.8362154669189458E-01 a       259     0    18     1     4
 -3.5954182117547785E-02 a       260     0    18     1     5
  3.7796807402645571E-02 a       261     0    18     1     6
  7.9999714826189361E-01 a       262     0    18     1     7
 -6.0855304798997034E-01 a       263     0    18     1     8
 -8.4598265426891561E-01 a       264     0    18     1     9
  4.9934598315890694E-01 a       265     0    18     1    10
  3.1032938270459670E-01 a       266     0    18     1    11
 -2.4988673826485924E-01 a       267     0    18     1    12
  5.4911944265931933E-01 a       268     0    18     1    13
  2.7796339490327215E-01 a       269     0    18     1    14
 -4.6524902834577114E-01 a       270     0    18     1    15
  3.4075165821897074E-01 a       271     0    19     1     1
 -1.4761932231533210E+00 a       272     0    19     1     2
  8.9290827815481055E-01 a       273     0    19     1     3
 -9.7941631358295944E-01 a       274     0    19     1     4
 -1.0316575578048868E+00 a       275     0    19     1     5
  3.0341435569950809E-01 a       276     0    19     1     6
 -4.5039907066492119E-01 a       277     0    19     1     7
  7.2513071808967411E-01 a       278     0    19     1     8
 -1.1589882549662653E-02 a       279     0    19     1     9
 -3.6568475846670567E-01 a       280     0    19     1    10
 -2.8411248085028468E-01 a       281     0    19     1    11
  9.1737239009120142E-01 a       282     0    19     1    12
  4.0913036907385814E-01 a       283     0    19     1    13
 -1.6123731755074464E+00 a       284     0    19     1    14
  1.8856466941885437E+00 a       285     0    19     1    15
 -7.7902250211107460E-01 a       286     0    20     1     1
 -7.7931520275990673E-01 a       287     0    20     1     2
 -7.5824853791131996E-01 a       288     0    20     1     3
 -6.8664201967220129E-01 a       289     0    20     1     4
 -3.6188086977345163E-01 a       290     0    20     1     5
  7.1331671824840584E-02 a       291     0    20     1     6
  1.6733590979993651E+00 a       292     0    20     1     7
 -1.0671551582680063E+00 a       293     0    20     1     8
 -2.5589260907404687E-01 a       294     0    20     1     9
 -7.1900987412055839E-01 a       295     0    20     1    10
 -1.2614453932088790E-01 a       296     0    20     1    11
 -4.3512411290065744E-01 a       297     0    20     1    12
 -8.9212850447883196E-01 a       298     0    20     1    13
  4.9455306837570900E-01 a       299     0    20     1    14
  4.4843383118781699E-01 a       300     0    20     1    15
  6.1927917997065496E-01 a       301     0    21     1     1
 -7.3845802279645334E-01 a       302     0    21     1     2
 -1.1404509330938523E-01 a       303     0    21     1     3
 -4.1757953924704860E-01 a       304     0    21     1     4
  4.7329974830018878E-01 a       305     0    21     1     5
  8.7874079055297494E-01 a       306     0    21     1     6
 -1.5301855832265857E-01 a       307     0    21     1     7
 -8.5826648476301104E-01 a       308     0    21     1     8
 -6.2796199290356591E-01 a       309     0    21     1     9
 -4.2379599005726998E-01 a       310     0    21     1    10
 -1.4748659208252241E-01 a       311     0    21     1    11
  4.8360156132818202E-02 a       312     0    21     1    12
 -9.6955158035906941E-01 a       313     0    21     1    13
  2.8445189560065381E-01 a       314     0    21     1    14
 -1.1790572057640011E-01 a       315     0    21     1    15
 -3.4943151848069226E-01 a       316     0    22     1     1
  8.5160973122408701E-01 a       317     0    22     1     2
  8.9673031412303017E-01 a       318     0    22     1     3
 -6.6123463631907586E-01 a       319     0    22     1     4
  5.5888018979161191E-03 a       320     0    22     1     5
 -1.9047066877687974E-01 a       321     0    22     1     6
 -1.4619934470473564E-01 a       322     0    22     1     7
  1.3321068361715636E+00 a       323     0    22     1     8
 -8.4053976284560261E-01 a       324     0    22     1     9
 -3.5316960973486972E-01 a       325     0    22     1    10
  1.9239149846699241E-01 a       326     0    22     1    11
 -1.3484782106028034E-01 a       327     0    22     1    12
 -2.0987572761856148E+00 a       328     0    22     1    13
  7.7948599968466992E-01 a       329     0    22     1    14
  3.7308777266531629E-01 a       330     0    22     1    15
  1.6441238122603527E-01 a       331     0    23     1     1
  6.6152154454215817E-01 a       332     0    23     1     2
 -3.1329835419552227E-01 a       333     0    23     1     3
  7.1728377696697421E-01 a       334     0    23     1     4
  4.8571503633772206E-01 a       335     0    23     1     5
 -7.4428907689840540E-01 a       336     0    23     1     6
  3.3327079642072412E-02 a       337     0    23     1     7
  9.8825956738166487E-01 a       338     0    23     1     8
 -8.5965919028670623E-02 a       339     0    23     1     9
  1.6880687994604668E-01 a       340     0    23     1    10
  4.9928840924233819E-01 a       341     0    23     1    11
  1.2125382860631853E+00 a       342     0    23     1    12
  4.8913179404608365E-01 a       343     0    23     1    13
 -1.1435987038500985E+00 a       344     0    23     1    14
  2.3082039002407356E-01 a       345     0    23     1    15
  2.6148095408376881E-01 a       346     0    24     1     1
 -2.2480902204588882E-01 a       347     0    24     1     2
 -9.7246117106737218E-01 a       348     0    24     1     3
 -3.3523709243013977E-01 a       349     0    24     1     4
 -4.9060071226634910E-01 a       350     0    24     1     5
 -6.4049299929418035E-01 a       351     0    24     1     6
 -3.8719201196553599E-01 a       352     0    24     1     7
  2.8392279821613708E-01 a       353     0    24     1     8
  1.7572380531893345E-01 a       354     0    24     1     9
 -5.9133154739799942E-01 a       355     0    24     1    10
 -5.4821688757045489E-02 a       356     0    24     1    11
 -3.2829366015659950E-01 a       357     0    24     1    12
  5.2342294945299350E-01 a       358     0    24     1    13
 -5.6304296992632774E-01 a       359     0    24     1    14
  4.7866319193046425E-01 a       360     0    24     1    15
 -1.6258006667203106E+00 a       361     0    25     1     1
 -3.1023129895241086E-01 a       362     0    25     1     2
 -4.3920205200686752E-01 a       363     0    25     1     3
 -3.5579791289675211E-01 a       364     0    25     1     4
  1.0257565477268360E+00 a       365     0    25     1     5
  2.2008413008043409E-01 a       366     0    25     1     6
  1.3256693878099554E-01 a       367     0    25     1     7
 -1.0260105371737958E+00 a       368     0    25     1     8
 -4.2900591244443087E-01 a       369     0    25     1     9
 -5.6815206889390590E-01 a       370     0    25     1    10
 -1.4284235633327650E-02 a       371     0    25     1    11
 -3.4087410515214095E-01 a       372     0    25     1    12
 -1.9851844654509296E-01 a       373     0    25     1    13
 -4.6005935270820045E-02 a       374     0    25     1    14
  5.6155346394582117E-01 a       375     0    25     1    15
 -7.9196159162924706E-01 a       376     0    26     1     1
 -5.5982036342139219E-01 a       377     0    26     1     2
 -7.5982464171421815E-01 a       378     0    26     1     3
 -7.7552833210627037E-01 a       379     0    26     1     4
  3.1091791906850814E-02 a       380     0    26     1     5
 -1.5720600336738016E-01 a       381     0    26     1     6
  2.2843497785997462E-02 a       382     0    26     1     7
  1.9848702138048635E-01 a       383     0    26     1     8
  1.7036196022837078E+00 a       384     0    26     1     9
 -1.6962470268772464E-01 a       385     0    26     1    10
 -4.0812947430576585E-01 a       386     0    26     1    11
  7.7748320796586157E-01 a       387     0    26     1    12
  4.9969538922645960E-02 a       388     0    26     1    13
 -4.7505060769058671E-01 a       389     0    26     1    14
 -2.5565151300134620E-01 a       390     0    26     1    15
 -6.9088899390137137E-01 a       391     0    27     1     1
 -2.2336228571171335E-01 a       392     0    27     1     2
 -3.4803228492590689E-02 a       393     0    27     1     3
  2.6650487704586967E-01 a       394     0    27     1     4
 -4.4593782389289455E-01 a       395     0    27     1     5
  2.7992894950684072E-01 a       396     0    27     1     6
  1.2588308557153874E-01 a       397     0    27     1     7
  1.5946127440884236E-02 a       398     0    27     1     8
  8.6668648707939633E-01 a       399     0    27     1     9
  2.7179198703646529E-01 a       400     0    27     1    10
 -5.1504749657881155E-02 a       401     0    27     1    11
 -4.7122634733250462E-01 a       402     0    27     1    12
  1.3716318789110027E-01 a       403     0    27     1    13
 -2.6041900041151750E-01 a       404     0    27     1    14
 -1.7391325768460561E-01 a       405     0    27     1    15
 -4.0609093178547601E-01 a       406     0    28     1     1
 -1.0804358813162267E-02 a       407     0    28     1     2
 -3.2382109821088750E-01 a       408     0    28     1     3
 -1.9402992530083410E-01 a       409     0    28     1     4
  3.1094933989192369E-01 a       410     0    28     1     5
 -5.9210393924939630E-01 a       411     0    28     1     6
 -1.1896384178033145E-04 a       412     0    28     1     7
  9.8050051914152128E-02 a       413     0    28     1     8
 -3.7981100719314248E-01 a       414     0    28     1     9
  5.6961749938857154E-01 a       415     0    28     1    10
 -2.6183676298206343E-01 a       416     0    28     1    11
 -4.1928906397947491E-01 a       417     0    28     1    12
 -1.6047562411857702E-01 a       418     0    28     1    13
 -9.9350747508748027E-01 a       419     0    28     1    14
 -1.1952786785238916E+00 a       420     0    28     1    15
 -1.1055169514144299E-01 a       421     0    29     1     1
 -1.1280881799501092E+00 a       422     0    29     1     2
  5.2720056871106313E-01 a       423     0    29     1     3
 -6.9382383928930103E-01 a       424     0    29     1     4
 -1.5169602708533145E+00 a       425     0    29     1     5
 -9.5122428251326024E-02 a       426     0    29     1     6
 -4.2144523538825479E-01 a       427     0    29     1     7
 -2.4404879468486074E-02 a       428     0    29     1     8
  1.3880989508467403E-01 a       429     0    29     1     9
 -7.3998306894361576E-01 a       430     0    29     1    10
 -1.3686659584448242E-02 a       431     0    29     1    11
 -8.8897354789103966E-01 a       432     0    29     1    12
  1.6864453582713465E-01 a       433     0    29     1    13
  4.5718519795924578E-01 a       434     0    29     1    14
 -4.1671853700847150E-01 a       435     0    29     1    15
  4.0965289793867393E-01 a       436     0    30     1     1
 -6.3866546096684229E-01 a       437     0    30     1     2
  1.0671401657096049E+00 a       438     0    30     1     3
  9.5121562487780753E-01 a       439     0    30     1     4
  4.4545012516231253E-01 a       440     0    30     1     5
 -6.7657836083683337E-02 a       441     0    30     1     6
  6.1754779691162509E-01 a       442     0    30     1     7
  3.9931891728216146E-01 a       443     0    30     1     8
  4.7041872699953763E-01 a       444     0    30     1     9
 -2.0687394835737441E-01 a       445     0    30     1    10
 -2.6825692831820874E-01 a       446     0    30     1    11
  1.7093588703798518E-01 a       447     0    30     1    12
 -5.0990241245232415E-01 a       448     0    30     1    13
 -1.9529317672335200E-01 a       449     0    30     1    14
  1.6707851640113167E-01 a       450     0    30     1    15
  1.6208600481816999E+00 a       451     0    31     1     1
  3.6632478378870109E-01 a       452     0    31     1     2
  6.8944334822200870E-01 a       453     0    31     1     3
  9.7164771568364416E-01 a       454     0    31     1     4
 -4.4893804709546703E-01 a       455     0    31     1     5
  7.2409821727235057E-01 a       456     0    31     1     6
  6.6800015934925860E-01 a       457     0    31     1     7
 -2.9685390741716727E-01 a       458     0    31     1     8
 -5.8387721526220271E-01 a       459     0    31     1     9
  2.8365920558790431E-01 a       460     0    31     1    10
  4.8792112514235525E-01 a       461     0    31     1    11
  6.2801639412152721E-01 a       462     0    31     1    12
  7.9399153349680207E-01 a       463     0    31     1    13
 -8.5250297879668091E-01 a       464     0    31     1    14
 -3.1577618029352095E-01 a       465     0    31     1    15
  1.5697062852257390E-01 a       466     0    32     1     1
 -4.3004286947196872E-02 a       467     0    32     1     2
  2.8045699976478031E-02 a       468     0    32     1     3
  6.6037748147285613E-01 a       469     0    32     1     4
  6.2620788554117301E-01 a       470     0    32     1     5
  7.6511477321028781E-02 a       471     0    32     1     6
 -1.7361386119814209E-01 a       472     0    32     1     7
  3.6619721977523167E-01 a       473     0    32     1     8
  5.4891780299076112E-02 a       474     0    32     1     9
  7.2115350330330064E-01 a       475     0    32     1    10
  1.3305538589831514E-01 a       476     0    32     1    11
  7.1025056544108367E-01 a       477     0    32     1    12
 -3.0609783862725226E-01 a       478     0    32     1    13
  2.1534638025748820E-01 a       479     0    32     1    14
 -4.9894881156007814E-01 a       480     0    32     1    15
  3.1657127320218753E-01 a       481     0    33     1     1
  4.7460965862744764E-01 a       482     0    33     1     2
 -3.6520189021880239E-01 a       483     0    33     1     3
 -5.3468504142172878E-02 a       484     0    33     1     4
 -4.0275683235442877E-01 a       485     0    33     1     5
 -4.1720043388296130E-02 a       486     0    33     1     6
  2.0134225762843108E-01 a       487     0    33     1     7
  9.1983894042153169E-01 a       488     0    33     1     8
  4.8406045817029569E-01 a       489     0    33     1     9
 -8.6057109043985835E-01 a       490     0    33     1    10
  6.9242342073711771E-01 a       491     0    33     1    11
 -2.3687625334457389E-02 a       492     0    33     1    12
 -5.2344224967821318E-01 a       493     0    33     1    13
  8.3662816802963808E-02 a       494     0    33     1    14
  4.6008178615395151E-01 a       495     0    33     1    15
 -4.5250067692576043E-02 a       496     0    34     1     1
  2.2131605765106457E+00 a       497     0    34     1     2
  8.0346794230261240E-02 a       498     0    34     1     3
  7.2436751080143927E-02 a       499     0    34     1     4
  1.1630515744060916E+00 a       500     0    34     1     5
  3.8602828778714499E-01 a       501     0    34     1     6
 -1.6011495541940424E-01 a       502     0    34     1     7
 -9.8210179081239435E-01 a       503     0    34     1     8
  9.4225802546773785E-01 a       504     0    34     1     9
  9.4061880515905816E-01 a       505     0    34     1    10
  3.4280390058765753E-01 a       506     0    34     1    11
 -1.0369114419533410E+00 a       507     0    34     1    12
  8.9187415258190628E-02 a       508     0    34     1    13
 -7.1653829460337781E-01 a       509     0    34     1    14
  4.0441005948385211E-01 a       510     0    34     1    15
  2.2023978824663354E-01 a       511     0    35     1     1
 -7.4379939242969317E-01 a       512     0    35     1     2
 -4.2887471149010914E-01 a       513     0    35     1     3
 -4.2675187665180719E-01 a       514     0    35     1     4
 -2.0622973253950103E-01 a       515     0    35     1     5
 -7.0244941623127354E-03 a       516     0    35     1     6
  8.0529838706790557E-01 a       517     0    35     1     7
 -8.3569675787745545E-01 a       518     0    35     1     8
  1.5745557196437407E-01 a       519     0    35     1     9
  2.4550242019665958E-01 a       520     0    35     1    10
 -6.3024214381285504E-01 a       521     0    35     1    11
 -1.0442831050050210E+00 a       522     0    35     1    12
 -3.7492691769353037E-01 a       523     0    35     1    13
 -2.7015013583557164E-03 a       524     0    35     1    14
 -1.4796656736650138E-01 a       525     0    35     1    15
  2.7493070615698245E-01 a       526     0    36     1     1
 -1.3722749938089185E-01 a       527     0    36     1     2
 -9.1533713647623371E-01 a       528     0    36     1     3
  5.2975964470930970E-01 a       529     0    36     1     4
  1.2276532248863554E-01 a       530     0    36     1     5
  6.0040235255585650E-01 a       531     0    36     1     6
 -4.0266472086081373E-01 a       532     0    36     1     7
 -6.2296420757604123E-02 a       533     0    36     1     8
  3.0125715982627682E-01 a       534     0    36     1     9
  8.6975943075554474E-01 a       535     0    36     1    10
  8.5114187171621614E-02 a       536     0    36     1    11
  2.2905105855351465E-01 a       537     0    36     1    12
 -4.9811961600304926E-02 a       538     0    36     1    13
  2.4610428815398988E-01 a       539     0    36     1    14
 -5.2018355560242990E-01 a       540     0    36     1    15
 -5.2960433462272594E-01 a       541     0    37     1     1
  1.5924028222253821E+00 a       542     0    37     1     2
  2.6737769564276376E-01 a       543     0    37     1     3
  7.9072997789309740E-01 a       544     0    37     1     4
 -7.5376708233326761E-01 a       545     0    37     1     5
 -2.5937893611262047E-01 a       546     0    37     1     6
  4.0894909730187506E-01 a       547     0    37     1     7
  1.8639288747375224E-01 a       548     0    37     1     8
  3.5392262449860373E-01 a       549     0    37     1     9
  6.7413124090309884E-01 a       550     0    37     1    10
 -9.2217536463098840E-02 a       551     0    37     1    11
  3.4285630602349482E-01 a       552     0    37     1    12
 -1.0746940482246004E+00 a       553     0    37     1    13
  2.1982448300001023E-01 a       554     0    37     1    14
 -2.2929193282307775E-01 a       555     0    37     1    15
  4.5038249289325227E-01 a       556     0    38     1     1
  8.8703142920422529E-01 a       557     0    38     1     2
  7.7742261303304860E-01 a       558     0    38     1     3
  1.1346416254134579E+00 a       559     0    38     1     4
  3.2266418873190449E-02 a       560     0    38     1     5
 -1.0658272954088288E+00 a       561     0    38     1     6
 -6.1529130001587262E-01 a       562     0    38     1     7
  1.1832460890691764E-01 a       563     0    38     1     8
 -1.3229613914561156E+00 a       564     0    38     1     9
  4.8292967624188260E-01 a       565     0    38     1    10
  8.2913708813560971E-01 a       566     0    38     1    11
 -1.7239826764116333E+00 a       567     0    38     1    12
  8.1783177808510610E-01 a       568     0    38     1    13
  1.2962441419488871E-01 a       569     0    38     1    14
  2.0440156612040569E-01 a       570     0    38     1    15
  2.0734781981331443E-01 a       571     0    39     1     1
  4.0019454084714512E-01 a       572     0    39     1     2
  2.4135016386874503E-01 a       573     0    39     1     3
 -1.4856439922122872E-01 a       574     0    39     1     4
 -6.6122415078077354E-02 a       575     0    39     1     5
 -3.9730276749787458E-01 a       576     0    39     1     6
  1.7087402554658193E-03 a       577     0    39     1     7
  6.0111927599287143E-02 a       578     0    39     1     8
 -9.9501948872736568E-01 a       579     0    39     1     9
 -1.9606403507892504E-02 a       580     0    39     1    10
 -8.7264065829190468E-02 a       581     0    39     1    11
  5.6743684458575094E-01 a       582     0    39     1    12
 -1.2699562590616537E-01 a       583     0    39     1    13
  4.6693867738518147E-01 a       584     0    39     1    14
  7.2769849574263112E-03 a       585     0    39     1    15
  6.6318918275031402E-01 a       586     0    40     1     1
 -1.1667030090982279E-01 a       587     0    40     1     2
 -8.2112044147436614E-02 a       588     0    40     1     3
  2.2482843377055600E-01 a       589     0    40     1     4
  3.6488728083769728E-01 a       590     0    40     1     5
  2.4831471698322533E-01 a       591     0    40     1     6
  5.5203342795134225E-01 a       592     0    40     1     7
  5.7231995025287870E-02 a       593     0    40     1     8
  5.4592303985534285E-01 a       594     0    40     1     9
 -2.8993471593352760E-01 a       595     0    40     1    10
  3.0351738605113310E-01 a       596     0    40     1    11
  5.8386319877747994E-01 a       597     0    40     1    12
  2.3455819987959878E-01 a       598     0    40     1    13
  1.5732089110923023E-01 a       599     0    40     1    14
  1.5215905840873174E+00 a       600     0    40     1    15
  7.8849118806446739E-01 a       601     0    41     1     1
  5.2289158146395454E-01 a       602     0    41     1     2
  4.5507675949248494E-01 a       603     0    41     1     3
  5.6264976015304197E-02 a       604     0    41     1     4
  5.0192524188807175E-01 a       605     0    41     1     5
  1.1272071106454695E+00 a       606     0    41     1     6
 -2.4923045614731720E-01 a       607     0    41     1     7
 -5.4103596492763570E-02 a       608     0    41     1     8
 -2.6602074312899976E-01 a       609     0    41     1     9
 -1.7401235832837514E-01 a       610     0    41     1    10
  4.1676475787465006E-01 a       611     0    41     1    11
  3.2540838578113174E-01 a       612     0    41     1    12
  4.4580395441791049E-01 a       613     0    41     1    13
  5.4406194769266147E-01 a       614     0    41     1    14
  1.4374693426558269E-01 a       615     0    41     1    15
 -6.1047996221679168E-01 a       616     0    42     1     1
  1.1029508642917387E+00 a       617     0    42     1     2
 -2.2779979960367524E-02 a       618     0    42     1     3
 -2.5842427785668903E-01 a       619     0    42     1     4
 -2.2597675724188987E-01 a       620     0    42     1     5
 -4.6638915084446897E-01 a       621     0    42     1     6
 -5.6155705819540802E-01 a       622     0    42     1     7
 -4.3639153528016417E-01 a       623     0    42     1     8
  4.8096839769797051E-01 a       624     0    42     1     9
 -3.0529893349324755E-01 a       625     0    42     1    10
  1.1391377176591443E-01 a       626     0    42     1    11
 -2.8787937544818409E-01 a       627     0    42     1    12
 -4.3478130544261334E-01 a       628     0    42     1    13
 -1.1250929103644697E-01 a       629     0    42     1    14
  2.1123144862537421E-01 a       630     0    42     1    15
  7.0861370983465921E-01 a       631     0    43     1     1
 -1.0476915733772505E+00 a       632     0    43     1     2
  8.3536544140160551E-01 a       633     0    43     1     3
 -5.3838666453701452E-02 a       634     0    43     1     4
 -1.4149545868775878E-01 a       635     0    43     1     5
 -1.2012399932093756E+00 a       636     0    43     1     6
  3.6428568795721267E-01 a       637     0    43     1     7
 -8.2862466627920656E-02 a       638     0    43     1     8
 -3.8182157705223770E-02 a       639     0    43     1     9
  5.7573634329559520E-01 a       640     0    43     1    10
  1.6054758348902831E-01 a       641     0    43     1    11
  5.0628202326687100E-01 a       642     0    43     1    12
  1.1961171511287756E+00 a       643     0    43     1    13
 -1.1677890154611019E+00 a       644     0    43     1    14
  3.8313868836238407E-01 a       645     0    43     1    15
 -8.5804205948725093E-02 a       646     0    44     1     1
  4.4210651030924636E-01 a       647     0    44     1     2
  5.3661670952159768E-01 a       648     0    44     1     3
  5.4843363996703559E-02 a       649     0    44     1     4
  4.6338816118795473E-01 a       650     0    44     1     5
 -4.2829013325450727E-01 a       651     0    44     1     6
  1.4410808666539240E-01 a       652     0    44     1     7
  4.6993643405039959E-01 a       653     0    44     1     8
  1.9696407020133419E-01 a       654     0    44     1     9
 -5.2844960036431465E-01 a       655     0    44     1    10
 -5.5509046035464422E-02 a       656     0    44     1    11
  9.8069010678952018E-01 a       657     0    44     1    12
  1.3527455813059827E-01 a       658     0    44     1    13
 -1.2087445305101869E+00 a       659     0    44     1    14
  2.1960493455719715E-01 a       660     0    44     1    15
 -1.5767842324131454E-01 a       661     0    45     1     1
 -1.5115267566356833E-01 a       662     0    45     1     2
 -6.5208430672619622E-01 a       663     0    45     1     3
 -6.3659656065123305E-02 a       664     0    45     1     4
  5.8165175575432826E-01 a       665     0    45     1     5
 -4.8324954700224887E-01 a       666     0    45     1     6
  4.9384293654778516E-01 a       667     0    45     1     7
 -9.2453370690265088E-02 a       668     0    45     1     8
 -3.0437386834359986E-01 a       669     0    45     1     9
  9.8368473556296898E-01 a       670     0    45     1    10
 -4.1749544861620902E-01 a       671     0    45     1    11
 -4.3091126663768292E-01 a       672     0    45     1    12
  8.5578388608275724E-01 a       673     0    45     1    13
  3.6766742549677123E-01 a       674     0    45     1    14
  2.2938379421805499E-02 a       675     0    45     1    15
  6.7101459604038752E-03 a       676     0    46     1     1
 -1.6615282163521772E-01 a       677     0    46     1     2
 -6.9447719265727614E-01 a       678     0    46     1     3
  4.2370750196422879E-01 a       679     0    46     1     4
 -2.3907730859168858E-01 a       680     0    46     1     5
  6.6682354398477117E-01 a       681     0    46     1     6
  1.1419629314653428E+00 a       682     0    46     1     7
  1.2498296908007203E-01 a       683     0    46     1     8
 -5.1749918460741817E-01 a       684     0    46     1     9
 -3.5398523248110891E-01 a       685     0    46     1    10
 -4.2310489283296959E-01 a       686     0    46     1    11
 -1.6501324173732632E-01 a       687     0    46     1    12
  2.7628461466441223E-01 a       688     0    46     1    13
  2.3365089418043952E-02 a       689     0    46     1    14
 -1.1148592235372319E+00 a       690     0    46     1    15
 -1.0441397959461551E+00 a       691     0    47     1     1
  1.6349919645771979E-01 a       692     0    47     1     2
 -1.0354936796513419E+00 a       693     0    47     1     3
  8.5438641787207864E-02 a       694     0    47     1     4
  2.0282690951331495E-02 a       695     0    47     1     5
  4.7574605771735795E-01 a       696     0    47     1     6
 -3.6434941802139564E-01 a       697     0    47     1     7
 -2.2333138650462062E-01 a       698     0    47     1     8
 -3.3887011075509182E-01 a       699     0    47     1     9
 -1.3730337939253934E-01 a       700     0    47     1    10
  2.1255289279877138E-01 a       701     0    47     1    11
  8.0725413372498250E-02 a       702     0    47     1    12
 -1.1584243087503301E-01 a       703     0    47     1    13
  2.5373768602267854E-01 a       704     0    47     1    14
  1.2824657393800568E-01 a       705     0    47     1    15
 -2.6400978749843618E-01 a       706     0    48     1     1
  3.5915500958895313E-01 a       707     0    48     1     2
  5.0455218173668959E-01 a       708     0    48     1     3
 -5.0048737304869188E-02 a       709     0    48     1     4
  5.3033464618470083E-01 a       710     0    48     1     5
 -3.1119072764814633E-02 a       711     0    48     1     6
  8.9895374049220289E-01 a       712     0    48     1     7
  2.7838950682064885E-02 a       713     0    48     1     8
 -8.6747936636228262E-01 a       714     0    48     1     9
 -1.3587672174615648E-01 a       715     0    48     1    10
 -4.4328016133153070E-02 a       716     0    48     1    11
 -6.6706114247192605E-01 a       717     0    48     1    12
 -3.0955408596186540E-01 a       718     0    48     1    13
 -1.6624966398362248E-01 a       719     0    48     1    14
  1.9618608455796890E-01 a       720     0    48     1    15
  5.7034786133477466E-01 a       721     0    49     1     1
 -5.3492892070103126E-01 a       722     0    49     1     2
  3.6600519898337081E-01 a       723     0    49     1     3
 -4.7932562911136356E-01 a       724     0    49     1     4
  5.1064902863701922E-01 a       725     0    49     1     5
 -3.6307997567685588E-02 a       726     0    49     1     6
 -7.0492779206721645E-01 a       727     0    49     1     7
  6.3286587712021114E-01 a       728     0    49     1     8
 -5.5445424160871504E-01 a       729     0    49     1     9
 -2.2463760030796628E-01 a       730     0    49     1    10
  3.4579499399833208E-02 a       731     0    49     1    11
  2.3512180469711580E-01 a       732     0    49     1    12
  4.7167725243519271E-01 a       733     0    49     1    13
  2.3624563587485561E-01 a       734     0    49     1    14
 -7.5365371460900374E-02 a       735     0    49     1    15
  6.1955497850248997E-01 a       736     0    50     1     1
 -3.2998948493080404E-01 a       737     0    50     1     2
 -5.7805521953071803E-01 a       738     0    50     1     3
 -3.8926106248492404E-01 a       739     0    50     1     4
 -4.1955635232305083E-01 a       740     0    50     1     5
 -1.7830194321835718E-01 a       741     0    50     1     6
  3.9667531681171986E-01 a       742     0    50     1     7
 -4.2678002313705408E-02 a       743     0    50     1     8
  6.7412404777667490E-01 a       744     0    50     1     9
  2.4636647063684156E-01 a       745     0    50     1    10
 -6.1649886223512673E-01 a       746     0    50     1    11
 -3.0836163565091662E-01 a       747     0    50     1    12
 -2.0821864000895376E-01 a       748     0    50     1    13
 -7.5814037715573168E-01 a       749     0    50     1    14
 -8.5773894381716981E-02 a       750     0    50     1    15
 -4.0360670618215266E-01 a       751     0    51     1     1
  1.3416184738086462E-01 a       752     0    51     1     2
 -3.2742992615542604E-01 a       753     0    51     1     3
  2.1155127902603554E-01 a       754     0    51     1     4
 -7.1589005636233799E-02 a       755     0    51     1     5
  3.3786396586693129E-01 a       756     0    51     1     6
  2.1652555267737930E-01 a       757     0    51     1     7
 -4.8642515965170302E-01 a       758     0    51     1     8
  1.2055484144514646E-01 a       759     0    51     1     9
  4.7644010614281362E-02 a       760     0    51     1    10
  1.4993357868708870E-01 a       761     0    51     1    11
 -2.1450682760555823E-01 a       762     0    51     1    12
  2.8552503263412455E-02 a       763     0    51     1    13
 -4.7483622566461903E-01 a       764     0    51     1    14
 -8.7369450961322329E-02 a       765     0    51     1    15
 -3.6971924017817759E-01 a       766     0    52     1     1
 -5.4109322916196712E-01 a       767     0    52     1     2
 -2.5101318853532423E-01 a       768     0    52     1     3
 -1.0049938709494793E-01 a       769     0    52     1     4
  1.2877103646992616E-01 a       770     0    52     1     5
 -3.4762259890925024E-01 a       771     0    52     1     6
  4.4370874388182618E-01 a       772     0    52     1     7
  4.7015277230772828E-01 a       773     0    52     1     8
 -8.2492570778774477E-02 a       774     0    52     1     9
 -4.4469552555733696E-03 a       775     0    52     1    10
 -7.3433115760819012E-02 a       776     0    52     1    11
  1.3856042770450278E-01 a       777     0    52     1    12
  4.9984046935293527E-02 a       778     0    52     1    13
 -9.5237348880445172E-01 a       779     0    52     1    14
 -4.0749279686497653E-01 a       780     0    52     1    15
 -3.9234234279530400E-01 a       781     0    53     1     1
 -2.0602457514778144E-01 a       782     0    53     1     2
 -1.0408305796549762E+00 a       783     0    53     1     3
  5.3735327056513758E-02 a       784     0    53     1     4
 -1.0045208406279395E-03 a       785     0    53     1     5
 -6.7563924262217978E-01 a       786     0    53     1     6
  5.3858529899563434E-01 a       787     0    53     1     7
 -2.9247688643621245E-01 a       788     0    53     1     8
  3.2471350928226811E-01 a       789     0    53     1     9
  1.7548006268128616E-01 a       790     0    53     1    10
 -4.2251365182579498E-01 a       791     0    53     1    11
  3.2053285761566669E-01 a       792     0    53     1    12
 -6.1072659729158685E-01 a       793     0    53     1    13
 -2.4017032103489364E-01 a       794     0    53     1    14
  1.2602866601033916E-01 a       795     0    53     1    15
  2.2306610369608112E-01 a       796     0    54     1     1
 -7.8190872362242425E-01 a       797     0    54     1     2
 -1.4837046434347214E-02 a       798     0    54     1     3
 -5.5863991893989370E-02 a       799     0    54     1     4
  8.8435432634435485E-02 a       800     0    54     1     5
 -4.2324291816621666E-02 a       801     0    54     1     6
  4.2605529140694787E-01 a       802     0    54     1     7
  1.2278748237115936E-01 a       803     0    54     1     8
 -1.4518291167284156E-01 a       804     0    54     1     9
  8.3426229254705372E-02 a       805     0    54     1    10
 -9.8667448049733569E-02 a       806     0    54     1    11
  5.9630085912953779E-01 a       807     0    54     1    12
 -1.7923157675829689E-02 a       808     0    54     1    13
  1.3215553416115058E-01 a       809     0    54     1    14
  9.9306723643288006E-02 a       810     0    54     1    15
 -9.3989627298142253E-02 a       811     0    55     1     1
  3.4580026220343563E-01 a       812     0    55     1     2
  4.7872987237607417E-01 a       813     0    55     1     3
  1.4828041779624093E-01 a       814     0    55     1     4
  1.8283432665948382E-01 a       815     0    55     1     5
  1.0000778202901507E-01 a       816     0    55     1     6
 -5.9916257550991459E-01 a       817     0    55     1     7
  3.9678405787750426E-01 a       818     0    55     1     8
  3.7625667602655133E-01 a       819     0    55     1     9
 -3.9685116821438127E-01 a       820     0    55     1    10
 -8.6564722903937311E-02 a       821     0    55     1    11
  2.6464322762160025E-01 a       822     0    55     1    12
 -7.3043691099711450E-01 a       823     0    55     1    13
  7.8335986386686662E-01 a       824     0    55     1    14
  1.4014616674104285E-01 a       825     0    55     1    15
 -3.4630613106819874E-01 a       826     0    56     1     1
 -1.8681375504157721E-01 a       827     0    56     1     2
 -1.2873178596615946E+00 a       828     0    56     1     3
  5.9375394839111612E-02 a       829     0    56     1     4
 -5.8669231319409865E-01 a       830     0    56     1     5
 -2.0888952626293009E-01 a       831     0    56     1     6
  1.3598033241274304E-01 a       832     0    56     1     7
 -2.7384344802660293E-01 a       833     0    56     1     8
 -9.2134376035644082E-03 a       834     0    56     1     9
  3.3728480940959604E-01 a       835     0    56     1    10
 -3.1721510573097883E-01 a       836     0    56     1    11
 -5.8631851809115831E-01 a       837     0    56     1    12
  3.4395366438590746E-01 a       838     0    56     1    13
  3.3550865100237703E-01 a       839     0    56     1    14
  5.0044516556196524E-02 a       840     0    56     1    15
 -2.2669266482036493E-01 a       841     0    57     1     1
  2.2749082014238625E-01 a       842     0    57     1     2
  4.5106233679715546E-01 a       843     0    57     1     3
  9.7969580790983710E-02 a       844     0    57     1     4
 -3.4764397795679131E-01 a       845     0    57     1     5
  2.8560195539430875E-02 a       846     0    57     1     6
  2.6796839029431979E-01 a       847     0    57     1     7
 -2.1709526273934532E-01 a       848     0    57     1     8
  3.6097330301647620E-02 a       849     0    57     1     9
 -4.0211261372275980E-01 a       850     0    57     1    10
  1.5703870029296188E-01 a       851     0    57     1    11
 -3.4874612573703928E-01 a       852     0    57     1    12
 -1.8349181687595012E-01 a       853     0    57     1    13
  9.2879395138391926E-02 a       854     0    57     1    14
 -1.8073222676235548E-01 a       855     0    57     1    15
 -3.0548407301745489E-01 a       856     0    58     1     1
 -1.1380680997732434E-01 a       857     0    58     1     2
 -2.6047011241725415E-01 a       858     0    58     1     3
 -6.0040658748611786E-01 a       859     0    58     1     4
 -2.2534147599969101E-01 a       860     0    58     1     5
 -3.5290017869178214E-01 a       861     0    58     1     6
  1.5853196716826415E-01 a       862     0    58     1     7
 -1.6190263895890660E-02 a       863     0    58     1     8
  4.4089517631768566E-01 a       864     0    58     1     9
 -1.1791921377317327E-01 a       865     0    58     1    10
  1.2842813562726355E-01 a       866     0    58     1    11
 -4.5283242103094151E-01 a       867     0    58     1    12
 -3.6696856039466114E-01 a       868     0    58     1    13
  4.1273020805602689E-01 a       869     0    58     1    14
 -8.6420783883138660E-02 a       870     0    58     1    15
  5.1908938373557878E-01 a       871     0    59     1     1
 -1.6835961620479539E-02 a       872     0    59     1     2
  6.5103052042035270E-01 a       873     0    59     1     3
 -8.8994913557717201E-02 a       874     0    59     1     4
 -1.1151547431167738E-01 a       875     0    59     1     5
 -1.9073686277428809E-01 a       876     0    59     1     6
  6.8678766207961141E-05 a       877     0    59     1     7
  9.4694252891108124E-02 a       878     0    59     1     8
  6.4191520264170743E-02 a       879     0    59     1     9
 -3.7469206015757373E-02 a       880     0    59     1    10
 -2.1813281920973271E-01 a       881     0    59     1    11
  1.1158590008333737E-01 a       882     0    59     1    12
  9.7532610550484664E-02 a       883     0    59     1    13
  3.4514114867417296E-02 a       884     0    59     1    14
 -5.1718655356791508E-02 a       885     0    59     1    15
 -4.2081796312827741E-02 a       886     0    60     1     1
 -7.3220345421077138E-02 a       887     0    60     1     2
 -7.8564455250264564E-02 a       888     0    60     1     3
 -2.3325049268367599E-02 a       889     0    60     1     4
 -2.0037765504435751E-01 a       890     0    60     1     5
 -7.5085325251812288E-02 a       891     0    60     1     6
 -3.0998226692339920E-01 a       892     0    60     1     7
 -1.0234102667627682E-02 a       893     0    60     1     8
  3.7553170788237122E-01 a       894     0    60     1     9
 -2.2347194533051864E-02 a       895     0    60     1    10
  1.4280822492436665E-02 a       896     0    60     1    11
  2.4696178881536041E-01 a       897     0    60     1    12
  1.4063281251178400E-01 a       898     0    60     1    13
 -7.3809766335553801E-03 a       899     0    60     1    14
 -7.5163602649496855E-02 a       900     0    60     1    15
 -9.9729484127338341E-02 a       901     0    61     1     1
 -1.7993850025431682E-01 a       902     0    61     1     2
 -4.6516579992009077E-01 a       903     0    61     1     3
  4.8383195249458590E-02 a       904     0    61     1     4
 -2.4853814979333250E-01 a       905     0    61     1     5
  7.3870722175665482E-02 a       906     0    61     1     6
  8.8006327167065218E-02 a       907     0    61     1     7
 -2.9001172962906413E-01 a       908     0    61     1     8
  4.0288072595811131E-01 a       909     0    61     1     9
  4.0989522669430081E-02 a       910     0    61     1    10
 -2.4107757332914458E-03 a       911     0    61     1    11
 -2.0490854620267215E-01 a       912     0    61     1    12
 -4.9200007109427540E-02 a       913     0    61     1    13
  3.1565739245065026E-02 a       914     0    61     1    14
 -1.6270835417037366E-01 a       915     0    61     1    15
 -2.0838815713946227E-01 a       916     0    62     1     1
  7.3616245603905006E-02 a       917     0    62     1     2
  1.5514150855843720E-01 a       918     0    62     1     3
  2.5974153637912534E-01 a       919     0    62     1     4
  1.1036843049876160E-01 a       920     0    62     1     5
  2.4737454381177137E-02 a       921     0    62     1     6
 -2.0667120618840665E-01 a       922     0    62     1     7
 -1.1324119171629539E-01 a       923     0    62     1     8
 -3.6622673568711972E-01 a       924     0    62     1     9
 -8.4710938965139579E-02 a       925     0    62     1    10
  4.1790170915812935E-01 a       926     0    62     1    11
  1.4165122486898007E-02 a       927     0    62     1    12
  1.2588237892148335E-01 a       928     0    62     1    13
  5.2264449763510890E-01 a       929     0    62     1    14
  7.4756888254654569E-02 a       930     0    62     1    15
  1.2253063018177686E-01 a       931     0    63     1     1
 -2.3293931064487741E-01 a       932     0    63     1     2
  2.3087729577206974E-02 a       933     0    63     1     3
 -2.0967393628921702E-01 a       934     0    63     1     4
  7.3852142566337778E-02 a       935     0    63     1     5
  3.5243902430558860E-02 a       936     0    63     1     6
  7.0589884813623063E-02 a       937     0    63     1     7
  2.7761988506831564E-01 a       938     0    63     1     8
  3.1008626394107974E-01 a       939     0    63     1     9
 -9.1757395888870372E-02 a       940     0    63     1    10
 -7.8537333026887660E-02 a       941     0    63     1    11
  1.6107857204380807E-01 a       942     0    63     1    12
 -2.4675558380233326E-01 a       943     0    63     1    13
  1.2074801503837018E-01 a       944     0    63     1    14
  3.7135200584809146E-02 a       945     0    63     1    15
  8.4328176388315024E-02 a       946     0    64     1     1
 -5.3735450582143199E-02 a       947     0    64     1     2
  1.1772981049678258E-01 a       948     0    64     1     3
 -9.8835729957239046E-03 a       949     0    64     1     4
 -3.6991014844132875E-01 a       950     0    64     1     5
  6.3857664175126683E-01 a       951     0    64     1     6
  2.9125799783582179E-01 a       952     0    64     1     7
 -2.9173826980216733E-01 a       953     0    64     1     8
 -1.8431911079904403E-01 a       954     0    64     1     9
  2.6556039746765278E-02 a       955     0    64     1    10
  1.2960503996959701E-02 a       956     0    64     1    11
  2.3556173129736507E-01 a       957     0    64     1    12
 -1.8240891464608824E-01 a       958     0    64     1    13
  5.0768698320382732E-01 a       959     0    64     1    14
  1.0018563395144134E-01 a       960     0    64     1    15
  9.2590184317719415E-01 b       961     1     1
 -5.5941565891913547E-01 b       962     1     2
 -1.1572613881922912E-01 b       963     1     3
  6.4853842554821184E-03 b       964     1     4
  7.2896650772187188E-01 b       965     1     5
  1.5797948501392189E-01 b       966     1     6
  3.6297088282646844E-01 b       967     1     7
 -1.0592810960711316E+00 b       968     1     8
 -4.9980774170845171E-01 b       969     1     9
  4.0956837300137522E-02 b       970     1    10
 -3.6991599854772572E-01 b       971     1    11
 -4.4274054096039639E-01 b       972     1    12
 -3.2252595485788838E-01 b       973     1    13
 -1.1993181338758556E+00 b       974     1    14
 -1.1461888295660374E+00 b       975     1    15
 -1.0985747822959699E+00 a       976     1     1     2     1
 -1.3356596377649188E+00 a       977     1     1     2     2
  4.8253559834811227E-01 a       978     1     1     2     3
  4.9214961023871556E-01 a       979     1     1     2     4
 -4.9534044302956731E-01 a       980     1     1     2     5
  1.9149073804471581E-01 a       981     1     1     2     6
  5.8077798293711935E-01 a       982     1     1     2     7
  7.6165841002916013E-01 a       983     1     1     2     8
 -1.2040683393754470E-01 a       984     1     1     2     9
  3.3619514320575938E-01 a       985     1     1     2    10
 -9.0534531553254194E-01 a       986     1     1     2    11
 -2.4775335366156928E-01 a       987     1     1     2    12
  1.1701435527219237E+00 a       988     1     1     2    13
  6.3694627844264962E-01 a       989     1     1     2    14
 -7.0842827084925275E-01 a       990     1     1     2    15
  9.8273109484282883E-01 a       991     1     2     2     1
  9.6217226955077118E-01 a       992     1     2     2     2
  4.2469043558994446E-01 a       993     1     2     2     3
 -1.0109692919848821E+00 a       994     1     2     2     4
  6.6513226220869193E-01 a       995     1     2     2     5
 -1.5912996333655016E-01 a       996     1     2     2     6
  1.2466526139817111E+00 a       997     1     2     2     7
 -9.3175070561706680E-02 a       998     1     2     2     8
 -1.0057390318734023E-01 a       999     1     2     2     9
  1.0276626185561266E+00 a      1000     1     2     2    10
 -1.5121962225627048E-01 a      1001     1     2     2    11
 -7.2900591777091328E-01 a      1002     1     2     2    12
  8.8315180154640419E-02 a      1003     1     2     2    13
 -1.6351749910422426E+00 a      1004     1     2     2    14
 -5.8628431291941718E-01 a      1005     1     2     2    15
  2.8635741052195318E-01 a      1006     1     3     2     1
  9.1441555421455079E-01 a      1007     1     3     2     2
  4.3718637793880893E-01 a      1008     1     3     2     3
  4.3942106274221815E-01 a      1009     1     3     2     4
 -1.7985696090485417E-01 a      1010     1     3     2     5
 -1.4726508576436773E-01 a      1011     1     3     2     6
  2.9527794802191132E-01 a      1012     1     3     2     7
 -9.8355909128216990E-01 a      1013     1     3     2     8
  1.1489342634488631E-02 a      1014     1     3     2     9
  3.9298262024301001E-01 a      1015     1     3     2    10
 -6.3969491191946393E-01 a      1016     1     3     2    11
 -4.7709941570941805E-01 a      1017     1     3     2    12
  2.7974416459993767E-01 a      1018     1     3     2    13
 -2.3755307818983518E-01 a      1019     1     3     2    14
 -1.6081416302626353E-01 a      1020     1     3     2    15
 -1.3757293478649291E+00 a      1021     1     4     2     1
 -1.6034144073786064E-01 a      1022     1     4     2     2
 -4.8945882619063596E-01 a      1023     1     4     2     3
  1.0903324738768509E+00 a      1024     1     4     2     4
  1.0371474339777653E+00 a      1025     1     4     2     5
 -3.4175493384415340E-01 a      1026     1     4     2     6
  9.9352127635530807E-01 a      1027     1     4     2     7
  1.3792111220570202E+00 a      1028     1     4     2     8
 -4.8873032737281738E-04 a      1029     1     4     2     9
 -1.0842242416376105E-01 a      1030     1     4     2    10
  6.3239902566879713E-01 a      1031     1     4     2    11
  6.2520750782960588E-01 a      1032     1     4     2    12
  3.5466666806056585E-01 a      1033     1     4     2    13
 -9.4941636656736633E-02 a      1034     1     4     2    14
  1.2435624983793627E+00 a      1035     1     4     2    15
 -2.4552114661454962E+00 a      1036     1     5     2     1
  6.6447288006995220E-01 a      1037     1     5     2     2
 -4.2871012040177181E-01 a      1038     1     5     2     3
  3.6193612257753427E-01 a      1039     1     5     2     4
  2.6792497870981924E-02 a      1040     1     5     2     5
 -2.9463211274613665E-01 a      1041     1     5     2     6
 -4.5327828018759048E-01 a      1042     1     5     2     7
  7.6353130156294879E-01 a      1043     1     5     2     8
  1.5766752555470850E-01 a      1044     1     5     2     9
 -3.5834141384486581E-02 a      1045     1     5     2    10
  6.3840831864651482E-01 a      1046     1     5     2    11
  6.2502803130772703E-03 a      1047     1     5     2    12
  1.0813695471722358E+00 a      1048     1     5     2    13
  9.9314561881005503E-01 a      1049     1     5     2    14
 -2.7400489810534845E-01 a      1050     1     5     2    15
 -1.5108083951410618E+00 a      1051     1     6     2     1
 -9.2322975565364829E-01 a      1052     1     6     2     2
  5.8244039628377098E-01 a      1053     1     6     2     3
  5.9587159694126823E-01 a      1054     1     6     2     4
 -3.4991512254750506E-01 a      1055     1     6     2     5
 -4.8623016560105980E-02 a      1056     1     6     2     6
 -1.0157678119730198E+00 a      1057     1     6     2     7
 -4.5168007763301826E-01 a      1058     1     6     2     8
  1.4603126630843571E-01 a      1059     1     6     2     9
  3.3734678572340615E-01 a      1060     1     6     2    10
 -6.9276471616912327E-01 a      1061     1     6     2    11
 -5.6630852363437656E-01 a      1062     1     6     2    12
 -3.2605780696078823E-01 a      1063     1     6     2    13
  9.9990644097662049E-02 a      1064     1     6     2    14
 -3.1148956592013560E-01 a      1065     1     6     2    15
 -6.8491157380084355E-01 a      1066     1     7     2     1
 -1.4679278143081418E+00 a      1067     1     7     2     2
 -4.1846353342995607E-01 a      1068     1     7     2     3
 -3.4850093579636711E-03 a      1069     1     7     2     4
 -6.2085745522672368E-02 a      1070     1     7     2     5
 -1.9649299338051976E-01 a      1071     1     7     2     6
  3.0329927610660995E-01 a      1072     1     7     2     7
  1.3972655858240794E+00 a      1073     1     7     2     8
  2.6683455658562255E-01 a      1074     1     7     2     9
  7.0142492350394237E-01 a      1075     1     7     2    10
  4.3134479432392941E-01 a      1076     1     7     2    11
  1.3708753395438467E-01 a      1077     1     7     2    12
  5.5069668614568495E-02 a      1078     1     7     2    13
 -1.1084018731704535E-01 a      1079     1     7     2    14
 -4.4842922400229240E-01 a      1080     1     7     2    15
  7.6664828792059336E-01 a      1081     1     8     2     1
  1.4819534671894935E-01 a      1082     1     8     2     2
  1.2358005418471003E+00 a      1083     1     8     2     3
  4.4846391962898402E-01 a      1084     1     8     2     4
  3.9331303863326300E-01 a      1085     1     8     2     5
 -5.2760105225321696E-01 a      1086     1     8     2     6
  1.7448062644619688E-02 a      1087     1     8     2     7
 -1.8801477229417762E+00 a      1088     1     8     2     8
 -3.4275935430213988E-01 a      1089     1     8     2     9
  8.2828032155400966E-01 a      1090     1     8     2    10
  1.5285483200186509E+00 a      1091     1     8     2    11
 -1.3609987829705029E-03 a      1092     1     8     2    12
  5.3055305446501788E-01 a      1093     1     8     2    13
  9.2883290891806780E-01 a      1094     1     8     2    14
  3.7432241222362045E-01 a      1095     1     8     2    15
 -1.8087407465349765E+00 a      1096     1     9     2     1
  9.0730697928247150E-01 a      1097     1     9     2     2
  4.7206125244337876E-01 a      1098     1     9     2     3
  5.6082785984759249E-02 a      1099     1     9     2     4
  1.4108799183610715E-01 a      1100     1     9     2     5
  2.7492884561883640E-01 a      1101     1     9     2     6
 -3.3100927718433043E-03 a      1102     1     9     2     7
  8.3652619442818688E-01 a      1103     1     9     2     8
  4.2069406416445765E-01 a      1104     1     9     2     9
  3.5970725470000442E-01 a      1105     1     9     2    10
 -3.8284359254142825E-01 a      1106     1     9     2    11
 -4.7088413366538978E-01 a      1107     1     9     2    12
  3.1913852619832134E-01 a      1108     1     9     2    13
  4.6393246183919873E-01 a      1109     1     9     2    14
 -9.4524286789604242E-02 a      1110     1     9     2    15
  4.5643759101710790E-01 a      1111     1    10     2     1
  4.3478062299301151E-01 a      1112     1    10     2     2
  7.5601707351071801E-01 a      1113     1    10     2     3
 -5.8856596255668947E-01 a      1114     1    10     2     4
 -1.1925170242744043E+00 a      1115     1    10     2     5
  8.8172020167550513E-01 a      1116     1    10     2     6
  4.3052608762390382E-01 a      1117     1    10     2     7
 -1.9100025813634983E-01 a      1118     1    10     2     8
  5.2994092899081646E-01 a      1119     1    10     2     9
  2.5186052451118901E-01 a      1120     1    10     2    10
 -2.7200640237126161E-01 a      1121     1    10     2    11
  5.7568629539637861E-01 a      1122     1    10     2    12
 -1.1292072476259747E+00 a      1123     1    10     2    13
  8.8749405187397201E-01 a      1124     1    10     2    14
 -1.4920754296511745E-02 a      1125     1    10     2    15
  3.8828685270597812E-01 a      1126     1    11     2     1
 -8.1166608627152237E-01 a      1127     1    11     2     2
  1.0302434304046919E+00 a      1128     1    11     2     3
 -8.1801588524238000E-01 a      1129     1    11     2     4
  8.4839097064376412E-01 a      1130     1    11     2     5
 -1.2863454744286623E-01 a      1131     1    11     2     6
  2.9862597842740035E-01 a      1132     1    11     2     7
 -1.1497507266279332E+00 a      1133     1    11     2     8
 -2.7025856655902614E-01 a      1134     1    11     2     9
  3.0566110342310127E-01 a      1135     1    11     2    10
  9.5929090859588173E-01 a      1136     1    11     2    11
 -3.4417552042410149E-01 a      1137     1    11     2    12
 -9.4968242178370177E-01 a      1138     1    11     2    13
 -1.1361936808805208E-01 a      1139     1    11     2    14
 -6.3634184881385586E-02 a      1140     1    11     2    15
 -4.0745614198495556E-01 a      1141     1    12     2     1
  5.3059884925585221E-01 a      1142     1    12     2     2
 -5.5906816623970657E-01 a      1143     1    12     2     3
 -3.7823648011872785E-01 a      1144     1    12     2     4
  1.7985068380510935E-01 a      1145     1    12     2     5
 -1.7478705352607529E-01 a      1146     1    12     2     6
 -1.3309930385464448E+00 a      1147     1    12     2     7
  6.1991069127667309E-01 a      1148     1    12     2     8
 -1.0611539671897377E-01 a      1149     1    12     2     9
 -4.2690290560964367E-01 a      1150     1    12     2    10
  7.9379259168205307E-01 a      1151     1    12     2    11
 -2.7959344008507251E-02 a      1152     1    12     2    12
  8.2223205944577127E-01 a      1153     1    12     2    13
  2.7537345950862602E-01 a      1154     1    12     2    14
 -1.2039038719790733E-01 a      1155     1    12     2    15
 -9.8037292665365128E-01 a      1156     1    13     2     1
 -8.2703990055454679E-01 a      1157     1    13     2     2
 -2.6334552392581412E-01 a      1158     1    13     2     3
 -3.0158888311416893E-01 a      1159     1    13     2     4
  1.0128539529714655E+00 a      1160     1    13     2     5
  8.7434596875129333E-01 a      1161     1    13     2     6
 -5.1238701778383178E-01 a      1162     1    13     2     7
  6.1480803971925561E-02 a      1163     1    13     2     8
 -1.9016661512476110E-01 a      1164     1    13     2     9
 -1.9525169909205953E-01 a      1165     1    13     2    10
  1.5576331849570313E-01 a      1166     1    13     2    11
  1.2011820114482914E+00 a      1167     1    13     2    12
 -7.4985674278043890E-01 a      1168     1    13     2    13
 -5.7441143054721755E-02 a      1169     1    13     2    14
  9.4170495714335434E-01 a      1170     1    13     2    15
 -3.8063814835871879E-01 a      1171     1    14     2     1
  3.6078905939332429E-01 a      1172     1    14     2     2
 -2.3445638374318387E-01 a      1173     1    14     2     3
 -3.9295086162220888E-01 a      1174     1    14     2     4
 -6.6725262256966267E-01 a      1175     1    14     2     5
  2.1182629900410144E-01 a      1176     1    14     2     6
  3.0652109329675026E-01 a      1177     1    14     2     7
  4.9573372879093552E-01 a      1178     1    14     2     8
  3.6432550850096918E-01 a      1179     1    14     2     9
 -2.1519529697842849E-01 a      1180     1    14     2    10
  1.0984005907104022E+00 a      1181     1    14     2    11
  3.4710485845460548E-01 a      1182     1    14     2    12
  4.4369788787200587E-01 a      1183     1    14     2    13
  7.4094853000000660E-01 a      1184     1    14     2    14
 -5.1828603313667909E-01 a      1185     1    14     2    15
 -1.5574100762704661E+00 a      1186     1    15     2     1
  4.6211250829067541E-01 a      1187     1    15     2     2
  1.3474393851900572E+00 a      1188     1    15     2     3
  1.2684317209903648E+00 a      1189     1    15     2     4
  1.4866999171691592E-01 a      1190     1    15     2     5
  1.0301664842581747E-01 a      1191     1    15     2     6
 -6.9621964873393982E-01 a      1192     1    15     2     7
  2.0614882840949664E+00 a      1193     1    15     2     8
 -1.0568298080347167E+00 a      1194     1    15     2     9
 -1.5167148530892594E+00 a      1195     1    15     2    10
  5.6262980552043174E-01 a      1196     1    15     2    11
 -4.0166483763822348E-02 a      1197     1    15     2    12
 -8.1701985799011778E-01 a      1198     1    15     2    13
 -4.7867942662183949E-01 a      1199     1    15     2    14
  1.2249247045795622E-01 a      1200     1    15     2    15
  4.3163498136714734E-01 b      1201     2     1
 -1.9943609719720565E-02 b      1202     2     2
 -5.3162687395402641E-01 b      1203     2     3
  7.5090715331258617E-01 b      1204     2     4
 -5.6732538405942357E-01 b      1205     2     5
 -3.3270087689058597E-01 b      1206     2     6
  2.5401010019785619E-01 b      1207     2     7
 -3.5817911522685986E-01 b      1208     2     8
  3.9778033630680443E-01 b      1209     2     9
  1.9638898367766475E-01 b      1210     2    10
 -1.5703924331853842E+00 b      1211     2    11
 -1.5848103413206147E-01 b      1212     2    12
  1.3320051968844804E-01 b      1213     2    13
  1.7748943341392717E-01 b      1214     2    14
  5.0644197465158725E-01 b      1215     2    15
  8.4607170197945258E-01 a      1216     2     1     3     1
  2.6929610365884232E-02 a      1217     2     2     3     1
 -3.9978729966591037E-01 a      1218     2     3     3     1
  2.4792423787313814E-01 a      1219     2     4     3     1
 -3.6551172041456076E-01 a      1220     2     5     3     1
  6.6267741941114067E-01 a      1221     2     6     3     1
  4.5507447838379997E-02 a      1222     2     7     3     1
  1.4783682153079702E-01 a      1223     2     8     3     1
 -9.9606126846786480E-01 a      1224     2     9     3     1
  4.9253980869083674E-01 a      1225     2    10     3     1
  3.1080099765437147E-01 a      1226     2    11     3     1
 -6.5219831931500838E-01 a      1227     2    12     3     1
 -1.6791484925741745E-01 a      1228     2    13     3     1
  2.6807192527097506E-01 a      1229     2    14     3     1
  2.9923697683203648E-01 a      1230     2    15     3     1
 -1.3316641632689047E-01 b      1231     3     1
