################################################################################
# Neural network connection values (weights and biases).
################################################################################
# Col  Name       Description
################################################################################
# 1    connection Neural network connection value.
# 2    t          Connection type (a = weight, b = bias).
# 3    index      Index enumerating weights.
# 4    l_s        Starting point layer (end point layer for biases).
# 5    n_s        Starting point neuron in starting layer (end point neuron for biases).
# 6    l_e        End point layer.
# 7    n_e        End point neuron in end layer.
################################################################################
#                      1 2         3     4     5     6     7
#             connection t     index   l_s   n_s   l_e   n_e
############################################################
 -6.6848934857358289E-01 a         1     0     1     1     1
  3.6080081437118751E-02 a         2     0     1     1     2
 -3.0558607544511146E-01 a         3     0     1     1     3
  2.8146740929062636E-01 a         4     0     1     1     4
  2.0484976323392487E-01 a         5     0     1     1     5
  1.3468158924518440E-02 a         6     0     1     1     6
  1.5369979897515142E+00 a         7     0     1     1     7
  2.6377916554858732E-01 a         8     0     1     1     8
  1.1563804035937929E-01 a         9     0     1     1     9
  8.5809592954338543E-02 a        10     0     1     1    10
 -6.9030169053559964E-01 a        11     0     1     1    11
  1.5245629461600418E-01 a        12     0     1     1    12
  3.0191392870373313E-01 a        13     0     1     1    13
 -1.0842299853309545E+00 a        14     0     1     1    14
  1.7080214392074594E-01 a        15     0     1     1    15
  1.4735452480657418E-01 a        16     0     2     1     1
 -8.4100355869846599E-01 a        17     0     2     1     2
 -2.1294964614034589E-01 a        18     0     2     1     3
  3.0642376986368963E-01 a        19     0     2     1     4
  1.7146320322766975E-01 a        20     0     2     1     5
 -7.0058451724403309E-02 a        21     0     2     1     6
 -2.4281753399072520E-01 a        22     0     2     1     7
  6.5215484405301422E-02 a        23     0     2     1     8
  1.1389839230241907E+00 a        24     0     2     1     9
 -1.7304478450735647E-01 a        25     0     2     1    10
  1.9221339937908510E+00 a        26     0     2     1    11
  3.1926868057023848E-02 a        27     0     2     1    12
  6.7880800009673758E-01 a        28     0     2     1    13
 -1.2539192927583820E+00 a        29     0     2     1    14
 -5.0791341254565289E-02 a        30     0     2     1    15
  1.0352176142448902E-01 a        31     0     3     1     1
  6.1143135720876940E-01 a        32     0     3     1     2
 -8.5802627039758461E-01 a        33     0     3     1     3
 -1.2210128263983475E+00 a        34     0     3     1     4
 -9.7304078056511298E-02 a        35     0     3     1     5
 -2.5255294919985682E-01 a        36     0     3     1     6
 -1.8264720347549235E-01 a        37     0     3     1     7
 -4.1620595242274849E-01 a        38     0     3     1     8
 -1.4150832663437021E-01 a        39     0     3     1     9
  4.5797390753072503E-01 a        40     0     3     1    10
 -3.6029888639746166E-01 a        41     0     3     1    11
 -8.6819432749870126E-02 a        42     0     3     1    12
  5.2046002931294355E-01 a        43     0     3     1    13
 -2.3537778076822374E-01 a        44     0     3     1    14
  5.0480860732272903E-01 a        45     0     3     1    15
 -1.0251656256555324E+00 a        46     0     4     1     1
  1.8483548636955133E-01 a        47     0     4     1     2
  3.4417749515575741E-01 a        48     0     4     1     3
  7.8734071321450905E-01 a        49     0     4     1     4
  1.5836863659099063E+00 a        50     0     4     1     5
 -1.3496355450624367E+00 a        51     0     4     1     6
 -5.3828917126042530E-01 a        52     0     4     1     7
  2.1248256075193478E-01 a        53     0     4     1     8
  1.0213002146329739E+00 a        54     0     4     1     9
 -4.0153464375143982E-01 a        55     0     4     1    10
  2.2860099691018607E-01 a        56     0     4     1    11
 -1.6579414634252376E-01 a        57     0     4     1    12
  2.4008467038416367E-01 a        58     0     4     1    13
 -1.2865103686450008E+00 a        59     0     4     1    14
  7.5448206192308942E-01 a        60     0     4     1    15
 -2.5175248536922790E-01 a        61     0     5     1     1
 -5.1103463833038554E-01 a        62     0     5     1     2
 -6.7425980086574300E-01 a        63     0     5     1     3
 -1.5642286092181695E-01 a        64     0     5     1     4
  8.4746106081351580E-01 a        65     0     5     1     5
  2.2810995676074375E-01 a        66     0     5     1     6
 -6.8437682185741922E-02 a        67     0     5     1     7
  3.3066289549042532E-01 a        68     0     5     1     8
  9.1847169425543596E-01 a        69     0     5     1     9
  8.4149615832330704E-01 a        70     0     5     1    10
  8.7531826989385753E-01 a        71     0     5     1    11
 -7.5824385993705323E-01 a        72     0     5     1    12
 -8.3621032166918452E-01 a        73     0     5     1    13
 -5.9699498203165946E-01 a        74     0     5     1    14
 -8.2255731110903796E-01 a        75     0     5     1    15
 -7.2040626501692651E-01 a        76     0     6     1     1
 -3.3034483869727005E-01 a        77     0     6     1     2
 -1.1737375693958545E+00 a        78     0     6     1     3
  4.9224121777348551E-01 a        79     0     6     1     4
  1.3768851477766015E+00 a        80     0     6     1     5
 -9.5491976679314206E-01 a        81     0     6     1     6
  9.3388799706480485E-01 a        82     0     6     1     7
 -3.2897607374058752E-01 a        83     0     6     1     8
 -7.9174633442863651E-01 a        84     0     6     1     9
 -5.6194777555736160E-02 a        85     0     6     1    10
  2.4455548496074581E-02 a        86     0     6     1    11
 -5.2069186401939904E-01 a        87     0     6     1    12
 -5.9093659592278125E-01 a        88     0     6     1    13
  5.5186783388369992E-02 a        89     0     6     1    14
 -6.2021310330371682E-01 a        90     0     6     1    15
  1.5053493389934125E+00 a        91     0     7     1     1
 -1.1176290115395369E+00 a        92     0     7     1     2
  3.6995791697377428E-01 a        93     0     7     1     3
  9.2305737395250687E-01 a        94     0     7     1     4
  5.9799291150515310E-01 a        95     0     7     1     5
  5.7945025723725341E-01 a        96     0     7     1     6
 -7.4897845239796401E-01 a        97     0     7     1     7
 -5.0082399291874491E-01 a        98     0     7     1     8
 -8.9221879705138274E-01 a        99     0     7     1     9
  1.8882283274711731E-01 a       100     0     7     1    10
  6.0535228366761906E-01 a       101     0     7     1    11
  7.8464677033544394E-01 a       102     0     7     1    12
  3.1756834074768425E-02 a       103     0     7     1    13
  5.1776517812521017E-01 a       104     0     7     1    14
 -7.1878991190392583E-01 a       105     0     7     1    15
 -5.0331694803662075E-01 a       106     0     8     1     1
  4.3471606651243222E-01 a       107     0     8     1     2
  2.6931087457743219E-01 a       108     0     8     1     3
  5.9961626234859533E-01 a       109     0     8     1     4
  1.8336008172998192E-01 a       110     0     8     1     5
 -9.7372481188780169E-01 a       111     0     8     1     6
  2.4232966415322885E-01 a       112     0     8     1     7
 -7.2577531952462937E-01 a       113     0     8     1     8
  5.2372930742396995E-01 a       114     0     8     1     9
  6.3268941373536947E-02 a       115     0     8     1    10
 -2.9570053744862984E-01 a       116     0     8     1    11
  4.0172043150400721E-01 a       117     0     8     1    12
  1.0531743259249222E-01 a       118     0     8     1    13
 -3.9324206592440675E-01 a       119     0     8     1    14
 -1.5747851381103595E-01 a       120     0     8     1    15
 -4.2774310378082936E-01 a       121     0     9     1     1
 -1.9524048057174989E-01 a       122     0     9     1     2
  7.3317288902601452E-01 a       123     0     9     1     3
  9.1638458586623261E-01 a       124     0     9     1     4
 -6.4110053313903537E-01 a       125     0     9     1     5
 -8.0127458716740176E-03 a       126     0     9     1     6
 -9.7223105286040856E-01 a       127     0     9     1     7
 -5.3861764135788637E-02 a       128     0     9     1     8
  3.5902203516891618E-01 a       129     0     9     1     9
 -1.0548078921963502E+00 a       130     0     9     1    10
  1.0411625165576473E-01 a       131     0     9     1    11
 -1.0491005973675216E-01 a       132     0     9     1    12
  5.9687264258847383E-01 a       133     0     9     1    13
  2.0520830729938350E-01 a       134     0     9     1    14
 -3.1337980418343442E-01 a       135     0     9     1    15
 -8.7004796894530861E-02 a       136     0    10     1     1
 -3.7763923447421971E-01 a       137     0    10     1     2
  5.8868097999872238E-01 a       138     0    10     1     3
  2.3955698612211301E-01 a       139     0    10     1     4
  3.6867784567609768E-01 a       140     0    10     1     5
 -9.8663354758454380E-01 a       141     0    10     1     6
 -1.3525772879405942E-01 a       142     0    10     1     7
  4.4239145918723397E-02 a       143     0    10     1     8
 -4.9682735146901476E-02 a       144     0    10     1     9
 -3.1908325973461932E-01 a       145     0    10     1    10
  6.0416058265893402E-01 a       146     0    10     1    11
  1.0132265694152292E+00 a       147     0    10     1    12
 -6.0993425007607882E-01 a       148     0    10     1    13
  1.2910968960660441E-01 a       149     0    10     1    14
 -6.5294796620061857E-01 a       150     0    10     1    15
 -7.0028164435680129E-01 a       151     0    11     1     1
  2.3915365265659064E-01 a       152     0    11     1     2
 -7.4611242870218741E-01 a       153     0    11     1     3
  3.6216851253161148E-01 a       154     0    11     1     4
 -4.4641048935855204E-01 a       155     0    11     1     5
 -9.4980495145776866E-01 a       156     0    11     1     6
 -1.2812325652409529E-01 a       157     0    11     1     7
  4.5953510010853177E-01 a       158     0    11     1     8
  8.7032505218013900E-01 a       159     0    11     1     9
 -3.2501820287633515E-01 a       160     0    11     1    10
 -4.7816299188273809E-01 a       161     0    11     1    11
  1.8021789653398401E-01 a       162     0    11     1    12
  2.5067281064455177E-01 a       163     0    11     1    13
 -5.4177195138823608E-01 a       164     0    11     1    14
  6.2101733548713789E-02 a       165     0    11     1    15
  1.2621095021227771E+00 a       166     0    12     1     1
  7.1521659119128514E-02 a       167     0    12     1     2
  4.6909547970868404E-01 a       168     0    12     1     3
 -5.4051822093127122E-01 a       169     0    12     1     4
  2.1074906055106477E-01 a       170     0    12     1     5
 -6.7591483556728027E-01 a       171     0    12     1     6
  9.5754176414896663E-01 a       172     0    12     1     7
  9.2504079910219944E-02 a       173     0    12     1     8
 -1.5084647297269785E-01 a       174     0    12     1     9
  1.0547617745972070E-01 a       175     0    12     1    10
 -3.5823055852618316E-02 a       176     0    12     1    11
  1.6015591891291296E+00 a       177     0    12     1    12
 -6.4024777018925627E-01 a       178     0    12     1    13
 -1.4239574416545372E-01 a       179     0    12     1    14
 -1.1227975447979743E+00 a       180     0    12     1    15
  1.2722979205095437E+00 a       181     0    13     1     1
  2.6384291136488662E+00 a       182     0    13     1     2
 -1.4329080645076919E+00 a       183     0    13     1     3
  7.6328395700863705E-01 a       184     0    13     1     4
 -1.0346540721568205E+00 a       185     0    13     1     5
 -7.8124032506337138E-01 a       186     0    13     1     6
  1.8985651883209338E+00 a       187     0    13     1     7
  4.3483476347262284E-01 a       188     0    13     1     8
 -1.5488939254988050E+00 a       189     0    13     1     9
 -9.9297610273368686E-01 a       190     0    13     1    10
 -7.2955296012117157E-02 a       191     0    13     1    11
 -2.2178893722177171E+00 a       192     0    13     1    12
 -7.0453182179527896E-01 a       193     0    13     1    13
 -2.7923844855944360E-02 a       194     0    13     1    14
  4.9089610193664057E-01 a       195     0    13     1    15
 -2.2323335066715244E+00 a       196     0    14     1     1
  1.6919803749862933E-01 a       197     0    14     1     2
 -1.1468148013856403E+00 a       198     0    14     1     3
 -1.0013550652530228E+00 a       199     0    14     1     4
  4.9557750460057454E-01 a       200     0    14     1     5
  2.6705537398221096E-01 a       201     0    14     1     6
 -2.5551580892104642E-01 a       202     0    14     1     7
 -3.6714235360604930E-01 a       203     0    14     1     8
 -4.0209347828445774E-01 a       204     0    14     1     9
  3.2463210282468680E-01 a       205     0    14     1    10
 -6.7019111929790109E-01 a       206     0    14     1    11
  7.9986850563264933E-01 a       207     0    14     1    12
 -6.2618619512604334E-01 a       208     0    14     1    13
 -1.2987314387132505E+00 a       209     0    14     1    14
 -3.8048504102760250E-01 a       210     0    14     1    15
 -1.1464019868084228E+00 a       211     0    15     1     1
 -7.7368417331174899E-01 a       212     0    15     1     2
  1.4241418038552185E+00 a       213     0    15     1     3
 -8.7488395102206484E-01 a       214     0    15     1     4
 -7.7280849866239443E-01 a       215     0    15     1     5
  9.0509667540530303E-01 a       216     0    15     1     6
 -6.6191561068130914E-02 a       217     0    15     1     7
 -1.8816022199439855E-01 a       218     0    15     1     8
  1.3269196280040265E+00 a       219     0    15     1     9
  7.9182451103830187E-01 a       220     0    15     1    10
  5.9440757136988154E-02 a       221     0    15     1    11
  3.1384596555543753E+00 a       222     0    15     1    12
  9.5158601236945728E-01 a       223     0    15     1    13
  7.5103276187370005E-01 a       224     0    15     1    14
 -1.1754228059917822E+00 a       225     0    15     1    15
  5.8503219240847126E-01 a       226     0    16     1     1
 -8.2477713830732310E-02 a       227     0    16     1     2
  1.2303740361774809E-01 a       228     0    16     1     3
  1.6127852819906463E-01 a       229     0    16     1     4
 -1.2944213986912281E-01 a       230     0    16     1     5
 -3.3458829428935147E-02 a       231     0    16     1     6
 -3.1819639727124321E-01 a       232     0    16     1     7
  2.1793724708384762E-01 a       233     0    16     1     8
  3.0773550777630654E-01 a       234     0    16     1     9
 -6.2095358607146656E-01 a       235     0    16     1    10
  8.6031822012198333E-02 a       236     0    16     1    11
 -3.1952957627200479E-01 a       237     0    16     1    12
  1.2776397962149954E-02 a       238     0    16     1    13
  2.2547904041559172E-01 a       239     0    16     1    14
 -2.4069170754840161E-01 a       240     0    16     1    15
  1.2233140054592839E+00 a       241     0    17     1     1
  4.2046373383384850E-01 a       242     0    17     1     2
 -2.5668938710530620E-01 a       243     0    17     1     3
 -4.0735425490729116E-02 a       244     0    17     1     4
  4.7524278687807181E-01 a       245     0    17     1     5
  1.4420862147268985E+00 a       246     0    17     1     6
 -3.9574641319108594E-01 a       247     0    17     1     7
 -6.6213594688989508E-01 a       248     0    17     1     8
  2.9990783392399273E-01 a       249     0    17     1     9
 -9.7534540546408688E-01 a       250     0    17     1    10
  3.2902198909167057E-01 a       251     0    17     1    11
 -2.4590620019505405E-02 a       252     0    17     1    12
  7.5018039300780315E-01 a       253     0    17     1    13
 -6.9543255597642462E-01 a       254     0    17     1    14
  2.0381049438813326E-01 a       255     0    17     1    15
  6.8494461141778562E-01 a       256     0    18     1     1
  7.1468458156017212E-02 a       257     0    18     1     2
 -3.8839260672380038E-01 a       258     0    18     1     3
  6.2607836938159045E-01 a       259     0    18     1     4
  4.4994356148221497E-02 a       260     0    18     1     5
 -1.6645859009861810E-01 a       261     0    18     1     6
  3.6318356051881318E-01 a       262     0    18     1     7
 -1.6282263211396469E-01 a       263     0    18     1     8
  1.2744904299548976E-01 a       264     0    18     1     9
 -4.6044197063963221E-01 a       265     0    18     1    10
 -7.1734980684749164E-02 a       266     0    18     1    11
  2.4159161178687796E-01 a       267     0    18     1    12
 -1.8678787530341429E-02 a       268     0    18     1    13
 -8.3804782612258455E-01 a       269     0    18     1    14
 -1.2952701750398263E-01 a       270     0    18     1    15
  1.0427005680700191E-01 a       271     0    19     1     1
  3.5571329187044115E-01 a       272     0    19     1     2
  5.4618053798106070E-01 a       273     0    19     1     3
 -1.7793224274076735E+00 a       274     0    19     1     4
  2.6861304919594614E-01 a       275     0    19     1     5
  5.5100463078122663E-01 a       276     0    19     1     6
 -2.1235225082704565E-01 a       277     0    19     1     7
 -1.2122283468545958E-01 a       278     0    19     1     8
 -4.0822663029587536E-01 a       279     0    19     1     9
  3.1936427669079753E-02 a       280     0    19     1    10
  3.4531746170223154E-01 a       281     0    19     1    11
  7.2187177655253099E-01 a       282     0    19     1    12
 -1.2986177593324768E+00 a       283     0    19     1    13
  9.6483803889110420E-01 a       284     0    19     1    14
  5.9067139660004331E-01 a       285     0    19     1    15
 -2.2528680074633739E-01 a       286     0    20     1     1
 -5.1243929286454548E-01 a       287     0    20     1     2
 -9.2763202365299713E-01 a       288     0    20     1     3
 -3.5645775240030447E-01 a       289     0    20     1     4
 -1.0985015414035089E+00 a       290     0    20     1     5
 -1.5088000073119587E+00 a       291     0    20     1     6
 -1.5164172081809887E-01 a       292     0    20     1     7
 -1.2815578724983620E-01 a       293     0    20     1     8
 -1.4995444461108243E-01 a       294     0    20     1     9
 -3.0341848443994313E-01 a       295     0    20     1    10
 -6.5818203721072799E-01 a       296     0    20     1    11
  1.5894301745041913E-02 a       297     0    20     1    12
 -3.6984084275551603E-02 a       298     0    20     1    13
  1.2611450233710335E+00 a       299     0    20     1    14
 -5.4374973040498520E-01 a       300     0    20     1    15
 -7.1228648206522249E-01 a       301     0    21     1     1
 -4.9684998372206102E-01 a       302     0    21     1     2
 -9.7620403715501319E-02 a       303     0    21     1     3
  9.1554945024630560E-02 a       304     0    21     1     4
  3.3149548650286753E-01 a       305     0    21     1     5
 -8.6986521154868990E-01 a       306     0    21     1     6
 -3.8169693480674333E-01 a       307     0    21     1     7
 -1.3769549047472696E-01 a       308     0    21     1     8
  3.9730664505264529E-01 a       309     0    21     1     9
 -4.1440600562765317E-01 a       310     0    21     1    10
  1.2319693818681205E+00 a       311     0    21     1    11
  2.4296496713736654E-01 a       312     0    21     1    12
  2.6955677235589188E-02 a       313     0    21     1    13
 -3.9414162849392159E-01 a       314     0    21     1    14
 -2.8711669757298799E-02 a       315     0    21     1    15
  9.2420713758831297E-01 a       316     0    22     1     1
  4.4827481123944862E-01 a       317     0    22     1     2
 -7.8287747699303167E-01 a       318     0    22     1     3
 -8.1124006557130068E-01 a       319     0    22     1     4
  6.6767880004617003E-02 a       320     0    22     1     5
  1.2069114885290657E+00 a       321     0    22     1     6
 -8.5599003556942677E-01 a       322     0    22     1     7
 -1.0143592647553133E-01 a       323     0    22     1     8
  3.4980374636536116E-01 a       324     0    22     1     9
  1.8595786231061834E-01 a       325     0    22     1    10
 -1.0597226053109872E+00 a       326     0    22     1    11
 -3.4545801326198117E-01 a       327     0    22     1    12
 -9.0313282921918092E-01 a       328     0    22     1    13
 -2.8411959821466470E-01 a       329     0    22     1    14
  8.5453625830564073E-01 a       330     0    22     1    15
 -4.9457532211888861E-01 a       331     0    23     1     1
 -9.6151774812466353E-02 a       332     0    23     1     2
 -4.9381685944079168E-01 a       333     0    23     1     3
 -4.5047076442571908E-02 a       334     0    23     1     4
  1.3177490624147806E-01 a       335     0    23     1     5
 -5.2196316593382619E-01 a       336     0    23     1     6
  3.8381842711564790E-01 a       337     0    23     1     7
  2.7871963489538293E-01 a       338     0    23     1     8
 -2.1481183110889329E-01 a       339     0    23     1     9
 -6.9852168750611476E-01 a       340     0    23     1    10
  6.7600744467076535E-01 a       341     0    23     1    11
  5.0301746148728110E-01 a       342     0    23     1    12
 -1.8833395857056165E-01 a       343     0    23     1    13
  1.2854332806894095E-01 a       344     0    23     1    14
  4.0318843981010494E-01 a       345     0    23     1    15
 -6.5824863477547946E-01 a       346     0    24     1     1
 -4.2222085865810993E-01 a       347     0    24     1     2
  5.0607220844118739E-01 a       348     0    24     1     3
 -8.4532690489585294E-01 a       349     0    24     1     4
 -8.1670669873447366E-01 a       350     0    24     1     5
 -1.6488793681953280E-02 a       351     0    24     1     6
 -7.2941904309857175E-01 a       352     0    24     1     7
 -1.8486800779618903E-01 a       353     0    24     1     8
  2.6670154165461568E-01 a       354     0    24     1     9
  1.3184341747401548E-01 a       355     0    24     1    10
 -1.2616309601550190E-03 a       356     0    24     1    11
 -6.2042673743132892E-01 a       357     0    24     1    12
 -6.2015451085572493E-01 a       358     0    24     1    13
  8.8413350793559264E-01 a       359     0    24     1    14
  2.2067689346692207E-01 a       360     0    24     1    15
  8.7026551151123219E-02 a       361     0    25     1     1
 -8.2593763545485555E-01 a       362     0    25     1     2
  1.2414075835041816E+00 a       363     0    25     1     3
  1.0081091708874897E-01 a       364     0    25     1     4
 -1.7551639080122736E-01 a       365     0    25     1     5
  1.5854287296511025E+00 a       366     0    25     1     6
  5.7454255799523388E-02 a       367     0    25     1     7
 -4.7010907003224534E-01 a       368     0    25     1     8
  2.8078305020957001E-01 a       369     0    25     1     9
  8.9561626634645208E-01 a       370     0    25     1    10
 -5.3798374321010312E-01 a       371     0    25     1    11
  3.3107181152202814E-01 a       372     0    25     1    12
 -1.0279417787960188E-01 a       373     0    25     1    13
 -1.2729767111401113E-01 a       374     0    25     1    14
  5.5534303769725979E-01 a       375     0    25     1    15
 -1.1956288861192636E-01 a       376     0    26     1     1
  1.1792235467263368E+00 a       377     0    26     1     2
 -4.4512035220288476E-01 a       378     0    26     1     3
 -5.5897963466480949E-01 a       379     0    26     1     4
  9.3133741137185672E-02 a       380     0    26     1     5
 -6.4174698698380173E-01 a       381     0    26     1     6
 -2.8262549564031741E-01 a       382     0    26     1     7
  1.0425848505419240E-01 a       383     0    26     1     8
  1.0913959892012028E-01 a       384     0    26     1     9
  1.4944554833942489E+00 a       385     0    26     1    10
 -1.0652461529522407E-01 a       386     0    26     1    11
  3.8650982111732940E-01 a       387     0    26     1    12
 -2.2837865357704704E-01 a       388     0    26     1    13
  1.3653628058655229E+00 a       389     0    26     1    14
  5.6925093610521914E-02 a       390     0    26     1    15
 -1.0725980934996895E-01 a       391     0    27     1     1
  3.6431400255734103E-01 a       392     0    27     1     2
  3.5132840870111709E-01 a       393     0    27     1     3
  1.9124755339317842E-01 a       394     0    27     1     4
  8.0262583160575873E-01 a       395     0    27     1     5
 -8.7198064620586269E-01 a       396     0    27     1     6
 -1.0563820224074116E-01 a       397     0    27     1     7
  2.6874428616016943E-01 a       398     0    27     1     8
 -3.5596389531118411E-01 a       399     0    27     1     9
  3.6699712573978233E-01 a       400     0    27     1    10
  7.4682624259146221E-02 a       401     0    27     1    11
  2.8089730118766637E-01 a       402     0    27     1    12
 -5.5436477719320909E-01 a       403     0    27     1    13
 -2.5051308647310211E-01 a       404     0    27     1    14
 -4.1902427763106753E-01 a       405     0    27     1    15
 -9.3913197088655587E-02 a       406     0    28     1     1
 -4.6395649032910929E-01 a       407     0    28     1     2
 -5.0497546686642025E-01 a       408     0    28     1     3
 -1.5234340856794856E-02 a       409     0    28     1     4
 -4.4737598007441431E-01 a       410     0    28     1     5
 -8.4427615506474518E-01 a       411     0    28     1     6
 -3.5997796019666728E-01 a       412     0    28     1     7
  3.2910731186848802E-01 a       413     0    28     1     8
 -7.3288351357333248E-01 a       414     0    28     1     9
  5.2361984019791963E-01 a       415     0    28     1    10
  3.0022154563655695E-01 a       416     0    28     1    11
  2.4620725060015700E-01 a       417     0    28     1    12
  5.2645482876321614E-01 a       418     0    28     1    13
  2.8404070335674884E-02 a       419     0    28     1    14
 -8.7024421484775526E-03 a       420     0    28     1    15
 -9.5481380599969345E-01 a       421     0    29     1     1
 -1.1547993276649418E+00 a       422     0    29     1     2
  3.1976931029843486E-01 a       423     0    29     1     3
  8.3406875244528922E-01 a       424     0    29     1     4
  1.0708109217957089E-02 a       425     0    29     1     5
 -2.1711432138922246E-01 a       426     0    29     1     6
 -3.5082125542110598E-01 a       427     0    29     1     7
  7.4847811563652655E-01 a       428     0    29     1     8
 -4.5663789005277577E-01 a       429     0    29     1     9
  6.0103040909333438E-01 a       430     0    29     1    10
  1.0024595891121351E+00 a       431     0    29     1    11
 -2.4722055190477438E-01 a       432     0    29     1    12
 -5.3511697808810910E-01 a       433     0    29     1    13
 -2.0675405618025208E-02 a       434     0    29     1    14
  1.1029603011700808E+00 a       435     0    29     1    15
  4.3781393511644437E-02 a       436     0    30     1     1
  4.2130468875682209E-01 a       437     0    30     1     2
  2.7003923859571816E-02 a       438     0    30     1     3
  8.0471274593503384E-01 a       439     0    30     1     4
 -3.5949121490134266E-03 a       440     0    30     1     5
 -2.5269087790947059E-01 a       441     0    30     1     6
  8.1966488505346446E-01 a       442     0    30     1     7
  7.5467930929435642E-02 a       443     0    30     1     8
 -4.0207091938430729E-02 a       444     0    30     1     9
  3.2067492522965209E-02 a       445     0    30     1    10
  9.8197866563858122E-02 a       446     0    30     1    11
 -1.3725176175770476E-01 a       447     0    30     1    12
  4.3937023509368084E-01 a       448     0    30     1    13
  4.0331130366204548E-01 a       449     0    30     1    14
  9.8437510642218007E-02 a       450     0    30     1    15
 -2.6134996118254261E-01 a       451     0    31     1     1
  4.1902004951798838E-01 a       452     0    31     1     2
  3.3688977803144859E-01 a       453     0    31     1     3
 -1.1796336132406855E+00 a       454     0    31     1     4
 -6.8006181325882031E-01 a       455     0    31     1     5
 -7.8125853979768345E-01 a       456     0    31     1     6
 -1.0253832213507112E+00 a       457     0    31     1     7
  2.3738187395654511E-01 a       458     0    31     1     8
 -1.8919084776180364E-01 a       459     0    31     1     9
 -1.2623881289464725E+00 a       460     0    31     1    10
 -1.0938826260052434E+00 a       461     0    31     1    11
  9.5224059909248682E-01 a       462     0    31     1    12
  2.0031798304826309E-01 a       463     0    31     1    13
  3.5251582161847078E-01 a       464     0    31     1    14
 -1.4022777214200283E-01 a       465     0    31     1    15
 -1.0778877651831939E-01 a       466     0    32     1     1
  2.0450227516438946E+00 a       467     0    32     1     2
  1.8265202068375702E-01 a       468     0    32     1     3
 -5.3658684155748329E-02 a       469     0    32     1     4
 -7.5064842201913534E-02 a       470     0    32     1     5
 -1.5801978325346580E-01 a       471     0    32     1     6
  3.4710022915196281E-01 a       472     0    32     1     7
  3.3957544345723067E-01 a       473     0    32     1     8
 -2.2029125376131264E-01 a       474     0    32     1     9
  3.6731054762315613E-01 a       475     0    32     1    10
 -4.8318836337442339E-01 a       476     0    32     1    11
 -1.8093892082314356E-01 a       477     0    32     1    12
 -3.3471062407429586E-01 a       478     0    32     1    13
 -1.2855889320974194E+00 a       479     0    32     1    14
  7.7872662731604281E-01 a       480     0    32     1    15
  3.0170097250134081E-01 a       481     0    33     1     1
  9.5214081660460648E-01 a       482     0    33     1     2
  5.8113186627712221E-01 a       483     0    33     1     3
 -2.4796532894110737E-01 a       484     0    33     1     4
  4.7077997528015453E-01 a       485     0    33     1     5
  1.8878726538360344E-01 a       486     0    33     1     6
 -1.3853850305579876E-01 a       487     0    33     1     7
  3.1158844140654934E-01 a       488     0    33     1     8
 -6.1957238749135901E-01 a       489     0    33     1     9
  3.9630511534512647E-01 a       490     0    33     1    10
  3.7178562693179890E-01 a       491     0    33     1    11
 -4.1853490165713986E-01 a       492     0    33     1    12
 -6.1928440393539630E-01 a       493     0    33     1    13
 -2.0647030307558048E-01 a       494     0    33     1    14
  3.6265158954502476E-02 a       495     0    33     1    15
 -1.4211790686588488E+00 a       496     0    34     1     1
 -2.7553248412594639E-01 a       497     0    34     1     2
 -2.6336497995988389E-01 a       498     0    34     1     3
 -3.7067841668507329E-01 a       499     0    34     1     4
 -3.4107436556810444E-01 a       500     0    34     1     5
  3.4067063638559492E-01 a       501     0    34     1     6
 -7.3944798938059308E-01 a       502     0    34     1     7
  3.9423062087985494E-01 a       503     0    34     1     8
 -6.7206740901029360E-01 a       504     0    34     1     9
  7.7389088915833470E-01 a       505     0    34     1    10
 -1.1993534149109375E+00 a       506     0    34     1    11
  2.1595243034285361E-01 a       507     0    34     1    12
  8.3500060837355916E-01 a       508     0    34     1    13
  2.4845662897226339E-01 a       509     0    34     1    14
 -6.9036008863554188E-01 a       510     0    34     1    15
  2.2787445461337175E-01 a       511     0    35     1     1
  3.1228609147143466E-01 a       512     0    35     1     2
  3.3967610704250237E-02 a       513     0    35     1     3
  2.7416893405933634E-01 a       514     0    35     1     4
 -5.4354182274002093E-02 a       515     0    35     1     5
  9.7266132185914428E-02 a       516     0    35     1     6
  5.1682069492216424E-02 a       517     0    35     1     7
 -1.7140222316415815E-01 a       518     0    35     1     8
  1.3441122284829862E-01 a       519     0    35     1     9
  3.8651436327774819E-01 a       520     0    35     1    10
 -2.3727473315668404E-01 a       521     0    35     1    11
 -4.8080455103691155E-01 a       522     0    35     1    12
 -5.0319544085385519E-02 a       523     0    35     1    13
  3.4151091153156510E-01 a       524     0    35     1    14
 -5.7611562671972749E-01 a       525     0    35     1    15
  5.3075348287984037E-01 a       526     0    36     1     1
  4.2339987051423927E-01 a       527     0    36     1     2
  8.7224449803812096E-02 a       528     0    36     1     3
  3.3704133692770966E-01 a       529     0    36     1     4
  1.0733182033375407E-01 a       530     0    36     1     5
  5.4439286795069841E-01 a       531     0    36     1     6
  1.2062000902065263E-01 a       532     0    36     1     7
  2.2846369539889255E-01 a       533     0    36     1     8
 -2.4151927621186831E-01 a       534     0    36     1     9
  3.6123784679191151E-01 a       535     0    36     1    10
 -4.5461372227735086E-01 a       536     0    36     1    11
  6.5646995602144848E-02 a       537     0    36     1    12
  5.2839935312191366E-01 a       538     0    36     1    13
 -8.0399403088908875E-03 a       539     0    36     1    14
  2.1675226643779069E-01 a       540     0    36     1    15
 -2.9759408730352388E-01 a       541     0    37     1     1
 -2.9723442226167529E-01 a       542     0    37     1     2
 -8.3601835461615137E-01 a       543     0    37     1     3
 -6.7724789050103443E-02 a       544     0    37     1     4
 -3.2572934717256813E-01 a       545     0    37     1     5
  9.4096391372136912E-01 a       546     0    37     1     6
  1.2552577149930322E-01 a       547     0    37     1     7
  2.0578170572816409E-01 a       548     0    37     1     8
 -1.6301012933921052E-01 a       549     0    37     1     9
 -6.0762173590806201E-01 a       550     0    37     1    10
  3.0686141944990147E-01 a       551     0    37     1    11
  1.5890091500121645E-01 a       552     0    37     1    12
  7.5033417743166589E-02 a       553     0    37     1    13
 -1.2290064403326992E+00 a       554     0    37     1    14
  8.7470088817463553E-03 a       555     0    37     1    15
  1.7991366799985023E-01 a       556     0    38     1     1
 -1.8382913351337129E+00 a       557     0    38     1     2
  1.4302331988287829E+00 a       558     0    38     1     3
  1.4314547830509358E-01 a       559     0    38     1     4
  7.1250545897657780E-01 a       560     0    38     1     5
  1.8149422897856782E+00 a       561     0    38     1     6
 -1.3135246087884762E-02 a       562     0    38     1     7
 -9.5726351822866887E-02 a       563     0    38     1     8
 -8.1208643071773695E-02 a       564     0    38     1     9
 -5.5098940903247318E-01 a       565     0    38     1    10
  2.6346742150980806E-01 a       566     0    38     1    11
 -5.4655035070034352E-01 a       567     0    38     1    12
  4.2474481549448334E-01 a       568     0    38     1    13
 -7.9534436743440651E-01 a       569     0    38     1    14
 -3.3062055238574795E-01 a       570     0    38     1    15
  3.4922456971591420E-01 a       571     0    39     1     1
 -7.1425194954198234E-01 a       572     0    39     1     2
  5.6411039253038593E-02 a       573     0    39     1     3
 -4.2591735604333680E-01 a       574     0    39     1     4
 -6.7398688186063371E-01 a       575     0    39     1     5
  7.3000533578257287E-01 a       576     0    39     1     6
 -1.6675220659102358E-01 a       577     0    39     1     7
 -2.3463606665267667E-01 a       578     0    39     1     8
  3.8098520028477861E-01 a       579     0    39     1     9
  1.4890161018863471E-01 a       580     0    39     1    10
 -1.7869614671630125E-02 a       581     0    39     1    11
 -3.9735811710892266E-01 a       582     0    39     1    12
  1.0019735571453927E+00 a       583     0    39     1    13
  6.5025225184790214E-01 a       584     0    39     1    14
  1.9691547491529879E-01 a       585     0    39     1    15
  7.5491780609055398E-02 a       586     0    40     1     1
  5.5384587379363592E-01 a       587     0    40     1     2
 -3.9703966758921592E-02 a       588     0    40     1     3
  4.6760773179989762E-01 a       589     0    40     1     4
 -7.1400408419490344E-02 a       590     0    40     1     5
  3.7796217025927920E-01 a       591     0    40     1     6
  4.9057087474804729E-02 a       592     0    40     1     7
 -2.6759128013850481E-01 a       593     0    40     1     8
  7.1696224016971033E-01 a       594     0    40     1     9
  2.7088474004001822E-01 a       595     0    40     1    10
 -5.9604609024811273E-01 a       596     0    40     1    11
 -1.6830019284867181E-01 a       597     0    40     1    12
 -4.7000733275124701E-01 a       598     0    40     1    13
 -6.3072001742683223E-02 a       599     0    40     1    14
 -9.1730272768298993E-01 a       600     0    40     1    15
  1.0049707830681932E-01 a       601     0    41     1     1
  4.4771901517436646E-01 a       602     0    41     1     2
  1.0228448590243542E+00 a       603     0    41     1     3
 -2.9916631503435498E-01 a       604     0    41     1     4
 -1.6269781184631801E-01 a       605     0    41     1     5
 -8.8506199829487053E-01 a       606     0    41     1     6
  7.9663800159695197E-01 a       607     0    41     1     7
 -1.9258572243128577E-01 a       608     0    41     1     8
  4.3156434774175007E-01 a       609     0    41     1     9
 -5.8740376887830081E-01 a       610     0    41     1    10
 -3.9199550434739533E-01 a       611     0    41     1    11
  3.4085503443149484E-01 a       612     0    41     1    12
  4.4223557233819394E-01 a       613     0    41     1    13
  8.1788416284739440E-01 a       614     0    41     1    14
 -9.8936022078429464E-01 a       615     0    41     1    15
 -9.0057694104059893E-02 a       616     0    42     1     1
 -7.0020599802827066E-01 a       617     0    42     1     2
  4.6409360907072894E-01 a       618     0    42     1     3
 -1.0815795671354724E+00 a       619     0    42     1     4
  4.4720033736866527E-01 a       620     0    42     1     5
  1.4226539859847606E-02 a       621     0    42     1     6
  4.6241055332753744E-01 a       622     0    42     1     7
 -2.2041594204942630E-01 a       623     0    42     1     8
 -2.2297158118867244E-01 a       624     0    42     1     9
 -3.7384013837693103E-01 a       625     0    42     1    10
  8.5858330314434697E-02 a       626     0    42     1    11
  1.5188746826188015E-01 a       627     0    42     1    12
 -1.9340413971139639E-01 a       628     0    42     1    13
 -6.0786474202083336E-02 a       629     0    42     1    14
 -7.4373534207888795E-02 a       630     0    42     1    15
 -2.9991439009034920E-01 a       631     0    43     1     1
 -5.3042381813526884E-01 a       632     0    43     1     2
 -7.2213758131191508E-01 a       633     0    43     1     3
 -9.8357073487561242E-01 a       634     0    43     1     4
 -6.6272615430043569E-01 a       635     0    43     1     5
 -8.3944440124799724E-01 a       636     0    43     1     6
  4.1089584758061282E-01 a       637     0    43     1     7
  1.2513027960948225E-02 a       638     0    43     1     8
  7.5179976563135131E-02 a       639     0    43     1     9
 -7.7361064571932314E-01 a       640     0    43     1    10
 -6.4337267309471902E-01 a       641     0    43     1    11
  1.0253986676644811E-02 a       642     0    43     1    12
 -1.2038198708049630E+00 a       643     0    43     1    13
  1.0653765391265195E+00 a       644     0    43     1    14
 -8.9912358881801513E-01 a       645     0    43     1    15
  3.7994464339945211E-01 a       646     0    44     1     1
 -4.7939306962873551E-03 a       647     0    44     1     2
 -1.2918416968466637E-01 a       648     0    44     1     3
 -2.8248198833191424E-01 a       649     0    44     1     4
 -5.4582077892362843E-02 a       650     0    44     1     5
  9.5811247461785876E-01 a       651     0    44     1     6
  1.9792871028557768E-01 a       652     0    44     1     7
 -1.7046028005116445E-01 a       653     0    44     1     8
 -5.8819266318399205E-02 a       654     0    44     1     9
  1.7635118869610827E-01 a       655     0    44     1    10
  7.3807802644449283E-01 a       656     0    44     1    11
  4.5871653506771570E-01 a       657     0    44     1    12
  8.2595830285972921E-02 a       658     0    44     1    13
  1.0875878394092678E-01 a       659     0    44     1    14
 -1.1908047503313228E-01 a       660     0    44     1    15
  2.9553398814239329E-01 a       661     0    45     1     1
 -6.6031653821955705E-01 a       662     0    45     1     2
  1.6066961637123225E-01 a       663     0    45     1     3
  2.0294822575575799E-01 a       664     0    45     1     4
  2.8012662903643742E-01 a       665     0    45     1     5
  9.8202117197677907E-01 a       666     0    45     1     6
  2.3141013307681316E-01 a       667     0    45     1     7
 -2.3846125499968115E-01 a       668     0    45     1     8
  4.5693455115070569E-01 a       669     0    45     1     9
  1.9006507717579585E-01 a       670     0    45     1    10
 -6.8355872425019060E-01 a       671     0    45     1    11
 -2.3652369719869415E-01 a       672     0    45     1    12
  5.8406639535119353E-01 a       673     0    45     1    13
 -1.6809952354864835E-01 a       674     0    45     1    14
 -3.0987778586209774E-01 a       675     0    45     1    15
  8.8918912881970180E-01 a       676     0    46     1     1
  6.7632001884332693E-01 a       677     0    46     1     2
  7.6913364126845574E-02 a       678     0    46     1     3
  1.7412006876172998E+00 a       679     0    46     1     4
 -2.9898319736646417E-01 a       680     0    46     1     5
 -2.0773679529704833E-01 a       681     0    46     1     6
  4.8376944548495387E-01 a       682     0    46     1     7
 -2.6766461248702463E-02 a       683     0    46     1     8
  8.1619939603477201E-02 a       684     0    46     1     9
  1.6728670485838244E+00 a       685     0    46     1    10
  6.8531239557503731E-01 a       686     0    46     1    11
  5.7743037933276853E-01 a       687     0    46     1    12
  1.4371029387821876E+00 a       688     0    46     1    13
  8.7265129725051083E-01 a       689     0    46     1    14
 -6.8490594814208694E-01 a       690     0    46     1    15
  2.5480628394859439E-01 a       691     0    47     1     1
 -1.2964851278887446E-01 a       692     0    47     1     2
  3.9957603191751778E-01 a       693     0    47     1     3
 -2.9546088198550685E-01 a       694     0    47     1     4
 -7.3343603044565453E-01 a       695     0    47     1     5
  4.0998656122887644E-01 a       696     0    47     1     6
 -4.3296360043994467E-02 a       697     0    47     1     7
 -3.4335852771311279E-02 a       698     0    47     1     8
 -1.2900481502992698E-02 a       699     0    47     1     9
  6.5982669080513623E-01 a       700     0    47     1    10
  1.8620374562391873E-01 a       701     0    47     1    11
  1.4079164996967233E-01 a       702     0    47     1    12
  5.7033165486777004E-02 a       703     0    47     1    13
 -7.8703531368093813E-02 a       704     0    47     1    14
 -1.9957908691006376E-01 a       705     0    47     1    15
 -4.6815130016561635E-01 a       706     0    48     1     1
 -5.2318349848364076E-01 a       707     0    48     1     2
 -1.1903615149644105E-01 a       708     0    48     1     3
 -2.6318199159664007E-01 a       709     0    48     1     4
  4.9742540793564266E-01 a       710     0    48     1     5
 -2.6820102774123955E-01 a       711     0    48     1     6
 -1.5012325803253893E-01 a       712     0    48     1     7
 -4.4563138556456917E-02 a       713     0    48     1     8
  8.4872924819105501E-03 a       714     0    48     1     9
  5.3485710240046135E-02 a       715     0    48     1    10
 -4.5660318741872080E-01 a       716     0    48     1    11
  5.4835399018392672E-01 a       717     0    48     1    12
 -4.6061227658543441E-01 a       718     0    48     1    13
  1.0735891771547451E-01 a       719     0    48     1    14
 -2.5890315483661708E-01 a       720     0    48     1    15
  3.5530079794419622E-01 a       721     0    49     1     1
  5.5692185017382467E-01 a       722     0    49     1     2
 -2.2309231310127295E-01 a       723     0    49     1     3
  3.6762698375181324E-01 a       724     0    49     1     4
  2.9842823417832554E-01 a       725     0    49     1     5
 -2.7598600153860081E-01 a       726     0    49     1     6
 -8.3097211234887070E-01 a       727     0    49     1     7
  4.1362655858324340E-02 a       728     0    49     1     8
  1.1135489864387031E-02 a       729     0    49     1     9
 -8.9755222165780302E-01 a       730     0    49     1    10
 -9.9869608885938299E-01 a       731     0    49     1    11
 -8.5485567607470325E-01 a       732     0    49     1    12
 -3.8055757387249589E-02 a       733     0    49     1    13
  1.0574393172013949E+00 a       734     0    49     1    14
  4.9616942935955310E-01 a       735     0    49     1    15
 -4.6288138979685617E-01 a       736     0    50     1     1
 -2.3504071995087231E-01 a       737     0    50     1     2
 -4.9590656032137825E-01 a       738     0    50     1     3
  2.9983084132257698E-01 a       739     0    50     1     4
  3.5388386519270720E-01 a       740     0    50     1     5
 -5.1818268610744467E-01 a       741     0    50     1     6
 -3.4099493823281718E-01 a       742     0    50     1     7
 -2.2571616969976199E-02 a       743     0    50     1     8
  2.3032582543927690E-01 a       744     0    50     1     9
  1.0321304070554081E-01 a       745     0    50     1    10
  5.4978694989971011E-01 a       746     0    50     1    11
  3.2477763513699165E-01 a       747     0    50     1    12
 -4.5672074566324444E-01 a       748     0    50     1    13
 -1.5875196490717072E-02 a       749     0    50     1    14
 -4.7424747129058592E-01 a       750     0    50     1    15
 -2.7275878635061884E-01 a       751     0    51     1     1
  6.8517834753237883E-01 a       752     0    51     1     2
 -1.6121202555721692E-01 a       753     0    51     1     3
  2.6868224204264080E-01 a       754     0    51     1     4
  1.8232161932910754E-01 a       755     0    51     1     5
  1.7413990997988230E-01 a       756     0    51     1     6
 -2.4629091225506089E-01 a       757     0    51     1     7
  1.5075682300163867E-01 a       758     0    51     1     8
 -1.2692422102041495E-01 a       759     0    51     1     9
  2.7424677943848891E-01 a       760     0    51     1    10
  1.3944612865192266E-01 a       761     0    51     1    11
  2.4131156453694713E-01 a       762     0    51     1    12
 -2.1013791952138675E-01 a       763     0    51     1    13
  5.6193899781850742E-01 a       764     0    51     1    14
  5.1102833373836520E-01 a       765     0    51     1    15
 -6.2771053400171209E-02 a       766     0    52     1     1
 -1.3962544036939187E-01 a       767     0    52     1     2
  2.6486893224920122E-01 a       768     0    52     1     3
 -4.9410332905868964E-01 a       769     0    52     1     4
  7.3862176684707925E-01 a       770     0    52     1     5
  5.1295390778519834E-01 a       771     0    52     1     6
 -1.3388180530170971E-01 a       772     0    52     1     7
  1.1190821351020110E-01 a       773     0    52     1     8
 -1.6881939467396129E-01 a       774     0    52     1     9
 -8.7565521489005060E-01 a       775     0    52     1    10
  8.1992255427324634E-01 a       776     0    52     1    11
 -8.2312907690444537E-01 a       777     0    52     1    12
  1.1085443509984605E-01 a       778     0    52     1    13
 -6.5196903700481856E-01 a       779     0    52     1    14
  6.8067385489633869E-01 a       780     0    52     1    15
  1.0894242326228855E-01 a       781     0    53     1     1
 -1.2869545408290836E-01 a       782     0    53     1     2
 -3.9652600196517651E-01 a       783     0    53     1     3
 -6.3432561827564260E-01 a       784     0    53     1     4
  3.1500347158415509E-01 a       785     0    53     1     5
 -7.4121305103580060E-02 a       786     0    53     1     6
 -1.5735517093668364E-01 a       787     0    53     1     7
 -3.3893537119030127E-02 a       788     0    53     1     8
 -2.4031860573972277E-01 a       789     0    53     1     9
 -8.5356092569514944E-02 a       790     0    53     1    10
 -5.2309090330870833E-01 a       791     0    53     1    11
 -3.6589281362280313E-01 a       792     0    53     1    12
 -1.8158672568785653E-01 a       793     0    53     1    13
 -1.0801489080302262E-01 a       794     0    53     1    14
  3.0820985863657430E-01 a       795     0    53     1    15
  8.7868671301473605E-02 a       796     0    54     1     1
  9.1144280467499714E-02 a       797     0    54     1     2
 -8.7883803036321262E-02 a       798     0    54     1     3
  8.0290488043218741E-02 a       799     0    54     1     4
  5.2661506304056853E-02 a       800     0    54     1     5
 -1.3702876998179886E-01 a       801     0    54     1     6
  2.9194877305484750E-02 a       802     0    54     1     7
 -2.3905765567390005E-02 a       803     0    54     1     8
  2.0643296273467041E-01 a       804     0    54     1     9
 -1.0937539312170336E-01 a       805     0    54     1    10
  1.0833741142816882E+00 a       806     0    54     1    11
 -3.6842295448649803E-01 a       807     0    54     1    12
  2.8957509800392141E-02 a       808     0    54     1    13
 -6.8793985576957162E-01 a       809     0    54     1    14
  1.0304041376505949E-01 a       810     0    54     1    15
  5.9823794086084408E-03 a       811     0    55     1     1
  2.5027255533125903E-01 a       812     0    55     1     2
 -1.5320998210929163E-01 a       813     0    55     1     3
 -1.3948052148072096E-01 a       814     0    55     1     4
 -5.1981493233171427E-01 a       815     0    55     1     5
 -4.2491547307896521E-01 a       816     0    55     1     6
 -4.4451156178231305E-01 a       817     0    55     1     7
 -2.7324052377767163E-02 a       818     0    55     1     8
 -1.8967250668256233E-01 a       819     0    55     1     9
 -1.3767175700616503E+00 a       820     0    55     1    10
  8.1234337222692377E-01 a       821     0    55     1    11
  1.5125806902881406E-01 a       822     0    55     1    12
  8.5079912011263925E-01 a       823     0    55     1    13
  2.6332367447610971E-01 a       824     0    55     1    14
  9.5570863595383504E-01 a       825     0    55     1    15
 -1.8468995056827442E-01 a       826     0    56     1     1
 -1.1607950459099900E-01 a       827     0    56     1     2
 -8.6580924517347224E-01 a       828     0    56     1     3
  3.2282295788796384E-01 a       829     0    56     1     4
 -1.2346535683625315E-01 a       830     0    56     1     5
 -2.6109492773486942E-01 a       831     0    56     1     6
 -6.2067720345592470E-01 a       832     0    56     1     7
 -1.7306541039960478E-02 a       833     0    56     1     8
 -1.0027856042038975E-02 a       834     0    56     1     9
 -4.7187185717624319E-01 a       835     0    56     1    10
  1.9679795964468982E-01 a       836     0    56     1    11
 -5.1140593658057440E-02 a       837     0    56     1    12
  4.8983276388968447E-02 a       838     0    56     1    13
 -2.9072153282292690E-01 a       839     0    56     1    14
  1.1845532333412429E-01 a       840     0    56     1    15
 -1.4625439068470086E-01 a       841     0    57     1     1
  2.0318678780036037E-01 a       842     0    57     1     2
 -1.3918130948664401E-01 a       843     0    57     1     3
  1.7744305916947731E-01 a       844     0    57     1     4
 -1.7646183181338185E-01 a       845     0    57     1     5
 -1.4936506480665801E-01 a       846     0    57     1     6
 -2.3452683058963850E-01 a       847     0    57     1     7
  8.1371188318392199E-02 a       848     0    57     1     8
 -1.8306286413766967E-01 a       849     0    57     1     9
  3.0486693143087695E-01 a       850     0    57     1    10
  1.3642142830016224E-01 a       851     0    57     1    11
 -1.7480138702383234E-02 a       852     0    57     1    12
 -3.3203059965189086E-01 a       853     0    57     1    13
  6.1633196806016866E-01 a       854     0    57     1    14
  2.5583568365787457E-01 a       855     0    57     1    15
  3.1329635995700683E-01 a       856     0    58     1     1
 -9.9263873008664256E-03 a       857     0    58     1     2
  5.3912845169442092E-01 a       858     0    58     1     3
  3.2547735178267351E-01 a       859     0    58     1     4
  7.1088031381326822E-01 a       860     0    58     1     5
  7.0503111846196254E-01 a       861     0    58     1     6
 -3.9248201510671399E-01 a       862     0    58     1     7
  8.5084090801745685E-02 a       863     0    58     1     8
  8.2528492598831881E-04 a       864     0    58     1     9
  1.1997775936000259E+00 a       865     0    58     1    10
  4.1728479942601820E-01 a       866     0    58     1    11
 -6.9307402672156193E-01 a       867     0    58     1    12
 -2.5648624339826698E-01 a       868     0    58     1    13
 -1.1471130377364318E+00 a       869     0    58     1    14
 -1.6925513501003484E-01 a       870     0    58     1    15
 -1.7324235362703233E-01 a       871     0    59     1     1
  5.0362209375061341E-02 a       872     0    59     1     2
 -2.6852228809815692E-01 a       873     0    59     1     3
  1.9843630189174197E-01 a       874     0    59     1     4
  2.1759605762758327E-01 a       875     0    59     1     5
 -1.8184110097135903E-01 a       876     0    59     1     6
 -3.0099067522981332E-02 a       877     0    59     1     7
  4.2416025229010869E-02 a       878     0    59     1     8
 -1.4273723020905316E-02 a       879     0    59     1     9
 -7.0640458561524921E-01 a       880     0    59     1    10
 -5.2618652834438229E-01 a       881     0    59     1    11
  8.1991476620948953E-02 a       882     0    59     1    12
  1.0495368005099054E-01 a       883     0    59     1    13
 -6.4390553006777029E-01 a       884     0    59     1    14
  2.1743599090569607E-01 a       885     0    59     1    15
  1.6147462696902362E-01 a       886     0    60     1     1
  2.2095217044549573E-01 a       887     0    60     1     2
  6.4394131194126014E-02 a       888     0    60     1     3
  2.5409281929352218E-01 a       889     0    60     1     4
 -2.6741581980686674E-01 a       890     0    60     1     5
  1.9825340340135653E-01 a       891     0    60     1     6
 -1.1749776306923334E-02 a       892     0    60     1     7
  2.4548688760778245E-02 a       893     0    60     1     8
 -1.9776003454470135E-02 a       894     0    60     1     9
 -7.4451100666650338E-02 a       895     0    60     1    10
 -1.0799091224867231E-02 a       896     0    60     1    11
 -2.2593830830531103E-01 a       897     0    60     1    12
  1.5657398006690684E-01 a       898     0    60     1    13
 -3.3793270733465292E-01 a       899     0    60     1    14
  1.1762922056760296E-01 a       900     0    60     1    15
 -2.6837322618701739E-02 a       901     0    61     1     1
 -1.7654641328410109E-01 a       902     0    61     1     2
  1.7677334372042211E-01 a       903     0    61     1     3
  1.2485798981013095E-01 a       904     0    61     1     4
 -2.2246161605174819E-01 a       905     0    61     1     5
 -1.3805485491136277E-01 a       906     0    61     1     6
  3.2954473129137757E-01 a       907     0    61     1     7
 -6.5587774915565012E-03 a       908     0    61     1     8
 -1.2047039742264433E-03 a       909     0    61     1     9
  5.8609191814465278E-01 a       910     0    61     1    10
  7.3325643665739215E-01 a       911     0    61     1    11
  6.9820470108328281E-01 a       912     0    61     1    12
 -2.0361388852734728E-02 a       913     0    61     1    13
 -1.5486492632116605E-01 a       914     0    61     1    14
 -7.1714404744697069E-01 a       915     0    61     1    15
  2.2843113702885148E-01 a       916     0    62     1     1
  1.2640413738369458E-01 a       917     0    62     1     2
  6.1379275249431353E-01 a       918     0    62     1     3
  2.4510689641312358E-01 a       919     0    62     1     4
  5.6480575448196658E-02 a       920     0    62     1     5
 -3.8969339536943986E-03 a       921     0    62     1     6
  2.7300558870079450E-01 a       922     0    62     1     7
  9.7329807875945556E-02 a       923     0    62     1     8
 -1.1078500990892316E-01 a       924     0    62     1     9
 -1.3196398036873096E-02 a       925     0    62     1    10
 -5.2813455263455111E-01 a       926     0    62     1    11
 -1.5357603799693745E-01 a       927     0    62     1    12
  2.1041364152200384E-01 a       928     0    62     1    13
  2.5791986330506982E-03 a       929     0    62     1    14
  1.6616650097498553E-01 a       930     0    62     1    15
  1.1182392861624808E-01 a       931     0    63     1     1
 -2.5848003956877846E-01 a       932     0    63     1     2
  2.5040373721233859E-02 a       933     0    63     1     3
 -1.6704448561263810E-01 a       934     0    63     1     4
  2.4325784787846909E-02 a       935     0    63     1     5
 -2.0603265447465496E-01 a       936     0    63     1     6
  3.0900673601611051E-01 a       937     0    63     1     7
 -5.9428956031748706E-02 a       938     0    63     1     8
  4.6682653761263536E-02 a       939     0    63     1     9
  2.1847054763830440E-01 a       940     0    63     1    10
  5.9885884365803985E-02 a       941     0    63     1    11
 -3.3695573439195207E-02 a       942     0    63     1    12
  7.2976306741119920E-02 a       943     0    63     1    13
 -5.2068895805089110E-01 a       944     0    63     1    14
 -5.5204911197017748E-01 a       945     0    63     1    15
 -4.5713491858126711E-02 a       946     0    64     1     1
 -1.4711034252717212E-01 a       947     0    64     1     2
  8.9565250335330054E-02 a       948     0    64     1     3
  1.8964844065071415E-02 a       949     0    64     1     4
  7.1522159566362403E-02 a       950     0    64     1     5
 -4.6802091192206968E-01 a       951     0    64     1     6
 -2.7688466970142334E-01 a       952     0    64     1     7
 -7.3825333073504681E-03 a       953     0    64     1     8
  6.4900655419419445E-02 a       954     0    64     1     9
  1.8106969989834298E-01 a       955     0    64     1    10
 -2.9537372560043196E-01 a       956     0    64     1    11
  5.6018976407865384E-01 a       957     0    64     1    12
 -1.9037099873396638E-02 a       958     0    64     1    13
  6.6089618195527478E-01 a       959     0    64     1    14
 -1.4065804940549728E-01 a       960     0    64     1    15
 -1.1705990342588466E+00 b       961     1     1
  6.0003662780538503E-01 b       962     1     2
 -9.8372094706685398E-02 b       963     1     3
 -1.2177291774200744E-01 b       964     1     4
 -5.8594258235371710E-01 b       965     1     5
 -6.2954492026403419E-01 b       966     1     6
 -1.1859253272944146E+00 b       967     1     7
 -4.0907303095900377E-01 b       968     1     8
  3.6476650190790008E-02 b       969     1     9
  5.4564161462270194E-02 b       970     1    10
  1.9020364686326971E-01 b       971     1    11
 -2.3430832997830051E+00 b       972     1    12
 -7.6811599396244412E-01 b       973     1    13
 -1.0653990359649541E+00 b       974     1    14
 -6.6864928359473719E-01 b       975     1    15
  9.8732780226684991E-01 a       976     1     1     2     1
 -2.3662050524357073E-01 a       977     1     1     2     2
 -1.5370878791717459E+00 a       978     1     1     2     3
 -2.3112224273577309E+00 a       979     1     1     2     4
  2.9779767245151101E-01 a       980     1     1     2     5
 -4.9185191007265337E-02 a       981     1     1     2     6
 -6.4837063082653268E-01 a       982     1     1     2     7
  8.7850448691051644E-02 a       983     1     1     2     8
 -2.5020369768640760E-01 a       984     1     1     2     9
 -1.9343578014478147E+00 a       985     1     1     2    10
 -5.8632423268784828E-01 a       986     1     1     2    11
 -2.0274421186727556E-01 a       987     1     1     2    12
  1.4748765487792221E+00 a       988     1     1     2    13
  4.2208211934055628E-01 a       989     1     1     2    14
 -5.6455430030756981E-01 a       990     1     1     2    15
 -4.8826234675960194E-02 a       991     1     2     2     1
  4.7385741861854219E-01 a       992     1     2     2     2
  4.9654059530211059E-01 a       993     1     2     2     3
  3.1781065260044583E-01 a       994     1     2     2     4
 -1.0528836940185684E+00 a       995     1     2     2     5
  1.5917294452533388E-02 a       996     1     2     2     6
 -6.6520614624511443E-01 a       997     1     2     2     7
  6.6981582249736815E-01 a       998     1     2     2     8
 -5.0174114570822781E-01 a       999     1     2     2     9
  1.9187669464545190E-01 a      1000     1     2     2    10
 -3.9951379007079607E-01 a      1001     1     2     2    11
  1.0243296681647458E-01 a      1002     1     2     2    12
 -1.2169616760657083E+00 a      1003     1     2     2    13
 -4.5992337327516719E-01 a      1004     1     2     2    14
 -1.2894182174720084E+00 a      1005     1     2     2    15
  5.6493080780771684E-02 a      1006     1     3     2     1
  1.3708599186827646E+00 a      1007     1     3     2     2
  2.4316987603856699E-01 a      1008     1     3     2     3
  1.0180993805752738E+00 a      1009     1     3     2     4
  1.2890332824236850E-01 a      1010     1     3     2     5
 -3.9752878666862390E-01 a      1011     1     3     2     6
  8.6898294558206801E-02 a      1012     1     3     2     7
 -3.5335108370882252E-02 a      1013     1     3     2     8
  3.4927043673656133E-01 a      1014     1     3     2     9
  2.2882069471413011E-01 a      1015     1     3     2    10
 -1.7346896124414921E-01 a      1016     1     3     2    11
  2.4602925446807139E-01 a      1017     1     3     2    12
  9.5660509994171763E-02 a      1018     1     3     2    13
 -5.0502427405690076E-01 a      1019     1     3     2    14
  8.7760531412172649E-01 a      1020     1     3     2    15
 -1.1871820211402062E+00 a      1021     1     4     2     1
 -7.3551901269921260E-01 a      1022     1     4     2     2
 -2.3689621151360968E-01 a      1023     1     4     2     3
  2.4346837193486845E-01 a      1024     1     4     2     4
 -2.4419605105655423E-01 a      1025     1     4     2     5
  3.4932395385661175E-01 a      1026     1     4     2     6
  9.5474374807262363E-01 a      1027     1     4     2     7
 -1.1514754539640910E-01 a      1028     1     4     2     8
  4.5189396318013875E-01 a      1029     1     4     2     9
  5.2669703525217315E-01 a      1030     1     4     2    10
  2.8761258749055080E-01 a      1031     1     4     2    11
 -5.8858010758498169E-01 a      1032     1     4     2    12
 -6.8821757061451083E-01 a      1033     1     4     2    13
  8.1188256004286941E-01 a      1034     1     4     2    14
 -1.0502539374995215E+00 a      1035     1     4     2    15
  5.1832386675897102E-01 a      1036     1     5     2     1
 -4.3252743768645119E-01 a      1037     1     5     2     2
 -5.9514161875874338E-01 a      1038     1     5     2     3
  6.8029612663077954E-01 a      1039     1     5     2     4
 -7.0287591487244638E-01 a      1040     1     5     2     5
 -2.0273138613937411E-01 a      1041     1     5     2     6
  5.3906229707193976E-01 a      1042     1     5     2     7
 -1.8416633305534896E-01 a      1043     1     5     2     8
  6.2209297750303250E-01 a      1044     1     5     2     9
 -1.5668087053895183E-01 a      1045     1     5     2    10
 -1.2557663493709281E-01 a      1046     1     5     2    11
 -3.8975945071159052E-01 a      1047     1     5     2    12
 -5.1797988429162189E-01 a      1048     1     5     2    13
 -8.4803658016466017E-03 a      1049     1     5     2    14
  5.5581839969651353E-02 a      1050     1     5     2    15
 -1.6629146580246748E-01 a      1051     1     6     2     1
  1.6189365368359390E-01 a      1052     1     6     2     2
  2.5329245210771074E-02 a      1053     1     6     2     3
  6.7007331505601331E-01 a      1054     1     6     2     4
  1.5791579841096486E+00 a      1055     1     6     2     5
 -1.3031835201073019E-01 a      1056     1     6     2     6
  4.0870329856298798E-01 a      1057     1     6     2     7
 -2.8996711321096169E-01 a      1058     1     6     2     8
  5.5222363141000508E-01 a      1059     1     6     2     9
 -6.2596292291926603E-01 a      1060     1     6     2    10
  4.2560903086611251E-01 a      1061     1     6     2    11
 -2.9619099999130671E-01 a      1062     1     6     2    12
 -1.7321127698029987E-01 a      1063     1     6     2    13
 -4.4996898730401869E-01 a      1064     1     6     2    14
 -1.0647591637479310E+00 a      1065     1     6     2    15
  1.9479689131221234E-01 a      1066     1     7     2     1
  1.5659771840029593E+00 a      1067     1     7     2     2
  1.0098747595698978E+00 a      1068     1     7     2     3
 -1.4880597284865926E-01 a      1069     1     7     2     4
  1.6882762701962478E-01 a      1070     1     7     2     5
  2.8010813292902442E-01 a      1071     1     7     2     6
  2.7471612424969505E-01 a      1072     1     7     2     7
 -5.3569100011691595E-01 a      1073     1     7     2     8
 -1.1609042784299646E-01 a      1074     1     7     2     9
  7.8863537226361990E-01 a      1075     1     7     2    10
  6.3936852827342083E-01 a      1076     1     7     2    11
 -5.3689500633145715E-01 a      1077     1     7     2    12
 -4.5707413440616934E-01 a      1078     1     7     2    13
 -3.4048538011164647E-01 a      1079     1     7     2    14
  2.6574042708319334E-01 a      1080     1     7     2    15
  2.9439231379787700E+00 a      1081     1     8     2     1
 -1.7770143267287247E-02 a      1082     1     8     2     2
  3.1609744809966778E-01 a      1083     1     8     2     3
 -1.2654312276067841E+00 a      1084     1     8     2     4
 -8.3217465905740751E-01 a      1085     1     8     2     5
  2.5931332617115070E+00 a      1086     1     8     2     6
 -5.3403946703761626E-03 a      1087     1     8     2     7
 -9.0283637459431731E-01 a      1088     1     8     2     8
  1.5592658017543117E+00 a      1089     1     8     2     9
  4.0383211945129144E-02 a      1090     1     8     2    10
 -1.7601658766961117E+00 a      1091     1     8     2    11
 -3.3602114176448045E-01 a      1092     1     8     2    12
  1.7556119848029494E+00 a      1093     1     8     2    13
 -3.6384979851729898E-01 a      1094     1     8     2    14
  6.7938319045591855E-01 a      1095     1     8     2    15
  2.4926711422816581E+00 a      1096     1     9     2     1
 -3.4547824024225161E-02 a      1097     1     9     2     2
  9.4774046438924198E-01 a      1098     1     9     2     3
 -2.0231481486952568E-01 a      1099     1     9     2     4
 -1.0802127003043174E+00 a      1100     1     9     2     5
  1.3939452618413239E-01 a      1101     1     9     2     6
 -2.0779630214518457E-01 a      1102     1     9     2     7
  7.8996952546219878E-01 a      1103     1     9     2     8
 -1.5136327607425901E-01 a      1104     1     9     2     9
 -9.9906037499887279E-01 a      1105     1     9     2    10
 -1.3706668154136350E+00 a      1106     1     9     2    11
 -7.8306428199641442E-01 a      1107     1     9     2    12
 -1.0169428808573722E+00 a      1108     1     9     2    13
 -1.2089311709238544E+00 a      1109     1     9     2    14
  1.4882706370940024E-02 a      1110     1     9     2    15
 -4.8438897819144128E-01 a      1111     1    10     2     1
 -7.6554482213641406E-01 a      1112     1    10     2     2
 -2.1216320567746900E-03 a      1113     1    10     2     3
 -2.5230470763197466E-01 a      1114     1    10     2     4
  3.1145885198904583E-01 a      1115     1    10     2     5
  2.7317937449915553E-01 a      1116     1    10     2     6
  2.0985001649804377E-01 a      1117     1    10     2     7
 -9.8904882069792727E-02 a      1118     1    10     2     8
  2.1962391676803134E-01 a      1119     1    10     2     9
 -1.2274176556857939E+00 a      1120     1    10     2    10
 -8.8752188294492676E-02 a      1121     1    10     2    11
  1.6241428102810394E-02 a      1122     1    10     2    12
  2.2310906892178770E-01 a      1123     1    10     2    13
  4.6896973661056013E-01 a      1124     1    10     2    14
  2.3098663627872817E-01 a      1125     1    10     2    15
  4.0103541886694960E-01 a      1126     1    11     2     1
 -2.4488120512062594E-01 a      1127     1    11     2     2
 -4.5232269304793560E-01 a      1128     1    11     2     3
  4.4249849913401373E-01 a      1129     1    11     2     4
  8.3768710456801398E-01 a      1130     1    11     2     5
 -4.2340157150287105E-01 a      1131     1    11     2     6
 -2.9701081116106537E-01 a      1132     1    11     2     7
 -1.6921509438532475E-01 a      1133     1    11     2     8
 -2.0831015977979750E-01 a      1134     1    11     2     9
 -2.6885000267585835E-01 a      1135     1    11     2    10
  5.6498796001656792E-01 a      1136     1    11     2    11
  2.3039321876817762E-01 a      1137     1    11     2    12
  7.2495846839092423E-02 a      1138     1    11     2    13
 -6.1962403949744571E-01 a      1139     1    11     2    14
  1.4883449421820244E-01 a      1140     1    11     2    15
 -8.1506037467473003E-01 a      1141     1    12     2     1
 -2.1174464481264028E+00 a      1142     1    12     2     2
  1.0185842332934036E+00 a      1143     1    12     2     3
 -2.1737209587506729E+00 a      1144     1    12     2     4
 -1.3522536914415257E+00 a      1145     1    12     2     5
 -1.7649125912502606E-02 a      1146     1    12     2     6
  1.8273521242800050E-01 a      1147     1    12     2     7
  1.5768671745146954E+00 a      1148     1    12     2     8
  8.8712547418800636E-01 a      1149     1    12     2     9
  1.9484141075570729E-01 a      1150     1    12     2    10
 -1.3300012592675550E+00 a      1151     1    12     2    11
  7.5212793323208049E-01 a      1152     1    12     2    12
 -7.9632813079899778E-01 a      1153     1    12     2    13
  2.2233422135887443E-01 a      1154     1    12     2    14
 -3.7182650669962941E-01 a      1155     1    12     2    15
 -2.3311710943606379E+00 a      1156     1    13     2     1
 -8.7728595558675826E-01 a      1157     1    13     2     2
  1.0387761381263731E+00 a      1158     1    13     2     3
 -4.6624574398430479E-01 a      1159     1    13     2     4
  2.1460802417337571E-01 a      1160     1    13     2     5
  7.3688862867181937E-01 a      1161     1    13     2     6
 -1.6400971640839401E+00 a      1162     1    13     2     7
 -6.9896349635566191E-01 a      1163     1    13     2     8
 -1.4466296451045431E+00 a      1164     1    13     2     9
  4.7477823824328830E-01 a      1165     1    13     2    10
 -7.7736851091920424E-03 a      1166     1    13     2    11
 -7.0627453358888037E-01 a      1167     1    13     2    12
 -1.3944103822796763E+00 a      1168     1    13     2    13
  9.8335487648055242E-01 a      1169     1    13     2    14
  5.4444530396954227E-01 a      1170     1    13     2    15
  9.7587624116721224E-03 a      1171     1    14     2     1
 -6.0711033778829948E-01 a      1172     1    14     2     2
  6.8072313760944470E-02 a      1173     1    14     2     3
 -7.4750233597249560E-01 a      1174     1    14     2     4
 -2.8830464055726670E-02 a      1175     1    14     2     5
 -3.9540899490669335E-01 a      1176     1    14     2     6
  4.9103140883096646E-01 a      1177     1    14     2     7
 -6.5077116383711289E-02 a      1178     1    14     2     8
  5.4527354926377980E-01 a      1179     1    14     2     9
  2.2802779504610540E-01 a      1180     1    14     2    10
 -2.4540634870490780E-01 a      1181     1    14     2    11
 -6.7630500999379428E-01 a      1182     1    14     2    12
 -5.4720048464387627E-01 a      1183     1    14     2    13
  4.0617558710737411E-01 a      1184     1    14     2    14
 -1.0671224243106534E+00 a      1185     1    14     2    15
 -2.6947826142811787E-01 a      1186     1    15     2     1
 -2.2214904018821227E-01 a      1187     1    15     2     2
  7.3973806695246147E-01 a      1188     1    15     2     3
  7.7354092942024211E-01 a      1189     1    15     2     4
  3.2563364019246338E-01 a      1190     1    15     2     5
  4.5727259335327308E-01 a      1191     1    15     2     6
  7.2970997589632070E-01 a      1192     1    15     2     7
 -2.6224066567859450E-01 a      1193     1    15     2     8
  8.5060533391474835E-01 a      1194     1    15     2     9
  4.7393160998030986E-01 a      1195     1    15     2    10
 -4.1199095966177746E-01 a      1196     1    15     2    11
  1.2302362867736076E-01 a      1197     1    15     2    12
  5.0513290977864200E-01 a      1198     1    15     2    13
  7.5901380667011464E-02 a      1199     1    15     2    14
  1.6441322606811417E+00 a      1200     1    15     2    15
 -1.4221976805722176E+00 b      1201     2     1
 -3.2573756175359619E-01 b      1202     2     2
 -1.5945239255854757E-02 b      1203     2     3
  1.5052606510663866E+00 b      1204     2     4
 -3.2284001517566017E-02 b      1205     2     5
 -2.6068904380302504E-01 b      1206     2     6
 -2.9796841497003074E-01 b      1207     2     7
  2.7625418175903488E-01 b      1208     2     8
 -3.3744733243036718E-01 b      1209     2     9
 -2.9435897328442212E-01 b      1210     2    10
 -2.4348499756673669E-01 b      1211     2    11
  5.4789324424782004E-01 b      1212     2    12
 -1.0369864348866857E+00 b      1213     2    13
  6.8204058150384483E-01 b      1214     2    14
  6.2147535886254790E-01 b      1215     2    15
 -1.8734346750157616E-01 a      1216     2     1     3     1
 -7.7944073526545476E-02 a      1217     2     2     3     1
 -1.5145026771285763E-01 a      1218     2     3     3     1
 -1.5910304806656364E-01 a      1219     2     4     3     1
 -1.3486036618440689E-01 a      1220     2     5     3     1
  2.3094215605511492E-01 a      1221     2     6     3     1
 -3.1824034281721419E-01 a      1222     2     7     3     1
  4.8739499213449122E-01 a      1223     2     8     3     1
  3.9515995747904326E-01 a      1224     2     9     3     1
  2.1041052276730737E-02 a      1225     2    10     3     1
  3.6494947516109177E-01 a      1226     2    11     3     1
 -7.4887707831624406E-01 a      1227     2    12     3     1
  9.8403158216359443E-01 a      1228     2    13     3     1
 -4.5996072232376095E-01 a      1229     2    14     3     1
  1.4433215573420469E-01 a      1230     2    15     3     1
  6.9753640916708050E-03 b      1231     3     1
