################################################################################
# Neural network connection values (weights and biases).
################################################################################
# Col  Name       Description
################################################################################
# 1    connection Neural network connection value.
# 2    t          Connection type (a = weight, b = bias).
# 3    index      Index enumerating weights.
# 4    l_s        Starting point layer (end point layer for biases).
# 5    n_s        Starting point neuron in starting layer (end point neuron for biases).
# 6    l_e        End point layer.
# 7    n_e        End point neuron in end layer.
################################################################################
#                      1 2         3     4     5     6     7
#             connection t     index   l_s   n_s   l_e   n_e
############################################################
 -2.2342513433880436E-02 a         1     0     1     1     1
 -8.2325922923201356E-01 a         2     0     1     1     2
  5.8347495620913037E-01 a         3     0     1     1     3
  7.5708513739105032E-01 a         4     0     1     1     4
 -9.0464671728304358E-01 a         5     0     1     1     5
  1.8769300530466304E-01 a         6     0     1     1     6
  7.0619643738153559E-01 a         7     0     1     1     7
 -4.8049128016878684E-01 a         8     0     1     1     8
 -9.8391107836235325E-01 a         9     0     1     1     9
  2.3732412800038405E-01 a        10     0     1     1    10
 -4.0470895252719985E-01 a        11     0     1     1    11
  2.5197636438500252E-02 a        12     0     1     1    12
 -9.7799372896633985E-01 a        13     0     1     1    13
  1.3375450091567520E+00 a        14     0     1     1    14
 -5.6110376347657775E-01 a        15     0     1     1    15
  1.0380866480345572E+00 a        16     0     2     1     1
  1.1093005338118059E-01 a        17     0     2     1     2
 -9.3801719823754526E-01 a        18     0     2     1     3
  6.8450798290739995E-02 a        19     0     2     1     4
  2.4390797474731027E-01 a        20     0     2     1     5
  1.0174008176100207E+00 a        21     0     2     1     6
 -6.1882754735449153E-01 a        22     0     2     1     7
 -2.4229638633703794E+00 a        23     0     2     1     8
 -3.0176677659191808E+00 a        24     0     2     1     9
  1.4865870200508275E+00 a        25     0     2     1    10
  1.1503044677887664E+00 a        26     0     2     1    11
  2.5112874385434553E-01 a        27     0     2     1    12
 -1.3088515745286806E+00 a        28     0     2     1    13
 -3.3207762136647306E-01 a        29     0     2     1    14
  5.6478313271294167E-01 a        30     0     2     1    15
  7.7053023877437699E-01 a        31     0     3     1     1
 -1.8338129041838672E-01 a        32     0     3     1     2
  7.5498030032334573E-02 a        33     0     3     1     3
 -9.5533082883881792E-01 a        34     0     3     1     4
 -1.1406843797710329E+00 a        35     0     3     1     5
 -8.2705632096751591E-01 a        36     0     3     1     6
 -4.4930952561126303E-01 a        37     0     3     1     7
  3.4983615624996284E-01 a        38     0     3     1     8
 -1.6612424564507830E-01 a        39     0     3     1     9
  7.3444879250297745E-01 a        40     0     3     1    10
 -2.6838059770828154E-01 a        41     0     3     1    11
 -5.3992024864156662E-01 a        42     0     3     1    12
  4.8701863032449394E-01 a        43     0     3     1    13
  7.3975432060421564E-01 a        44     0     3     1    14
  6.6124400270239955E-02 a        45     0     3     1    15
 -2.3313995846544372E-01 a        46     0     4     1     1
 -1.2950616138383070E-01 a        47     0     4     1     2
  9.1188016011119344E-01 a        48     0     4     1     3
  1.5026920708949665E-01 a        49     0     4     1     4
 -6.1976381333991704E-01 a        50     0     4     1     5
 -3.1003839396387356E+00 a        51     0     4     1     6
 -9.4003404589075090E-01 a        52     0     4     1     7
  2.3176758198640512E+00 a        53     0     4     1     8
  1.7844574981583483E+00 a        54     0     4     1     9
  5.3678333077966822E-01 a        55     0     4     1    10
  1.0078784865607506E+00 a        56     0     4     1    11
  1.1275158704979310E-01 a        57     0     4     1    12
 -3.6022303992646038E-01 a        58     0     4     1    13
  2.0387827788494093E+00 a        59     0     4     1    14
 -1.2692486499323736E+00 a        60     0     4     1    15
 -6.0080963318288605E-01 a        61     0     5     1     1
 -5.2680541906642375E-01 a        62     0     5     1     2
  4.0194387168078943E-01 a        63     0     5     1     3
  1.9091866589215159E-01 a        64     0     5     1     4
  8.4128443606407410E-01 a        65     0     5     1     5
  7.7328380269365538E-01 a        66     0     5     1     6
  2.1727415703908556E-01 a        67     0     5     1     7
  6.7280006988634322E-01 a        68     0     5     1     8
  1.1239856512032084E-01 a        69     0     5     1     9
 -7.1946412679150151E-04 a        70     0     5     1    10
 -1.4572433636336524E-01 a        71     0     5     1    11
  6.9239891528612951E-01 a        72     0     5     1    12
  9.7673252256253229E-02 a        73     0     5     1    13
  1.0646936206735129E+00 a        74     0     5     1    14
  1.2076557262350667E+00 a        75     0     5     1    15
 -1.0942794659349140E+00 a        76     0     6     1     1
 -7.7003727557934520E-01 a        77     0     6     1     2
  9.2602460773641893E-01 a        78     0     6     1     3
  6.0529130882918780E-01 a        79     0     6     1     4
 -2.9306962395866681E-01 a        80     0     6     1     5
 -1.5803803814240382E+00 a        81     0     6     1     6
 -8.2956236312647114E-01 a        82     0     6     1     7
  2.1865897677593478E+00 a        83     0     6     1     8
  2.1928026043060762E+00 a        84     0     6     1     9
 -5.7238714049036821E-01 a        85     0     6     1    10
  2.8473172867751712E-01 a        86     0     6     1    11
 -1.1088791181109291E-01 a        87     0     6     1    12
  1.5273694786269263E+00 a        88     0     6     1    13
  2.9208617867976154E+00 a        89     0     6     1    14
 -4.7688199717098501E-01 a        90     0     6     1    15
 -3.9330572726114416E-01 a        91     0     7     1     1
  2.2019822314104281E-01 a        92     0     7     1     2
 -5.3206711509171145E-01 a        93     0     7     1     3
  4.3695750416190693E-01 a        94     0     7     1     4
 -4.8317280538742036E-01 a        95     0     7     1     5
 -2.9973800475284496E-01 a        96     0     7     1     6
 -1.2356129214220706E+00 a        97     0     7     1     7
 -8.7164897918179929E-01 a        98     0     7     1     8
 -2.9110670182130954E-01 a        99     0     7     1     9
 -2.6618973716085637E-01 a       100     0     7     1    10
  4.0317495196974984E-01 a       101     0     7     1    11
 -1.5680813800785673E-01 a       102     0     7     1    12
  3.4851239389385025E-01 a       103     0     7     1    13
 -6.0547696292231634E-01 a       104     0     7     1    14
 -6.5235364278833663E-01 a       105     0     7     1    15
 -1.9991889848090549E-01 a       106     0     8     1     1
  1.2662193994018873E+00 a       107     0     8     1     2
  2.9432588667303139E-01 a       108     0     8     1     3
 -1.1747848572222437E+00 a       109     0     8     1     4
  1.7329582289088106E+00 a       110     0     8     1     5
  2.3516448381962705E+00 a       111     0     8     1     6
  2.6418079736895548E+00 a       112     0     8     1     7
 -3.1412733367151482E+00 a       113     0     8     1     8
 -2.1165137332350770E+00 a       114     0     8     1     9
 -4.0343390486283087E-01 a       115     0     8     1    10
 -1.3712281684123555E+00 a       116     0     8     1    11
 -9.5995279415638846E-01 a       117     0     8     1    12
 -2.8915764810766859E-01 a       118     0     8     1    13
  4.7495057375381672E-01 a       119     0     8     1    14
  1.1483022381153225E-01 a       120     0     8     1    15
  8.1094786822628173E-01 a       121     0     9     1     1
  3.2498790559343044E-02 a       122     0     9     1     2
 -7.9315726950423637E-01 a       123     0     9     1     3
  3.3007354147689634E-02 a       124     0     9     1     4
 -2.2317567824851856E-01 a       125     0     9     1     5
  7.9176989991542690E-01 a       126     0     9     1     6
  9.1533361327585128E-01 a       127     0     9     1     7
  4.1772673262372256E-01 a       128     0     9     1     8
  1.2207251723736297E+00 a       129     0     9     1     9
  5.5072348241154823E-01 a       130     0     9     1    10
 -1.2011770974541349E+00 a       131     0     9     1    11
 -5.0894747015921386E-03 a       132     0     9     1    12
  8.6349274744085081E-01 a       133     0     9     1    13
 -8.0685732505286700E-01 a       134     0     9     1    14
 -3.1071459068575225E-01 a       135     0     9     1    15
 -2.8321996623396423E-01 a       136     0    10     1     1
  1.9275448751758181E-01 a       137     0    10     1     2
 -6.2643901924790135E-01 a       138     0    10     1     3
  1.5161833380175891E+00 a       139     0    10     1     4
 -2.3951663199258686E+00 a       140     0    10     1     5
 -1.0328772428588762E-02 a       141     0    10     1     6
 -5.4138418608245651E+00 a       142     0    10     1     7
  1.8706042478135849E+00 a       143     0    10     1     8
  6.1845451506616234E-01 a       144     0    10     1     9
  2.2231318842791650E-01 a       145     0    10     1    10
 -5.0379978555994215E-02 a       146     0    10     1    11
 -7.1532633381979471E-01 a       147     0    10     1    12
  3.2715997257745538E-01 a       148     0    10     1    13
 -9.5825318315238794E-01 a       149     0    10     1    14
  2.5941888662468360E-01 a       150     0    10     1    15
 -5.6511468982244117E-01 a       151     0    11     1     1
  2.5742591476125376E-01 a       152     0    11     1     2
 -5.8488898130727185E-01 a       153     0    11     1     3
 -5.6067964884199784E-01 a       154     0    11     1     4
 -6.4910963599826704E-02 a       155     0    11     1     5
 -1.3511726716973349E-01 a       156     0    11     1     6
 -1.1306112050321220E+00 a       157     0    11     1     7
 -6.2233667762245461E-02 a       158     0    11     1     8
  3.3804154161624897E-02 a       159     0    11     1     9
  4.5958601365857166E-02 a       160     0    11     1    10
 -3.9453325229668318E-01 a       161     0    11     1    11
  2.6589593626193769E-01 a       162     0    11     1    12
 -1.1114481442999031E+00 a       163     0    11     1    13
 -9.9681735993934550E-01 a       164     0    11     1    14
 -7.6695228719720099E-01 a       165     0    11     1    15
  2.6563020462941611E-01 a       166     0    12     1     1
 -5.7155388550099406E-01 a       167     0    12     1     2
 -1.4066391686376636E+00 a       168     0    12     1     3
 -1.3848329691262700E+00 a       169     0    12     1     4
 -1.1922769048049844E+00 a       170     0    12     1     5
  1.6499993260649397E+00 a       171     0    12     1     6
  1.8005852151648014E+00 a       172     0    12     1     7
 -6.9767891798939963E-01 a       173     0    12     1     8
  1.8281154672829463E+00 a       174     0    12     1     9
  2.4374820264575184E-01 a       175     0    12     1    10
  2.3897412251045924E-01 a       176     0    12     1    11
  1.4752509819472805E+00 a       177     0    12     1    12
 -6.3850774428206136E-01 a       178     0    12     1    13
 -8.5499266984186584E-01 a       179     0    12     1    14
 -1.5310096389387360E+00 a       180     0    12     1    15
  4.4625035765376470E-01 a       181     0    13     1     1
 -3.6888514805246642E-01 a       182     0    13     1     2
 -7.6109674742017783E-02 a       183     0    13     1     3
  8.8709294413611958E-02 a       184     0    13     1     4
 -3.3697691808212948E-01 a       185     0    13     1     5
 -5.0714248849169175E-01 a       186     0    13     1     6
  2.9602803886347534E-01 a       187     0    13     1     7
  7.3156701870708010E-02 a       188     0    13     1     8
  3.5991837722012110E-01 a       189     0    13     1     9
  1.0725497848981254E-01 a       190     0    13     1    10
  1.0442998795826579E+00 a       191     0    13     1    11
  9.0603764416276975E-02 a       192     0    13     1    12
 -6.9546406695651972E-02 a       193     0    13     1    13
 -6.2120551723109407E-01 a       194     0    13     1    14
 -6.8461378876950152E-01 a       195     0    13     1    15
 -4.7454472972895329E-01 a       196     0    14     1     1
 -1.0223071454045000E-01 a       197     0    14     1     2
 -1.4052486861863100E-01 a       198     0    14     1     3
  8.2945204868376121E-01 a       199     0    14     1     4
  1.1144100789624773E+00 a       200     0    14     1     5
 -1.2368772535212285E+00 a       201     0    14     1     6
  6.6348616373959524E-01 a       202     0    14     1     7
  1.6371386886799424E-01 a       203     0    14     1     8
 -8.5859897552231212E-01 a       204     0    14     1     9
  4.4067864663493425E-02 a       205     0    14     1    10
  1.2591533155143461E-01 a       206     0    14     1    11
  9.6729955386471264E-02 a       207     0    14     1    12
 -2.7291601118721404E-01 a       208     0    14     1    13
  3.4960728663260282E-01 a       209     0    14     1    14
  7.2848149030256193E-01 a       210     0    14     1    15
 -1.1795060000396528E-01 a       211     0    15     1     1
  1.3305035472040674E-01 a       212     0    15     1     2
 -3.3934547197306886E-01 a       213     0    15     1     3
 -3.4801382993345793E-02 a       214     0    15     1     4
  1.4607192028377902E-01 a       215     0    15     1     5
  6.7497294941763847E-02 a       216     0    15     1     6
 -8.5834282892640040E-03 a       217     0    15     1     7
 -5.2314776168135978E-02 a       218     0    15     1     8
  4.7141251349840867E-02 a       219     0    15     1     9
 -1.9322552334053465E-02 a       220     0    15     1    10
 -4.5333550889764096E-01 a       221     0    15     1    11
 -5.5531016529302667E-02 a       222     0    15     1    12
  3.6892785444778531E-02 a       223     0    15     1    13
 -5.2004491883508464E-01 a       224     0    15     1    14
  4.3755897847913144E-01 a       225     0    15     1    15
 -1.6288502622865315E-02 a       226     0    16     1     1
 -4.3970319521026195E-02 a       227     0    16     1     2
  6.5285706055992709E-02 a       228     0    16     1     3
 -6.7714477526967221E-01 a       229     0    16     1     4
 -9.7477936682128050E-02 a       230     0    16     1     5
 -7.9222753509912522E-02 a       231     0    16     1     6
 -1.4037744796336182E-01 a       232     0    16     1     7
 -2.6844699193543164E-02 a       233     0    16     1     8
  2.2634376507800391E-01 a       234     0    16     1     9
  2.9409507756615158E-03 a       235     0    16     1    10
 -7.4189422203894406E-01 a       236     0    16     1    11
  7.4303780806886252E-02 a       237     0    16     1    12
  1.0472287229172741E-01 a       238     0    16     1    13
 -1.2758820958746309E-01 a       239     0    16     1    14
 -2.1008426510676928E-01 a       240     0    16     1    15
 -1.6147059309725387E-01 a       241     0    17     1     1
 -1.6794662752013054E-01 a       242     0    17     1     2
 -8.3662886765348953E-03 a       243     0    17     1     3
 -1.9129218631119779E-01 a       244     0    17     1     4
 -2.6221811614825147E-01 a       245     0    17     1     5
 -4.4879318948029334E-01 a       246     0    17     1     6
  1.7830024711238908E-02 a       247     0    17     1     7
  9.7442132573085424E-03 a       248     0    17     1     8
  6.5866804515479369E-02 a       249     0    17     1     9
 -2.9102776244457740E-01 a       250     0    17     1    10
  6.2908602459823174E-02 a       251     0    17     1    11
 -1.8477881921344693E-02 a       252     0    17     1    12
 -1.7425322984915473E-01 a       253     0    17     1    13
 -1.0627091200041389E-01 a       254     0    17     1    14
  4.0007955025460146E-01 a       255     0    17     1    15
  2.1372514947892979E-01 a       256     0    18     1     1
  3.1691569605409864E-01 a       257     0    18     1     2
 -9.2340471347140762E-01 a       258     0    18     1     3
  1.2406772297522116E-01 a       259     0    18     1     4
 -3.1023410093275872E-01 a       260     0    18     1     5
 -4.0041021633273238E-01 a       261     0    18     1     6
  5.1937248989737239E-01 a       262     0    18     1     7
  2.1846082179931112E-01 a       263     0    18     1     8
 -6.8543176658855703E-02 a       264     0    18     1     9
 -7.5155939740290489E-01 a       265     0    18     1    10
 -6.2131917933289871E-01 a       266     0    18     1    11
 -5.5587910235562965E-01 a       267     0    18     1    12
 -3.2813566705364977E-01 a       268     0    18     1    13
 -3.1261899544912752E-01 a       269     0    18     1    14
  9.7701531576900769E-01 a       270     0    18     1    15
  7.4918167255580126E-01 a       271     0    19     1     1
 -2.0830259485584549E-01 a       272     0    19     1     2
 -1.3198692689814367E-01 a       273     0    19     1     3
  1.0371526338257453E+00 a       274     0    19     1     4
 -2.5550179169548697E+00 a       275     0    19     1     5
  5.3486697960102436E-01 a       276     0    19     1     6
  5.3201119093977791E+00 a       277     0    19     1     7
  4.1224622588187027E-01 a       278     0    19     1     8
 -1.5156988233189148E+00 a       279     0    19     1     9
 -4.0739651258446352E-01 a       280     0    19     1    10
 -8.7722865609046052E-01 a       281     0    19     1    11
 -1.0846945987693548E+00 a       282     0    19     1    12
 -1.7141501488633499E+00 a       283     0    19     1    13
  6.7558975677381464E-02 a       284     0    19     1    14
 -4.3850219136789520E-02 a       285     0    19     1    15
  3.2371900323457858E-01 a       286     0    20     1     1
 -1.7501295695178300E-02 a       287     0    20     1     2
  1.4438718366952788E-01 a       288     0    20     1     3
  2.9403128322896604E-01 a       289     0    20     1     4
 -6.5819013588629960E-01 a       290     0    20     1     5
  2.0325449575148616E-01 a       291     0    20     1     6
  7.2087291122631431E-02 a       292     0    20     1     7
 -3.4354635133205851E-02 a       293     0    20     1     8
 -7.9017266449772150E-01 a       294     0    20     1     9
 -1.9983033567648828E-02 a       295     0    20     1    10
  3.3592218455787159E-01 a       296     0    20     1    11
  3.3155172741828143E-01 a       297     0    20     1    12
  6.7428347920890341E-01 a       298     0    20     1    13
  8.1270580524179337E-01 a       299     0    20     1    14
 -1.7358737616708698E-03 a       300     0    20     1    15
 -5.1177901315141616E-01 a       301     0    21     1     1
 -3.2191878649633016E-01 a       302     0    21     1     2
  5.6095556544506886E-01 a       303     0    21     1     3
 -3.6459491196056187E-01 a       304     0    21     1     4
  5.8519557762438401E-01 a       305     0    21     1     5
 -4.3247334026377565E-01 a       306     0    21     1     6
  2.0614742785255805E-01 a       307     0    21     1     7
 -1.6255327853023946E-01 a       308     0    21     1     8
  6.2800438413294235E-01 a       309     0    21     1     9
  8.9045115059231650E-01 a       310     0    21     1    10
  2.5887390072227134E-01 a       311     0    21     1    11
 -4.4124855832004473E-01 a       312     0    21     1    12
  5.8473134774586810E-01 a       313     0    21     1    13
 -5.9629552687159582E-01 a       314     0    21     1    14
 -1.1903824756960604E+00 a       315     0    21     1    15
  1.4437628827710669E+00 a       316     0    22     1     1
 -1.9826836261788150E+00 a       317     0    22     1     2
  1.0588303567996609E+00 a       318     0    22     1     3
 -1.0758492715912240E+00 a       319     0    22     1     4
  5.9506855513815438E-01 a       320     0    22     1     5
 -1.0868725157415220E+00 a       321     0    22     1     6
 -2.7148395314901919E+00 a       322     0    22     1     7
 -7.3270401314958222E-01 a       323     0    22     1     8
  1.7095086448371744E+00 a       324     0    22     1     9
 -2.1656019352289291E+00 a       325     0    22     1    10
  2.7451341393986162E-01 a       326     0    22     1    11
 -2.2003586297422393E+00 a       327     0    22     1    12
  3.0760323147247731E-01 a       328     0    22     1    13
  2.0108156957640011E+00 a       329     0    22     1    14
  9.7867367043132303E-01 a       330     0    22     1    15
  8.4504263105527107E-03 a       331     0    23     1     1
  4.0768114695208788E-02 a       332     0    23     1     2
 -4.1356525377335050E-02 a       333     0    23     1     3
  1.3663660981192516E-01 a       334     0    23     1     4
  1.6708887499687960E-01 a       335     0    23     1     5
  2.9738291135833672E-01 a       336     0    23     1     6
  8.7066981229303106E-02 a       337     0    23     1     7
  4.2686759834632817E-03 a       338     0    23     1     8
  7.6692610052431776E-03 a       339     0    23     1     9
 -2.8253170086849549E-02 a       340     0    23     1    10
 -6.4888990115544498E-02 a       341     0    23     1    11
  8.0722195642512234E-02 a       342     0    23     1    12
  2.2118335995268434E-01 a       343     0    23     1    13
 -2.5741648493020386E-01 a       344     0    23     1    14
 -9.2229344284429915E-02 a       345     0    23     1    15
 -3.5949515765490297E-01 a       346     0    24     1     1
  1.3572098194680368E-01 a       347     0    24     1     2
 -3.4292027315531903E-01 a       348     0    24     1     3
 -7.2079592956562993E-02 a       349     0    24     1     4
  1.0235160501914145E+00 a       350     0    24     1     5
 -6.2786700192936654E-02 a       351     0    24     1     6
 -8.7984261178551362E-02 a       352     0    24     1     7
 -7.5849462850747187E-02 a       353     0    24     1     8
  5.4006677845465922E-01 a       354     0    24     1     9
 -4.0801267221006815E-01 a       355     0    24     1    10
  3.2771058495077482E-01 a       356     0    24     1    11
  5.4673178530757394E-01 a       357     0    24     1    12
  4.8049149148193893E-01 a       358     0    24     1    13
 -7.2664798497391914E-01 a       359     0    24     1    14
 -1.3349205122025543E-01 a       360     0    24     1    15
 -1.2424090755244137E+00 a       361     0    25     1     1
 -2.9582036949344559E-01 a       362     0    25     1     2
 -1.1748753052946523E+00 a       363     0    25     1     3
  7.2587739242871444E-02 a       364     0    25     1     4
  1.3311576870372699E+00 a       365     0    25     1     5
  2.1207725670224306E-01 a       366     0    25     1     6
 -2.3021387755020903E+00 a       367     0    25     1     7
 -2.0128594133002234E-01 a       368     0    25     1     8
  8.3352496898989836E-01 a       369     0    25     1     9
  6.8567788927834084E-01 a       370     0    25     1    10
 -1.4065597584888849E+00 a       371     0    25     1    11
  2.7255117611863979E+00 a       372     0    25     1    12
  1.2908982385098569E+00 a       373     0    25     1    13
 -1.6430656474057284E+00 a       374     0    25     1    14
  2.2455446482780236E-01 a       375     0    25     1    15
 -1.6338693677542576E-01 a       376     0    26     1     1
  1.4197414191439797E-01 a       377     0    26     1     2
 -1.5202627221751820E-02 a       378     0    26     1     3
 -1.8265609341257311E-01 a       379     0    26     1     4
  3.2668955860851101E-01 a       380     0    26     1     5
  3.0904547879973335E-02 a       381     0    26     1     6
 -2.1941918418673165E-01 a       382     0    26     1     7
  3.2349424654045292E-02 a       383     0    26     1     8
  3.5128214438170863E-01 a       384     0    26     1     9
  1.7449960917740797E-02 a       385     0    26     1    10
 -1.2168548929803985E-01 a       386     0    26     1    11
  6.9003336019822656E-02 a       387     0    26     1    12
 -3.0178702313328193E-01 a       388     0    26     1    13
 -6.0292551195305522E-01 a       389     0    26     1    14
  4.3441337744838306E-02 a       390     0    26     1    15
  4.6104849650130686E-01 a       391     0    27     1     1
  7.7636853173917553E-01 a       392     0    27     1     2
 -2.9918772915820441E-01 a       393     0    27     1     3
  2.4136474529257917E-01 a       394     0    27     1     4
  4.5147483667448224E-01 a       395     0    27     1     5
  8.1054257545075870E-01 a       396     0    27     1     6
 -6.2846540780831417E-01 a       397     0    27     1     7
  2.6612233481339894E-02 a       398     0    27     1     8
  2.5644000107834336E-01 a       399     0    27     1     9
 -2.7463503140032858E-01 a       400     0    27     1    10
  4.1335083903268943E-01 a       401     0    27     1    11
  1.8505556023250674E-01 a       402     0    27     1    12
 -3.2839998915161650E-01 a       403     0    27     1    13
 -6.7125322232019013E-01 a       404     0    27     1    14
  4.6180224557815841E-02 a       405     0    27     1    15
 -1.2254486825534481E+00 a       406     0    28     1     1
  1.5815778561957505E+00 a       407     0    28     1     2
 -2.1971997632989329E-01 a       408     0    28     1     3
 -8.5499222896572424E-01 a       409     0    28     1     4
 -1.6153052360297240E+00 a       410     0    28     1     5
  2.1311450826198639E+00 a       411     0    28     1     6
 -2.9862930252244801E-01 a       412     0    28     1     7
  5.2213629024652097E-01 a       413     0    28     1     8
 -2.1947526214486035E-02 a       414     0    28     1     9
  1.2580376097273984E+00 a       415     0    28     1    10
 -1.2951424261256164E+00 a       416     0    28     1    11
  8.2330873596515641E-01 a       417     0    28     1    12
  3.9867354456883421E-02 a       418     0    28     1    13
 -2.4153712539226375E+00 a       419     0    28     1    14
 -1.2194064488878502E+00 a       420     0    28     1    15
  5.3016138232052680E-02 a       421     0    29     1     1
 -1.9268354838113769E-01 a       422     0    29     1     2
  1.2069157076805519E-01 a       423     0    29     1     3
  2.3882842776696105E-02 a       424     0    29     1     4
  3.1811029120789280E-01 a       425     0    29     1     5
  4.3744796526488255E-01 a       426     0    29     1     6
 -4.3659423455093417E-02 a       427     0    29     1     7
  2.1017622028931905E-02 a       428     0    29     1     8
 -6.9799098241398227E-01 a       429     0    29     1     9
  4.2585882693395943E-01 a       430     0    29     1    10
 -3.3240476223017651E-01 a       431     0    29     1    11
 -5.9891591199026739E-01 a       432     0    29     1    12
  7.0045098546396478E-01 a       433     0    29     1    13
  1.7736800123993962E-01 a       434     0    29     1    14
  5.0935011884905157E-01 a       435     0    29     1    15
 -1.1597307323586724E-01 a       436     0    30     1     1
  3.3433164721712078E-01 a       437     0    30     1     2
  6.9315711514150835E-01 a       438     0    30     1     3
  9.1356373943241292E-03 a       439     0    30     1     4
  1.3583470117824770E-01 a       440     0    30     1     5
  4.7407285403162880E-01 a       441     0    30     1     6
 -1.3482763044666057E-01 a       442     0    30     1     7
 -1.5901382420001919E-01 a       443     0    30     1     8
  8.4882302569205492E-01 a       444     0    30     1     9
 -3.2945415864486105E-01 a       445     0    30     1    10
  5.2439379462640001E-01 a       446     0    30     1    11
 -6.5111764519636472E-01 a       447     0    30     1    12
 -1.3411415293498179E+00 a       448     0    30     1    13
  4.8001413241250251E-01 a       449     0    30     1    14
  9.5893992228553354E-02 a       450     0    30     1    15
 -7.9964459838361657E-01 a       451     0    31     1     1
  6.9679175184169329E-02 a       452     0    31     1     2
  1.7572414335595894E+00 a       453     0    31     1     3
  3.3143655228813294E+00 a       454     0    31     1     4
  2.6662880787740630E+00 a       455     0    31     1     5
 -1.4266003017681941E+00 a       456     0    31     1     6
  4.0143738134446920E+00 a       457     0    31     1     7
  2.3617249394863796E-01 a       458     0    31     1     8
 -5.7569576475129014E-01 a       459     0    31     1     9
  2.1849714175501089E-01 a       460     0    31     1    10
  1.2791957996478256E-01 a       461     0    31     1    11
  2.9585203490996932E+00 a       462     0    31     1    12
 -2.9679292646538336E-02 a       463     0    31     1    13
 -1.4604372960876528E+00 a       464     0    31     1    14
  1.3559634665215223E-01 a       465     0    31     1    15
 -9.1385479233481781E-02 a       466     0    32     1     1
  2.9720688041716237E-02 a       467     0    32     1     2
  4.0925244059770005E-01 a       468     0    32     1     3
  2.4312400981320641E-02 a       469     0    32     1     4
  2.0595131131097566E-01 a       470     0    32     1     5
 -2.9054894640787232E-01 a       471     0    32     1     6
  3.4432003962968347E-02 a       472     0    32     1     7
 -1.9819810459029547E-02 a       473     0    32     1     8
  8.0409419946284399E-01 a       474     0    32     1     9
 -6.6351455810732141E-01 a       475     0    32     1    10
  6.8003169816342612E-01 a       476     0    32     1    11
  3.7241274522111838E-02 a       477     0    32     1    12
 -9.2800966472876723E-01 a       478     0    32     1    13
  6.5952912893953455E-02 a       479     0    32     1    14
  1.6899190034984080E-01 a       480     0    32     1    15
  2.3814462230181038E-01 a       481     0    33     1     1
 -1.4648422170361078E-01 a       482     0    33     1     2
 -5.1494490465445275E-01 a       483     0    33     1     3
 -9.3291856995634792E-01 a       484     0    33     1     4
 -4.6838664004652281E-01 a       485     0    33     1     5
 -1.3306363924049132E+00 a       486     0    33     1     6
 -4.9325347440622397E-01 a       487     0    33     1     7
  1.3101208190892258E-01 a       488     0    33     1     8
 -6.8622843681160683E-01 a       489     0    33     1     9
 -8.2785466332460000E-01 a       490     0    33     1    10
  6.7445768256402017E-01 a       491     0    33     1    11
  1.1641631281658997E-01 a       492     0    33     1    12
 -2.8880847185632150E-02 a       493     0    33     1    13
  7.8707213189957503E-01 a       494     0    33     1    14
 -3.5146876371109768E-02 a       495     0    33     1    15
  5.7161815170673014E-01 a       496     0    34     1     1
  7.6090712211573241E-01 a       497     0    34     1     2
 -1.9131391182456631E-01 a       498     0    34     1     3
 -1.6918019322456792E+00 a       499     0    34     1     4
 -6.5967303314100001E-01 a       500     0    34     1     5
  1.9947021909963453E-01 a       501     0    34     1     6
 -1.2233174852584467E+00 a       502     0    34     1     7
 -6.7882670990560490E-01 a       503     0    34     1     8
  9.4848130555585844E-02 a       504     0    34     1     9
 -1.7311731558268706E+00 a       505     0    34     1    10
  4.9055773621110105E-01 a       506     0    34     1    11
 -1.4424854124050330E+00 a       507     0    34     1    12
 -5.9918755153865544E-01 a       508     0    34     1    13
  1.1945055784980083E+00 a       509     0    34     1    14
  2.6146795782929009E+00 a       510     0    34     1    15
  7.0392880601668539E-02 a       511     0    35     1     1
 -4.5748041326490095E-02 a       512     0    35     1     2
 -2.2646939000264921E-01 a       513     0    35     1     3
 -6.1458539531691704E-02 a       514     0    35     1     4
 -3.3049453206360652E-01 a       515     0    35     1     5
 -2.9368730988318170E-01 a       516     0    35     1     6
 -2.8488890902431428E-02 a       517     0    35     1     7
 -1.9958800998691521E-02 a       518     0    35     1     8
  7.2579462798683458E-01 a       519     0    35     1     9
  3.7571228390211632E-02 a       520     0    35     1    10
  2.7348069319303747E-01 a       521     0    35     1    11
 -5.5681121692734226E-01 a       522     0    35     1    12
 -4.3710650765154602E-01 a       523     0    35     1    13
 -1.9783790740446575E-01 a       524     0    35     1    14
 -5.1837824327292181E-01 a       525     0    35     1    15
  3.2211047037963225E-01 a       526     0    36     1     1
 -3.0726479091626396E-01 a       527     0    36     1     2
  6.7935908098860776E-01 a       528     0    36     1     3
  2.3308523586725630E-01 a       529     0    36     1     4
 -2.7754237954065591E-01 a       530     0    36     1     5
  7.5644177676831659E-01 a       531     0    36     1     6
  1.2976318938039666E-01 a       532     0    36     1     7
  5.5062889174990422E-02 a       533     0    36     1     8
 -2.8052429771879317E-01 a       534     0    36     1     9
  5.5989543094367156E-01 a       535     0    36     1    10
  2.7113542951011288E-01 a       536     0    36     1    11
 -6.6852938344068935E-01 a       537     0    36     1    12
  4.7548505901471624E-02 a       538     0    36     1    13
 -8.1086418687138795E-01 a       539     0    36     1    14
 -2.0999473969245583E-01 a       540     0    36     1    15
  1.1045796538157413E+00 a       541     0    37     1     1
  1.7872032275052154E+00 a       542     0    37     1     2
  1.4546095285101006E+00 a       543     0    37     1     3
 -1.5182223109524526E+00 a       544     0    37     1     4
  5.6186643754655437E-02 a       545     0    37     1     5
  9.7786244228494701E-01 a       546     0    37     1     6
 -1.6092328949500088E+00 a       547     0    37     1     7
  9.3243004056350040E-02 a       548     0    37     1     8
 -2.1624297696845614E+00 a       549     0    37     1     9
 -7.8905261481312627E-01 a       550     0    37     1    10
  1.4419341102758398E+00 a       551     0    37     1    11
  6.2586445603062679E-01 a       552     0    37     1    12
  1.6416891609521138E+00 a       553     0    37     1    13
  4.9951275458794964E-01 a       554     0    37     1    14
  7.9567653651713022E-01 a       555     0    37     1    15
  1.7916748467273175E-02 a       556     0    38     1     1
 -3.0113418869592390E-01 a       557     0    38     1     2
 -8.7846493311991314E-01 a       558     0    38     1     3
 -1.5457355166770591E-02 a       559     0    38     1     4
  1.3427454584080650E-01 a       560     0    38     1     5
 -1.5375838746378823E-01 a       561     0    38     1     6
  1.7085389288444394E-01 a       562     0    38     1     7
 -5.5494012998338199E-03 a       563     0    38     1     8
  7.1053021926752581E-04 a       564     0    38     1     9
  6.2864444603506697E-01 a       565     0    38     1    10
  1.8456980925724099E-02 a       566     0    38     1    11
 -2.7975004719622815E-01 a       567     0    38     1    12
  6.5911009739699244E-01 a       568     0    38     1    13
  1.1686855880802470E-01 a       569     0    38     1    14
 -3.8931270249892580E-01 a       570     0    38     1    15
 -3.7448798406839834E-01 a       571     0    39     1     1
  1.7332688299720470E-01 a       572     0    39     1     2
  1.5630456003992588E-01 a       573     0    39     1     3
  2.1196835362451941E-01 a       574     0    39     1     4
  5.0611038787635765E-01 a       575     0    39     1     5
 -6.6742459238213411E-02 a       576     0    39     1     6
  7.4339316305110870E-01 a       577     0    39     1     7
 -6.2132792443000261E-02 a       578     0    39     1     8
 -3.0712462993155770E-01 a       579     0    39     1     9
  2.9498019285946364E-01 a       580     0    39     1    10
 -1.0483026924995273E+00 a       581     0    39     1    11
  1.0884646601744061E+00 a       582     0    39     1    12
  1.1097985226791283E-01 a       583     0    39     1    13
 -1.0430754682290271E+00 a       584     0    39     1    14
  2.0617346508112012E-02 a       585     0    39     1    15
  2.7969275434299029E-01 a       586     0    40     1     1
 -1.3504646990823093E+00 a       587     0    40     1     2
 -6.0286389253101014E-01 a       588     0    40     1     3
  7.6414473166700159E-01 a       589     0    40     1     4
  7.1931591480602119E-01 a       590     0    40     1     5
 -5.1935484121202735E-01 a       591     0    40     1     6
  1.1191764018703043E+00 a       592     0    40     1     7
  2.9550456685916637E-01 a       593     0    40     1     8
 -8.6709180744123504E-01 a       594     0    40     1     9
  1.1275051007705528E+00 a       595     0    40     1    10
  1.9341593653323319E-01 a       596     0    40     1    11
  1.2131333997345689E-01 a       597     0    40     1    12
  1.9319365272764785E-01 a       598     0    40     1    13
  2.9643710925754768E-01 a       599     0    40     1    14
 -1.3970855669962817E-01 a       600     0    40     1    15
 -6.3640896579919962E-02 a       601     0    41     1     1
  1.0781807652974339E-01 a       602     0    41     1     2
  5.3512746165717627E-02 a       603     0    41     1     3
  2.4587197759052179E-01 a       604     0    41     1     4
  3.5465400194702273E-01 a       605     0    41     1     5
  2.0132502029212164E-02 a       606     0    41     1     6
 -2.7101633335329927E-02 a       607     0    41     1     7
 -3.0694942718935438E-02 a       608     0    41     1     8
 -5.8916849761178558E-01 a       609     0    41     1     9
  3.1590951789018454E-03 a       610     0    41     1    10
 -2.8134254100900041E-01 a       611     0    41     1    11
  3.5998059699460405E-01 a       612     0    41     1    12
  8.1739957851822453E-01 a       613     0    41     1    13
 -9.8140761737420079E-01 a       614     0    41     1    14
  2.3535487558469090E-01 a       615     0    41     1    15
 -4.1544892475556094E-01 a       616     0    42     1     1
 -2.3536785309071676E-01 a       617     0    42     1     2
  4.1580236953302319E-01 a       618     0    42     1     3
  2.2123565012862509E-01 a       619     0    42     1     4
  6.1194287126613023E-01 a       620     0    42     1     5
 -1.6645760268976140E-01 a       621     0    42     1     6
  7.3161926000318733E-01 a       622     0    42     1     7
  3.6730192429797914E-02 a       623     0    42     1     8
  1.9142859563407943E-01 a       624     0    42     1     9
  4.0970088781061015E-01 a       625     0    42     1    10
 -3.7418386528812797E-01 a       626     0    42     1    11
 -1.0076741438235746E+00 a       627     0    42     1    12
  1.8157703563052338E-01 a       628     0    42     1    13
  5.5555843930029136E-01 a       629     0    42     1    14
  1.0147245823114720E-01 a       630     0    42     1    15
 -9.5533475592771921E-01 a       631     0    43     1     1
 -1.6129049883076345E+00 a       632     0    43     1     2
 -1.2117082762896385E+00 a       633     0    43     1     3
 -5.0807661595890625E+00 a       634     0    43     1     4
 -1.6778327351277975E-01 a       635     0    43     1     5
  1.3449801552089302E+00 a       636     0    43     1     6
  1.3287325559603926E+00 a       637     0    43     1     7
 -1.0634572809602051E-01 a       638     0    43     1     8
  2.3210927656472373E+00 a       639     0    43     1     9
  4.7706325059292559E-01 a       640     0    43     1    10
 -1.5432472176542107E+00 a       641     0    43     1    11
 -2.6204621302417714E+00 a       642     0    43     1    12
 -1.8377214892488571E+00 a       643     0    43     1    13
 -5.8850630676168236E-01 a       644     0    43     1    14
 -2.1557632818692332E+00 a       645     0    43     1    15
  3.3193153299840759E-02 a       646     0    44     1     1
  2.0495673758057290E-01 a       647     0    44     1     2
 -1.7858451776369785E-01 a       648     0    44     1     3
 -9.2424483211864583E-02 a       649     0    44     1     4
 -3.6268533181178858E-01 a       650     0    44     1     5
  2.3018262674856674E-01 a       651     0    44     1     6
 -2.5421253713031250E-01 a       652     0    44     1     7
  2.1299995826915219E-02 a       653     0    44     1     8
 -4.6376493603765517E-01 a       654     0    44     1     9
 -5.1387748742836215E-01 a       655     0    44     1    10
  6.3047036308914317E-01 a       656     0    44     1    11
  5.0090758990859086E-01 a       657     0    44     1    12
  8.6067505088251861E-01 a       658     0    44     1    13
  5.7537580903168128E-01 a       659     0    44     1    14
  5.6402756836159185E-01 a       660     0    44     1    15
  1.6270602341499996E-01 a       661     0    45     1     1
 -2.5863854769394018E-01 a       662     0    45     1     2
 -3.7562493626056392E-01 a       663     0    45     1     3
  1.8928284116453858E-01 a       664     0    45     1     4
 -1.8108799416346774E-01 a       665     0    45     1     5
 -1.8777621321809723E-01 a       666     0    45     1     6
  1.7843431578182023E-01 a       667     0    45     1     7
  1.1302031884482974E-02 a       668     0    45     1     8
  6.3526691296976556E-01 a       669     0    45     1     9
  7.1843460470249421E-01 a       670     0    45     1    10
  2.6201023789413497E-01 a       671     0    45     1    11
 -3.6301622559598179E-01 a       672     0    45     1    12
 -6.6079391412104627E-01 a       673     0    45     1    13
  4.2301335676216134E-01 a       674     0    45     1    14
  1.8048593226100715E-01 a       675     0    45     1    15
 -2.9295459219987002E-01 a       676     0    46     1     1
  1.7167797724345781E+00 a       677     0    46     1     2
 -6.5708552385987873E-01 a       678     0    46     1     3
  2.8944687058659477E+00 a       679     0    46     1     4
 -1.2123896940032959E-01 a       680     0    46     1     5
 -1.9819796476358931E+00 a       681     0    46     1     6
 -2.1823987071280287E-01 a       682     0    46     1     7
  1.8333912013270456E-01 a       683     0    46     1     8
 -1.6522270139065205E+00 a       684     0    46     1     9
  1.4817211490553224E+00 a       685     0    46     1    10
 -1.3083994670281280E+00 a       686     0    46     1    11
  8.3920651789263756E-01 a       687     0    46     1    12
  2.3937653163899331E+00 a       688     0    46     1    13
  2.9909338801001923E+00 a       689     0    46     1    14
  8.0456566658475481E-01 a       690     0    46     1    15
 -4.9001416944365314E-02 a       691     0    47     1     1
 -1.2180488328570846E-01 a       692     0    47     1     2
 -1.6495151495097624E-01 a       693     0    47     1     3
 -4.6807157226340899E-02 a       694     0    47     1     4
  6.5724281876889779E-02 a       695     0    47     1     5
  9.9230702007856067E-02 a       696     0    47     1     6
 -3.8505200033978421E-02 a       697     0    47     1     7
  1.9376271299445795E-02 a       698     0    47     1     8
 -2.5970515858935111E-01 a       699     0    47     1     9
  9.6307355242759768E-02 a       700     0    47     1    10
  7.9333125266497370E-02 a       701     0    47     1    11
  6.3496338466798297E-01 a       702     0    47     1    12
 -1.2474663146396737E-02 a       703     0    47     1    13
 -8.7307817468011362E-01 a       704     0    47     1    14
 -2.8368667298135913E-01 a       705     0    47     1    15
  1.4259469774474837E-01 a       706     0    48     1     1
 -5.9165143316329230E-02 a       707     0    48     1     2
 -5.0725672059065052E-01 a       708     0    48     1     3
 -1.4243213161690341E-01 a       709     0    48     1     4
 -2.8583281090651796E-01 a       710     0    48     1     5
 -2.0923875646729062E-01 a       711     0    48     1     6
 -3.6145261683859320E-01 a       712     0    48     1     7
 -6.4697542448675831E-03 a       713     0    48     1     8
 -2.8880652587953493E-01 a       714     0    48     1     9
  4.5965629218460355E-02 a       715     0    48     1    10
 -4.1742062807101618E-02 a       716     0    48     1    11
 -1.0870468572301650E-02 a       717     0    48     1    12
  9.7396055039270832E-02 a       718     0    48     1    13
 -2.6265714949038066E-01 a       719     0    48     1    14
 -9.1331761537917233E-01 a       720     0    48     1    15
  4.4870784282362153E-01 a       721     0    49     1     1
 -9.2220903555493450E-01 a       722     0    49     1     2
 -9.7799690427996827E-02 a       723     0    49     1     3
  1.7626681733329641E+00 a       724     0    49     1     4
 -5.1574741350123987E-01 a       725     0    49     1     5
 -1.1158633452424052E+00 a       726     0    49     1     6
 -6.8372707764084706E-01 a       727     0    49     1     7
 -6.3987786907639232E-02 a       728     0    49     1     8
 -6.6544511856595312E-01 a       729     0    49     1     9
  9.9500039300715076E-02 a       730     0    49     1    10
 -7.6634362408928111E-02 a       731     0    49     1    11
  9.1129945775795840E-01 a       732     0    49     1    12
  1.0493658739135163E-01 a       733     0    49     1    13
  1.1670129311471915E+00 a       734     0    49     1    14
  4.7669970512325199E-01 a       735     0    49     1    15
 -2.4697514415661224E-02 a       736     0    50     1     1
 -1.8334110473132845E-01 a       737     0    50     1     2
  7.2464724737430708E-01 a       738     0    50     1     3
  8.1795603202960712E-02 a       739     0    50     1     4
  9.2179734090181736E-02 a       740     0    50     1     5
  5.7244527779087367E-02 a       741     0    50     1     6
  1.1692594948616843E-01 a       742     0    50     1     7
 -2.0399877916536139E-02 a       743     0    50     1     8
 -8.6978310731897657E-02 a       744     0    50     1     9
 -3.3599171344849554E-01 a       745     0    50     1    10
  1.7985893305805401E-02 a       746     0    50     1    11
  5.9903839105401291E-01 a       747     0    50     1    12
  1.7342053207554919E-01 a       748     0    50     1    13
 -4.8664320484358603E-01 a       749     0    50     1    14
  6.0983056369403973E-02 a       750     0    50     1    15
 -2.4762773568241549E-02 a       751     0    51     1     1
  1.2281477142669356E-01 a       752     0    51     1     2
  8.1504566328648609E-02 a       753     0    51     1     3
  1.1229182308393629E-01 a       754     0    51     1     4
  7.0897534470867357E-02 a       755     0    51     1     5
  1.6457490811610942E-01 a       756     0    51     1     6
  1.1624006665616642E-01 a       757     0    51     1     7
 -3.3062037055945744E-02 a       758     0    51     1     8
 -1.1815100510331057E-01 a       759     0    51     1     9
 -5.5016926155230661E-01 a       760     0    51     1    10
  7.6689029279888432E-01 a       761     0    51     1    11
 -5.9556184006764812E-01 a       762     0    51     1    12
  2.1888188169126918E-01 a       763     0    51     1    13
 -6.5970283370079130E-01 a       764     0    51     1    14
  9.2381329049523453E-02 a       765     0    51     1    15
  5.1582028544981373E-01 a       766     0    52     1     1
  1.9332175915657090E-01 a       767     0    52     1     2
  1.3505394739712573E+00 a       768     0    52     1     3
 -4.9801127172492965E-02 a       769     0    52     1     4
  6.3752350620445430E-01 a       770     0    52     1     5
  4.8326075341880653E-01 a       771     0    52     1     6
 -5.9878642122807479E-01 a       772     0    52     1     7
 -9.3509986112489840E-02 a       773     0    52     1     8
  1.2122603854416363E+00 a       774     0    52     1     9
 -1.3610055719388001E+00 a       775     0    52     1    10
  4.2255637339756201E-02 a       776     0    52     1    11
 -9.2649224619559356E-01 a       777     0    52     1    12
 -9.8513488661680693E-01 a       778     0    52     1    13
 -4.0511228228763985E+00 a       779     0    52     1    14
 -6.0298586396455878E-01 a       780     0    52     1    15
  5.3868335963404498E-02 a       781     0    53     1     1
  6.7857583173004138E-02 a       782     0    53     1     2
  8.3030039015794713E-02 a       783     0    53     1     3
 -7.7222760409896979E-02 a       784     0    53     1     4
 -1.6467441052383636E-01 a       785     0    53     1     5
  6.5987698340198428E-03 a       786     0    53     1     6
 -3.2069649620546148E-02 a       787     0    53     1     7
  7.5224988505416335E-03 a       788     0    53     1     8
 -3.1203554887677471E-02 a       789     0    53     1     9
  4.2776423085522618E-02 a       790     0    53     1    10
  5.9387164991690465E-02 a       791     0    53     1    11
 -2.1954933591636555E-01 a       792     0    53     1    12
 -2.7002129691229548E-01 a       793     0    53     1    13
 -7.9513819575968259E-01 a       794     0    53     1    14
 -5.5870200578636620E-02 a       795     0    53     1    15
  1.3681100416014744E-01 a       796     0    54     1     1
 -4.0126793012730299E-03 a       797     0    54     1     2
 -5.5564885925487506E-01 a       798     0    54     1     3
 -1.4328662992035934E-01 a       799     0    54     1     4
 -2.0243993233660040E-01 a       800     0    54     1     5
  1.2185356081123704E-01 a       801     0    54     1     6
 -3.3521394643538371E-01 a       802     0    54     1     7
  2.2299261687410405E-04 a       803     0    54     1     8
  4.8869347427515492E-01 a       804     0    54     1     9
 -1.2761980545413595E-01 a       805     0    54     1    10
  4.9828135760167945E-02 a       806     0    54     1    11
  2.2810889775911661E-01 a       807     0    54     1    12
  2.0497596032698717E-01 a       808     0    54     1    13
 -9.4192757385677306E-01 a       809     0    54     1    14
  7.4268652543823907E-02 a       810     0    54     1    15
  4.1619050672081204E-01 a       811     0    55     1     1
  8.5676651490331523E-01 a       812     0    55     1     2
 -1.8231993152287521E-01 a       813     0    55     1     3
  7.8564211117103677E-01 a       814     0    55     1     4
 -3.4336542810265047E-01 a       815     0    55     1     5
 -9.4629357653982371E-01 a       816     0    55     1     6
  2.8645737337188736E-02 a       817     0    55     1     7
  5.9771556054423495E-03 a       818     0    55     1     8
 -5.8117918470831720E-01 a       819     0    55     1     9
  3.6328973160178257E-01 a       820     0    55     1    10
 -3.0732615364685917E-01 a       821     0    55     1    11
 -1.6894060715791044E+00 a       822     0    55     1    12
  3.8236293155320339E-01 a       823     0    55     1    13
  6.0986431257115914E-01 a       824     0    55     1    14
  6.4978326334241032E-01 a       825     0    55     1    15
 -5.9706257401505286E-02 a       826     0    56     1     1
 -8.8817091675764759E-01 a       827     0    56     1     2
  4.1807078739946324E-01 a       828     0    56     1     3
  4.7985450927151993E-02 a       829     0    56     1     4
  1.2911239331413543E-01 a       830     0    56     1     5
 -6.5461843086698701E-03 a       831     0    56     1     6
  1.6361278640877008E-01 a       832     0    56     1     7
  1.0985477257558517E-02 a       833     0    56     1     8
 -7.4438625846870909E-01 a       834     0    56     1     9
  4.0011380860369389E-01 a       835     0    56     1    10
 -9.3524690389236179E-02 a       836     0    56     1    11
 -1.2685112515215197E-01 a       837     0    56     1    12
 -5.0742539251039057E-03 a       838     0    56     1    13
 -4.5517119302507547E-01 a       839     0    56     1    14
 -2.8933239545014883E-01 a       840     0    56     1    15
 -4.1137701904151044E-02 a       841     0    57     1     1
  5.6544185954841765E-02 a       842     0    57     1     2
  8.1964850542917800E-01 a       843     0    57     1     3
  1.0697980842828454E-01 a       844     0    57     1     4
  1.3248130746386508E-01 a       845     0    57     1     5
  2.7430744324962764E-01 a       846     0    57     1     6
  1.2335788349093059E-01 a       847     0    57     1     7
  8.3702734018350458E-04 a       848     0    57     1     8
 -5.4769737342513747E-01 a       849     0    57     1     9
 -3.2058709238735256E-01 a       850     0    57     1    10
  1.9356103362676413E-01 a       851     0    57     1    11
 -4.1592078122633398E-03 a       852     0    57     1    12
  3.5032602564024358E-02 a       853     0    57     1    13
 -8.4621246728504906E-01 a       854     0    57     1    14
 -1.8248975995742847E-01 a       855     0    57     1    15
 -6.2548631190347703E-02 a       856     0    58     1     1
 -1.1436695172304057E+00 a       857     0    58     1     2
  5.5195922821887089E-01 a       858     0    58     1     3
  5.3862495188323611E-01 a       859     0    58     1     4
  7.2739925753609025E-01 a       860     0    58     1     5
  1.9418365658843098E-01 a       861     0    58     1     6
 -3.3504546898417525E-01 a       862     0    58     1     7
 -8.2729462705527335E-02 a       863     0    58     1     8
  3.6328522650672596E-01 a       864     0    58     1     9
 -5.2528249559630424E-01 a       865     0    58     1    10
  7.8438764509143299E-01 a       866     0    58     1    11
  1.6824670755868396E+00 a       867     0    58     1    12
 -3.6724560555082331E-01 a       868     0    58     1    13
 -1.0601321173015488E+00 a       869     0    58     1    14
 -3.2767626259608773E-01 a       870     0    58     1    15
  1.9218221875945264E-03 a       871     0    59     1     1
  3.8392637324408209E-02 a       872     0    59     1     2
  1.1795504638425552E-01 a       873     0    59     1     3
  2.5615108212576482E-02 a       874     0    59     1     4
  1.2626363736942965E-02 a       875     0    59     1     5
 -3.2441431452869443E-02 a       876     0    59     1     6
  4.1732624829511830E-02 a       877     0    59     1     7
 -5.4486575959157403E-03 a       878     0    59     1     8
  3.6225618085042993E-01 a       879     0    59     1     9
 -1.0277666568088112E-01 a       880     0    59     1    10
 -3.1712868844425944E-02 a       881     0    59     1    11
 -6.4232631813492957E-01 a       882     0    59     1    12
 -1.9801527557972966E-02 a       883     0    59     1    13
 -9.7404669829928980E-01 a       884     0    59     1    14
  6.6476252437054476E-02 a       885     0    59     1    15
 -4.5875931259758904E-02 a       886     0    60     1     1
  8.9560991713417179E-02 a       887     0    60     1     2
  2.1327447019540235E-01 a       888     0    60     1     3
  9.7093267359617715E-03 a       889     0    60     1     4
  9.5104253059668839E-02 a       890     0    60     1     5
 -2.5265545652053099E-02 a       891     0    60     1     6
  1.3680231384124786E-01 a       892     0    60     1     7
 -2.8668109142152851E-03 a       893     0    60     1     8
  1.5661605218231665E+00 a       894     0    60     1     9
 -2.3276437077467134E-02 a       895     0    60     1    10
 -6.5312525598881219E-02 a       896     0    60     1    11
  1.8967563369861329E-02 a       897     0    60     1    12
 -2.5407361945357926E-01 a       898     0    60     1    13
  5.5913194485929692E-02 a       899     0    60     1    14
 -5.6486262888123684E-01 a       900     0    60     1    15
 -2.3800601771258734E-01 a       901     0    61     1     1
  2.0957711680209566E-02 a       902     0    61     1     2
  2.1844510211929147E-01 a       903     0    61     1     3
 -5.8927822994095280E-01 a       904     0    61     1     4
  1.8764050820827508E-01 a       905     0    61     1     5
  5.5151535364492377E-01 a       906     0    61     1     6
  3.9258529265700316E-02 a       907     0    61     1     7
  5.6721155803147322E-03 a       908     0    61     1     8
  1.2097054784977954E-01 a       909     0    61     1     9
 -1.7917367606510018E-01 a       910     0    61     1    10
  3.9345414910628151E-01 a       911     0    61     1    11
  9.5589278650917464E-01 a       912     0    61     1    12
  1.4818828534808876E-01 a       913     0    61     1    13
 -2.7168553127216805E-01 a       914     0    61     1    14
 -1.2378618242938826E-01 a       915     0    61     1    15
  4.7170010487201496E-03 a       916     0    62     1     1
  3.0386634393700762E-01 a       917     0    62     1     2
 -3.8773755603493687E-01 a       918     0    62     1     3
 -2.4715314320277248E-02 a       919     0    62     1     4
  1.2096062752217252E-03 a       920     0    62     1     5
 -1.8716229421472923E-02 a       921     0    62     1     6
 -7.5467455332289310E-02 a       922     0    62     1     7
  4.2142654768218763E-03 a       923     0    62     1     8
  7.0975755672131335E-01 a       924     0    62     1     9
  2.2208396192999996E-01 a       925     0    62     1    10
 -9.0240350201544375E-02 a       926     0    62     1    11
 -3.1832346157636798E-01 a       927     0    62     1    12
 -6.2677238608499664E-02 a       928     0    62     1    13
  7.0666969237764232E-01 a       929     0    62     1    14
 -3.0158562005560521E-02 a       930     0    62     1    15
  2.3166258294877282E-03 a       931     0    63     1     1
 -5.3976444491731390E-02 a       932     0    63     1     2
 -2.6707213638452809E-01 a       933     0    63     1     3
 -9.6813495601236477E-02 a       934     0    63     1     4
 -9.7678414947403855E-02 a       935     0    63     1     5
 -8.7797056947395272E-02 a       936     0    63     1     6
 -1.6750498105790937E-01 a       937     0    63     1     7
  5.7135404943487178E-03 a       938     0    63     1     8
  3.1727605275018411E-01 a       939     0    63     1     9
  2.6435072266377763E-01 a       940     0    63     1    10
 -3.8037301463152362E-01 a       941     0    63     1    11
  2.3741408860158383E-01 a       942     0    63     1    12
  1.4997276567368038E-02 a       943     0    63     1    13
  6.4535692962642477E-01 a       944     0    63     1    14
 -1.7313020445430941E-01 a       945     0    63     1    15
 -6.1309610892024739E-02 a       946     0    64     1     1
  6.0475470778616880E-01 a       947     0    64     1     2
 -3.7423987979937723E-01 a       948     0    64     1     3
 -1.1541453323671849E+00 a       949     0    64     1     4
 -4.6416640895030764E-01 a       950     0    64     1     5
  5.9408563641365009E-01 a       951     0    64     1     6
  9.0050500912738862E-02 a       952     0    64     1     7
  4.0361746765675381E-02 a       953     0    64     1     8
 -2.2520975205207197E-01 a       954     0    64     1     9
  2.6016466902237007E-01 a       955     0    64     1    10
  5.1811043599934770E-01 a       956     0    64     1    11
 -4.4334806279550998E-01 a       957     0    64     1    12
  2.5790581466474755E-01 a       958     0    64     1    13
  1.0315207957905246E+00 a       959     0    64     1    14
  1.5777307716965913E-01 a       960     0    64     1    15
  2.4763644894350390E-02 b       961     1     1
 -7.7253071944559615E-01 b       962     1     2
 -1.0905100815740172E+00 b       963     1     3
 -4.8675689232116948E-01 b       964     1     4
 -2.2828046579519301E-01 b       965     1     5
  2.1240596268555120E-01 b       966     1     6
 -1.8751239141953527E-01 b       967     1     7
  2.5156292706304145E-01 b       968     1     8
  5.7690334581581060E-01 b       969     1     9
 -2.4631136355767511E-01 b       970     1    10
 -8.2224418566767765E-01 b       971     1    11
  7.6928243471065372E-01 b       972     1    12
  1.6218713793630057E-02 b       973     1    13
 -8.5193053397384338E-02 b       974     1    14
 -3.9986278935691601E-02 b       975     1    15
 -1.8878999799187137E+00 a       976     1     1     2     1
  7.0381106957978223E-01 a       977     1     1     2     2
  6.4382204993736403E-01 a       978     1     1     2     3
 -7.0024707699417965E-01 a       979     1     1     2     4
  2.9218627208180953E-01 a       980     1     1     2     5
 -8.1052683738850106E-01 a       981     1     1     2     6
  9.0218708521790547E-01 a       982     1     1     2     7
  4.7161379408777132E-01 a       983     1     1     2     8
 -1.1909785319696857E+00 a       984     1     1     2     9
  1.5367439522114248E+00 a       985     1     1     2    10
  3.3572285155043746E-01 a       986     1     1     2    11
 -8.3451080232555508E-01 a       987     1     1     2    12
 -4.2967743429389194E-01 a       988     1     1     2    13
 -8.0057682854682832E-01 a       989     1     1     2    14
  1.5295151362191151E-01 a       990     1     1     2    15
  3.9472831449152146E-01 a       991     1     2     2     1
 -1.2823152213994253E+00 a       992     1     2     2     2
 -2.2727989418841996E-01 a       993     1     2     2     3
 -1.4907953395229294E-02 a       994     1     2     2     4
 -3.4240985602995661E-01 a       995     1     2     2     5
  9.6987556160844257E-01 a       996     1     2     2     6
  7.2767247769330445E-01 a       997     1     2     2     7
 -6.5020522100634781E-01 a       998     1     2     2     8
  4.0502962145627924E-01 a       999     1     2     2     9
  5.2318829292111957E-01 a      1000     1     2     2    10
  2.9326697899502843E-02 a      1001     1     2     2    11
 -4.3333187175617571E-01 a      1002     1     2     2    12
 -3.6853486687133058E-01 a      1003     1     2     2    13
 -3.5047081555403092E-01 a      1004     1     2     2    14
 -6.3430687798628294E-01 a      1005     1     2     2    15
  9.4968529341955799E-01 a      1006     1     3     2     1
  3.8399478188218944E-01 a      1007     1     3     2     2
 -6.4604384713169360E-01 a      1008     1     3     2     3
 -4.3258753639315151E-01 a      1009     1     3     2     4
  1.3956703476595117E-01 a      1010     1     3     2     5
  1.2188816400665339E+00 a      1011     1     3     2     6
  2.9490614210694127E-01 a      1012     1     3     2     7
 -2.6779387201255456E-01 a      1013     1     3     2     8
 -2.5721662537158163E-01 a      1014     1     3     2     9
 -9.0187878199037652E-01 a      1015     1     3     2    10
  6.1547369975820290E-02 a      1016     1     3     2    11
 -1.1649711114676589E+00 a      1017     1     3     2    12
 -2.2027523820729694E-01 a      1018     1     3     2    13
 -5.7810736060449577E-02 a      1019     1     3     2    14
 -9.8554079162975339E-01 a      1020     1     3     2    15
  2.2142922264222948E-02 a      1021     1     4     2     1
 -1.2708045128966090E+00 a      1022     1     4     2     2
 -4.8794363702752613E-02 a      1023     1     4     2     3
 -4.3506632217038177E-01 a      1024     1     4     2     4
  5.0298172353807291E-01 a      1025     1     4     2     5
  2.1267891380862411E+00 a      1026     1     4     2     6
 -6.3849160129915816E-02 a      1027     1     4     2     7
  7.3186204966946733E-01 a      1028     1     4     2     8
  1.2071336051171855E+00 a      1029     1     4     2     9
 -2.1719159923604670E+00 a      1030     1     4     2    10
  1.1046720496460107E+00 a      1031     1     4     2    11
  1.2293830300323842E+00 a      1032     1     4     2    12
 -1.5318940462558710E+00 a      1033     1     4     2    13
  3.5656618706038296E-01 a      1034     1     4     2    14
 -4.4449172498278228E-01 a      1035     1     4     2    15
  1.0234628036745179E+00 a      1036     1     5     2     1
  3.0222833180718606E-01 a      1037     1     5     2     2
  7.0376779890901342E-01 a      1038     1     5     2     3
  1.8607471888592247E-01 a      1039     1     5     2     4
 -4.4315994395423364E-01 a      1040     1     5     2     5
 -4.8726131965738101E-01 a      1041     1     5     2     6
 -1.6441850530110580E-01 a      1042     1     5     2     7
 -5.2099352123198696E-02 a      1043     1     5     2     8
  1.3133082308082027E+00 a      1044     1     5     2     9
  5.1757212949148468E-01 a      1045     1     5     2    10
  4.0098205942246051E-01 a      1046     1     5     2    11
 -4.0256250063437549E-01 a      1047     1     5     2    12
  5.5084359739217625E-01 a      1048     1     5     2    13
 -6.3415585107122818E-01 a      1049     1     5     2    14
 -7.8465629145789373E-01 a      1050     1     5     2    15
  5.4694563225601978E-01 a      1051     1     6     2     1
 -6.3055123702852696E-03 a      1052     1     6     2     2
  2.4487794875959407E-01 a      1053     1     6     2     3
  9.3105404838853256E-01 a      1054     1     6     2     4
 -8.5093131508219122E-01 a      1055     1     6     2     5
 -5.2413715723186582E-01 a      1056     1     6     2     6
 -1.0613766334359809E+00 a      1057     1     6     2     7
 -6.7877521670068586E-01 a      1058     1     6     2     8
  5.6818006058295156E-01 a      1059     1     6     2     9
  1.3572013704968622E+00 a      1060     1     6     2    10
 -9.0949664797666707E-01 a      1061     1     6     2    11
  9.5286993586327041E-04 a      1062     1     6     2    12
 -4.7355846767232888E-02 a      1063     1     6     2    13
  6.0900620524981997E-01 a      1064     1     6     2    14
  6.5468640355564944E-01 a      1065     1     6     2    15
 -7.4428589398342326E-01 a      1066     1     7     2     1
 -2.7923544039340009E-01 a      1067     1     7     2     2
  3.1766838636130879E-01 a      1068     1     7     2     3
  7.5941820895904288E-01 a      1069     1     7     2     4
 -5.8136082810868583E-01 a      1070     1     7     2     5
 -2.6856238261758292E-01 a      1071     1     7     2     6
 -4.8536394005508951E-02 a      1072     1     7     2     7
 -5.8307628675731416E-01 a      1073     1     7     2     8
 -7.7637872689372833E-01 a      1074     1     7     2     9
  2.1127928748763045E-01 a      1075     1     7     2    10
 -1.9131296492254979E-01 a      1076     1     7     2    11
 -6.2569329217537240E-01 a      1077     1     7     2    12
 -7.3035355382947931E-01 a      1078     1     7     2    13
  5.2317670755842161E-01 a      1079     1     7     2    14
  7.4765756753110246E-01 a      1080     1     7     2    15
 -1.3243451228699994E+00 a      1081     1     8     2     1
 -1.5350311834343755E+00 a      1082     1     8     2     2
  1.4767506988957484E+00 a      1083     1     8     2     3
  1.7842885059529470E-01 a      1084     1     8     2     4
  3.0961219690889802E-01 a      1085     1     8     2     5
  1.7066808846063306E+00 a      1086     1     8     2     6
 -4.5945865018444298E-01 a      1087     1     8     2     7
 -1.4684737991155528E-01 a      1088     1     8     2     8
 -2.3930415753578019E-01 a      1089     1     8     2     9
 -1.3272079071247327E+00 a      1090     1     8     2    10
 -2.9690402756552681E-01 a      1091     1     8     2    11
 -4.1065990251324269E-01 a      1092     1     8     2    12
 -1.4805493111358408E+00 a      1093     1     8     2    13
  1.5232860984362893E+00 a      1094     1     8     2    14
  1.0389492871076169E+00 a      1095     1     8     2    15
 -1.3928896127939645E+00 a      1096     1     9     2     1
  6.9998899983081053E-01 a      1097     1     9     2     2
 -3.3235108157464238E-01 a      1098     1     9     2     3
  2.5109369565356127E-01 a      1099     1     9     2     4
 -3.0281864108637974E-01 a      1100     1     9     2     5
  7.7740181477710968E-01 a      1101     1     9     2     6
 -9.2418890299510570E-01 a      1102     1     9     2     7
 -7.6779824169227662E-01 a      1103     1     9     2     8
 -1.5820665782268561E+00 a      1104     1     9     2     9
 -8.0419836041935255E-01 a      1105     1     9     2    10
 -5.6545420859274886E-01 a      1106     1     9     2    11
 -1.6679379438101520E+00 a      1107     1     9     2    12
 -1.1713170716447928E-01 a      1108     1     9     2    13
 -1.0929078359234199E+00 a      1109     1     9     2    14
 -3.8247199470122728E-01 a      1110     1     9     2    15
  2.1911411189495456E-01 a      1111     1    10     2     1
  1.9966868598579221E-01 a      1112     1    10     2     2
  1.3888457840348412E-01 a      1113     1    10     2     3
 -1.0105971107315386E+00 a      1114     1    10     2     4
  5.4254192063308260E-01 a      1115     1    10     2     5
 -8.9490072638098120E-02 a      1116     1    10     2     6
  9.8540151431647105E-01 a      1117     1    10     2     7
 -6.0998131841872727E-01 a      1118     1    10     2     8
 -1.0507412619395111E+00 a      1119     1    10     2     9
 -3.8345054629819120E-01 a      1120     1    10     2    10
 -2.3104091017892764E-01 a      1121     1    10     2    11
  4.8366148518524776E-01 a      1122     1    10     2    12
  1.0138673037091865E+00 a      1123     1    10     2    13
 -7.3512863873532641E-01 a      1124     1    10     2    14
 -1.0009336244326530E+00 a      1125     1    10     2    15
 -2.6960240996161150E-01 a      1126     1    11     2     1
 -6.5967333854144009E-02 a      1127     1    11     2     2
 -4.3038392018487298E-01 a      1128     1    11     2     3
  5.6803517850872076E-01 a      1129     1    11     2     4
 -6.8854126745075139E-01 a      1130     1    11     2     5
  4.0279515736132136E-02 a      1131     1    11     2     6
 -7.4864971994430130E-01 a      1132     1    11     2     7
  1.4043389106816823E-01 a      1133     1    11     2     8
 -9.1335094867444166E-01 a      1134     1    11     2     9
  2.8835366601695217E-01 a      1135     1    11     2    10
 -2.3076806457196589E-01 a      1136     1    11     2    11
 -7.2664381810800316E-01 a      1137     1    11     2    12
  8.5978398943713696E-01 a      1138     1    11     2    13
 -5.5968197794478911E-02 a      1139     1    11     2    14
 -3.8282568373072995E-01 a      1140     1    11     2    15
  7.3615697594266549E-01 a      1141     1    12     2     1
 -8.4823991863059126E-02 a      1142     1    12     2     2
  5.3481461780142303E-01 a      1143     1    12     2     3
 -7.8677382206092106E-01 a      1144     1    12     2     4
  6.1564044379424221E-01 a      1145     1    12     2     5
  3.6227093541673694E-01 a      1146     1    12     2     6
 -1.8948929546289590E+00 a      1147     1    12     2     7
 -6.0716126880298238E-01 a      1148     1    12     2     8
  2.8206314026436108E-01 a      1149     1    12     2     9
 -4.8451828391929741E-01 a      1150     1    12     2    10
 -1.0090270931614458E+00 a      1151     1    12     2    11
  1.4349257243165467E-01 a      1152     1    12     2    12
 -1.4252249373389247E-01 a      1153     1    12     2    13
 -9.2663508694562613E-01 a      1154     1    12     2    14
  2.1137817773737708E-01 a      1155     1    12     2    15
 -6.4653197324535994E-01 a      1156     1    13     2     1
 -2.8029910413615422E-01 a      1157     1    13     2     2
 -5.3518875179492775E-01 a      1158     1    13     2     3
 -6.9991034634191418E-01 a      1159     1    13     2     4
  6.1661766068899715E-01 a      1160     1    13     2     5
  4.0012728641347958E-02 a      1161     1    13     2     6
  7.3098808753854994E-01 a      1162     1    13     2     7
  5.3412508304552386E-01 a      1163     1    13     2     8
 -1.0251481190314293E+00 a      1164     1    13     2     9
 -3.3288121128081349E-01 a      1165     1    13     2    10
  3.6819166031693112E-01 a      1166     1    13     2    11
  5.8048787788039357E-03 a      1167     1    13     2    12
 -2.1705123661603112E-01 a      1168     1    13     2    13
  4.0770175817277160E-01 a      1169     1    13     2    14
  1.8574070923478792E-01 a      1170     1    13     2    15
 -7.1784400215457833E-01 a      1171     1    14     2     1
  9.0021544424382899E-02 a      1172     1    14     2     2
 -8.0201080631818300E-02 a      1173     1    14     2     3
  5.5284629718771039E-01 a      1174     1    14     2     4
 -2.2475306963148084E-01 a      1175     1    14     2     5
  9.9389127778766484E-01 a      1176     1    14     2     6
 -4.2192103598392383E-01 a      1177     1    14     2     7
  1.7496391828209923E-01 a      1178     1    14     2     8
 -9.3301130415081743E-02 a      1179     1    14     2     9
 -5.6967739695700603E-01 a      1180     1    14     2    10
 -1.4435968308469935E-01 a      1181     1    14     2    11
 -4.1664580341740663E-02 a      1182     1    14     2    12
 -1.3966601801646394E+00 a      1183     1    14     2    13
  1.0694906750359012E+00 a      1184     1    14     2    14
  1.0284126086479322E+00 a      1185     1    14     2    15
  4.7927649013242668E-01 a      1186     1    15     2     1
  1.2007535814561319E+00 a      1187     1    15     2     2
  7.0762895410631688E-01 a      1188     1    15     2     3
 -9.9374979068626967E-01 a      1189     1    15     2     4
  6.1999805382379636E-01 a      1190     1    15     2     5
 -1.4720665108543403E+00 a      1191     1    15     2     6
  8.0587655835919114E-01 a      1192     1    15     2     7
 -1.2941342491662668E+00 a      1193     1    15     2     8
  6.8701831111145628E-01 a      1194     1    15     2     9
  2.5138171130303064E+00 a      1195     1    15     2    10
 -9.7921496632821334E-02 a      1196     1    15     2    11
 -4.9181996935760153E-01 a      1197     1    15     2    12
  4.5797225798088059E-01 a      1198     1    15     2    13
 -6.9723418505751289E-01 a      1199     1    15     2    14
 -1.0613363503725926E+00 a      1200     1    15     2    15
  2.9559820835492623E-01 b      1201     2     1
 -1.1422184810572367E+00 b      1202     2     2
 -2.2492985541197480E-01 b      1203     2     3
  7.4591020400319030E-01 b      1204     2     4
 -5.7858179856423109E-01 b      1205     2     5
 -9.7406097772314360E-01 b      1206     2     6
  6.9239948662322048E-01 b      1207     2     7
  1.0285086721467687E+00 b      1208     2     8
  5.4798406728579174E-01 b      1209     2     9
  4.4859575432190033E-02 b      1210     2    10
  1.0404564283747222E+00 b      1211     2    11
  8.7640275819077740E-01 b      1212     2    12
  1.9337015144851463E-01 b      1213     2    13
 -4.6947336923117150E-01 b      1214     2    14
  3.1311738107065545E-01 b      1215     2    15
  4.1939361481639276E-01 a      1216     2     1     3     1
  4.2028873915926690E-01 a      1217     2     2     3     1
 -5.7040522365718593E-01 a      1218     2     3     3     1
 -6.9031991948769977E-01 a      1219     2     4     3     1
 -7.7695576040974834E-01 a      1220     2     5     3     1
  3.6945280906081268E-01 a      1221     2     6     3     1
 -2.4561875506860481E-01 a      1222     2     7     3     1
 -9.2322282356220620E-01 a      1223     2     8     3     1
 -3.9893921678420446E-01 a      1224     2     9     3     1
  1.9881181956684840E-01 a      1225     2    10     3     1
  1.2583357554101726E+00 a      1226     2    11     3     1
  3.5719427975751639E-01 a      1227     2    12     3     1
  3.9406142905847269E-01 a      1228     2    13     3     1
 -3.1707003569809211E-01 a      1229     2    14     3     1
  8.9923140642901267E-01 a      1230     2    15     3     1
 -3.4950281731905586E-01 b      1231     3     1
