################################################################################
# Neural network connection values (weights and biases).
################################################################################
# Col  Name       Description
################################################################################
# 1    connection Neural network connection value.
# 2    t          Connection type (a = weight, b = bias).
# 3    index      Index enumerating weights.
# 4    l_s        Starting point layer (end point layer for biases).
# 5    n_s        Starting point neuron in starting layer (end point neuron for biases).
# 6    l_e        End point layer.
# 7    n_e        End point neuron in end layer.
################################################################################
#                      1 2         3     4     5     6     7
#             connection t     index   l_s   n_s   l_e   n_e
############################################################
 -6.6501541144654439E-02 a         1     0     1     1     1
 -5.4884733863241975E-01 a         2     0     1     1     2
 -3.8178928941595869E-01 a         3     0     1     1     3
 -2.1039874464211403E-01 a         4     0     1     1     4
  3.5976035542321383E-01 a         5     0     1     1     5
  1.1852409933257320E+00 a         6     0     1     1     6
 -1.0636655849309860E+00 a         7     0     1     1     7
  5.1509726584133897E-01 a         8     0     1     1     8
  3.5717179135001614E-01 a         9     0     1     1     9
 -4.9154257281265579E-01 a        10     0     1     1    10
 -5.6277614065770265E-01 a        11     0     1     1    11
  7.5777389514951443E-02 a        12     0     1     1    12
  9.1374086723734449E-01 a        13     0     1     1    13
 -4.3438770812332933E-01 a        14     0     1     1    14
 -1.0499145978920030E+00 a        15     0     1     1    15
  6.6203850377843543E-01 a        16     0     2     1     1
 -2.9206657908144953E+00 a        17     0     2     1     2
 -1.6405074579146484E+00 a        18     0     2     1     3
  1.6031421392098476E-02 a        19     0     2     1     4
  1.8006748754854078E+00 a        20     0     2     1     5
 -1.7563182406733764E+00 a        21     0     2     1     6
  3.2869803642032616E+00 a        22     0     2     1     7
  2.6514912924731413E+00 a        23     0     2     1     8
 -2.2043596065417832E+00 a        24     0     2     1     9
 -9.1578333938880474E-01 a        25     0     2     1    10
  4.3339941165733835E+00 a        26     0     2     1    11
 -2.8748525521131407E-01 a        27     0     2     1    12
 -3.7367230933170142E-01 a        28     0     2     1    13
 -2.1097098437711859E+00 a        29     0     2     1    14
 -5.0304098254780554E+00 a        30     0     2     1    15
  1.3674036700563844E-01 a        31     0     3     1     1
 -5.5457320439523239E-01 a        32     0     3     1     2
  2.9085919339557273E-02 a        33     0     3     1     3
  2.0129152155747920E-01 a        34     0     3     1     4
  1.3638809093267903E-01 a        35     0     3     1     5
  7.7439352660074945E-01 a        36     0     3     1     6
  7.2845687127612621E-02 a        37     0     3     1     7
  2.4306313518898282E-01 a        38     0     3     1     8
 -5.7041323613506822E-01 a        39     0     3     1     9
  5.2660264343860186E-01 a        40     0     3     1    10
 -5.0956228977483675E-01 a        41     0     3     1    11
  4.0388786810785093E-01 a        42     0     3     1    12
  1.1361017564584437E-01 a        43     0     3     1    13
 -1.7555065582229173E-01 a        44     0     3     1    14
  2.2437898350518251E-01 a        45     0     3     1    15
 -7.4993961005754428E-01 a        46     0     4     1     1
  3.9291851217380755E+00 a        47     0     4     1     2
 -6.8866178701539016E-01 a        48     0     4     1     3
  1.0893274222840097E+00 a        49     0     4     1     4
 -1.1543341331297128E+00 a        50     0     4     1     5
  3.2929254594716042E+00 a        51     0     4     1     6
 -6.9982996994148505E-01 a        52     0     4     1     7
 -2.1916748644862203E+00 a        53     0     4     1     8
  1.7726338459932947E+00 a        54     0     4     1     9
  5.5563663145588271E-01 a        55     0     4     1    10
  1.1435794828510770E+00 a        56     0     4     1    11
  4.0149629947333149E-01 a        57     0     4     1    12
  1.0188492895007881E+00 a        58     0     4     1    13
  1.4699663849338183E+00 a        59     0     4     1    14
  1.9547573142389802E+00 a        60     0     4     1    15
 -7.7188070689732560E-02 a        61     0     5     1     1
  1.2180375182949530E+00 a        62     0     5     1     2
  8.0396695177777966E-01 a        63     0     5     1     3
  9.6194807032398544E-01 a        64     0     5     1     4
 -4.3105881667178003E-01 a        65     0     5     1     5
 -5.5065277540984614E-01 a        66     0     5     1     6
  1.2600001193562853E+00 a        67     0     5     1     7
 -3.0030041508794525E-01 a        68     0     5     1     8
  1.3826036261116567E-01 a        69     0     5     1     9
 -5.6294722964525712E-01 a        70     0     5     1    10
  4.1796093295149417E-01 a        71     0     5     1    11
  1.2198084427628547E-01 a        72     0     5     1    12
  1.1414801390154422E-01 a        73     0     5     1    13
 -4.7659442486199921E-01 a        74     0     5     1    14
  1.0584317947358630E+00 a        75     0     5     1    15
 -1.0882139737425811E+00 a        76     0     6     1     1
  3.2379159351661491E+00 a        77     0     6     1     2
  1.0417646960408999E+00 a        78     0     6     1     3
 -5.9456936653907122E-01 a        79     0     6     1     4
 -2.0911885019124137E+00 a        80     0     6     1     5
  9.8906281832614618E-01 a        81     0     6     1     6
 -2.9626420925798960E+00 a        82     0     6     1     7
 -2.1996810372897180E+00 a        83     0     6     1     8
  4.0601072707858543E-01 a        84     0     6     1     9
  1.7345222699056220E+00 a        85     0     6     1    10
 -2.8090620480014654E+00 a        86     0     6     1    11
  1.2323148381193909E+00 a        87     0     6     1    12
  5.0614047991737909E-01 a        88     0     6     1    13
  1.6663956256299599E+00 a        89     0     6     1    14
  3.8240083554590192E+00 a        90     0     6     1    15
  5.1000836944419231E-02 a        91     0     7     1     1
 -2.9957205809699627E-01 a        92     0     7     1     2
  1.1200901456380064E+00 a        93     0     7     1     3
 -5.5757958216261061E-01 a        94     0     7     1     4
 -3.3399174494132405E-02 a        95     0     7     1     5
 -8.2764277650724805E-01 a        96     0     7     1     6
 -6.8555654588278003E-01 a        97     0     7     1     7
 -1.0690711636406776E+00 a        98     0     7     1     8
  1.5943534226826075E-01 a        99     0     7     1     9
 -1.0678149753162749E+00 a       100     0     7     1    10
  7.5062978199344121E-01 a       101     0     7     1    11
 -6.1513634509751625E-01 a       102     0     7     1    12
 -1.9483412369980392E-02 a       103     0     7     1    13
 -2.5269236861930078E-01 a       104     0     7     1    14
  3.7022165220305728E-02 a       105     0     7     1    15
  1.8016568923785232E+00 a       106     0     8     1     1
 -4.8925612708541699E+00 a       107     0     8     1     2
  2.3669449175681279E+00 a       108     0     8     1     3
 -1.9978987437203579E+00 a       109     0     8     1     4
  8.6107554945192544E-01 a       110     0     8     1     5
 -5.1635300121337044E+00 a       111     0     8     1     6
 -5.0250122130843178E-01 a       112     0     8     1     7
  1.9020983988124391E+00 a       113     0     8     1     8
 -1.1857141439740211E+00 a       114     0     8     1     9
 -2.2544682814752721E+00 a       115     0     8     1    10
  1.7165919388863435E-01 a       116     0     8     1    11
 -2.3172586267900646E+00 a       117     0     8     1    12
 -1.1222747787429426E+00 a       118     0     8     1    13
 -2.1410349082128901E+00 a       119     0     8     1    14
 -2.2306866077596554E+00 a       120     0     8     1    15
  1.2493675659418678E-01 a       121     0     9     1     1
  3.3296727807610138E-01 a       122     0     9     1     2
  2.4860914556878974E-01 a       123     0     9     1     3
 -7.1493861405210302E-01 a       124     0     9     1     4
 -1.0414847764110606E+00 a       125     0     9     1     5
 -5.4982793096127851E-02 a       126     0     9     1     6
 -4.3486078482534796E-01 a       127     0     9     1     7
  3.0707193821714285E-01 a       128     0     9     1     8
  3.8269894616078221E-01 a       129     0     9     1     9
  6.5550174341565039E-03 a       130     0     9     1    10
  1.4767412697383773E+00 a       131     0     9     1    11
 -6.3399485365875219E-01 a       132     0     9     1    12
 -5.7982713376863959E-01 a       133     0     9     1    13
  8.3206065508401172E-01 a       134     0     9     1    14
 -2.0045413367942180E+00 a       135     0     9     1    15
 -2.4023320417450997E+00 a       136     0    10     1     1
  3.7736126019926743E+00 a       137     0    10     1     2
  8.3564214478404319E-01 a       138     0    10     1     3
  2.1597324579219959E+00 a       139     0    10     1     4
 -1.2742461068919990E+00 a       140     0    10     1     5
  3.3837559259595795E+00 a       141     0    10     1     6
  3.8186276656794313E+00 a       142     0    10     1     7
 -1.5706538833779464E+00 a       143     0    10     1     8
  2.2230178946454258E+00 a       144     0    10     1     9
 -3.2717603493188996E+00 a       145     0    10     1    10
  8.4319883441198040E-01 a       146     0    10     1    11
  1.1830369974385686E+00 a       147     0    10     1    12
 -9.3443148414417654E-01 a       148     0    10     1    13
  2.5812599908245204E-01 a       149     0    10     1    14
  2.0309529728724414E+00 a       150     0    10     1    15
  6.4587282546189406E-01 a       151     0    11     1     1
  1.7892702618526539E+00 a       152     0    11     1     2
  6.1811088745077281E-01 a       153     0    11     1     3
 -1.4848590356262208E+00 a       154     0    11     1     4
  4.2102274991411842E-01 a       155     0    11     1     5
 -6.7438227440207932E-01 a       156     0    11     1     6
  3.8473412617555702E-01 a       157     0    11     1     7
 -1.6861176162063315E-01 a       158     0    11     1     8
 -9.2379279738454234E-01 a       159     0    11     1     9
 -6.2023864088163472E-01 a       160     0    11     1    10
  1.1344013806187381E+00 a       161     0    11     1    11
  7.9060799414709193E-01 a       162     0    11     1    12
  2.1101586337271766E-01 a       163     0    11     1    13
 -1.0195824016164274E+00 a       164     0    11     1    14
  1.4169010451714608E+00 a       165     0    11     1    15
 -2.0909246187975378E-01 a       166     0    12     1     1
 -1.6583499490515186E+00 a       167     0    12     1     2
 -3.9651608514413410E+00 a       168     0    12     1     3
 -3.3802815886890436E-01 a       169     0    12     1     4
  1.7744855306953107E+00 a       170     0    12     1     5
 -1.7624259996273746E+00 a       171     0    12     1     6
 -3.8887905894979591E+00 a       172     0    12     1     7
  3.0618398711888095E-01 a       173     0    12     1     8
 -2.1248827540609918E+00 a       174     0    12     1     9
  2.2981872210322916E+00 a       175     0    12     1    10
 -1.9282071462721725E-01 a       176     0    12     1    11
 -2.4948984511641370E-01 a       177     0    12     1    12
  4.0116240423187521E-01 a       178     0    12     1    13
  1.6327480778784216E+00 a       179     0    12     1    14
 -5.7037947779694309E-01 a       180     0    12     1    15
 -2.0061124273596700E-01 a       181     0    13     1     1
 -4.7361392613553588E-01 a       182     0    13     1     2
 -2.2483347533341880E-01 a       183     0    13     1     3
  9.4885542792733890E-01 a       184     0    13     1     4
  4.3328295125374217E-01 a       185     0    13     1     5
  6.3508549271008652E-01 a       186     0    13     1     6
 -4.1115687718821409E-01 a       187     0    13     1     7
  8.8379002824608491E-02 a       188     0    13     1     8
  3.4461167416596084E-01 a       189     0    13     1     9
 -6.2993481277299801E-01 a       190     0    13     1    10
 -1.3557500502680964E+00 a       191     0    13     1    11
 -2.2076018816397686E-01 a       192     0    13     1    12
 -1.7708650701203615E-02 a       193     0    13     1    13
  8.2522348011066127E-01 a       194     0    13     1    14
 -6.4959880208136711E-01 a       195     0    13     1    15
  3.4446661396930928E-01 a       196     0    14     1     1
  7.5734307064331086E-01 a       197     0    14     1     2
  2.0913419299080362E+00 a       198     0    14     1     3
 -2.9427005382172094E-01 a       199     0    14     1     4
  2.8393144165539080E-01 a       200     0    14     1     5
  9.2262343676552094E-01 a       201     0    14     1     6
  5.7738234126234089E-01 a       202     0    14     1     7
 -7.6761789448282269E-02 a       203     0    14     1     8
 -6.3306921935032523E-01 a       204     0    14     1     9
 -1.0204007794338841E+00 a       205     0    14     1    10
 -8.2381643523933645E-01 a       206     0    14     1    11
  3.4336330302785362E-01 a       207     0    14     1    12
 -9.0511408357559031E-01 a       208     0    14     1    13
 -5.5652245270990208E-01 a       209     0    14     1    14
  1.3839276112145863E-02 a       210     0    14     1    15
  7.1469939296031848E-02 a       211     0    15     1     1
  1.7306075942936976E-02 a       212     0    15     1     2
  4.4804810540716541E-02 a       213     0    15     1     3
 -1.7370639124885451E-01 a       214     0    15     1     4
 -6.0584422405348740E-02 a       215     0    15     1     5
 -1.0088783371591199E-01 a       216     0    15     1     6
  5.7787364971082285E-02 a       217     0    15     1     7
  9.7989409623468419E-03 a       218     0    15     1     8
 -1.3936980541387353E-01 a       219     0    15     1     9
  1.9058798038519312E-01 a       220     0    15     1    10
  9.4199310531152200E-02 a       221     0    15     1    11
  6.3592127649807361E-05 a       222     0    15     1    12
 -2.5038156946056511E-01 a       223     0    15     1    13
 -2.8717844592946251E-01 a       224     0    15     1    14
  2.2909762942323633E-01 a       225     0    15     1    15
 -5.9257265101622672E-02 a       226     0    16     1     1
 -1.1996914433563642E-01 a       227     0    16     1     2
 -4.0091972145205601E-01 a       228     0    16     1     3
  2.2819716942900417E-01 a       229     0    16     1     4
  2.3254801706313410E-01 a       230     0    16     1     5
  1.2319491570703858E-01 a       231     0    16     1     6
 -4.4946178643618695E-01 a       232     0    16     1     7
  3.6882858016632818E-02 a       233     0    16     1     8
  1.3274117841646343E-01 a       234     0    16     1     9
  3.2763119691921215E-02 a       235     0    16     1    10
  1.8505442508442349E-01 a       236     0    16     1    11
 -4.7252080216863140E-02 a       237     0    16     1    12
  1.0803907702023455E-01 a       238     0    16     1    13
  1.8665768037912417E-01 a       239     0    16     1    14
 -7.3916087098013020E-02 a       240     0    16     1    15
 -7.9661370956986777E-02 a       241     0    17     1     1
 -7.2967512211660271E-02 a       242     0    17     1     2
 -1.0366948478033786E-01 a       243     0    17     1     3
  2.2789485094243350E-01 a       244     0    17     1     4
 -5.2513406892592840E-01 a       245     0    17     1     5
  1.4934448472357240E-01 a       246     0    17     1     6
 -3.6114435930844141E-01 a       247     0    17     1     7
 -6.5317040810742161E-02 a       248     0    17     1     8
 -5.2683931981290255E-01 a       249     0    17     1     9
 -7.0202401153673533E-01 a       250     0    17     1    10
 -7.0530757694154411E-01 a       251     0    17     1    11
 -2.4121697277471481E-02 a       252     0    17     1    12
 -3.1366483320715247E-02 a       253     0    17     1    13
  1.3990430608312190E-02 a       254     0    17     1    14
  2.7887987285224167E-02 a       255     0    17     1    15
 -6.7590256574177798E-01 a       256     0    18     1     1
  9.1233498660960766E-01 a       257     0    18     1     2
  6.4752690665048607E-01 a       258     0    18     1     3
 -4.8355688549806308E-01 a       259     0    18     1     4
  1.9422657970773072E-01 a       260     0    18     1     5
 -9.7134464921859065E-01 a       261     0    18     1     6
  6.9351337012842162E-01 a       262     0    18     1     7
 -3.0403605948153267E-01 a       263     0    18     1     8
 -3.9902783027106703E-01 a       264     0    18     1     9
  2.6391111754167867E-01 a       265     0    18     1    10
  2.5061691173426903E-01 a       266     0    18     1    11
 -2.8045366648965520E-01 a       267     0    18     1    12
 -3.6007637940836057E-01 a       268     0    18     1    13
  7.1624649271400165E-01 a       269     0    18     1    14
 -4.3146773695109435E-02 a       270     0    18     1    15
 -1.9368571946389881E+00 a       271     0    19     1     1
  1.2024732307673056E-01 a       272     0    19     1     2
 -1.3894913941160603E+00 a       273     0    19     1     3
 -9.1183124867665633E-01 a       274     0    19     1     4
  3.0930565176335212E+00 a       275     0    19     1     5
 -1.8906358871548892E+00 a       276     0    19     1     6
  2.8678722143966578E-02 a       277     0    19     1     7
  2.9734932390105029E-01 a       278     0    19     1     8
  2.7809668428152778E-01 a       279     0    19     1     9
 -4.8256457077661019E-01 a       280     0    19     1    10
 -1.8094678699270637E+00 a       281     0    19     1    11
  1.7963773519326132E+00 a       282     0    19     1    12
 -5.1154437579436240E-01 a       283     0    19     1    13
 -2.3953183172560236E-01 a       284     0    19     1    14
  2.5015114089971200E+00 a       285     0    19     1    15
 -2.5410593888850314E-01 a       286     0    20     1     1
  5.7078787704294837E-02 a       287     0    20     1     2
 -6.2732949921624459E-01 a       288     0    20     1     3
  2.7488691452371629E-02 a       289     0    20     1     4
  5.0558688996110612E-01 a       290     0    20     1     5
 -4.5977008979879896E-01 a       291     0    20     1     6
  3.9255353993540681E-01 a       292     0    20     1     7
  5.2554426813959401E-02 a       293     0    20     1     8
  6.0306805857466683E-01 a       294     0    20     1     9
 -1.1005251367465796E-01 a       295     0    20     1    10
 -3.4407934829119571E-03 a       296     0    20     1    11
  1.7134549857990938E-02 a       297     0    20     1    12
 -9.8844734078603869E-01 a       298     0    20     1    13
  3.8657815936386430E-01 a       299     0    20     1    14
 -5.7328976434736251E-02 a       300     0    20     1    15
 -1.0028194915315923E-01 a       301     0    21     1     1
 -2.6731179175092934E-01 a       302     0    21     1     2
  2.1013436107282607E-01 a       303     0    21     1     3
 -3.2275576972703390E-01 a       304     0    21     1     4
  8.8525992911447493E-01 a       305     0    21     1     5
 -5.7042973476052206E-01 a       306     0    21     1     6
 -2.6260104613528668E-01 a       307     0    21     1     7
  6.2235663165203119E-02 a       308     0    21     1     8
  5.3943223684896746E-01 a       309     0    21     1     9
 -3.9003103455519017E-01 a       310     0    21     1    10
  3.9069162646457906E-01 a       311     0    21     1    11
 -1.0781572138494697E-01 a       312     0    21     1    12
 -1.0687618462726605E+00 a       313     0    21     1    13
  8.2142889541112252E-01 a       314     0    21     1    14
 -3.4798118401528431E-02 a       315     0    21     1    15
  2.7694335344454344E+00 a       316     0    22     1     1
 -4.2643620655433828E-01 a       317     0    22     1     2
 -1.3251914618980585E+00 a       318     0    22     1     3
 -5.0694524136219288E-01 a       319     0    22     1     4
 -1.8305310989738821E+00 a       320     0    22     1     5
  9.2099020275531562E-01 a       321     0    22     1     6
 -1.4874216338780297E+00 a       322     0    22     1     7
  6.1257357948612912E-01 a       323     0    22     1     8
  1.5378654793208473E+00 a       324     0    22     1     9
 -3.8789481888588434E-01 a       325     0    22     1    10
 -2.1965311270179639E+00 a       326     0    22     1    11
 -1.8898324443043777E+00 a       327     0    22     1    12
  2.5052643830971355E-01 a       328     0    22     1    13
 -1.9783187050494462E+00 a       329     0    22     1    14
  2.8412534717851701E-01 a       330     0    22     1    15
  4.4801584617594328E-02 a       331     0    23     1     1
 -7.5494695282063359E-03 a       332     0    23     1     2
  6.1419840790874813E-01 a       333     0    23     1     3
 -2.6597207925747701E-01 a       334     0    23     1     4
  2.5249772318502556E-01 a       335     0    23     1     5
 -6.0658928879298170E-02 a       336     0    23     1     6
  1.4424851002621208E-01 a       337     0    23     1     7
 -1.1766088585095249E-02 a       338     0    23     1     8
  2.0912681807075009E-01 a       339     0    23     1     9
  1.1483724057605728E-01 a       340     0    23     1    10
  6.0381153674535348E-01 a       341     0    23     1    11
  2.5411483061742849E-02 a       342     0    23     1    12
  4.2650414489362309E-01 a       343     0    23     1    13
  1.9642107354513369E-01 a       344     0    23     1    14
 -1.3180297632622098E-02 a       345     0    23     1    15
  6.2687112020478863E-01 a       346     0    24     1     1
 -1.5791261803815596E-01 a       347     0    24     1     2
 -4.5628056297054265E-01 a       348     0    24     1     3
 -1.0073003691736587E-01 a       349     0    24     1     4
  1.3507107498820783E-01 a       350     0    24     1     5
  4.3090775836329487E-01 a       351     0    24     1     6
 -1.0964072074375898E-01 a       352     0    24     1     7
  3.2379505036923079E-01 a       353     0    24     1     8
  5.5329972504150338E-01 a       354     0    24     1     9
 -2.6189626452866499E-01 a       355     0    24     1    10
 -5.6913953463250955E-01 a       356     0    24     1    11
  5.0413346028814886E-02 a       357     0    24     1    12
  7.6420478344368425E-01 a       358     0    24     1    13
 -7.7844882510554425E-01 a       359     0    24     1    14
  2.4975753486878405E-01 a       360     0    24     1    15
 -8.0535788136853068E-02 a       361     0    25     1     1
 -9.9897023541843444E-01 a       362     0    25     1     2
  1.5235879822029663E+00 a       363     0    25     1     3
  4.3767549459046551E-01 a       364     0    25     1     4
 -4.1577598759968493E-01 a       365     0    25     1     5
  2.2378476319917557E+00 a       366     0    25     1     6
 -1.3393179534038924E+00 a       367     0    25     1     7
 -7.4527324876134809E-02 a       368     0    25     1     8
 -2.5027819150596814E-01 a       369     0    25     1     9
 -3.4037321672369886E-01 a       370     0    25     1    10
 -1.3103787859461917E+00 a       371     0    25     1    11
 -5.1178509144909023E-01 a       372     0    25     1    12
 -5.6303801072858317E-01 a       373     0    25     1    13
  1.3734869527616553E+00 a       374     0    25     1    14
 -6.4414286309890423E-01 a       375     0    25     1    15
  2.1867263384354813E-01 a       376     0    26     1     1
  1.3068434784883567E-01 a       377     0    26     1     2
  2.3993842158735559E-01 a       378     0    26     1     3
  1.6216866708091138E-02 a       379     0    26     1     4
 -5.1807119799942647E-01 a       380     0    26     1     5
  2.1416707478960351E-01 a       381     0    26     1     6
 -1.6051385193472342E-01 a       382     0    26     1     7
 -1.1383220139859253E-01 a       383     0    26     1     8
 -3.7824554415264833E-01 a       384     0    26     1     9
  6.1589952108971481E-02 a       385     0    26     1    10
 -1.4511232834594162E-02 a       386     0    26     1    11
 -2.9689313994835020E-01 a       387     0    26     1    12
  6.6656104025883134E-01 a       388     0    26     1    13
 -5.0271571047112817E-01 a       389     0    26     1    14
  8.9988519645708767E-03 a       390     0    26     1    15
  1.7960990252543979E-01 a       391     0    27     1     1
  1.6016086028500240E-01 a       392     0    27     1     2
 -2.3844656076334497E-01 a       393     0    27     1     3
  3.6347009906279132E-01 a       394     0    27     1     4
 -8.7882295430780533E-01 a       395     0    27     1     5
 -8.6498468896903741E-02 a       396     0    27     1     6
  1.5106374135509532E-01 a       397     0    27     1     7
 -2.1833991746645792E-01 a       398     0    27     1     8
 -3.9358010228373985E-01 a       399     0    27     1     9
  1.1036378133046989E+00 a       400     0    27     1    10
  2.6585523809489991E-01 a       401     0    27     1    11
  7.3658381048209128E-03 a       402     0    27     1    12
 -5.0417554415496313E-01 a       403     0    27     1    13
  2.3351081145043620E-01 a       404     0    27     1    14
 -5.4988973444526849E-02 a       405     0    27     1    15
 -4.4223602438470305E-01 a       406     0    28     1     1
  1.2803263833580400E-01 a       407     0    28     1     2
  5.2528585755347879E-01 a       408     0    28     1     3
  1.7406217977153300E+00 a       409     0    28     1     4
  4.9121379507090041E-01 a       410     0    28     1     5
 -4.1029661426294434E-01 a       411     0    28     1     6
  2.2178968434202662E-01 a       412     0    28     1     7
 -1.5976835533508182E+00 a       413     0    28     1     8
 -1.4821888709652300E+00 a       414     0    28     1     9
  6.3876461641815985E-01 a       415     0    28     1    10
  8.9812731497310772E-01 a       416     0    28     1    11
  7.7918589584428211E-01 a       417     0    28     1    12
  1.2011857544855917E+00 a       418     0    28     1    13
  1.4055755268890482E+00 a       419     0    28     1    14
 -6.2655856092846873E-01 a       420     0    28     1    15
  4.7457102875680321E-02 a       421     0    29     1     1
 -1.2120051209185478E-02 a       422     0    29     1     2
 -5.2271960200526146E-01 a       423     0    29     1     3
  5.5398689311795792E-02 a       424     0    29     1     4
  9.4287147116373371E-01 a       425     0    29     1     5
 -4.5590860861292382E-01 a       426     0    29     1     6
  5.9984616638264665E-01 a       427     0    29     1     7
  1.1988744933252454E-01 a       428     0    29     1     8
  5.2351034709238464E-01 a       429     0    29     1     9
  1.2412049717432594E+00 a       430     0    29     1    10
  2.8582662965749909E-02 a       431     0    29     1    11
  1.6723969738129452E-01 a       432     0    29     1    12
  4.2574433630215658E-01 a       433     0    29     1    13
 -2.0958834026662057E-01 a       434     0    29     1    14
  1.8043366233504096E-01 a       435     0    29     1    15
 -6.1167252543659519E-02 a       436     0    30     1     1
 -5.4270349047336519E-01 a       437     0    30     1     2
 -3.0078809015132163E-01 a       438     0    30     1     3
  7.8154092731491975E-01 a       439     0    30     1     4
 -6.3428036083252970E-01 a       440     0    30     1     5
  6.9843172721154270E-02 a       441     0    30     1     6
 -3.4605276885380143E-01 a       442     0    30     1     7
  1.6350829166450401E-01 a       443     0    30     1     8
 -5.7975019563911401E-01 a       444     0    30     1     9
  3.8316366590288775E-01 a       445     0    30     1    10
  4.4951308439874155E-01 a       446     0    30     1    11
  9.1673968929764726E-01 a       447     0    30     1    12
 -5.6037174665980516E-01 a       448     0    30     1    13
 -6.6727591386790530E-01 a       449     0    30     1    14
  3.7835399771627887E-01 a       450     0    30     1    15
  1.6648344617875768E-01 a       451     0    31     1     1
  6.3155534288448389E-01 a       452     0    31     1     2
  6.4470322057076104E-02 a       453     0    31     1     3
  2.5181430735367307E+00 a       454     0    31     1     4
 -2.0939175741380787E+00 a       455     0    31     1     5
  8.3863123218177094E-01 a       456     0    31     1     6
 -1.5003427398730111E+00 a       457     0    31     1     7
  3.6546478360177059E-01 a       458     0    31     1     8
 -1.2054172130312024E+00 a       459     0    31     1     9
  1.1920354590670497E+00 a       460     0    31     1    10
  6.5370630892048975E-01 a       461     0    31     1    11
  1.7952877065592987E+00 a       462     0    31     1    12
 -7.1382914538930187E-01 a       463     0    31     1    13
 -2.7221447861423392E-01 a       464     0    31     1    14
 -3.7952753034249413E+00 a       465     0    31     1    15
  1.6712106518037792E-01 a       466     0    32     1     1
 -2.7571795375112729E-01 a       467     0    32     1     2
  1.8276952265075111E-01 a       468     0    32     1     3
  6.1427699568508842E-01 a       469     0    32     1     4
 -8.2767025738371225E-01 a       470     0    32     1     5
  1.0945178103859607E+00 a       471     0    32     1     6
 -4.3090667500664548E-01 a       472     0    32     1     7
 -1.2708839896789154E-01 a       473     0    32     1     8
 -5.8033896889034542E-01 a       474     0    32     1     9
 -1.2081623122695093E-01 a       475     0    32     1    10
 -7.6454182919678682E-01 a       476     0    32     1    11
 -2.6656127239389682E-01 a       477     0    32     1    12
 -1.7829175978300704E-01 a       478     0    32     1    13
 -4.2464250740280246E-01 a       479     0    32     1    14
  4.5815107979258213E-01 a       480     0    32     1    15
  1.3131285725891575E+00 a       481     0    33     1     1
  1.8065689807730734E-01 a       482     0    33     1     2
 -1.4587582032801567E+00 a       483     0    33     1     3
 -2.7198314722398942E-01 a       484     0    33     1     4
 -2.3314883151977425E-01 a       485     0    33     1     5
  9.6049119410982220E-01 a       486     0    33     1     6
  6.0018146477176559E-01 a       487     0    33     1     7
  3.6689054537510829E-01 a       488     0    33     1     8
  2.7855260344715932E-01 a       489     0    33     1     9
 -6.5433815128863138E-01 a       490     0    33     1    10
 -1.5208853558293695E-01 a       491     0    33     1    11
  1.5860701330581026E-01 a       492     0    33     1    12
  7.5660514185632521E-01 a       493     0    33     1    13
 -4.6898456116551704E-02 a       494     0    33     1    14
  4.5289718317879346E-01 a       495     0    33     1    15
  1.2458584841220612E+00 a       496     0    34     1     1
  1.8846199057702814E-01 a       497     0    34     1     2
  6.2638937467642186E-01 a       498     0    34     1     3
 -1.8969934471596517E+00 a       499     0    34     1     4
 -2.7430692403698670E-01 a       500     0    34     1     5
 -8.7054244363146593E-01 a       501     0    34     1     6
  2.8796016459729743E+00 a       502     0    34     1     7
  1.0353424545038032E+00 a       503     0    34     1     8
  1.2136246738948453E-01 a       504     0    34     1     9
 -1.4773892854564075E+00 a       505     0    34     1    10
 -2.5608595946595281E-01 a       506     0    34     1    11
 -1.3093140109685446E+00 a       507     0    34     1    12
 -6.6422460454136900E-01 a       508     0    34     1    13
 -8.8186502398225863E-01 a       509     0    34     1    14
  8.2856977085677996E-01 a       510     0    34     1    15
  6.1634263226292970E-03 a       511     0    35     1     1
  1.8776628556624309E-01 a       512     0    35     1     2
 -4.3072898423541067E-01 a       513     0    35     1     3
  1.2588245311781618E-01 a       514     0    35     1     4
 -3.9495934903070179E-01 a       515     0    35     1     5
  1.8772334673601920E-01 a       516     0    35     1     6
 -2.5585982886256492E-01 a       517     0    35     1     7
 -4.3686334013545176E-03 a       518     0    35     1     8
 -2.1475323512228345E-01 a       519     0    35     1     9
 -2.8330901366379951E-01 a       520     0    35     1    10
  4.7741208832267505E-02 a       521     0    35     1    11
 -1.5820811914858662E-01 a       522     0    35     1    12
 -2.1741306767907148E-01 a       523     0    35     1    13
 -1.1320514218976067E-01 a       524     0    35     1    14
 -2.2314551896689069E-01 a       525     0    35     1    15
 -7.3685153500644573E-01 a       526     0    36     1     1
 -1.1535992972036831E-01 a       527     0    36     1     2
  7.2287778338042778E-03 a       528     0    36     1     3
  2.6237112155647335E-01 a       529     0    36     1     4
 -1.0163451590495358E-02 a       530     0    36     1     5
  1.2827628038788995E-02 a       531     0    36     1     6
  1.4906690494711475E-02 a       532     0    36     1     7
 -3.2884363313173159E-01 a       533     0    36     1     8
  4.3789090753715336E-02 a       534     0    36     1     9
  5.1647614425550319E-02 a       535     0    36     1    10
 -3.4647106382708398E-01 a       536     0    36     1    11
 -1.9953018934993191E-01 a       537     0    36     1    12
 -5.1133843155425318E-01 a       538     0    36     1    13
  1.2964731818178328E+00 a       539     0    36     1    14
 -6.2112331454270830E-01 a       540     0    36     1    15
  7.5579585838314900E-01 a       541     0    37     1     1
 -9.9421441986239700E-01 a       542     0    37     1     2
  2.2755751037602390E+00 a       543     0    37     1     3
 -4.0851029668082417E-01 a       544     0    37     1     4
  4.6022458096974378E-01 a       545     0    37     1     5
 -7.3300140072268194E-01 a       546     0    37     1     6
  3.0996457945160323E+00 a       547     0    37     1     7
 -4.5088817700588552E-01 a       548     0    37     1     8
  2.0352486027079677E+00 a       549     0    37     1     9
  2.6517550789182409E+00 a       550     0    37     1    10
  2.4520253624383752E+00 a       551     0    37     1    11
 -7.7820192163710489E-01 a       552     0    37     1    12
  2.3320823726779309E+00 a       553     0    37     1    13
 -7.2794610231698309E-01 a       554     0    37     1    14
  1.5892659477175557E+00 a       555     0    37     1    15
  1.1796887147105702E-02 a       556     0    38     1     1
  9.2553250941375717E-02 a       557     0    38     1     2
  2.2134540543616823E-02 a       558     0    38     1     3
 -4.2595092455237543E-01 a       559     0    38     1     4
  5.7138946847469729E-01 a       560     0    38     1     5
 -6.4476274486831608E-01 a       561     0    38     1     6
  2.6308151056903473E-01 a       562     0    38     1     7
  2.4262386992877352E-01 a       563     0    38     1     8
  3.6631142397343947E-01 a       564     0    38     1     9
  5.0260632593156662E-01 a       565     0    38     1    10
  2.4576131953622235E-01 a       566     0    38     1    11
  3.9378635962804243E-01 a       567     0    38     1    12
 -2.7690515865052956E-01 a       568     0    38     1    13
  4.6071397641320760E-01 a       569     0    38     1    14
 -3.5331230158417887E-01 a       570     0    38     1    15
 -6.4111362664614702E-01 a       571     0    39     1     1
 -3.7906874671911139E-01 a       572     0    39     1     2
  7.5941596540487877E-01 a       573     0    39     1     3
 -5.2491979089888585E-01 a       574     0    39     1     4
  7.9596935022802928E-01 a       575     0    39     1     5
 -3.4801720607087039E-01 a       576     0    39     1     6
 -3.5876830822478489E-01 a       577     0    39     1     7
  2.5516253165879982E-01 a       578     0    39     1     8
 -3.5037455048796662E-01 a       579     0    39     1     9
  6.0247376419215304E-01 a       580     0    39     1    10
 -5.6152766594359838E-01 a       581     0    39     1    11
 -1.8636974156473837E-01 a       582     0    39     1    12
  9.1846444782515058E-01 a       583     0    39     1    13
 -4.9826856951399340E-01 a       584     0    39     1    14
  1.6850093806593230E-01 a       585     0    39     1    15
 -4.1702100866150371E-01 a       586     0    40     1     1
  5.9521281614367316E-02 a       587     0    40     1     2
 -3.3488241734776947E-01 a       588     0    40     1     3
 -1.8788565690902350E+00 a       589     0    40     1     4
  1.4388971191001072E+00 a       590     0    40     1     5
  4.0659322357995747E-01 a       591     0    40     1     6
 -9.2739619876287005E-01 a       592     0    40     1     7
  5.8646686484524535E-01 a       593     0    40     1     8
  2.9668060961541248E-01 a       594     0    40     1     9
  1.1091522583360561E-01 a       595     0    40     1    10
  8.1747323078464540E-01 a       596     0    40     1    11
  4.4266502664962716E-02 a       597     0    40     1    12
  6.0225615306761737E-01 a       598     0    40     1    13
  1.2887025681289108E+00 a       599     0    40     1    14
  3.0727874429998187E-01 a       600     0    40     1    15
  3.1075670098472818E-01 a       601     0    41     1     1
  6.7254885457258232E-02 a       602     0    41     1     2
 -7.7935549721462771E-02 a       603     0    41     1     3
 -7.7762333637841474E-01 a       604     0    41     1     4
 -3.7532091043168864E-01 a       605     0    41     1     5
  3.4862710096693728E-01 a       606     0    41     1     6
 -2.4743854752088065E-01 a       607     0    41     1     7
  4.6934841708092196E-03 a       608     0    41     1     8
 -1.3664144702845776E-01 a       609     0    41     1     9
 -1.3850283563434937E-01 a       610     0    41     1    10
  7.4686629543990657E-01 a       611     0    41     1    11
 -4.2566787223735046E-02 a       612     0    41     1    12
  7.7886915062235040E-01 a       613     0    41     1    13
 -2.2448975308258479E-01 a       614     0    41     1    14
 -3.6537181046204292E-01 a       615     0    41     1    15
 -4.8752070349786999E-02 a       616     0    42     1     1
 -4.2788529083740384E-01 a       617     0    42     1     2
  3.8979051553304661E-01 a       618     0    42     1     3
  3.6471666248306339E-01 a       619     0    42     1     4
  3.0516663756456976E-02 a       620     0    42     1     5
  4.3109943574184917E-01 a       621     0    42     1     6
  7.2646845233394841E-03 a       622     0    42     1     7
  1.2983560392008905E-01 a       623     0    42     1     8
  2.8774210133356126E-01 a       624     0    42     1     9
  6.0801135436333098E-01 a       625     0    42     1    10
  9.2347969339384411E-02 a       626     0    42     1    11
 -2.4204926261168749E-01 a       627     0    42     1    12
  2.8426504129232499E-01 a       628     0    42     1    13
 -8.4397172886652516E-01 a       629     0    42     1    14
 -1.1849946140688918E+00 a       630     0    42     1    15
  1.1393169208422320E+00 a       631     0    43     1     1
 -4.5495080759579165E-01 a       632     0    43     1     2
 -2.8857254785043831E+00 a       633     0    43     1     3
  1.5168854870730322E+00 a       634     0    43     1     4
  1.6990555172722117E+00 a       635     0    43     1     5
 -3.4835133968704199E+00 a       636     0    43     1     6
  1.0967821684319548E+00 a       637     0    43     1     7
 -6.8434978919890366E-02 a       638     0    43     1     8
 -1.2957898146350437E+00 a       639     0    43     1     9
  2.3293708632245611E+00 a       640     0    43     1    10
 -5.7382693982241118E-01 a       641     0    43     1    11
 -5.7039382866018180E-02 a       642     0    43     1    12
 -3.4861699555999681E-01 a       643     0    43     1    13
  1.9955981629807114E+00 a       644     0    43     1    14
  8.3002585853950517E-01 a       645     0    43     1    15
 -3.4235211287594736E-01 a       646     0    44     1     1
 -3.9235908931024810E-01 a       647     0    44     1     2
  4.3789998654635391E-02 a       648     0    44     1     3
 -6.8758543777349301E-02 a       649     0    44     1     4
  3.3281132890445220E-01 a       650     0    44     1     5
 -4.5561070015165639E-01 a       651     0    44     1     6
  3.8740115391194069E-01 a       652     0    44     1     7
  1.5603902896193515E-02 a       653     0    44     1     8
  2.1196930915158568E-01 a       654     0    44     1     9
  8.8597128605498954E-02 a       655     0    44     1    10
 -3.4456762828877563E-01 a       656     0    44     1    11
  2.2957289730992242E-01 a       657     0    44     1    12
 -3.6099715554270478E-01 a       658     0    44     1    13
  6.2227663184255011E-01 a       659     0    44     1    14
 -3.7565122531161582E-01 a       660     0    44     1    15
 -1.4142660626857625E-01 a       661     0    45     1     1
 -4.1669222216604673E-01 a       662     0    45     1     2
 -4.1831153466528914E-01 a       663     0    45     1     3
  7.0200566236609763E-01 a       664     0    45     1     4
  8.0866333248654787E-01 a       665     0    45     1     5
 -3.4453551952413464E-01 a       666     0    45     1     6
  2.2307202789733933E-02 a       667     0    45     1     7
  1.4459819521352502E-01 a       668     0    45     1     8
  6.0564934044285801E-01 a       669     0    45     1     9
  9.1985075106359027E-01 a       670     0    45     1    10
  3.0413178492357373E-01 a       671     0    45     1    11
  1.1150942953257210E-01 a       672     0    45     1    12
 -1.7696991892436792E-01 a       673     0    45     1    13
  7.2704335071010373E-01 a       674     0    45     1    14
  1.0968253383840170E+00 a       675     0    45     1    15
 -9.4793565203543356E-03 a       676     0    46     1     1
 -9.6914418844479711E-01 a       677     0    46     1     2
  1.3152430492336593E+00 a       678     0    46     1     3
 -2.6966322386481250E+00 a       679     0    46     1     4
  1.2742600899659229E+00 a       680     0    46     1     5
  3.5615411191055624E+00 a       681     0    46     1     6
 -2.2490793462605474E+00 a       682     0    46     1     7
 -6.6567394983600989E-03 a       683     0    46     1     8
  2.2341671479868110E+00 a       684     0    46     1     9
 -1.2627849124508945E+00 a       685     0    46     1    10
  1.0734679228194239E+00 a       686     0    46     1    11
  4.0950061353454309E-01 a       687     0    46     1    12
  2.6504870353082608E+00 a       688     0    46     1    13
 -1.9960141596879339E+00 a       689     0    46     1    14
  5.3506728078403487E-01 a       690     0    46     1    15
  4.8603489245427844E-02 a       691     0    47     1     1
 -6.6375000614159213E-02 a       692     0    47     1     2
  3.9963099865963403E-01 a       693     0    47     1     3
 -1.0513198385630256E+00 a       694     0    47     1     4
  3.0811503973044596E-01 a       695     0    47     1     5
 -2.7373818221858309E-01 a       696     0    47     1     6
  2.6344359611044804E-01 a       697     0    47     1     7
  1.0936614294256479E-02 a       698     0    47     1     8
  1.4720824649681336E-01 a       699     0    47     1     9
 -1.5165860358202204E-01 a       700     0    47     1    10
  9.0654410606865479E-02 a       701     0    47     1    11
  1.2059326802697412E-01 a       702     0    47     1    12
  6.1503849774536212E-01 a       703     0    47     1    13
 -6.1114130019609310E-03 a       704     0    47     1    14
  3.2721298573740487E-01 a       705     0    47     1    15
  3.5709455838726123E-01 a       706     0    48     1     1
  1.4321768472773155E-01 a       707     0    48     1     2
 -2.1602927684346857E-01 a       708     0    48     1     3
 -4.3259326891233885E-01 a       709     0    48     1     4
  1.5437093888418504E-01 a       710     0    48     1     5
 -7.2179195397299820E-02 a       711     0    48     1     6
  2.5889573092538803E-01 a       712     0    48     1     7
 -3.5874316266252912E-02 a       713     0    48     1     8
  8.9435453083799826E-02 a       714     0    48     1     9
  2.9719639775617451E-01 a       715     0    48     1    10
  3.4927795942587830E-01 a       716     0    48     1    11
 -6.5310313580848933E-02 a       717     0    48     1    12
  6.5628660530843186E-01 a       718     0    48     1    13
 -1.0146046911219023E-01 a       719     0    48     1    14
  5.2399502947908760E-01 a       720     0    48     1    15
 -3.5736193144921363E-01 a       721     0    49     1     1
  5.9855844255000346E-01 a       722     0    49     1     2
 -4.7001266002609471E-01 a       723     0    49     1     3
 -7.9740344071160452E-01 a       724     0    49     1     4
 -1.0249220282498956E+00 a       725     0    49     1     5
  1.4239019794440919E+00 a       726     0    49     1     6
 -1.2357011006072889E+00 a       727     0    49     1     7
  1.8181578741080068E-01 a       728     0    49     1     8
  1.0751780509169595E-01 a       729     0    49     1     9
 -1.8364312124228137E+00 a       730     0    49     1    10
 -6.7373771353973601E-03 a       731     0    49     1    11
  2.4511310315176570E-02 a       732     0    49     1    12
  1.4720549700821792E+00 a       733     0    49     1    13
 -1.0737810186084689E+00 a       734     0    49     1    14
 -5.0239984019684869E-01 a       735     0    49     1    15
  2.6682950386712784E-01 a       736     0    50     1     1
 -3.0007091941929031E-02 a       737     0    50     1     2
 -2.2658873986500233E-01 a       738     0    50     1     3
 -1.4953928952239706E-01 a       739     0    50     1     4
 -1.9012856310379936E-01 a       740     0    50     1     5
  2.3591320446774416E-01 a       741     0    50     1     6
 -2.8544111978374426E-01 a       742     0    50     1     7
  1.6019645042417804E-02 a       743     0    50     1     8
 -1.7097477467661668E-01 a       744     0    50     1     9
  9.9308118908564752E-02 a       745     0    50     1    10
 -2.9939125408250283E-01 a       746     0    50     1    11
 -5.3094563180086866E-02 a       747     0    50     1    12
  1.8744911001394302E-01 a       748     0    50     1    13
 -2.6214031411492950E-01 a       749     0    50     1    14
  3.0669168687263848E-01 a       750     0    50     1    15
 -8.8548749975823501E-02 a       751     0    51     1     1
  1.5287732183398231E-01 a       752     0    51     1     2
  1.0926874433332789E-01 a       753     0    51     1     3
  2.3800411876874217E-01 a       754     0    51     1     4
 -6.1288111969414938E-01 a       755     0    51     1     5
  3.2234742399147881E-01 a       756     0    51     1     6
  8.1523298390975014E-03 a       757     0    51     1     7
 -2.1698334317681162E-01 a       758     0    51     1     8
 -3.8425541632545818E-01 a       759     0    51     1     9
 -4.9100184484415671E-01 a       760     0    51     1    10
 -2.0262143120687023E-01 a       761     0    51     1    11
 -2.4682343018318803E-01 a       762     0    51     1    12
 -6.7492570119806039E-01 a       763     0    51     1    13
 -1.2801853174569267E-01 a       764     0    51     1    14
 -7.2943726245821716E-01 a       765     0    51     1    15
 -2.7702910051467405E-01 a       766     0    52     1     1
  4.8951917089807667E-01 a       767     0    52     1     2
  5.6583864248434113E-01 a       768     0    52     1     3
  2.4722760462929014E+00 a       769     0    52     1     4
 -2.5178362927462223E+00 a       770     0    52     1     5
 -8.0754009834595264E-01 a       771     0    52     1     6
  1.6050678362877975E+00 a       772     0    52     1     7
 -2.6969275262202252E-01 a       773     0    52     1     8
 -6.0964960010910285E-01 a       774     0    52     1     9
  3.7104165086730634E-01 a       775     0    52     1    10
 -1.3907485337208405E+00 a       776     0    52     1    11
 -1.6319718109210782E-01 a       777     0    52     1    12
 -3.3540261330619527E+00 a       778     0    52     1    13
 -9.8312073692540913E-01 a       779     0    52     1    14
 -9.2018524251429012E-01 a       780     0    52     1    15
 -1.3012310382966907E-01 a       781     0    53     1     1
 -1.5513650758631198E-01 a       782     0    53     1     2
  1.2528132643559037E-01 a       783     0    53     1     3
  1.4401900998913804E+00 a       784     0    53     1     4
  1.0185836586492082E-01 a       785     0    53     1     5
 -4.6307027686013878E-02 a       786     0    53     1     6
  3.0071151058157358E-02 a       787     0    53     1     7
 -2.2299301696595750E-02 a       788     0    53     1     8
  4.5352084318336913E-02 a       789     0    53     1     9
 -1.0189843810551985E-01 a       790     0    53     1    10
  2.8179546424852823E-02 a       791     0    53     1    11
  4.5720733674842038E-04 a       792     0    53     1    12
 -3.1920102505931564E-01 a       793     0    53     1    13
  1.3599617381008666E-01 a       794     0    53     1    14
  1.2599956494977582E-01 a       795     0    53     1    15
 -1.4706577072677374E-01 a       796     0    54     1     1
  2.3748155279717678E-01 a       797     0    54     1     2
 -2.9660866626626975E-01 a       798     0    54     1     3
 -3.4296708376585272E-01 a       799     0    54     1     4
 -7.8824335652961583E-02 a       800     0    54     1     5
 -2.4831988142654907E-01 a       801     0    54     1     6
  3.2889250697830841E-01 a       802     0    54     1     7
 -1.1683446399807350E-01 a       803     0    54     1     8
 -5.8221143840981983E-03 a       804     0    54     1     9
  1.8750458763533678E-01 a       805     0    54     1    10
 -5.1426721837105305E-01 a       806     0    54     1    11
 -1.8507457735445104E-01 a       807     0    54     1    12
  1.6993635242073257E-02 a       808     0    54     1    13
  2.7360553115471814E-01 a       809     0    54     1    14
  1.4722018482252849E-01 a       810     0    54     1    15
 -3.5045004156240767E-01 a       811     0    55     1     1
 -2.2935995970342873E-01 a       812     0    55     1     2
  3.5485104557725700E-01 a       813     0    55     1     3
 -8.5999495279807692E-01 a       814     0    55     1     4
  1.0620134499786265E+00 a       815     0    55     1     5
  2.2368298518660956E-01 a       816     0    55     1     6
 -5.6423149984983489E-01 a       817     0    55     1     7
 -3.7464387728245133E-02 a       818     0    55     1     8
  7.2253514142208708E-02 a       819     0    55     1     9
 -2.6444281439999168E-01 a       820     0    55     1    10
  3.7076828159828829E-01 a       821     0    55     1    11
 -1.0791234483878366E-01 a       822     0    55     1    12
  7.5453637526304174E-01 a       823     0    55     1    13
  3.3308796284063874E-01 a       824     0    55     1    14
  4.0735141254212459E-02 a       825     0    55     1    15
 -6.5985615513005733E-02 a       826     0    56     1     1
  3.1753952234852817E-01 a       827     0    56     1     2
 -7.9503676582719937E-02 a       828     0    56     1     3
 -5.2037421011664786E-01 a       829     0    56     1     4
 -1.4182844448983264E-01 a       830     0    56     1     5
 -2.3350919819999563E-02 a       831     0    56     1     6
 -1.4395917110297565E-01 a       832     0    56     1     7
  2.9616088704098726E-02 a       833     0    56     1     8
 -1.8286884901767376E-02 a       834     0    56     1     9
  7.6718475491210206E-02 a       835     0    56     1    10
 -2.9952117330774597E-01 a       836     0    56     1    11
 -5.4714838903991269E-03 a       837     0    56     1    12
  2.9589526515638981E-01 a       838     0    56     1    13
 -2.0667948557004104E-01 a       839     0    56     1    14
  2.3684613830256651E-01 a       840     0    56     1    15
  5.8795823669074210E-02 a       841     0    57     1     1
  1.2522865095289223E-01 a       842     0    57     1     2
  2.7234134758012929E-01 a       843     0    57     1     3
 -3.8749046385401575E-01 a       844     0    57     1     4
 -5.8329851878028804E-01 a       845     0    57     1     5
 -2.3622314407604483E-01 a       846     0    57     1     6
  2.6695969744491144E-01 a       847     0    57     1     7
  5.0263852413306401E-02 a       848     0    57     1     8
 -3.5259281277531277E-03 a       849     0    57     1     9
 -1.6771978355999734E-01 a       850     0    57     1    10
  3.0311843316294668E-01 a       851     0    57     1    11
  2.3561153922242707E-02 a       852     0    57     1    12
  3.4840095692854345E-01 a       853     0    57     1    13
 -1.9177696709412201E-01 a       854     0    57     1    14
 -4.0982214314259907E-01 a       855     0    57     1    15
  4.9539483877431700E-01 a       856     0    58     1     1
  2.5632304576551312E-01 a       857     0    58     1     2
 -2.5879420650258742E-03 a       858     0    58     1     3
  1.1073949446614568E+00 a       859     0    58     1     4
 -2.1095123172713146E+00 a       860     0    58     1     5
  4.9048378727370223E-02 a       861     0    58     1     6
  1.4629934460196667E+00 a       862     0    58     1     7
  1.5412181647027914E-01 a       863     0    58     1     8
  3.5670423210718269E-02 a       864     0    58     1     9
  3.6035136435172171E-01 a       865     0    58     1    10
 -4.0950245305710531E-01 a       866     0    58     1    11
 -9.6845218147960765E-02 a       867     0    58     1    12
 -8.6552115749873937E-01 a       868     0    58     1    13
 -4.8295616848004863E-01 a       869     0    58     1    14
 -4.8065784015855101E-01 a       870     0    58     1    15
 -4.4506324266455941E-02 a       871     0    59     1     1
  7.3605175783910551E-03 a       872     0    59     1     2
 -1.3964750010145099E-01 a       873     0    59     1     3
 -1.7835051851398123E+00 a       874     0    59     1     4
 -1.3017308531648156E-01 a       875     0    59     1     5
  1.4861033669563939E-01 a       876     0    59     1     6
 -1.3014406590780117E-01 a       877     0    59     1     7
 -2.4501405633706702E-02 a       878     0    59     1     8
 -7.0531546358349947E-02 a       879     0    59     1     9
 -9.6581383086218317E-02 a       880     0    59     1    10
 -5.0059307763631888E-01 a       881     0    59     1    11
 -5.8796683822972054E-02 a       882     0    59     1    12
 -2.4568252860927947E-01 a       883     0    59     1    13
 -1.5899205417860048E-02 a       884     0    59     1    14
 -1.2795899357209650E-01 a       885     0    59     1    15
 -1.1366974572820357E-02 a       886     0    60     1     1
 -1.3612882172705451E-01 a       887     0    60     1     2
  2.1566853321466872E-01 a       888     0    60     1     3
  2.1555088028291536E-01 a       889     0    60     1     4
 -2.6436164284290918E-03 a       890     0    60     1     5
  1.3833713503100519E-02 a       891     0    60     1     6
 -1.1918199150041157E-01 a       892     0    60     1     7
  6.0896806494505018E-02 a       893     0    60     1     8
 -3.3564185499949002E-02 a       894     0    60     1     9
 -5.7568490912228938E-02 a       895     0    60     1    10
  1.7326374302334138E-01 a       896     0    60     1    11
  9.5295168012146145E-02 a       897     0    60     1    12
 -1.5198668700815203E-02 a       898     0    60     1    13
 -2.1439012020506583E-02 a       899     0    60     1    14
 -9.6798399772919080E-03 a       900     0    60     1    15
  1.0671576050364248E-01 a       901     0    61     1     1
 -4.2895173547256908E-02 a       902     0    61     1     2
  8.5501108644276499E-02 a       903     0    61     1     3
  5.9261509926722677E-01 a       904     0    61     1     4
  1.3732710149213389E-02 a       905     0    61     1     5
 -2.9751039050295608E-01 a       906     0    61     1     6
  4.2163873684136172E-01 a       907     0    61     1     7
 -4.2672960882972333E-04 a       908     0    61     1     8
 -1.2352698033915550E-01 a       909     0    61     1     9
  2.8841619043939071E-01 a       910     0    61     1    10
 -1.0457467209986009E-01 a       911     0    61     1    11
 -5.5149248656812997E-04 a       912     0    61     1    12
 -7.3947187683785875E-01 a       913     0    61     1    13
  2.6442465135965804E-01 a       914     0    61     1    14
 -6.2718033224713213E-02 a       915     0    61     1    15
  5.4381292074945223E-03 a       916     0    62     1     1
 -4.9121720625716229E-02 a       917     0    62     1     2
  1.9617393521658442E-02 a       918     0    62     1     3
  2.9196116390803806E-01 a       919     0    62     1     4
  1.1776852782022056E-02 a       920     0    62     1     5
 -1.9185237037496396E-02 a       921     0    62     1     6
  1.4330232737770751E-01 a       922     0    62     1     7
 -6.3013605650682012E-03 a       923     0    62     1     8
  3.7050326782691552E-02 a       924     0    62     1     9
  1.1055306640706478E-01 a       925     0    62     1    10
  2.6587230543467627E-01 a       926     0    62     1    11
 -2.0398545941693557E-02 a       927     0    62     1    12
  2.9057521068629969E-02 a       928     0    62     1    13
  1.0994337197246176E-01 a       929     0    62     1    14
 -1.7576466184711481E-01 a       930     0    62     1    15
  9.2097710071439617E-02 a       931     0    63     1     1
 -2.7513719440465410E-02 a       932     0    63     1     2
 -1.7719033053108679E-02 a       933     0    63     1     3
 -9.9266050109851706E-02 a       934     0    63     1     4
  2.4847729503286153E-01 a       935     0    63     1     5
  3.0880183490392583E-02 a       936     0    63     1     6
 -8.7550031417182039E-02 a       937     0    63     1     7
  3.1681596655823603E-02 a       938     0    63     1     8
  5.7570545077725986E-02 a       939     0    63     1     9
  1.7081641672529030E-01 a       940     0    63     1    10
  1.8514178192568659E-01 a       941     0    63     1    11
  8.5134409379518189E-02 a       942     0    63     1    12
  1.7983989863966775E-02 a       943     0    63     1    13
  4.6674495054120385E-02 a       944     0    63     1    14
  1.8752122195250104E-01 a       945     0    63     1    15
 -2.2433368345045854E-01 a       946     0    64     1     1
 -2.0524424554914977E-01 a       947     0    64     1     2
 -6.9837240352324512E-02 a       948     0    64     1     3
 -4.7796593672652238E-01 a       949     0    64     1     4
  1.0936656138084573E+00 a       950     0    64     1     5
 -6.5903532650472307E-01 a       951     0    64     1     6
 -9.2259995751345392E-01 a       952     0    64     1     7
 -7.3441373967955831E-02 a       953     0    64     1     8
 -5.3819294322621258E-01 a       954     0    64     1     9
 -5.9356955851268003E-02 a       955     0    64     1    10
  8.1309587206437231E-02 a       956     0    64     1    11
 -2.7336429957753660E-02 a       957     0    64     1    12
  4.1940955710941397E-01 a       958     0    64     1    13
  9.3943461927684380E-01 a       959     0    64     1    14
  3.5417801952654560E-01 a       960     0    64     1    15
 -3.4346345729899169E-01 b       961     1     1
 -8.1260471808497237E-01 b       962     1     2
  1.2747654302608363E-01 b       963     1     3
 -5.9536482135680480E-01 b       964     1     4
 -4.0735686719804626E-01 b       965     1     5
 -9.1371920331023970E-01 b       966     1     6
 -7.4498911420289360E-01 b       967     1     7
 -6.2811713044296313E-01 b       968     1     8
 -4.0080640397840867E-01 b       969     1     9
 -6.7917785396406427E-01 b       970     1    10
  1.3803707455045958E-01 b       971     1    11
  2.5526557948787214E-02 b       972     1    12
 -2.9392318299323122E-01 b       973     1    13
 -2.7700832490074589E-01 b       974     1    14
 -3.7362507635388502E-02 b       975     1    15
 -7.3831650053533104E-01 a       976     1     1     2     1
 -6.8842985242739418E-01 a       977     1     1     2     2
  9.6538179499133092E-01 a       978     1     1     2     3
 -1.8447121440569141E+00 a       979     1     1     2     4
  9.9923923514916968E-01 a       980     1     1     2     5
  7.5105778363615511E-02 a       981     1     1     2     6
  1.0688050892855614E+00 a       982     1     1     2     7
  1.0344771630660659E+00 a       983     1     1     2     8
  4.5906046557075436E-01 a       984     1     1     2     9
 -6.9429079270475580E-01 a       985     1     1     2    10
 -4.5334596767297169E-01 a       986     1     1     2    11
 -1.3152183551571905E-01 a       987     1     1     2    12
 -5.0164154549089202E-01 a       988     1     1     2    13
 -3.9903957072856916E-01 a       989     1     1     2    14
  6.1135119651161018E-01 a       990     1     1     2    15
  1.0085100103725553E+00 a       991     1     2     2     1
  2.2063383178998189E-01 a       992     1     2     2     2
  1.2252714378877425E+00 a       993     1     2     2     3
  6.0533517595524111E-01 a       994     1     2     2     4
  1.7108166086664098E+00 a       995     1     2     2     5
 -2.2203745855178733E-01 a       996     1     2     2     6
  6.1278688785895585E-01 a       997     1     2     2     7
  3.2226511707308669E-01 a       998     1     2     2     8
 -4.6949299706660319E-01 a       999     1     2     2     9
 -2.1640277990245522E+00 a      1000     1     2     2    10
  1.6006866011146146E+00 a      1001     1     2     2    11
 -8.0135023495973887E-02 a      1002     1     2     2    12
  2.1418859862176962E-01 a      1003     1     2     2    13
  6.2905052656642380E-01 a      1004     1     2     2    14
  5.6769011131797720E-01 a      1005     1     2     2    15
  6.6732504783756530E-01 a      1006     1     3     2     1
  8.4947503718553308E-01 a      1007     1     3     2     2
  4.9255978771051245E-01 a      1008     1     3     2     3
 -6.3826492835822657E-01 a      1009     1     3     2     4
  6.8584544292297411E-01 a      1010     1     3     2     5
 -2.2506280503008202E-01 a      1011     1     3     2     6
  2.6445967692616040E-01 a      1012     1     3     2     7
  6.6159091519738519E-02 a      1013     1     3     2     8
  1.3721324745503807E-01 a      1014     1     3     2     9
 -7.1329707973275214E-01 a      1015     1     3     2    10
 -1.8193665492929420E-01 a      1016     1     3     2    11
  5.3924412520531984E-01 a      1017     1     3     2    12
 -2.8224847255493068E-01 a      1018     1     3     2    13
 -7.9705304609688166E-01 a      1019     1     3     2    14
 -1.0318958860494899E-01 a      1020     1     3     2    15
  4.3332073589784481E-01 a      1021     1     4     2     1
  1.3991404233770380E-01 a      1022     1     4     2     2
  6.3746222588275669E-01 a      1023     1     4     2     3
 -6.8796489934793048E-01 a      1024     1     4     2     4
 -2.6691990755803802E-01 a      1025     1     4     2     5
 -7.8682082740398940E-01 a      1026     1     4     2     6
  9.4828654159149400E-02 a      1027     1     4     2     7
  4.4890617176642872E-01 a      1028     1     4     2     8
 -7.4254329289261733E-01 a      1029     1     4     2     9
  4.7014111773653711E-01 a      1030     1     4     2    10
 -2.0098354740303001E-01 a      1031     1     4     2    11
 -1.2514935809679544E+00 a      1032     1     4     2    12
 -1.0734812514724645E+00 a      1033     1     4     2    13
 -1.5271658960834091E+00 a      1034     1     4     2    14
 -1.4606446735323950E+00 a      1035     1     4     2    15
 -6.6604198413524685E-01 a      1036     1     5     2     1
  5.0345777548283632E-01 a      1037     1     5     2     2
  9.6125713437754179E-01 a      1038     1     5     2     3
  3.9530088067215746E-01 a      1039     1     5     2     4
 -2.3806329355448183E-01 a      1040     1     5     2     5
  9.2280327794390360E-01 a      1041     1     5     2     6
 -3.1421645626493666E-01 a      1042     1     5     2     7
 -6.3317318710924642E-01 a      1043     1     5     2     8
  4.9967031362360237E-01 a      1044     1     5     2     9
  2.1401013733773519E-01 a      1045     1     5     2    10
  5.1008842982133451E-01 a      1046     1     5     2    11
  1.3385282914074315E-01 a      1047     1     5     2    12
 -2.2599521399804912E-01 a      1048     1     5     2    13
  1.7270400561707797E-02 a      1049     1     5     2    14
 -5.9226236175800262E-01 a      1050     1     5     2    15
 -8.2879247716257642E-01 a      1051     1     6     2     1
 -1.4754724447481566E+00 a      1052     1     6     2     2
 -8.8947799367935387E-01 a      1053     1     6     2     3
 -8.3618821328056550E-02 a      1054     1     6     2     4
  4.7353333682339160E-01 a      1055     1     6     2     5
  7.7384666612152364E-01 a      1056     1     6     2     6
  1.0964613094761464E+00 a      1057     1     6     2     7
 -2.2418690451856380E-01 a      1058     1     6     2     8
  4.7946328394013965E-01 a      1059     1     6     2     9
  5.6173129956214485E-01 a      1060     1     6     2    10
  1.0618595560847112E-01 a      1061     1     6     2    11
  8.8280002225991705E-01 a      1062     1     6     2    12
 -5.3627404703137493E-01 a      1063     1     6     2    13
 -1.5535611834873817E+00 a      1064     1     6     2    14
 -3.3455621658378853E-01 a      1065     1     6     2    15
 -8.7872346925043610E-01 a      1066     1     7     2     1
  4.9366742769058647E-01 a      1067     1     7     2     2
 -8.5103330453589351E-02 a      1068     1     7     2     3
 -2.9874825887772738E-01 a      1069     1     7     2     4
  1.2228154225246766E+00 a      1070     1     7     2     5
 -1.0101128118700850E-01 a      1071     1     7     2     6
  2.4261403607368928E-01 a      1072     1     7     2     7
 -7.0225748436499402E-01 a      1073     1     7     2     8
  2.3366230512699920E-01 a      1074     1     7     2     9
  1.5284838214359138E+00 a      1075     1     7     2    10
 -1.9495306080639199E-01 a      1076     1     7     2    11
 -5.7607878342243582E-02 a      1077     1     7     2    12
 -1.1711481487215221E-01 a      1078     1     7     2    13
 -3.6594846242682166E-01 a      1079     1     7     2    14
 -4.9918396502838230E-01 a      1080     1     7     2    15
  5.4582209732429487E-01 a      1081     1     8     2     1
  2.7622391563365084E-01 a      1082     1     8     2     2
 -2.1495564891862329E-02 a      1083     1     8     2     3
  5.7702301264193812E-01 a      1084     1     8     2     4
 -6.3597376141820894E-01 a      1085     1     8     2     5
  1.5796463708792039E+00 a      1086     1     8     2     6
 -1.1268062822115581E+00 a      1087     1     8     2     7
  2.5095775391759767E-01 a      1088     1     8     2     8
 -6.7135719320536746E-01 a      1089     1     8     2     9
 -9.3672276918480757E-01 a      1090     1     8     2    10
 -6.0067209480629502E-01 a      1091     1     8     2    11
  9.4126837948114850E-01 a      1092     1     8     2    12
  3.4280031728391791E-01 a      1093     1     8     2    13
  4.6567274592633670E-02 a      1094     1     8     2    14
  2.1035244804291339E-01 a      1095     1     8     2    15
  7.6302955668545436E-01 a      1096     1     9     2     1
  6.3515529437991358E-01 a      1097     1     9     2     2
 -9.3345916194191270E-01 a      1098     1     9     2     3
  3.8062864897258175E-01 a      1099     1     9     2     4
 -1.8545526723369039E+00 a      1100     1     9     2     5
 -7.1290566148689283E-01 a      1101     1     9     2     6
 -8.9191701634275516E-04 a      1102     1     9     2     7
 -3.1085008402128425E-02 a      1103     1     9     2     8
  5.4141014454792698E-02 a      1104     1     9     2     9
 -4.1033233792186541E-01 a      1105     1     9     2    10
 -3.4052794211441959E-02 a      1106     1     9     2    11
  4.3064001766487120E-01 a      1107     1     9     2    12
 -1.1076762118466636E-01 a      1108     1     9     2    13
  1.5926139720224153E+00 a      1109     1     9     2    14
 -3.1670879904779775E-01 a      1110     1     9     2    15
  5.5516904591930838E-01 a      1111     1    10     2     1
  6.0333743701426301E-01 a      1112     1    10     2     2
 -4.3277680410745822E-01 a      1113     1    10     2     3
  4.0471397241751822E-01 a      1114     1    10     2     4
 -6.1548275929699114E-01 a      1115     1    10     2     5
  1.0421844884549676E-01 a      1116     1    10     2     6
 -6.0863818728794294E-01 a      1117     1    10     2     7
 -5.6644201095622659E-01 a      1118     1    10     2     8
 -5.8748357690261521E-01 a      1119     1    10     2     9
 -7.1753824606941696E-01 a      1120     1    10     2    10
 -6.8010968001311300E-01 a      1121     1    10     2    11
 -1.2753100962939221E-01 a      1122     1    10     2    12
  1.5367909571921420E-01 a      1123     1    10     2    13
  3.1796197860333425E-01 a      1124     1    10     2    14
 -3.1825755975939490E-01 a      1125     1    10     2    15
 -5.1702981712592466E-01 a      1126     1    11     2     1
  3.7457115617489756E-01 a      1127     1    11     2     2
  1.4618304113588255E-02 a      1128     1    11     2     3
  1.2287029762366786E+00 a      1129     1    11     2     4
  2.3495802257602932E-02 a      1130     1    11     2     5
 -1.2957162005135084E-01 a      1131     1    11     2     6
  3.8330475869105957E-01 a      1132     1    11     2     7
 -4.4420917632922297E-01 a      1133     1    11     2     8
 -6.8313627963865520E-01 a      1134     1    11     2     9
  1.3878720137576277E+00 a      1135     1    11     2    10
 -8.2216661017320358E-01 a      1136     1    11     2    11
 -4.0443943757047884E-01 a      1137     1    11     2    12
 -4.2624799270485808E-01 a      1138     1    11     2    13
 -1.3203386671634658E+00 a      1139     1    11     2    14
 -6.2823719979020987E-01 a      1140     1    11     2    15
 -1.5425404723820302E-01 a      1141     1    12     2     1
 -3.5370977760940531E-01 a      1142     1    12     2     2
 -6.7153856320690333E-02 a      1143     1    12     2     3
 -6.3680607465419015E-01 a      1144     1    12     2     4
  5.2963860744718172E-01 a      1145     1    12     2     5
  2.6031223684613525E-01 a      1146     1    12     2     6
 -1.1961226314329620E+00 a      1147     1    12     2     7
  1.1647217857202792E+00 a      1148     1    12     2     8
 -4.4541767817703415E-01 a      1149     1    12     2     9
 -1.7873182205918858E-01 a      1150     1    12     2    10
 -8.2987684849319443E-01 a      1151     1    12     2    11
 -2.2095075848347803E-01 a      1152     1    12     2    12
  1.6461324860213635E+00 a      1153     1    12     2    13
  6.5134003452078171E-01 a      1154     1    12     2    14
  1.7511825856390073E+00 a      1155     1    12     2    15
 -2.0448774104895717E-01 a      1156     1    13     2     1
  1.6604944086446038E-01 a      1157     1    13     2     2
  3.9963414035952816E-01 a      1158     1    13     2     3
  8.4888160394702511E-02 a      1159     1    13     2     4
  2.0781166109073229E-01 a      1160     1    13     2     5
  3.9110785632680550E-01 a      1161     1    13     2     6
 -5.6390824312198551E-01 a      1162     1    13     2     7
  3.7357986860591336E-01 a      1163     1    13     2     8
  2.5441805499299325E-01 a      1164     1    13     2     9
 -4.4403148113863600E-01 a      1165     1    13     2    10
  6.1634080793234458E-01 a      1166     1    13     2    11
 -7.5962697825563377E-02 a      1167     1    13     2    12
  3.3231843633928038E-01 a      1168     1    13     2    13
  2.1230602412321803E-01 a      1169     1    13     2    14
  3.5252280925453655E-01 a      1170     1    13     2    15
  2.4131026597632269E-01 a      1171     1    14     2     1
 -5.3130036019584048E-01 a      1172     1    14     2     2
  2.3282535664595566E-01 a      1173     1    14     2     3
 -7.2546670434196836E-01 a      1174     1    14     2     4
  9.2048663826173194E-01 a      1175     1    14     2     5
 -4.4692013750688647E-01 a      1176     1    14     2     6
  9.5331819241715610E-01 a      1177     1    14     2     7
  3.6420340339868136E-02 a      1178     1    14     2     8
  3.1573568739494628E-01 a      1179     1    14     2     9
 -3.9188494629407117E-01 a      1180     1    14     2    10
  2.8719080408471657E-02 a      1181     1    14     2    11
 -8.0376050365160143E-02 a      1182     1    14     2    12
 -6.6430039583828515E-01 a      1183     1    14     2    13
  9.1523373545750103E-02 a      1184     1    14     2    14
 -1.6935358366150868E-01 a      1185     1    14     2    15
  1.6643966396429062E+00 a      1186     1    15     2     1
  1.4579986857576139E+00 a      1187     1    15     2     2
 -6.3154851309933324E-01 a      1188     1    15     2     3
 -1.3941104446906520E+00 a      1189     1    15     2     4
 -1.2708894389170127E-02 a      1190     1    15     2     5
 -9.6293608981147638E-01 a      1191     1    15     2     6
  6.2097773484716157E-01 a      1192     1    15     2     7
 -3.4933430414044658E-01 a      1193     1    15     2     8
  5.3918867722898856E-01 a      1194     1    15     2     9
 -1.5028894640105617E+00 a      1195     1    15     2    10
  2.0791350260314556E+00 a      1196     1    15     2    11
 -6.1177426057495876E-01 a      1197     1    15     2    12
 -1.1318918566071758E-01 a      1198     1    15     2    13
  8.9155438344662374E-01 a      1199     1    15     2    14
  1.4516699481834985E-01 a      1200     1    15     2    15
 -3.3390300515902593E-01 b      1201     2     1
 -1.1264962906409984E-01 b      1202     2     2
  7.5641471255646398E-01 b      1203     2     3
  1.0018010768028751E+00 b      1204     2     4
  6.2234016336105528E-02 b      1205     2     5
  6.2803829833894520E-01 b      1206     2     6
 -1.6304859233211524E+00 b      1207     2     7
  2.1756479209674905E-02 b      1208     2     8
  6.5054228663520541E-01 b      1209     2     9
 -7.7660374417449024E-02 b      1210     2    10
  1.2588430829305988E-01 b      1211     2    11
  7.4950728022109969E-01 b      1212     2    12
  1.4315327103496180E+00 b      1213     2    13
  2.5247517027483779E-01 b      1214     2    14
  2.3236789319883391E-01 b      1215     2    15
 -1.6454811289667939E-01 a      1216     2     1     3     1
 -9.4816749716243445E-02 a      1217     2     2     3     1
  4.7600309695009058E-01 a      1218     2     3     3     1
 -1.2146835983500083E-01 a      1219     2     4     3     1
 -4.0146127040720436E-01 a      1220     2     5     3     1
 -3.0694523375951305E-01 a      1221     2     6     3     1
 -5.1999972161845986E-01 a      1222     2     7     3     1
 -4.1981677514939747E-01 a      1223     2     8     3     1
 -3.5717134883807705E-01 a      1224     2     9     3     1
  1.2423354277145225E-01 a      1225     2    10     3     1
  1.6384753825770060E-01 a      1226     2    11     3     1
  2.9077604296990439E-01 a      1227     2    12     3     1
 -1.0810547155826877E+00 a      1228     2    13     3     1
 -5.1002242593539270E-02 a      1229     2    14     3     1
  7.4441049280717575E-01 a      1230     2    15     3     1
  7.7441175091310921E-01 b      1231     3     1
