################################################################################
# Neural network connection values (weights and biases).
################################################################################
# Col  Name       Description
################################################################################
# 1    connection Neural network connection value.
# 2    t          Connection type (a = weight, b = bias).
# 3    index      Index enumerating weights.
# 4    l_s        Starting point layer (end point layer for biases).
# 5    n_s        Starting point neuron in starting layer (end point neuron for biases).
# 6    l_e        End point layer.
# 7    n_e        End point neuron in end layer.
################################################################################
#                      1 2         3     4     5     6     7
#             connection t     index   l_s   n_s   l_e   n_e
############################################################
  3.5717019267291988E-01 a         1     0     1     1     1
 -4.9633044531395326E-01 a         2     0     1     1     2
 -3.5249689126726125E-01 a         3     0     1     1     3
 -4.4605636328324268E-02 a         4     0     1     1     4
 -8.2256525266289549E-01 a         5     0     1     1     5
 -3.3632779501815802E-01 a         6     0     1     1     6
  1.0138215498167085E+00 a         7     0     1     1     7
 -1.0156169812880218E+00 a         8     0     1     1     8
  8.8221789552171659E-01 a         9     0     1     1     9
  7.1574717194603055E-01 a        10     0     1     1    10
 -7.3076137453940981E-01 a        11     0     1     1    11
  1.3432757875014611E-01 a        12     0     1     1    12
  3.7568428941672638E-01 a        13     0     1     1    13
  7.6187591558881906E-01 a        14     0     1     1    14
  4.8414397400731890E-01 a        15     0     1     1    15
  6.2919463276755172E-01 a        16     0     2     1     1
  5.1725970202034102E+00 a        17     0     2     1     2
 -4.9710926850533985E+00 a        18     0     2     1     3
  2.6033381432186933E+00 a        19     0     2     1     4
 -6.5914570514355370E-02 a        20     0     2     1     5
  2.0437308862821046E-01 a        21     0     2     1     6
  9.7479844298747931E-01 a        22     0     2     1     7
 -1.2470053154087097E+00 a        23     0     2     1     8
  1.6101543657607567E+00 a        24     0     2     1     9
  2.3325493429439317E+00 a        25     0     2     1    10
  7.4506744821709686E-02 a        26     0     2     1    11
  2.1867352681540382E+00 a        27     0     2     1    12
  1.6137562474423075E+00 a        28     0     2     1    13
 -3.2872530053865306E-01 a        29     0     2     1    14
  1.1035287905415834E+00 a        30     0     2     1    15
  2.3157906113560262E-01 a        31     0     3     1     1
 -1.0054531100680968E-01 a        32     0     3     1     2
 -8.7073860266043857E-01 a        33     0     3     1     3
  2.8612162150892757E-04 a        34     0     3     1     4
 -1.5669276270335669E-01 a        35     0     3     1     5
 -1.6310332033619745E-01 a        36     0     3     1     6
 -5.1414082326899557E-01 a        37     0     3     1     7
 -3.8032890969371830E-01 a        38     0     3     1     8
 -5.8855837189187787E-01 a        39     0     3     1     9
 -4.6545192227662885E-01 a        40     0     3     1    10
  2.0314135349438261E-01 a        41     0     3     1    11
 -1.5408299293310232E-01 a        42     0     3     1    12
  8.8478653897404003E-01 a        43     0     3     1    13
 -2.4325088697355482E-01 a        44     0     3     1    14
 -6.4467388297759587E-01 a        45     0     3     1    15
 -1.7102601049624960E-01 a        46     0     4     1     1
 -3.2893341770918716E+00 a        47     0     4     1     2
  2.8115077460062703E+00 a        48     0     4     1     3
 -1.4385886722676946E+00 a        49     0     4     1     4
  1.2483505397956709E+00 a        50     0     4     1     5
  8.1578617553361432E-01 a        51     0     4     1     6
 -8.2332727361257974E-01 a        52     0     4     1     7
 -2.2010215824216584E-01 a        53     0     4     1     8
 -1.9795698513969535E+00 a        54     0     4     1     9
  2.6125992166079731E-01 a        55     0     4     1    10
 -1.3628359795434160E+00 a        56     0     4     1    11
 -8.7861656553946010E-01 a        57     0     4     1    12
  1.1025252442388329E+00 a        58     0     4     1    13
  8.8853532750081143E-01 a        59     0     4     1    14
  2.1976250684044190E+00 a        60     0     4     1    15
  1.2286211144211119E+00 a        61     0     5     1     1
  6.1908704524201413E-02 a        62     0     5     1     2
  3.4088324922038049E-01 a        63     0     5     1     3
 -1.8900057657165173E-01 a        64     0     5     1     4
  3.0741637089548490E-01 a        65     0     5     1     5
  3.0425757356517980E-01 a        66     0     5     1     6
  1.4307546890685000E-01 a        67     0     5     1     7
  4.6962508711883061E-01 a        68     0     5     1     8
  3.2636615557567283E-01 a        69     0     5     1     9
  5.6368246570478464E-01 a        70     0     5     1    10
  6.6815289401180603E-02 a        71     0     5     1    11
 -3.7531220347134109E-01 a        72     0     5     1    12
 -4.3046651477956399E-01 a        73     0     5     1    13
  1.8643767202630648E-01 a        74     0     5     1    14
  6.3871291206763214E-01 a        75     0     5     1    15
 -3.8544909541348016E-01 a        76     0     6     1     1
 -4.4940501174381904E+00 a        77     0     6     1     2
  4.1233524241511370E+00 a        78     0     6     1     3
 -2.1187507421921388E+00 a        79     0     6     1     4
  4.7705416448385241E-01 a        80     0     6     1     5
 -7.2780063859241650E-01 a        81     0     6     1     6
 -5.3317740003749670E-01 a        82     0     6     1     7
 -2.1007249035636169E+00 a        83     0     6     1     8
 -2.1983147208007505E+00 a        84     0     6     1     9
 -1.6824812802058904E+00 a        85     0     6     1    10
  1.5470733567421327E-01 a        86     0     6     1    11
 -1.9361630078876046E+00 a        87     0     6     1    12
 -1.5453131666540461E+00 a        88     0     6     1    13
  1.1799330629100373E+00 a        89     0     6     1    14
  1.0544297557877447E+00 a        90     0     6     1    15
  1.8341697155786543E-01 a        91     0     7     1     1
  3.7533828968715363E-02 a        92     0     7     1     2
  9.5400812603682983E-01 a        93     0     7     1     3
 -8.6779863568540130E-02 a        94     0     7     1     4
 -5.2303471544301594E-01 a        95     0     7     1     5
  7.6703696175785674E-01 a        96     0     7     1     6
 -1.5706672793904944E-01 a        97     0     7     1     7
 -3.6518675283345053E-01 a        98     0     7     1     8
 -2.6300432869533719E-01 a        99     0     7     1     9
  1.1706978134868777E-01 a       100     0     7     1    10
 -1.8307946766432623E-01 a       101     0     7     1    11
 -2.2634735253424337E-02 a       102     0     7     1    12
 -9.8743933081060420E-01 a       103     0     7     1    13
 -1.3320244090031164E+00 a       104     0     7     1    14
  1.1594650293070510E+00 a       105     0     7     1    15
 -4.7602945525957010E-03 a       106     0     8     1     1
  3.5934277362554830E+00 a       107     0     8     1     2
 -2.8936280393451379E+00 a       108     0     8     1     3
  2.0066233436173255E+00 a       109     0     8     1     4
 -3.7540299132065198E+00 a       110     0     8     1     5
 -3.0934233187723037E+00 a       111     0     8     1     6
  1.4212468333091000E+00 a       112     0     8     1     7
 -1.4943174646886974E+00 a       113     0     8     1     8
  2.4077101253257975E+00 a       114     0     8     1     9
  1.0663982108155665E+00 a       115     0     8     1    10
  3.5351382455337816E+00 a       116     0     8     1    11
  2.7768741192488061E-01 a       117     0     8     1    12
 -6.6668561903475676E-01 a       118     0     8     1    13
 -1.8474089427356355E+00 a       119     0     8     1    14
 -1.0871572425768783E+00 a       120     0     8     1    15
 -8.3726550379970144E-01 a       121     0     9     1     1
 -5.3043553278856341E-02 a       122     0     9     1     2
  5.7186248407942830E-01 a       123     0     9     1     3
  7.9027738858628804E-01 a       124     0     9     1     4
 -2.2331039907579714E-01 a       125     0     9     1     5
 -3.6409089827717411E-01 a       126     0     9     1     6
 -3.6412999801745038E-01 a       127     0     9     1     7
  4.9093769615396743E-01 a       128     0     9     1     8
 -5.5632606124004147E-01 a       129     0     9     1     9
  4.6196009931261392E-03 a       130     0     9     1    10
  2.1368113975819742E+00 a       131     0     9     1    11
 -5.3139540005641195E-01 a       132     0     9     1    12
 -4.9398183290761055E-01 a       133     0     9     1    13
  8.3731599795495626E-01 a       134     0     9     1    14
  4.8917367416680341E-01 a       135     0     9     1    15
  2.1740339812265312E+00 a       136     0    10     1     1
 -3.4259304802621569E+00 a       137     0    10     1     2
  1.3119597068950590E+00 a       138     0    10     1     3
 -1.1790618951121297E+00 a       139     0    10     1     4
  2.1327260238129564E+00 a       140     0    10     1     5
  3.5051359249035707E+00 a       141     0    10     1     6
 -4.2483875637892798E-01 a       142     0    10     1     7
  1.4811849487722755E+00 a       143     0    10     1     8
  1.0915414419839933E+00 a       144     0    10     1     9
  9.8906597980369537E-01 a       145     0    10     1    10
 -2.4539165391620559E+00 a       146     0    10     1    11
 -8.9421166658315698E-01 a       147     0    10     1    12
  1.2174591754120847E+00 a       148     0    10     1    13
  7.0217469452968517E-01 a       149     0    10     1    14
 -4.6522470238881358E-01 a       150     0    10     1    15
  5.4671377016161171E-01 a       151     0    11     1     1
 -3.8039719620046830E-01 a       152     0    11     1     2
 -1.7157436207808536E+00 a       153     0    11     1     3
 -1.0953043319806836E-01 a       154     0    11     1     4
  2.3332211828429414E-01 a       155     0    11     1     5
 -2.5749313524296946E-01 a       156     0    11     1     6
  6.6748588410807741E-01 a       157     0    11     1     7
  6.9383470653519264E-01 a       158     0    11     1     8
  1.0258217719963567E+00 a       159     0    11     1     9
 -7.6126225299307071E-01 a       160     0    11     1    10
 -2.8156366991567439E-01 a       161     0    11     1    11
  1.8999520801737932E-01 a       162     0    11     1    12
  3.8263849884844964E-01 a       163     0    11     1    13
  1.1854747718603258E+00 a       164     0    11     1    14
 -1.5376570551217178E-01 a       165     0    11     1    15
 -2.1120417081014926E+00 a       166     0    12     1     1
  8.8521250684131214E-01 a       167     0    12     1     2
 -3.2379405976332437E-01 a       168     0    12     1     3
  7.1681884666805440E-01 a       169     0    12     1     4
 -1.8009241633463411E+00 a       170     0    12     1     5
 -2.1100198354326913E+00 a       171     0    12     1     6
 -7.3903877836369403E-01 a       172     0    12     1     7
  2.4861811844794555E+00 a       173     0    12     1     8
 -2.2548477170562773E+00 a       174     0    12     1     9
 -1.9095717603311881E+00 a       175     0    12     1    10
 -5.5281356968954931E-01 a       176     0    12     1    11
  1.5979892518648653E-01 a       177     0    12     1    12
 -1.1205313846916292E+00 a       178     0    12     1    13
 -1.5713363615797560E+00 a       179     0    12     1    14
 -1.8893055064430666E+00 a       180     0    12     1    15
  5.4138772373521382E-02 a       181     0    13     1     1
 -1.2289837629976208E-01 a       182     0    13     1     2
  8.0602167088396992E-01 a       183     0    13     1     3
 -5.3731888358073343E-01 a       184     0    13     1     4
  1.4083237736105589E-01 a       185     0    13     1     5
  1.5592864753945235E-01 a       186     0    13     1     6
 -8.0167672851800498E-01 a       187     0    13     1     7
  6.6132579513189449E-01 a       188     0    13     1     8
  3.4677565538448102E-01 a       189     0    13     1     9
  1.3546784802577361E+00 a       190     0    13     1    10
 -5.5601565098224404E-01 a       191     0    13     1    11
 -5.9342641022638609E-01 a       192     0    13     1    12
 -4.1194769679842369E-01 a       193     0    13     1    13
  2.3932518912172568E-01 a       194     0    13     1    14
 -5.4171488205165341E-01 a       195     0    13     1    15
  7.2054382235620384E-01 a       196     0    14     1     1
  7.6669702801789488E-02 a       197     0    14     1     2
 -3.0581768437023621E-01 a       198     0    14     1     3
 -4.3417166022527587E-01 a       199     0    14     1     4
  4.0306375942906664E-01 a       200     0    14     1     5
  2.7834124407185284E-01 a       201     0    14     1     6
  5.6094712691558812E-01 a       202     0    14     1     7
 -1.3684617080430070E-01 a       203     0    14     1     8
  2.0903501840440444E-01 a       204     0    14     1     9
  8.3937369619075808E-01 a       205     0    14     1    10
  2.3781685888385917E-01 a       206     0    14     1    11
 -9.3361484052941882E-02 a       207     0    14     1    12
  4.8360782724960966E-01 a       208     0    14     1    13
  7.0301531276156903E-01 a       209     0    14     1    14
  1.2969656270881742E+00 a       210     0    14     1    15
 -3.1639174001421258E-02 a       211     0    15     1     1
  1.0309129747198281E-01 a       212     0    15     1     2
 -1.2139844825437415E-01 a       213     0    15     1     3
  1.0614068637879656E-01 a       214     0    15     1     4
 -1.8900778558586931E-01 a       215     0    15     1     5
 -2.2139707294584293E-02 a       216     0    15     1     6
  3.2643775497199694E-03 a       217     0    15     1     7
 -2.2153548202535475E-01 a       218     0    15     1     8
 -2.5443183923230067E-01 a       219     0    15     1     9
 -3.9543653759020714E-01 a       220     0    15     1    10
  2.2555258523905945E-02 a       221     0    15     1    11
  1.6983873504874866E-01 a       222     0    15     1    12
  1.6740182143126475E-01 a       223     0    15     1    13
 -4.0338666674683853E-02 a       224     0    15     1    14
 -1.1301797169445860E-01 a       225     0    15     1    15
 -6.9753920925495844E-02 a       226     0    16     1     1
 -4.8507304816187369E-02 a       227     0    16     1     2
  1.6534212424337225E-02 a       228     0    16     1     3
 -8.8170272674237660E-02 a       229     0    16     1     4
 -3.6186526968129823E-01 a       230     0    16     1     5
  1.0255081332254055E-02 a       231     0    16     1     6
 -2.0574450496389560E-01 a       232     0    16     1     7
  6.2596900358563176E-02 a       233     0    16     1     8
 -5.2115900912051503E-02 a       234     0    16     1     9
 -3.8655352535536436E-01 a       235     0    16     1    10
 -1.1265454611480184E-02 a       236     0    16     1    11
 -7.7855659328545809E-02 a       237     0    16     1    12
 -4.6337009812114999E-02 a       238     0    16     1    13
 -1.2214021498421473E-01 a       239     0    16     1    14
 -5.4790634109515846E-01 a       240     0    16     1    15
 -7.1325014036673670E-02 a       241     0    17     1     1
  5.8383157125935590E-03 a       242     0    17     1     2
 -3.4165328010836249E-01 a       243     0    17     1     3
 -1.0774057066964873E-01 a       244     0    17     1     4
 -1.2946209970547906E-01 a       245     0    17     1     5
 -5.6653807330694181E-02 a       246     0    17     1     6
 -2.7922821464576010E-02 a       247     0    17     1     7
 -5.5563899914331938E-01 a       248     0    17     1     8
 -1.0646448607825469E-01 a       249     0    17     1     9
 -2.9738271190515325E-01 a       250     0    17     1    10
 -1.1404704378637001E-01 a       251     0    17     1    11
 -6.1242218787803442E-02 a       252     0    17     1    12
  2.5875081570647840E-01 a       253     0    17     1    13
  7.0198043637384563E-02 a       254     0    17     1    14
 -3.9922156855726548E-01 a       255     0    17     1    15
 -2.5239113576897376E-01 a       256     0    18     1     1
 -3.7568416139505689E-01 a       257     0    18     1     2
 -3.6867020420719271E-01 a       258     0    18     1     3
  6.5343102788997620E-01 a       259     0    18     1     4
  5.5796895814718783E-01 a       260     0    18     1     5
 -5.0398485884695188E-01 a       261     0    18     1     6
  4.3468755397099873E-01 a       262     0    18     1     7
  3.2474294908137918E-01 a       263     0    18     1     8
 -9.4183445298349078E-01 a       264     0    18     1     9
  8.4686413019178919E-01 a       265     0    18     1    10
  8.3134535237465623E-01 a       266     0    18     1    11
  2.5691318307499811E-01 a       267     0    18     1    12
 -3.6255755586529576E-02 a       268     0    18     1    13
  7.8537618576718193E-01 a       269     0    18     1    14
 -1.0645572503011828E-01 a       270     0    18     1    15
 -6.7324555409666687E-01 a       271     0    19     1     1
  1.7436256906869427E-02 a       272     0    19     1     2
  7.6087995116463036E-01 a       273     0    19     1     3
  1.3717980828450729E+00 a       274     0    19     1     4
 -2.6642653100514608E+00 a       275     0    19     1     5
 -1.9422506885324298E+00 a       276     0    19     1     6
  9.1068773011977444E-01 a       277     0    19     1     7
  8.9367537059461843E-01 a       278     0    19     1     8
 -2.1105339578143137E-01 a       279     0    19     1     9
 -8.6071929901148048E-01 a       280     0    19     1    10
  3.0345329824766776E-01 a       281     0    19     1    11
  2.1269886544203409E+00 a       282     0    19     1    12
  2.6760048801023726E+00 a       283     0    19     1    13
  2.7424008014873618E+00 a       284     0    19     1    14
 -1.4016525825749682E+00 a       285     0    19     1    15
  2.5833831170480642E-01 a       286     0    20     1     1
 -1.5917687836962244E-01 a       287     0    20     1     2
  3.8504416795724988E-01 a       288     0    20     1     3
  4.5321305156664615E-01 a       289     0    20     1     4
  1.5732005385657574E-01 a       290     0    20     1     5
  7.0142773458569507E-02 a       291     0    20     1     6
  2.9280783310178204E-01 a       292     0    20     1     7
 -1.2704413557414257E-03 a       293     0    20     1     8
 -3.9612104033976508E-01 a       294     0    20     1     9
  1.0546967311245914E+00 a       295     0    20     1    10
  6.1678185904606297E-01 a       296     0    20     1    11
  4.9088568616587391E-01 a       297     0    20     1    12
 -1.1442943401537817E-02 a       298     0    20     1    13
  5.5896629665180927E-02 a       299     0    20     1    14
  1.4670428754713696E-01 a       300     0    20     1    15
 -8.3062071186154296E-01 a       301     0    21     1     1
  3.9993561751637452E-01 a       302     0    21     1     2
  6.1587872502297980E-01 a       303     0    21     1     3
  1.0361943368073683E+00 a       304     0    21     1     4
 -2.2734262100109040E-01 a       305     0    21     1     5
  3.1559718599038700E-01 a       306     0    21     1     6
 -6.0766251604018295E-01 a       307     0    21     1     7
 -6.4373994025431203E-01 a       308     0    21     1     8
 -7.2401056480735290E-02 a       309     0    21     1     9
 -6.7105648719834343E-01 a       310     0    21     1    10
  4.5538399287450032E-01 a       311     0    21     1    11
 -3.3629940712651873E-01 a       312     0    21     1    12
 -8.9337421882486434E-01 a       313     0    21     1    13
  1.0522977992541743E-01 a       314     0    21     1    14
 -1.6184298384070464E-01 a       315     0    21     1    15
  3.9307192773655776E-02 a       316     0    22     1     1
 -1.3144929901476252E+00 a       317     0    22     1     2
 -8.3925323685957443E-01 a       318     0    22     1     3
 -1.3940969510497732E+00 a       319     0    22     1     4
 -1.6325623744982105E+00 a       320     0    22     1     5
  2.4071939344890776E+00 a       321     0    22     1     6
  1.2169156997610922E+00 a       322     0    22     1     7
  1.1799507322531986E+00 a       323     0    22     1     8
 -1.9742029733400461E+00 a       324     0    22     1     9
 -8.4457776790017358E-01 a       325     0    22     1    10
 -6.2430210328965208E-01 a       326     0    22     1    11
 -2.5092754758978932E+00 a       327     0    22     1    12
 -2.1390469182181913E+00 a       328     0    22     1    13
 -1.4286454838432625E+00 a       329     0    22     1    14
  7.6078791744879737E-01 a       330     0    22     1    15
  6.6061056751677436E-02 a       331     0    23     1     1
 -5.1302334124174363E-02 a       332     0    23     1     2
  1.3380987617788448E-01 a       333     0    23     1     3
 -1.0547638614034441E-01 a       334     0    23     1     4
 -4.6674419287796975E-02 a       335     0    23     1     5
  4.5996377119751158E-02 a       336     0    23     1     6
  2.0902744174889465E-01 a       337     0    23     1     7
  2.9191688170790597E-01 a       338     0    23     1     8
  2.9863041375662897E-01 a       339     0    23     1     9
  8.9077762948938419E-02 a       340     0    23     1    10
 -8.2311648300171861E-02 a       341     0    23     1    11
 -8.9303985630375814E-04 a       342     0    23     1    12
 -1.8608749096852520E-01 a       343     0    23     1    13
 -3.0666104549300618E-02 a       344     0    23     1    14
  2.4752074770621749E-01 a       345     0    23     1    15
  3.6170143110331798E-01 a       346     0    24     1     1
  1.9073693304115596E-01 a       347     0    24     1     2
  6.0362874330582128E-02 a       348     0    24     1     3
 -5.6676323331236722E-01 a       349     0    24     1     4
 -5.4464758130517443E-01 a       350     0    24     1     5
  6.0887193104054516E-01 a       351     0    24     1     6
 -6.3284676543715546E-01 a       352     0    24     1     7
  1.1082600763449626E+00 a       353     0    24     1     8
 -5.0084623071030725E-02 a       354     0    24     1     9
 -6.6981971270240970E-01 a       355     0    24     1    10
 -3.2960207911075545E-01 a       356     0    24     1    11
 -3.2782965005805170E-01 a       357     0    24     1    12
  2.3028990580295985E-01 a       358     0    24     1    13
 -6.2621536241523212E-01 a       359     0    24     1    14
 -9.2381184202384337E-02 a       360     0    24     1    15
 -1.3408211926829401E+00 a       361     0    25     1     1
  8.2122627822208805E-01 a       362     0    25     1     2
  2.1584406889627327E-02 a       363     0    25     1     3
 -6.2917998143564147E-01 a       364     0    25     1     4
  2.5264399914128157E+00 a       365     0    25     1     5
  5.8842560187846626E-01 a       366     0    25     1     6
 -1.1972323405179663E+00 a       367     0    25     1     7
  4.5844691458673315E-01 a       368     0    25     1     8
  2.2372380780250675E-01 a       369     0    25     1     9
 -5.9050665061235752E-01 a       370     0    25     1    10
  3.8628571917300125E-01 a       371     0    25     1    11
 -1.1006793471517364E+00 a       372     0    25     1    12
 -1.4757002316218506E+00 a       373     0    25     1    13
 -1.1734503771448674E+00 a       374     0    25     1    14
  1.8012013167111196E+00 a       375     0    25     1    15
 -3.9574666812386305E-01 a       376     0    26     1     1
  1.4674890596251836E-01 a       377     0    26     1     2
 -7.9210764783124402E-02 a       378     0    26     1     3
 -6.0308177667873553E-01 a       379     0    26     1     4
  5.4118886990705918E-02 a       380     0    26     1     5
 -4.4912474837359384E-02 a       381     0    26     1     6
 -1.8453583667444973E-01 a       382     0    26     1     7
  1.0752889250823844E-01 a       383     0    26     1     8
  5.3849576028527779E-01 a       384     0    26     1     9
 -7.2411112048545778E-01 a       385     0    26     1    10
 -6.2731653905008644E-01 a       386     0    26     1    11
 -4.8105606888989128E-01 a       387     0    26     1    12
 -2.7080244056608205E-01 a       388     0    26     1    13
  3.0630348963957717E-02 a       389     0    26     1    14
 -8.4375829735964636E-02 a       390     0    26     1    15
 -6.1770753584741533E-01 a       391     0    27     1     1
  3.2686798817527984E-01 a       392     0    27     1     2
  3.4777550584355976E-01 a       393     0    27     1     3
 -8.1727626542646070E-01 a       394     0    27     1     4
  1.0526334601784106E+00 a       395     0    27     1     5
 -2.1613069248318401E-01 a       396     0    27     1     6
 -1.2585061052369781E-01 a       397     0    27     1     7
 -8.5843694698459469E-02 a       398     0    27     1     8
  2.3977059289392760E-01 a       399     0    27     1     9
 -3.5112041198835747E-01 a       400     0    27     1    10
  2.1420999937186200E-01 a       401     0    27     1    11
  4.9273767467325585E-01 a       402     0    27     1    12
  9.4793061008921264E-02 a       403     0    27     1    13
 -5.2780837306170125E-01 a       404     0    27     1    14
  2.8786798366816913E-01 a       405     0    27     1    15
  8.0863704743165443E-01 a       406     0    28     1     1
 -1.2612776848777008E+00 a       407     0    28     1     2
  9.4089861880708170E-01 a       408     0    28     1     3
 -1.3370501101471206E+00 a       409     0    28     1     4
  2.6227318726725962E-01 a       410     0    28     1     5
 -1.7461749394783959E+00 a       411     0    28     1     6
 -6.7973745723291978E-01 a       412     0    28     1     7
 -2.7569397399075224E-01 a       413     0    28     1     8
  2.8679053466517237E+00 a       414     0    28     1     9
  8.3710981104016147E-01 a       415     0    28     1    10
 -4.5269805903037252E-01 a       416     0    28     1    11
  1.9016267827866104E-01 a       417     0    28     1    12
 -7.1245579842178819E-01 a       418     0    28     1    13
 -7.5790253566673194E-01 a       419     0    28     1    14
 -5.0288171813000542E+00 a       420     0    28     1    15
  1.5988444387685297E-01 a       421     0    29     1     1
  1.4854235316073272E-01 a       422     0    29     1     2
  5.5998390681339061E-01 a       423     0    29     1     3
 -2.0613199189583054E-01 a       424     0    29     1     4
  4.2568346949269292E-01 a       425     0    29     1     5
 -5.5170688429976383E-02 a       426     0    29     1     6
 -3.0663350257227162E-01 a       427     0    29     1     7
 -1.0001628732533775E-01 a       428     0    29     1     8
 -3.0818327086622627E-01 a       429     0    29     1     9
 -4.8566288289722342E-02 a       430     0    29     1    10
 -1.9560922580909790E-02 a       431     0    29     1    11
 -9.7046643261584298E-02 a       432     0    29     1    12
 -4.1367040899085905E-01 a       433     0    29     1    13
 -3.1398898554440424E-01 a       434     0    29     1    14
  5.1878334199741638E-01 a       435     0    29     1    15
 -5.2892365782403727E-01 a       436     0    30     1     1
  7.0538281387131740E-01 a       437     0    30     1     2
  5.4577197828781387E-01 a       438     0    30     1     3
 -4.8427481783722243E-01 a       439     0    30     1     4
  4.3649276057807090E-01 a       440     0    30     1     5
 -1.9842678113925777E-01 a       441     0    30     1     6
  1.0041376805804543E-01 a       442     0    30     1     7
  1.1719442312396144E+00 a       443     0    30     1     8
  2.1585126608827651E-01 a       444     0    30     1     9
 -1.8557094603477653E-01 a       445     0    30     1    10
  2.3183981133651579E-01 a       446     0    30     1    11
 -2.8054976642624574E-01 a       447     0    30     1    12
 -2.9855723072350336E-03 a       448     0    30     1    13
  7.1224108591598101E-01 a       449     0    30     1    14
 -5.6617860777948092E-01 a       450     0    30     1    15
  1.5954466688973343E+00 a       451     0    31     1     1
 -3.8976740554430400E-01 a       452     0    31     1     2
 -3.6365821295414891E-01 a       453     0    31     1     3
  1.6997678404715522E-01 a       454     0    31     1     4
  3.8661725225820680E+00 a       455     0    31     1     5
  1.0674214183607138E+00 a       456     0    31     1     6
  9.9977506133978822E-01 a       457     0    31     1     7
 -1.0156088844761602E+00 a       458     0    31     1     8
 -3.3522806940677863E-01 a       459     0    31     1     9
  9.8849650266886446E-01 a       460     0    31     1    10
  2.2727525460154774E+00 a       461     0    31     1    11
  4.1999118179542966E-01 a       462     0    31     1    12
 -2.1188028992059280E+00 a       463     0    31     1    13
 -1.8483395945821163E-01 a       464     0    31     1    14
 -4.4443025322010206E+00 a       465     0    31     1    15
  6.2129719958925092E-02 a       466     0    32     1     1
  6.7147686918125034E-03 a       467     0    32     1     2
 -6.2699387588431577E-01 a       468     0    32     1     3
 -4.0238824695754838E-01 a       469     0    32     1     4
 -3.3061926160714067E-01 a       470     0    32     1     5
  1.9075325576417082E-01 a       471     0    32     1     6
 -1.3917859239187561E-01 a       472     0    32     1     7
  4.2581852047386082E-01 a       473     0    32     1     8
  3.2984661872344723E-01 a       474     0    32     1     9
 -8.4748042397484491E-01 a       475     0    32     1    10
 -6.1370788559481326E-01 a       476     0    32     1    11
  1.1300499615528993E-01 a       477     0    32     1    12
  5.5709950151092213E-01 a       478     0    32     1    13
 -4.2386150459681698E-01 a       479     0    32     1    14
 -5.2984427581535720E-01 a       480     0    32     1    15
  2.4126203154098677E-01 a       481     0    33     1     1
 -4.0304731534931426E-01 a       482     0    33     1     2
 -5.7615571093647489E-01 a       483     0    33     1     3
 -7.4311919069468091E-01 a       484     0    33     1     4
  8.2909856277546476E-02 a       485     0    33     1     5
  1.9344320559115938E-01 a       486     0    33     1     6
 -6.2472693569006710E-01 a       487     0    33     1     7
  2.2910061614391239E-01 a       488     0    33     1     8
 -2.9043915233591133E-01 a       489     0    33     1     9
 -2.4468160581397125E-01 a       490     0    33     1    10
 -1.1144792443251088E+00 a       491     0    33     1    11
  1.6431111107002935E-01 a       492     0    33     1    12
  1.0409693289748718E+00 a       493     0    33     1    13
 -6.1559091817371803E-01 a       494     0    33     1    14
 -1.0211724932720583E+00 a       495     0    33     1    15
  2.8484296365625510E+00 a       496     0    34     1     1
  4.8212130710995682E-01 a       497     0    34     1     2
 -5.0276130787674445E-01 a       498     0    34     1     3
  1.1965286332016076E+00 a       499     0    34     1     4
 -2.4962514888734870E+00 a       500     0    34     1     5
  6.3372947086799181E-01 a       501     0    34     1     6
 -1.1350796270307739E+00 a       502     0    34     1     7
 -1.3705989818176882E+00 a       503     0    34     1     8
  1.1996862583256822E+00 a       504     0    34     1     9
 -9.8413630259293505E-01 a       505     0    34     1    10
  3.3800117519135919E-02 a       506     0    34     1    11
 -9.8741524065573016E-01 a       507     0    34     1    12
  3.7089850768235888E-01 a       508     0    34     1    13
 -5.7970098610129186E-03 a       509     0    34     1    14
  1.3616992968429444E+00 a       510     0    34     1    15
 -6.5772842763296382E-02 a       511     0    35     1     1
  3.3730654845004794E-02 a       512     0    35     1     2
 -2.7430565348114239E-01 a       513     0    35     1     3
  2.3933998496977499E-01 a       514     0    35     1     4
 -5.5995231661580103E-02 a       515     0    35     1     5
 -3.5503198885743409E-02 a       516     0    35     1     6
 -2.2356503433260222E-01 a       517     0    35     1     7
  2.5774858405402971E-03 a       518     0    35     1     8
 -9.6683922054089294E-02 a       519     0    35     1     9
  8.1276572346010975E-02 a       520     0    35     1    10
  1.2443281838314503E-01 a       521     0    35     1    11
  4.3676896452281601E-03 a       522     0    35     1    12
  2.4619243965155371E-01 a       523     0    35     1    13
  5.0731475054445058E-02 a       524     0    35     1    14
 -1.0672180111118254E-01 a       525     0    35     1    15
  6.1431972122019030E-01 a       526     0    36     1     1
 -1.8273112477678125E-01 a       527     0    36     1     2
 -2.9446719339212651E-02 a       528     0    36     1     3
  1.1100411501785341E-01 a       529     0    36     1     4
  2.1820141153297692E-01 a       530     0    36     1     5
 -3.2974318339179925E-01 a       531     0    36     1     6
  5.3834895556638596E-01 a       532     0    36     1     7
 -1.0116149247227495E-02 a       533     0    36     1     8
  4.9838214111826235E-01 a       534     0    36     1     9
  8.9863843179608516E-01 a       535     0    36     1    10
  3.9393629271234387E-01 a       536     0    36     1    11
  1.7108357474770766E-01 a       537     0    36     1    12
 -3.7000028486094982E-01 a       538     0    36     1    13
  2.8271186927520398E-01 a       539     0    36     1    14
  1.1467105069007873E-01 a       540     0    36     1    15
  1.2553955371437109E+00 a       541     0    37     1     1
  4.0897684149307512E-01 a       542     0    37     1     2
  7.0707009149105926E-01 a       543     0    37     1     3
  9.9540074342390206E-01 a       544     0    37     1     4
 -2.3130080625135330E-01 a       545     0    37     1     5
  1.7211397486294575E-01 a       546     0    37     1     6
 -1.4714989582908482E+00 a       547     0    37     1     7
 -7.7119165685371893E-01 a       548     0    37     1     8
 -6.0575271891314253E-01 a       549     0    37     1     9
  1.5821791860557484E+00 a       550     0    37     1    10
  4.8704021983880941E-01 a       551     0    37     1    11
  1.6041517911444538E+00 a       552     0    37     1    12
  1.4749627560059746E+00 a       553     0    37     1    13
 -9.6096072135738586E-01 a       554     0    37     1    14
  2.1115839155125173E+00 a       555     0    37     1    15
  4.7942597510162821E-01 a       556     0    38     1     1
 -7.0173221126888119E-02 a       557     0    38     1     2
  1.4760438870414577E-03 a       558     0    38     1     3
  4.7280583146414645E-01 a       559     0    38     1     4
  4.6134639611356269E-02 a       560     0    38     1     5
 -1.2631475213560836E-01 a       561     0    38     1     6
  1.8755471510521457E-01 a       562     0    38     1     7
 -3.6123284796998273E-01 a       563     0    38     1     8
 -2.4002712413372002E-01 a       564     0    38     1     9
  6.3115965070427071E-01 a       565     0    38     1    10
  3.1596812716477442E-02 a       566     0    38     1    11
  2.3685680538786774E-01 a       567     0    38     1    12
 -1.2976407511333822E-04 a       568     0    38     1    13
  2.1364272769088058E-01 a       569     0    38     1    14
  3.2415207046566707E-01 a       570     0    38     1    15
 -3.3876180766815528E-01 a       571     0    39     1     1
 -6.7737366299894996E-03 a       572     0    39     1     2
 -4.4753798278019991E-01 a       573     0    39     1     3
  3.1586329181328349E-01 a       574     0    39     1     4
 -5.5934951292660318E-01 a       575     0    39     1     5
 -1.4139439280492308E-01 a       576     0    39     1     6
  6.8369701333077804E-01 a       577     0    39     1     7
 -1.9237167483236051E-01 a       578     0    39     1     8
  4.9471400065629051E-01 a       579     0    39     1     9
 -3.2415785974463435E-01 a       580     0    39     1    10
 -5.3748723728383041E-01 a       581     0    39     1    11
 -9.0181527514052694E-03 a       582     0    39     1    12
 -9.2426678942617288E-02 a       583     0    39     1    13
  2.4567758771254630E-01 a       584     0    39     1    14
 -1.9819420502915819E-01 a       585     0    39     1    15
 -1.2458805038579788E+00 a       586     0    40     1     1
  2.3265669603455623E+00 a       587     0    40     1     2
 -6.8609434695445970E-01 a       588     0    40     1     3
 -1.5341886307316216E-01 a       589     0    40     1     4
  6.5106290685816137E-01 a       590     0    40     1     5
  8.3328242431705379E-01 a       591     0    40     1     6
  5.6192573182090899E-01 a       592     0    40     1     7
  1.9461802219691058E+00 a       593     0    40     1     8
 -1.9711456281039810E+00 a       594     0    40     1     9
 -6.0695416643637567E-01 a       595     0    40     1    10
 -1.0832463038024485E+00 a       596     0    40     1    11
  1.4375662297834069E+00 a       597     0    40     1    12
  1.5794640249648952E+00 a       598     0    40     1    13
 -3.0242860437694152E-01 a       599     0    40     1    14
  2.0840285850014997E+00 a       600     0    40     1    15
 -1.9964919548187007E-01 a       601     0    41     1     1
  2.6957633159863520E-02 a       602     0    41     1     2
 -4.7222099733902012E-01 a       603     0    41     1     3
  1.4003474795811011E-01 a       604     0    41     1     4
 -1.6219192883111860E-01 a       605     0    41     1     5
  1.6912313698776169E-01 a       606     0    41     1     6
  2.2118053565419252E-01 a       607     0    41     1     7
  4.7653444905664510E-01 a       608     0    41     1     8
 -1.6045007923449819E-01 a       609     0    41     1     9
 -2.1308855425924403E-01 a       610     0    41     1    10
  3.5885136124128518E-02 a       611     0    41     1    11
 -1.3050135546898312E-01 a       612     0    41     1    12
  2.6790436765826636E-01 a       613     0    41     1    13
  3.9370508861005543E-01 a       614     0    41     1    14
 -2.0322059355330957E-01 a       615     0    41     1    15
 -1.7209163595665197E-01 a       616     0    42     1     1
  1.0242747698185353E-01 a       617     0    42     1     2
  5.2369322034093158E-01 a       618     0    42     1     3
  1.1058902821985472E+00 a       619     0    42     1     4
 -5.9029810603561128E-01 a       620     0    42     1     5
  2.7884071841122154E-01 a       621     0    42     1     6
 -1.1076395044509069E+00 a       622     0    42     1     7
 -7.2460180641060545E-01 a       623     0    42     1     8
 -6.9862914319703251E-01 a       624     0    42     1     9
 -6.5687795396459181E-01 a       625     0    42     1    10
  7.3872585914289357E-01 a       626     0    42     1    11
 -1.8892406610468213E-01 a       627     0    42     1    12
 -3.5024896158108984E-02 a       628     0    42     1    13
 -4.3455776836637477E-01 a       629     0    42     1    14
  9.6539405152105440E-01 a       630     0    42     1    15
 -8.9808598701305087E-01 a       631     0    43     1     1
  2.9029111672980057E-01 a       632     0    43     1     2
  5.6435730062382394E-01 a       633     0    43     1     3
 -1.9645582883883326E+00 a       634     0    43     1     4
 -2.3581067026520337E+00 a       635     0    43     1     5
 -3.0800067789257018E-01 a       636     0    43     1     6
  2.8868347362041041E-01 a       637     0    43     1     7
  2.6400365769135847E+00 a       638     0    43     1     8
  3.4352110283444777E+00 a       639     0    43     1     9
 -2.0593862292391223E+00 a       640     0    43     1    10
 -9.7682852090661076E-01 a       641     0    43     1    11
  1.2927947172033092E+00 a       642     0    43     1    12
  3.5276252407058434E-01 a       643     0    43     1    13
  5.6668562387317678E-01 a       644     0    43     1    14
 -1.7626695866517834E+00 a       645     0    43     1    15
  2.5677127694497848E-01 a       646     0    44     1     1
 -1.0350981928691246E-01 a       647     0    44     1     2
  3.9328892847790731E-01 a       648     0    44     1     3
  2.0313573897086529E-01 a       649     0    44     1     4
 -8.1270182499038682E-03 a       650     0    44     1     5
 -2.3554533468289657E-01 a       651     0    44     1     6
  6.5462147338412338E-02 a       652     0    44     1     7
 -6.4896822893130243E-02 a       653     0    44     1     8
  3.4762345496505129E-02 a       654     0    44     1     9
  5.9860192265944712E-01 a       655     0    44     1    10
 -1.1389399231872517E-01 a       656     0    44     1    11
  3.2400693557868165E-01 a       657     0    44     1    12
 -1.2755272073882332E-01 a       658     0    44     1    13
 -6.0557466093047085E-01 a       659     0    44     1    14
  2.3630226206162119E-01 a       660     0    44     1    15
  7.0591831266702409E-01 a       661     0    45     1     1
 -7.7995566672574360E-02 a       662     0    45     1     2
  2.4146497695354954E-01 a       663     0    45     1     3
 -3.7622392810611555E-01 a       664     0    45     1     4
  2.0403594953377899E-01 a       665     0    45     1     5
 -3.2992114165866997E-02 a       666     0    45     1     6
 -3.9800103201701009E-01 a       667     0    45     1     7
 -1.9664743981305985E-01 a       668     0    45     1     8
  6.6963166955708375E-01 a       669     0    45     1     9
 -1.7084272993347036E-01 a       670     0    45     1    10
  9.5080148928637490E-02 a       671     0    45     1    11
 -1.0882176449594383E-01 a       672     0    45     1    12
 -3.1989715665774021E-01 a       673     0    45     1    13
 -7.3939154377959770E-01 a       674     0    45     1    14
 -3.7286063428023514E-01 a       675     0    45     1    15
 -1.0753458976056856E+00 a       676     0    46     1     1
 -6.1016109291940546E-01 a       677     0    46     1     2
  2.7696065402682585E-01 a       678     0    46     1     3
 -7.3475013859361626E-01 a       679     0    46     1     4
  2.0850495910729205E-01 a       680     0    46     1     5
 -1.3009136408966857E-01 a       681     0    46     1     6
  3.8440422099112481E-01 a       682     0    46     1     7
 -1.5840537942930399E+00 a       683     0    46     1     8
 -2.2589752161164376E+00 a       684     0    46     1     9
  2.3943318592354825E+00 a       685     0    46     1    10
  2.5606343020773532E+00 a       686     0    46     1    11
 -8.3366350217202478E-01 a       687     0    46     1    12
  3.6359955624307383E-01 a       688     0    46     1    13
 -1.5739491883205983E-01 a       689     0    46     1    14
  3.4015649243221846E+00 a       690     0    46     1    15
  3.0722079287220255E-01 a       691     0    47     1     1
 -3.8651260638539436E-02 a       692     0    47     1     2
  2.3510202737416158E-01 a       693     0    47     1     3
 -3.4017035982855687E-01 a       694     0    47     1     4
  2.9792916735013743E-02 a       695     0    47     1     5
 -9.5742958709316445E-03 a       696     0    47     1     6
  2.9123121893795656E-01 a       697     0    47     1     7
  1.8426902912727212E-02 a       698     0    47     1     8
  5.0023524342016318E-02 a       699     0    47     1     9
 -9.0010110410110894E-02 a       700     0    47     1    10
  4.7104716830403334E-02 a       701     0    47     1    11
  6.2034767138107565E-02 a       702     0    47     1    12
 -1.4158502087841249E-01 a       703     0    47     1    13
  1.7690035523479176E-02 a       704     0    47     1    14
  8.1536701657021898E-03 a       705     0    47     1    15
 -3.2710786407389991E-01 a       706     0    48     1     1
 -6.4311588170886558E-02 a       707     0    48     1     2
 -1.1819220342495619E-01 a       708     0    48     1     3
 -2.1576924220893617E-01 a       709     0    48     1     4
  2.8010460668926002E-01 a       710     0    48     1     5
  1.2145392067814517E-03 a       711     0    48     1     6
  4.5089003850185427E-01 a       712     0    48     1     7
 -3.3278962805163453E-01 a       713     0    48     1     8
  3.3229435114118450E-01 a       714     0    48     1     9
  1.0254345098554821E-01 a       715     0    48     1    10
 -3.8566742512403601E-01 a       716     0    48     1    11
  1.6250950260671224E-01 a       717     0    48     1    12
  1.3168453911691572E-01 a       718     0    48     1    13
 -3.4644469617762429E-02 a       719     0    48     1    14
 -3.3150730157783009E-01 a       720     0    48     1    15
  2.5553237578081145E-01 a       721     0    49     1     1
 -2.0447883427089872E-01 a       722     0    49     1     2
 -5.3013936034701559E-01 a       723     0    49     1     3
  4.6690474339345661E-01 a       724     0    49     1     4
  5.9147541827014216E-01 a       725     0    49     1     5
  3.1141951791824501E-01 a       726     0    49     1     6
  3.1996700314883519E-01 a       727     0    49     1     7
 -3.4124226474105773E-01 a       728     0    49     1     8
 -7.7930589586426569E-01 a       729     0    49     1     9
  5.6881455758084476E-01 a       730     0    49     1    10
 -3.5489812374098267E-01 a       731     0    49     1    11
 -8.4577007178493002E-01 a       732     0    49     1    12
 -1.6111819566423299E-01 a       733     0    49     1    13
  1.5368055405115461E-01 a       734     0    49     1    14
  1.8501492206866577E-01 a       735     0    49     1    15
 -2.5639860275268198E-02 a       736     0    50     1     1
  9.3594512948151229E-02 a       737     0    50     1     2
 -1.1759930381137629E-01 a       738     0    50     1     3
 -3.0689384922723090E-01 a       739     0    50     1     4
  4.2659923075588795E-02 a       740     0    50     1     5
  2.4867850283840951E-02 a       741     0    50     1     6
 -1.0346492786923261E-01 a       742     0    50     1     7
 -2.8926980797140955E-01 a       743     0    50     1     8
 -2.3847427931262438E-01 a       744     0    50     1     9
 -3.5128791914485730E-01 a       745     0    50     1    10
  2.9200602651912991E-02 a       746     0    50     1    11
 -2.2501513226807102E-01 a       747     0    50     1    12
  8.7123624232862601E-02 a       748     0    50     1    13
 -1.0045050329720040E-01 a       749     0    50     1    14
 -2.3274136417724806E-01 a       750     0    50     1    15
 -6.1174500768050155E-01 a       751     0    51     1     1
  2.0052388534979138E-01 a       752     0    51     1     2
  1.0355313885204118E-01 a       753     0    51     1     3
  2.3097720355227855E-01 a       754     0    51     1     4
  1.7646405202483006E-01 a       755     0    51     1     5
 -8.1528449428887220E-02 a       756     0    51     1     6
  1.2598550193691269E-01 a       757     0    51     1     7
 -2.6103803342076137E-01 a       758     0    51     1     8
 -6.4214286611298044E-01 a       759     0    51     1     9
  2.1564106618428597E-01 a       760     0    51     1    10
  2.8452587619503145E-01 a       761     0    51     1    11
  6.4925742752655363E-02 a       762     0    51     1    12
  8.1493360784776189E-02 a       763     0    51     1    13
  3.6880793974405268E-01 a       764     0    51     1    14
  1.1136252554686972E-01 a       765     0    51     1    15
 -6.2836316488257038E-01 a       766     0    52     1     1
 -1.5749989127747943E-01 a       767     0    52     1     2
 -9.2942363470734035E-02 a       768     0    52     1     3
  1.6622163615412828E+00 a       769     0    52     1     4
  1.8554713525662807E+00 a       770     0    52     1     5
 -7.0704607259878316E-01 a       771     0    52     1     6
 -5.8449227619526545E-01 a       772     0    52     1     7
 -1.2291477357343683E+00 a       773     0    52     1     8
  1.1212056349927939E+00 a       774     0    52     1     9
  1.8122063544090551E-02 a       775     0    52     1    10
 -1.2282242717041132E+00 a       776     0    52     1    11
 -2.3417537398063879E-02 a       777     0    52     1    12
 -9.0196746937453887E-01 a       778     0    52     1    13
  9.5018960575266309E-01 a       779     0    52     1    14
  1.2893734953367393E+00 a       780     0    52     1    15
  2.9590169790470738E-01 a       781     0    53     1     1
 -2.4876146600582030E-02 a       782     0    53     1     2
  1.4082465591060059E-01 a       783     0    53     1     3
 -6.9698299434440419E-02 a       784     0    53     1     4
 -9.5156235056607866E-03 a       785     0    53     1     5
 -7.2531986516675737E-02 a       786     0    53     1     6
 -9.8422124425515803E-02 a       787     0    53     1     7
 -1.0059147102868383E-01 a       788     0    53     1     8
  1.4455553960773193E-01 a       789     0    53     1     9
  1.9226407889607511E-01 a       790     0    53     1    10
 -2.5310064429352710E-02 a       791     0    53     1    11
  1.0693914180363617E-01 a       792     0    53     1    12
 -2.7007045913968486E-01 a       793     0    53     1    13
 -1.1621272082288517E-01 a       794     0    53     1    14
  8.7045382664098100E-02 a       795     0    53     1    15
 -6.0183139897259386E-01 a       796     0    54     1     1
  7.9062590093847245E-03 a       797     0    54     1     2
 -1.1175468019914361E-01 a       798     0    54     1     3
 -3.5132581973281241E-01 a       799     0    54     1     4
  3.6755434671335008E-01 a       800     0    54     1     5
 -1.3924716695131537E-01 a       801     0    54     1     6
  4.0996814873611825E-01 a       802     0    54     1     7
 -4.3333244545719712E-01 a       803     0    54     1     8
  1.5404609051989607E-01 a       804     0    54     1     9
 -1.1275286868232710E-01 a       805     0    54     1    10
 -3.6233360692945454E-01 a       806     0    54     1    11
  1.2566689433163419E-01 a       807     0    54     1    12
  1.7190292531836137E-02 a       808     0    54     1    13
 -2.0842508155206627E-01 a       809     0    54     1    14
 -5.0734523755288856E-02 a       810     0    54     1    15
 -4.8721461399829952E-01 a       811     0    55     1     1
 -3.6107308077676134E-02 a       812     0    55     1     2
  8.7806621111676357E-03 a       813     0    55     1     3
 -7.2680213288962611E-02 a       814     0    55     1     4
 -7.4893631205673450E-01 a       815     0    55     1     5
  9.8964684120599597E-02 a       816     0    55     1     6
 -2.4052859548626954E-01 a       817     0    55     1     7
 -1.4248772283258559E-01 a       818     0    55     1     8
 -1.5907034109250826E+00 a       819     0    55     1     9
 -1.4791716018521355E+00 a       820     0    55     1    10
  2.5373542372976354E-01 a       821     0    55     1    11
 -6.2225196005783578E-01 a       822     0    55     1    12
  1.2934307288613818E-03 a       823     0    55     1    13
 -1.7178010775507208E-01 a       824     0    55     1    14
  3.1313992706067557E+00 a       825     0    55     1    15
 -2.2688487312880587E-01 a       826     0    56     1     1
  4.0405028596080986E-02 a       827     0    56     1     2
 -1.2212217201927501E-01 a       828     0    56     1     3
 -1.0814872551235849E-01 a       829     0    56     1     4
  1.0085979082245644E-01 a       830     0    56     1     5
  4.1753838537257074E-02 a       831     0    56     1     6
 -4.5498424173922823E-02 a       832     0    56     1     7
 -1.5942283625057402E-01 a       833     0    56     1     8
 -1.2585874262922320E-01 a       834     0    56     1     9
 -2.3943963338761051E-01 a       835     0    56     1    10
  4.2455220664727338E-02 a       836     0    56     1    11
 -1.2160248748701633E-01 a       837     0    56     1    12
  1.8974792832697107E-01 a       838     0    56     1    13
  1.7740143205128819E-01 a       839     0    56     1    14
 -5.9087197554988154E-02 a       840     0    56     1    15
  2.4599649203599135E-03 a       841     0    57     1     1
  4.6163932958618786E-02 a       842     0    57     1     2
 -9.9015241021749689E-02 a       843     0    57     1     3
  3.9499872740681330E-01 a       844     0    57     1     4
  4.9572954680094095E-02 a       845     0    57     1     5
 -8.5312714876770446E-02 a       846     0    57     1     6
  2.7343266744137013E-01 a       847     0    57     1     7
  1.6014612011288271E-01 a       848     0    57     1     8
 -9.1560012979618605E-02 a       849     0    57     1     9
  3.4386804113078678E-01 a       850     0    57     1    10
  3.9769113820582486E-01 a       851     0    57     1    11
  1.3807539083629142E-01 a       852     0    57     1    12
  3.4691589552960048E-02 a       853     0    57     1    13
  3.2897666707759265E-01 a       854     0    57     1    14
  3.1954466688965605E-01 a       855     0    57     1    15
  3.2197902157135677E-01 a       856     0    58     1     1
  1.5132779706361241E-01 a       857     0    58     1     2
 -1.7031569302749047E-01 a       858     0    58     1     3
  7.9047327596935346E-01 a       859     0    58     1     4
  1.4681785037824444E+00 a       860     0    58     1     5
 -1.0112244630754925E-02 a       861     0    58     1     6
  2.2252653831755007E-01 a       862     0    58     1     7
 -1.9034618251619673E-01 a       863     0    58     1     8
  9.4644614908479296E-01 a       864     0    58     1     9
  1.9924942943129200E+00 a       865     0    58     1    10
 -4.9791495769990646E-01 a       866     0    58     1    11
 -1.7384813648102929E-01 a       867     0    58     1    12
 -1.4991285010398966E-01 a       868     0    58     1    13
  4.0922578735803954E-02 a       869     0    58     1    14
 -3.8517643617264530E+00 a       870     0    58     1    15
 -2.8505721001540552E-01 a       871     0    59     1     1
  2.1025922476399225E-02 a       872     0    59     1     2
 -8.8230643426604402E-02 a       873     0    59     1     3
  1.3104713118072089E-01 a       874     0    59     1     4
  4.5048120089517720E-03 a       875     0    59     1     5
  1.0648510028821580E-02 a       876     0    59     1     6
 -1.2448955092940854E-01 a       877     0    59     1     7
 -6.2802389892377686E-02 a       878     0    59     1     8
 -5.4733449581507713E-02 a       879     0    59     1     9
  1.5520398928441833E-02 a       880     0    59     1    10
 -2.7725266604514773E-02 a       881     0    59     1    11
 -2.9433219116974267E-02 a       882     0    59     1    12
  1.0223717215484114E-01 a       883     0    59     1    13
 -6.4991497935190490E-02 a       884     0    59     1    14
 -3.5918616974279824E-02 a       885     0    59     1    15
  1.9609257525483220E-01 a       886     0    60     1     1
  5.7530508555680586E-02 a       887     0    60     1     2
  2.1963262128566318E-02 a       888     0    60     1     3
  9.0253592719161030E-02 a       889     0    60     1     4
 -1.3931731274024997E-01 a       890     0    60     1     5
  4.9105052365134426E-02 a       891     0    60     1     6
 -2.4085764464783430E-01 a       892     0    60     1     7
  4.2511792634838519E-01 a       893     0    60     1     8
 -4.9989465422268564E-02 a       894     0    60     1     9
  3.0047457346151752E-03 a       895     0    60     1    10
  1.0224600406277619E-01 a       896     0    60     1    11
 -1.4980027777625346E-02 a       897     0    60     1    12
 -3.9443101361588288E-02 a       898     0    60     1    13
  9.1700407459362920E-02 a       899     0    60     1    14
  1.4133612412471380E-01 a       900     0    60     1    15
  2.2138961920438213E-01 a       901     0    61     1     1
  1.0049449093528698E-01 a       902     0    61     1     2
  6.3192853123732365E-02 a       903     0    61     1     3
 -2.0361297621887996E-02 a       904     0    61     1     4
  8.7470974713029268E-02 a       905     0    61     1     5
 -9.7894518963918820E-02 a       906     0    61     1     6
  8.1304043448935021E-02 a       907     0    61     1     7
 -1.7295277324792047E-01 a       908     0    61     1     8
  5.6409019931537363E-01 a       909     0    61     1     9
  1.4448465934785474E-02 a       910     0    61     1    10
 -4.3042626152595340E-02 a       911     0    61     1    11
  3.3832534178380369E-01 a       912     0    61     1    12
 -3.7803745334712882E-02 a       913     0    61     1    13
  4.5813339441232663E-02 a       914     0    61     1    14
 -1.4029444250371872E+00 a       915     0    61     1    15
  3.2011456100020444E-02 a       916     0    62     1     1
 -3.1988279148586762E-02 a       917     0    62     1     2
  2.1467700571788664E-02 a       918     0    62     1     3
  1.5017302125729651E-01 a       919     0    62     1     4
 -4.2712040694150445E-02 a       920     0    62     1     5
  2.2024467330048456E-02 a       921     0    62     1     6
  1.0313035740169162E-01 a       922     0    62     1     7
  1.2559122395260466E-01 a       923     0    62     1     8
  1.8685298181358237E-01 a       924     0    62     1     9
  1.1339020345897027E-01 a       925     0    62     1    10
  1.5654568948747404E-02 a       926     0    62     1    11
  5.8496535141310861E-02 a       927     0    62     1    12
 -1.8044241855126944E-01 a       928     0    62     1    13
  2.5344413711622449E-01 a       929     0    62     1    14
  7.5115618301571291E-02 a       930     0    62     1    15
  7.0695941148917502E-02 a       931     0    63     1     1
 -6.5747577728995713E-02 a       932     0    63     1     2
  5.2070939331915235E-03 a       933     0    63     1     3
 -1.4656293953515626E-01 a       934     0    63     1     4
 -5.7179212550114697E-02 a       935     0    63     1     5
  5.9362318815761907E-02 a       936     0    63     1     6
 -6.8535611543088792E-02 a       937     0    63     1     7
  1.0513303617877155E-01 a       938     0    63     1     8
  1.8414186674861802E-01 a       939     0    63     1     9
 -1.9507905257400415E-01 a       940     0    63     1    10
 -2.8556311278546126E-01 a       941     0    63     1    11
 -7.8412783863763422E-02 a       942     0    63     1    12
 -4.1263317476756947E-02 a       943     0    63     1    13
 -9.8727853303916133E-02 a       944     0    63     1    14
  8.5730725884015768E-03 a       945     0    63     1    15
  1.1161532663410810E-01 a       946     0    64     1     1
  3.9329252332869366E-02 a       947     0    64     1     2
  6.9030752881499194E-02 a       948     0    64     1     3
 -6.2348681993739141E-01 a       949     0    64     1     4
 -9.2581170692396775E-01 a       950     0    64     1     5
  8.3958883554730232E-02 a       951     0    64     1     6
 -3.8039796826319383E-01 a       952     0    64     1     7
  3.2059450456924077E-01 a       953     0    64     1     8
 -2.6877952105771946E-01 a       954     0    64     1     9
 -1.4569908305218018E+00 a       955     0    64     1    10
 -7.1695561270762612E-02 a       956     0    64     1    11
  2.3901413375644120E-01 a       957     0    64     1    12
  1.7438574550096209E-01 a       958     0    64     1    13
 -1.6924321794872321E-01 a       959     0    64     1    14
 -2.6887432405923084E+00 a       960     0    64     1    15
  6.6425782004262268E-01 b       961     1     1
 -2.3636676621359448E-01 b       962     1     2
  3.0837542794946465E-02 b       963     1     3
 -4.2384908522511106E-01 b       964     1     4
 -1.0698979824039928E-01 b       965     1     5
 -3.6135117155753904E-01 b       966     1     6
 -8.4482074505723481E-01 b       967     1     7
  7.6758970313609065E-01 b       968     1     8
  3.0100200977651148E-02 b       969     1     9
 -1.1911075700666002E-01 b       970     1    10
  1.6280006239843567E-01 b       971     1    11
 -3.6871457418719839E-01 b       972     1    12
 -1.4028906853112456E-02 b       973     1    13
 -1.6742507399749286E-02 b       974     1    14
 -1.0396262995257386E+00 b       975     1    15
  4.5043278198034209E-01 a       976     1     1     2     1
  4.1881805884330398E-01 a       977     1     1     2     2
  9.9476522107911813E-01 a       978     1     1     2     3
  1.6622819117586049E-01 a       979     1     1     2     4
  8.4646999681786561E-01 a       980     1     1     2     5
 -3.9456059180895287E-01 a       981     1     1     2     6
 -1.7736062173404837E-01 a       982     1     1     2     7
  4.4216605120006114E-01 a       983     1     1     2     8
  2.0825057674013064E-01 a       984     1     1     2     9
  3.7861174138508709E-02 a       985     1     1     2    10
  5.3478489565915532E-01 a       986     1     1     2    11
 -9.0623597500091169E-01 a       987     1     1     2    12
 -2.4266453363711449E-01 a       988     1     1     2    13
  6.1692567708284918E-01 a       989     1     1     2    14
  3.9137873399148621E-01 a       990     1     1     2    15
  4.2491810721988049E-01 a       991     1     2     2     1
  1.1267195508144878E+00 a       992     1     2     2     2
  1.4823888336970230E+00 a       993     1     2     2     3
 -7.5310085546755401E-01 a       994     1     2     2     4
  1.5105425005489870E+00 a       995     1     2     2     5
 -1.3863795206836860E+00 a       996     1     2     2     6
  6.0135103458591366E-01 a       997     1     2     2     7
  4.3376538484501975E-01 a       998     1     2     2     8
 -4.4244890086657807E-01 a       999     1     2     2     9
 -4.4158086931531987E-01 a      1000     1     2     2    10
 -2.9707366466993967E-01 a      1001     1     2     2    11
 -1.5475888380124212E+00 a      1002     1     2     2    12
 -3.5170796816742060E-02 a      1003     1     2     2    13
  1.6966482340187139E+00 a      1004     1     2     2    14
  8.7278861704904742E-01 a      1005     1     2     2    15
 -3.8376945791475903E-01 a      1006     1     3     2     1
  6.5125340184334535E-01 a      1007     1     3     2     2
  1.2242646089600189E+00 a      1008     1     3     2     3
 -1.9128871581526568E+00 a      1009     1     3     2     4
  1.4278470536720724E+00 a      1010     1     3     2     5
 -8.3042422985370890E-01 a      1011     1     3     2     6
 -4.6818684352389234E-01 a      1012     1     3     2     7
  1.7005534271603744E+00 a      1013     1     3     2     8
 -3.9591321062455909E-01 a      1014     1     3     2     9
 -8.5899921920056965E-01 a      1015     1     3     2    10
 -1.5070207490316585E+00 a      1016     1     3     2    11
 -7.4104155252791870E-01 a      1017     1     3     2    12
 -9.8605222085751720E-01 a      1018     1     3     2    13
  9.0645198590802212E-01 a      1019     1     3     2    14
 -8.4299860088233078E-02 a      1020     1     3     2    15
 -1.6091587532786750E-01 a      1021     1     4     2     1
  5.0777688892339135E-01 a      1022     1     4     2     2
  8.0092993588599948E-01 a      1023     1     4     2     3
 -1.4888532302882329E+00 a      1024     1     4     2     4
 -7.7305091840595849E-02 a      1025     1     4     2     5
 -2.5678055656630805E-01 a      1026     1     4     2     6
  1.8934605384304888E+00 a      1027     1     4     2     7
  2.1422720382736533E+00 a      1028     1     4     2     8
 -9.3452171876422907E-01 a      1029     1     4     2     9
  2.1091496612571864E-01 a      1030     1     4     2    10
 -9.1085791921275683E-01 a      1031     1     4     2    11
 -9.2825582760248448E-01 a      1032     1     4     2    12
  2.2523261776943784E-01 a      1033     1     4     2    13
 -5.8000207342559409E-02 a      1034     1     4     2    14
  4.8105344258368415E-01 a      1035     1     4     2    15
  6.1649722593850220E-01 a      1036     1     5     2     1
 -6.3667202513488963E-01 a      1037     1     5     2     2
 -7.5207392464419320E-01 a      1038     1     5     2     3
 -9.6306776708054864E-01 a      1039     1     5     2     4
 -2.8767885428447904E-01 a      1040     1     5     2     5
 -2.2536153645179879E-01 a      1041     1     5     2     6
  5.8015119651132807E-01 a      1042     1     5     2     7
 -2.7494705169048567E-01 a      1043     1     5     2     8
 -1.0562919869357863E+00 a      1044     1     5     2     9
  1.9230335732043660E-01 a      1045     1     5     2    10
  1.0357725185986271E+00 a      1046     1     5     2    11
 -2.3870394953506971E-01 a      1047     1     5     2    12
 -1.1025388062855506E+00 a      1048     1     5     2    13
  3.7563143896311285E-01 a      1049     1     5     2    14
 -4.2674908632715258E-01 a      1050     1     5     2    15
 -2.1821471628674454E+00 a      1051     1     6     2     1
  7.2645579305205166E-01 a      1052     1     6     2     2
 -8.5438200986057689E-01 a      1053     1     6     2     3
  3.7017331233539985E-01 a      1054     1     6     2     4
 -7.0704792935339167E-01 a      1055     1     6     2     5
 -1.8905104512223531E-01 a      1056     1     6     2     6
 -3.5179608459196365E-01 a      1057     1     6     2     7
 -1.6163622692072936E+00 a      1058     1     6     2     8
 -9.0384351527906492E-01 a      1059     1     6     2     9
 -8.7196005155267320E-01 a      1060     1     6     2    10
  3.9796782444162571E-01 a      1061     1     6     2    11
 -7.6230819033981834E-01 a      1062     1     6     2    12
 -3.8959453023093238E-01 a      1063     1     6     2    13
 -1.0695428998415062E+00 a      1064     1     6     2    14
 -9.8680004896580364E-01 a      1065     1     6     2    15
 -2.6738391763095032E-01 a      1066     1     7     2     1
 -3.7579238062205739E-01 a      1067     1     7     2     2
  1.8322085396104851E-01 a      1068     1     7     2     3
  1.1301450585978543E+00 a      1069     1     7     2     4
 -2.0572190052928524E-01 a      1070     1     7     2     5
  9.0478030471043847E-01 a      1071     1     7     2     6
 -1.8410802387117017E-01 a      1072     1     7     2     7
 -1.0062705635270688E-01 a      1073     1     7     2     8
 -4.5974388930973881E-01 a      1074     1     7     2     9
  7.3686817941950200E-01 a      1075     1     7     2    10
 -1.5137501845642052E+00 a      1076     1     7     2    11
  3.6648097393637208E-01 a      1077     1     7     2    12
 -5.2564779653040827E-01 a      1078     1     7     2    13
 -1.0095330535557654E+00 a      1079     1     7     2    14
  6.3499421638023468E-01 a      1080     1     7     2    15
  1.2075980617323104E-02 a      1081     1     8     2     1
 -7.9316922643866816E-01 a      1082     1     8     2     2
 -1.1809385582257010E+00 a      1083     1     8     2     3
 -4.2842581013380399E-01 a      1084     1     8     2     4
  3.0320326731304770E-01 a      1085     1     8     2     5
  7.5755152595315967E-01 a      1086     1     8     2     6
 -6.5000778838866402E-01 a      1087     1     8     2     7
 -7.1478248149745593E-01 a      1088     1     8     2     8
  4.8286032725220529E-01 a      1089     1     8     2     9
  8.0034370721776948E-01 a      1090     1     8     2    10
 -7.0642777709160542E-01 a      1091     1     8     2    11
  1.2264368042233051E+00 a      1092     1     8     2    12
  1.2635729375964750E+00 a      1093     1     8     2    13
 -2.8995889961776355E-01 a      1094     1     8     2    14
 -1.3067901281996965E+00 a      1095     1     8     2    15
  6.4948018710439825E-01 a      1096     1     9     2     1
  8.4130223265079462E-01 a      1097     1     9     2     2
  3.4117837869808776E-01 a      1098     1     9     2     3
 -8.7591169989833306E-01 a      1099     1     9     2     4
 -3.6164706558669207E-01 a      1100     1     9     2     5
 -1.3284125209919300E+00 a      1101     1     9     2     6
  7.1668014582756634E-01 a      1102     1     9     2     7
  7.2707727687210155E-01 a      1103     1     9     2     8
  5.6856824533070471E-01 a      1104     1     9     2     9
  1.0269101475031437E+00 a      1105     1     9     2    10
 -4.3127673964972929E-01 a      1106     1     9     2    11
  7.8233888409184638E-01 a      1107     1     9     2    12
  1.5561347747175580E+00 a      1108     1     9     2    13
  1.3210205379696605E+00 a      1109     1     9     2    14
  1.3172448781791262E+00 a      1110     1     9     2    15
 -9.3959616769300691E-01 a      1111     1    10     2     1
  2.9480832096145056E-02 a      1112     1    10     2     2
  2.1554272011514092E-01 a      1113     1    10     2     3
  4.6366997767778934E-01 a      1114     1    10     2     4
 -2.8659816864116194E-01 a      1115     1    10     2     5
 -3.4630680243934966E-02 a      1116     1    10     2     6
  1.8818754562117393E-01 a      1117     1    10     2     7
  3.1143927708968816E-01 a      1118     1    10     2     8
  4.9707645526860200E-01 a      1119     1    10     2     9
 -3.8734828580626723E-01 a      1120     1    10     2    10
 -6.1503706381344525E-01 a      1121     1    10     2    11
 -1.0992561108242765E-01 a      1122     1    10     2    12
 -6.8567334204343333E-01 a      1123     1    10     2    13
  1.3957456561220682E-01 a      1124     1    10     2    14
  3.1202729187598305E-01 a      1125     1    10     2    15
  6.3840094307129924E-01 a      1126     1    11     2     1
 -2.6835181552815096E-01 a      1127     1    11     2     2
  3.5933823890738492E-01 a      1128     1    11     2     3
  4.9449358336470312E-01 a      1129     1    11     2     4
 -2.7568278211861297E-01 a      1130     1    11     2     5
  2.8925608930084762E-01 a      1131     1    11     2     6
  1.0244574679790992E+00 a      1132     1    11     2     7
  6.9948241323429317E-01 a      1133     1    11     2     8
  4.5356925941889592E-01 a      1134     1    11     2     9
  6.6020534612497672E-01 a      1135     1    11     2    10
  3.0935526017759124E-01 a      1136     1    11     2    11
  7.1911384185381316E-02 a      1137     1    11     2    12
  2.1969048267498129E-01 a      1138     1    11     2    13
 -2.6566487393410942E-01 a      1139     1    11     2    14
 -8.2231392277921167E-01 a      1140     1    11     2    15
 -1.8241352025641178E+00 a      1141     1    12     2     1
 -6.3639519912881004E-01 a      1142     1    12     2     2
 -1.0818942967215557E+00 a      1143     1    12     2     3
 -4.7453697885604534E-01 a      1144     1    12     2     4
  6.2099286500801390E-03 a      1145     1    12     2     5
  1.0489921780874858E+00 a      1146     1    12     2     6
 -1.8715159847188316E+00 a      1147     1    12     2     7
 -1.1884680960510645E+00 a      1148     1    12     2     8
 -7.1154039129875379E-01 a      1149     1    12     2     9
 -1.1040461438192111E+00 a      1150     1    12     2    10
 -2.8178233120543639E-01 a      1151     1    12     2    11
 -1.9045307545318074E-01 a      1152     1    12     2    12
  1.8810406641831685E+00 a      1153     1    12     2    13
 -1.0203296846087535E+00 a      1154     1    12     2    14
  7.4680889425548791E-01 a      1155     1    12     2    15
  8.1647309725049488E-01 a      1156     1    13     2     1
  4.6305119686356361E-01 a      1157     1    13     2     2
 -2.6665369309608694E-01 a      1158     1    13     2     3
 -6.4517366099040763E-01 a      1159     1    13     2     4
  5.7586769656677428E-01 a      1160     1    13     2     5
 -1.7519304410298890E+00 a      1161     1    13     2     6
 -1.8856707316793642E-01 a      1162     1    13     2     7
  6.3504640022524472E-01 a      1163     1    13     2     8
 -1.0033269403544171E-01 a      1164     1    13     2     9
  6.7926625001373031E-01 a      1165     1    13     2    10
 -1.6972631989796605E+00 a      1166     1    13     2    11
  1.9776515995438417E+00 a      1167     1    13     2    12
 -3.4144965265538707E-01 a      1168     1    13     2    13
  1.8574080463828031E+00 a      1169     1    13     2    14
 -2.5157279644420505E-01 a      1170     1    13     2    15
  7.8620240762920812E-01 a      1171     1    14     2     1
 -1.5977719745710688E+00 a      1172     1    14     2     2
  1.2525822563292381E+00 a      1173     1    14     2     3
 -1.3260213491530148E+00 a      1174     1    14     2     4
 -1.2391200280635353E+00 a      1175     1    14     2     5
  1.5029174721040235E+00 a      1176     1    14     2     6
  1.3856423821229482E+00 a      1177     1    14     2     7
  7.6567706137964398E-01 a      1178     1    14     2     8
  8.0668694998925383E-01 a      1179     1    14     2     9
  5.6190576874145748E-01 a      1180     1    14     2    10
  1.4163515892345142E+00 a      1181     1    14     2    11
 -3.7560289372561834E-01 a      1182     1    14     2    12
  7.0696160658311824E-01 a      1183     1    14     2    13
 -1.4319493429173424E+00 a      1184     1    14     2    14
 -7.5177906075431711E-01 a      1185     1    14     2    15
  8.6560089159788078E-01 a      1186     1    15     2     1
 -9.0570426636873036E-01 a      1187     1    15     2     2
 -6.3554143370817895E-01 a      1188     1    15     2     3
 -5.3846339246628504E-03 a      1189     1    15     2     4
 -1.1742628818755076E+00 a      1190     1    15     2     5
  4.4646907933979563E-01 a      1191     1    15     2     6
  6.2570964791635431E-01 a      1192     1    15     2     7
 -1.1957757053374364E-01 a      1193     1    15     2     8
 -1.0174115795786175E-01 a      1194     1    15     2     9
 -2.3531293081319671E-01 a      1195     1    15     2    10
  5.7698573637154360E-01 a      1196     1    15     2    11
 -4.5731857456812332E-02 a      1197     1    15     2    12
 -5.2210210542720725E-01 a      1198     1    15     2    13
 -4.3078688786599428E-01 a      1199     1    15     2    14
 -9.6578521910444670E-01 a      1200     1    15     2    15
  6.6010179019901083E-02 b      1201     2     1
  6.4739499555156022E-01 b      1202     2     2
 -1.1389589396931041E+00 b      1203     2     3
  4.6806597620428575E-01 b      1204     2     4
  7.0040645726878068E-03 b      1205     2     5
  7.9512856952414013E-01 b      1206     2     6
  3.4836879227033468E-01 b      1207     2     7
  1.1313997824125088E+00 b      1208     2     8
 -7.7996817047671074E-01 b      1209     2     9
 -1.2486813604937213E-02 b      1210     2    10
  6.0419338613694018E-01 b      1211     2    11
 -2.4769481651908468E-01 b      1212     2    12
  8.1102666182328276E-01 b      1213     2    13
 -1.5447317096869400E+00 b      1214     2    14
  1.4253482839565550E+00 b      1215     2    15
 -2.6266805750428050E-02 a      1216     2     1     3     1
  5.0342861919977555E-01 a      1217     2     2     3     1
  2.3269839185773064E-01 a      1218     2     3     3     1
  2.4439006113444534E-01 a      1219     2     4     3     1
 -2.1443336409248795E-01 a      1220     2     5     3     1
  1.0007434230332204E+00 a      1221     2     6     3     1
  2.2994201886749494E-01 a      1222     2     7     3     1
 -5.0636974156088854E-01 a      1223     2     8     3     1
 -2.7285015028155102E-01 a      1224     2     9     3     1
 -4.3052009596479468E-01 a      1225     2    10     3     1
  8.6320427795918420E-02 a      1226     2    11     3     1
  2.2689860072497839E-01 a      1227     2    12     3     1
  3.0099997385653293E-01 a      1228     2    13     3     1
  7.7764692407067726E-01 a      1229     2    14     3     1
 -1.0913942818715476E-01 a      1230     2    15     3     1
 -1.0037705467599982E+00 b      1231     3     1
