################################################################################
# Neural network connection values (weights and biases).
################################################################################
# Col  Name       Description
################################################################################
# 1    connection Neural network connection value.
# 2    t          Connection type (a = weight, b = bias).
# 3    index      Index enumerating weights.
# 4    l_s        Starting point layer (end point layer for biases).
# 5    n_s        Starting point neuron in starting layer (end point neuron for biases).
# 6    l_e        End point layer.
# 7    n_e        End point neuron in end layer.
################################################################################
#                      1 2         3     4     5     6     7
#             connection t     index   l_s   n_s   l_e   n_e
############################################################
 -2.2167580357620578E-01 a         1     0     1     1     1
  2.4304153682983634E-01 a         2     0     1     1     2
 -6.3875596589767125E-01 a         3     0     1     1     3
 -8.1010881484113206E-01 a         4     0     1     1     4
  2.1228739496315530E-01 a         5     0     1     1     5
  4.7134320131107634E-03 a         6     0     1     1     6
 -1.3414243955926039E-01 a         7     0     1     1     7
 -4.8274377272920344E-01 a         8     0     1     1     8
 -6.7027506563429107E-01 a         9     0     1     1     9
 -7.0380434311176476E-01 a        10     0     1     1    10
  8.9964797308107647E-01 a        11     0     1     1    11
  1.1763479838237298E-01 a        12     0     1     1    12
  4.1842508445365001E-01 a        13     0     1     1    13
 -1.0253323999674564E-01 a        14     0     1     1    14
 -3.6944944199842067E-01 a        15     0     1     1    15
 -2.0148720740625353E-01 a        16     0     2     1     1
  2.0420951303752236E-01 a        17     0     2     1     2
  3.4788037946327849E-01 a        18     0     2     1     3
  8.5085736014863000E-01 a        19     0     2     1     4
 -2.3221928218227622E-01 a        20     0     2     1     5
  9.7832239104843688E-01 a        21     0     2     1     6
 -1.6578376637903225E+00 a        22     0     2     1     7
 -7.0942650422083486E-01 a        23     0     2     1     8
 -1.3638934612116054E+00 a        24     0     2     1     9
  1.0067551141324229E+00 a        25     0     2     1    10
 -6.1548320366108111E-01 a        26     0     2     1    11
  1.1667505608453277E+00 a        27     0     2     1    12
 -4.3662380768610683E-02 a        28     0     2     1    13
 -7.8336272847212984E-01 a        29     0     2     1    14
 -7.6615546140997004E-01 a        30     0     2     1    15
 -3.3144887515451021E-01 a        31     0     3     1     1
 -6.3651139411233815E-01 a        32     0     3     1     2
 -7.9729011778657308E-02 a        33     0     3     1     3
  9.8759645528128590E-02 a        34     0     3     1     4
  6.0726292622588129E-01 a        35     0     3     1     5
 -1.2013168262651519E-01 a        36     0     3     1     6
 -5.4377537250314856E-01 a        37     0     3     1     7
  5.7820017613745078E-01 a        38     0     3     1     8
  3.1695976527502218E-01 a        39     0     3     1     9
  4.2085521761207323E-01 a        40     0     3     1    10
 -1.0222898278082987E-01 a        41     0     3     1    11
 -9.1132384907516262E-01 a        42     0     3     1    12
 -6.4532974617523475E-01 a        43     0     3     1    13
 -5.7743647193587244E-01 a        44     0     3     1    14
  1.2950067098645254E-01 a        45     0     3     1    15
  2.8126206990962538E-01 a        46     0     4     1     1
  4.1616519326915252E-01 a        47     0     4     1     2
  2.1703544700809711E-02 a        48     0     4     1     3
 -5.2701603573129530E-01 a        49     0     4     1     4
  4.5414896558655044E-03 a        50     0     4     1     5
  1.8578968114840272E-01 a        51     0     4     1     6
 -8.0147917918256806E-01 a        52     0     4     1     7
  3.9407933162311136E-02 a        53     0     4     1     8
 -4.4238753460807231E-02 a        54     0     4     1     9
 -1.7729085796237254E-01 a        55     0     4     1    10
  7.9248114771497347E-01 a        56     0     4     1    11
  9.6471447357774254E-01 a        57     0     4     1    12
  2.6346779180369095E-01 a        58     0     4     1    13
 -1.7624996910870216E-01 a        59     0     4     1    14
 -9.0124667205074249E-01 a        60     0     4     1    15
  9.7167792762035876E-01 a        61     0     5     1     1
 -4.9957970948641967E-01 a        62     0     5     1     2
  6.0250888896891830E-01 a        63     0     5     1     3
  3.8147813059222757E-01 a        64     0     5     1     4
 -3.1111085545612249E-01 a        65     0     5     1     5
 -4.9460553375135297E-01 a        66     0     5     1     6
 -2.7834561280345560E-01 a        67     0     5     1     7
  4.8555259820433565E-02 a        68     0     5     1     8
 -4.1992974423355628E-01 a        69     0     5     1     9
  6.1269219533003338E-01 a        70     0     5     1    10
 -1.9440788171218831E-01 a        71     0     5     1    11
 -5.2632332275104232E-01 a        72     0     5     1    12
  3.1773341631832364E-01 a        73     0     5     1    13
  1.0751450243869922E+00 a        74     0     5     1    14
 -3.8602981165572775E-01 a        75     0     5     1    15
 -4.9110030297696328E-01 a        76     0     6     1     1
 -3.2490225686066126E-01 a        77     0     6     1     2
 -6.2482556112735532E-01 a        78     0     6     1     3
  5.6776877135482751E-01 a        79     0     6     1     4
 -5.0449596883754033E-01 a        80     0     6     1     5
  1.0396051956069368E+00 a        81     0     6     1     6
 -4.1349854077735354E-01 a        82     0     6     1     7
 -8.7655037926036228E-01 a        83     0     6     1     8
 -7.0079923178828540E-01 a        84     0     6     1     9
  9.0014595395320487E-02 a        85     0     6     1    10
  2.8686777348037984E-01 a        86     0     6     1    11
  1.0061349658958028E-01 a        87     0     6     1    12
  1.3804888590908238E-01 a        88     0     6     1    13
  5.6510595444347056E-01 a        89     0     6     1    14
 -7.2960732487862978E-01 a        90     0     6     1    15
 -8.3365387973257721E-01 a        91     0     7     1     1
  6.7577841638755365E-01 a        92     0     7     1     2
  1.2513331543212904E+00 a        93     0     7     1     3
  8.9009131477320713E-01 a        94     0     7     1     4
  6.5850915018747413E-01 a        95     0     7     1     5
  5.9884757770746144E-01 a        96     0     7     1     6
  4.4196712164384400E-01 a        97     0     7     1     7
 -8.1263509232280540E-01 a        98     0     7     1     8
 -6.4500764688237691E-02 a        99     0     7     1     9
 -1.2742408762496631E+00 a       100     0     7     1    10
 -3.2159549638588952E-01 a       101     0     7     1    11
  5.9830822154703456E-01 a       102     0     7     1    12
 -6.0303825676941414E-01 a       103     0     7     1    13
 -4.0755543552999396E-01 a       104     0     7     1    14
 -4.4482657521851021E-01 a       105     0     7     1    15
  1.3724726744150512E-01 a       106     0     8     1     1
 -1.2077685504099311E+00 a       107     0     8     1     2
  6.4630660010712626E-01 a       108     0     8     1     3
 -2.3783471022963074E-01 a       109     0     8     1     4
 -5.0941023941353825E-01 a       110     0     8     1     5
  6.8834606909086982E-01 a       111     0     8     1     6
 -4.9358624818607799E-01 a       112     0     8     1     7
 -4.4551015783871589E-01 a       113     0     8     1     8
 -7.5795011114404520E-01 a       114     0     8     1     9
 -1.4915995681747321E-01 a       115     0     8     1    10
 -2.8109054246403409E-01 a       116     0     8     1    11
 -2.3334737411634479E-01 a       117     0     8     1    12
 -7.2998119660317884E-01 a       118     0     8     1    13
 -9.5518135118564496E-02 a       119     0     8     1    14
  2.2461837687379635E-01 a       120     0     8     1    15
  4.3251318618449042E-01 a       121     0     9     1     1
 -5.7399574817555012E-02 a       122     0     9     1     2
  6.5252459819946973E-01 a       123     0     9     1     3
  2.2670084332774396E-01 a       124     0     9     1     4
 -6.3733718410279849E-01 a       125     0     9     1     5
  3.5916930163165106E-02 a       126     0     9     1     6
  3.9997228608464663E-01 a       127     0     9     1     7
  4.9011611839294628E-01 a       128     0     9     1     8
  1.2184337447746997E-02 a       129     0     9     1     9
  7.2097633856505350E-01 a       130     0     9     1    10
 -1.1904275789478938E-01 a       131     0     9     1    11
  9.6839687561565457E-01 a       132     0     9     1    12
 -8.5443585695514218E-02 a       133     0     9     1    13
 -6.4320177023176262E-01 a       134     0     9     1    14
  3.6624181926751481E-01 a       135     0     9     1    15
 -8.7319584831896402E-01 a       136     0    10     1     1
 -1.2866262563321538E+00 a       137     0    10     1     2
  5.3042361528275461E-01 a       138     0    10     1     3
  1.3002351629035629E+00 a       139     0    10     1     4
  7.7079740122307072E-01 a       140     0    10     1     5
 -1.1789465231976257E-01 a       141     0    10     1     6
 -9.0406977409558176E-01 a       142     0    10     1     7
  6.3179127161739179E-01 a       143     0    10     1     8
  8.8142789303133698E-03 a       144     0    10     1     9
 -4.0687331512196478E-01 a       145     0    10     1    10
 -9.6693828999118092E-01 a       146     0    10     1    11
 -7.6349125748607569E-02 a       147     0    10     1    12
 -7.8212680210122246E-02 a       148     0    10     1    13
 -6.3379356095876904E-01 a       149     0    10     1    14
 -4.9345605484751881E-01 a       150     0    10     1    15
  3.4397415154420108E-01 a       151     0    11     1     1
  9.9528563937200387E-01 a       152     0    11     1     2
 -8.4539868809496743E-01 a       153     0    11     1     3
 -9.2045972623489222E-02 a       154     0    11     1     4
 -1.4732688947770185E+00 a       155     0    11     1     5
 -3.9008289593794926E-01 a       156     0    11     1     6
 -5.5791813806140667E-01 a       157     0    11     1     7
 -8.1819980445298843E-03 a       158     0    11     1     8
  5.8406749811668823E-01 a       159     0    11     1     9
  4.2939941015161624E-02 a       160     0    11     1    10
 -2.9647158520873351E-01 a       161     0    11     1    11
  2.1487822619009675E-01 a       162     0    11     1    12
 -1.7819950729167418E-02 a       163     0    11     1    13
 -6.4604180582590354E-01 a       164     0    11     1    14
 -6.2685779076629602E-02 a       165     0    11     1    15
  2.1835977601822876E+00 a       166     0    12     1     1
 -8.8293906678968276E-02 a       167     0    12     1     2
 -1.4509667249347769E-01 a       168     0    12     1     3
 -6.4214026406149638E-01 a       169     0    12     1     4
 -9.5464074191132595E-03 a       170     0    12     1     5
  1.2635706056256615E+00 a       171     0    12     1     6
  1.2626555574335379E+00 a       172     0    12     1     7
  5.3431409525408580E-01 a       173     0    12     1     8
  8.7535836727429894E-01 a       174     0    12     1     9
 -3.3166868503032104E-01 a       175     0    12     1    10
  7.3114486288956226E-01 a       176     0    12     1    11
 -4.0031444659015425E-01 a       177     0    12     1    12
 -1.1079109590276051E+00 a       178     0    12     1    13
 -3.3833339804222699E-02 a       179     0    12     1    14
 -4.0538556654342484E-01 a       180     0    12     1    15
 -1.9311746225823059E+00 a       181     0    13     1     1
 -5.7143855575060187E-01 a       182     0    13     1     2
 -8.8709860134056207E-01 a       183     0    13     1     3
  3.6169284653912270E-01 a       184     0    13     1     4
 -9.3734905166644511E-01 a       185     0    13     1     5
  1.8308148069142127E-01 a       186     0    13     1     6
 -1.8664044865717457E+00 a       187     0    13     1     7
  6.5857598347691992E-01 a       188     0    13     1     8
 -3.0043793756178044E-01 a       189     0    13     1     9
 -3.6906992198633765E-01 a       190     0    13     1    10
  1.3135542447508226E+00 a       191     0    13     1    11
 -5.0993651699974885E-01 a       192     0    13     1    12
  1.5052960515536100E+00 a       193     0    13     1    13
  4.2989125775198711E-01 a       194     0    13     1    14
 -4.3903245434203297E-01 a       195     0    13     1    15
 -1.4411510505571832E+00 a       196     0    14     1     1
 -3.3781655769157909E-01 a       197     0    14     1     2
  4.0256952869654727E-01 a       198     0    14     1     3
 -3.6116846309777961E-01 a       199     0    14     1     4
  7.3060975162423700E-02 a       200     0    14     1     5
 -6.9798748291682267E-01 a       201     0    14     1     6
 -1.5143806175360131E-01 a       202     0    14     1     7
 -5.9517794529267543E-01 a       203     0    14     1     8
  5.4710986628364244E-01 a       204     0    14     1     9
  2.0906487631479412E-01 a       205     0    14     1    10
  1.3894161267674008E+00 a       206     0    14     1    11
 -1.8866227557519349E-01 a       207     0    14     1    12
 -9.1429354909442012E-02 a       208     0    14     1    13
 -1.5072258749487777E-01 a       209     0    14     1    14
 -1.5896381505945120E-01 a       210     0    14     1    15
  1.6651612530921984E+00 a       211     0    15     1     1
 -4.7927377645408686E-01 a       212     0    15     1     2
 -7.1055974224570995E-01 a       213     0    15     1     3
  9.6925946157187845E-02 a       214     0    15     1     4
  1.1081709787690439E+00 a       215     0    15     1     5
 -2.9847268379718794E-01 a       216     0    15     1     6
  1.4546223773546345E+00 a       217     0    15     1     7
 -9.2234920254651709E-01 a       218     0    15     1     8
 -3.5527203462917706E-01 a       219     0    15     1     9
  3.1629485225165443E-01 a       220     0    15     1    10
 -1.1992294462189805E+00 a       221     0    15     1    11
 -1.1291001091215980E+00 a       222     0    15     1    12
 -1.3459410457416459E+00 a       223     0    15     1    13
  2.4123927930540454E-01 a       224     0    15     1    14
  2.7979314352899970E-01 a       225     0    15     1    15
  3.7121305249807957E-01 a       226     0    16     1     1
 -4.3087679719415867E-01 a       227     0    16     1     2
 -2.2855084206998835E-01 a       228     0    16     1     3
  3.2204253888303169E-02 a       229     0    16     1     4
 -3.7146356638010497E-01 a       230     0    16     1     5
  1.5056070574867894E-01 a       231     0    16     1     6
 -3.0943957349655293E-01 a       232     0    16     1     7
  2.1272137138846403E-02 a       233     0    16     1     8
 -1.5552115072121883E-02 a       234     0    16     1     9
  3.9226820659037775E-01 a       235     0    16     1    10
 -1.0050513827810466E+00 a       236     0    16     1    11
  4.6859938094997350E-01 a       237     0    16     1    12
  5.9722838281036250E-02 a       238     0    16     1    13
  6.0949767957684198E-01 a       239     0    16     1    14
 -7.6376745529908030E-01 a       240     0    16     1    15
 -2.6599910447764535E-01 a       241     0    17     1     1
 -2.5279782312794130E-01 a       242     0    17     1     2
  2.1331690541644793E-01 a       243     0    17     1     3
 -7.8919235067768850E-02 a       244     0    17     1     4
  7.6861827913550243E-02 a       245     0    17     1     5
 -3.1735892943200200E-01 a       246     0    17     1     6
 -7.4154678848707984E-03 a       247     0    17     1     7
 -2.7924196336178447E-01 a       248     0    17     1     8
  8.1022456451346508E-02 a       249     0    17     1     9
  5.3564913649698076E-01 a       250     0    17     1    10
 -7.0529488029161558E-01 a       251     0    17     1    11
 -5.0383399306906274E-01 a       252     0    17     1    12
 -6.5767329117128170E-01 a       253     0    17     1    13
 -1.0187916294028576E+00 a       254     0    17     1    14
 -9.4083275047453141E-01 a       255     0    17     1    15
  3.7146018910038653E-01 a       256     0    18     1     1
 -2.1623251398990651E-01 a       257     0    18     1     2
  4.4805823017775659E-01 a       258     0    18     1     3
 -2.5799357654039667E-01 a       259     0    18     1     4
  3.9793284628978171E-01 a       260     0    18     1     5
  4.7958593059290799E-01 a       261     0    18     1     6
 -4.1575879803176152E-01 a       262     0    18     1     7
  7.4330510568570304E-02 a       263     0    18     1     8
 -7.1154561849786369E-01 a       264     0    18     1     9
 -5.6232622116255215E-01 a       265     0    18     1    10
 -2.3333975865266648E-01 a       266     0    18     1    11
  6.8637709821543280E-01 a       267     0    18     1    12
  4.1543555444967467E-01 a       268     0    18     1    13
 -4.4115667846458811E-01 a       269     0    18     1    14
  4.6406162972076552E-02 a       270     0    18     1    15
  3.3285614576409517E-01 a       271     0    19     1     1
 -2.6046055667862111E-01 a       272     0    19     1     2
  3.5365847253514070E-02 a       273     0    19     1     3
  4.4086858768437326E-01 a       274     0    19     1     4
  9.0062317115799140E-01 a       275     0    19     1     5
  9.9696245799699518E-02 a       276     0    19     1     6
  1.6113252536184930E+00 a       277     0    19     1     7
 -1.0760060115560552E+00 a       278     0    19     1     8
  1.0003330403089908E-01 a       279     0    19     1     9
 -8.7757942627020391E-01 a       280     0    19     1    10
 -7.5450757190945972E-01 a       281     0    19     1    11
 -1.2164937333413604E+00 a       282     0    19     1    12
 -2.0234027896085152E-02 a       283     0    19     1    13
 -4.6599869598018134E-01 a       284     0    19     1    14
 -3.1762085607355328E-01 a       285     0    19     1    15
 -3.3749796086434830E-01 a       286     0    20     1     1
 -6.1744836630893529E-01 a       287     0    20     1     2
 -1.1572760754071112E+00 a       288     0    20     1     3
  9.2109084104837216E-02 a       289     0    20     1     4
 -4.4748648151535189E-02 a       290     0    20     1     5
 -8.4092003904791446E-01 a       291     0    20     1     6
  3.2472110462437476E-01 a       292     0    20     1     7
 -9.4781634625336708E-01 a       293     0    20     1     8
  8.2838081908715255E-01 a       294     0    20     1     9
  6.3927992372267783E-01 a       295     0    20     1    10
  1.4473763132799864E+00 a       296     0    20     1    11
  2.5792024090863983E-02 a       297     0    20     1    12
 -1.2766421709540304E-03 a       298     0    20     1    13
  1.1550783685125803E+00 a       299     0    20     1    14
 -8.6325338443601396E-01 a       300     0    20     1    15
 -7.8614296948432871E-01 a       301     0    21     1     1
 -5.7415395541267611E-01 a       302     0    21     1     2
  1.4471776895915955E-01 a       303     0    21     1     3
  4.4720503342745987E-01 a       304     0    21     1     4
  1.4694482094362868E-01 a       305     0    21     1     5
  5.3565535300622014E-01 a       306     0    21     1     6
 -1.8769084049018181E-01 a       307     0    21     1     7
 -7.0725268905210215E-01 a       308     0    21     1     8
 -2.9294897642871037E-01 a       309     0    21     1     9
  1.6380613407497782E-01 a       310     0    21     1    10
  2.1205473099429348E-01 a       311     0    21     1    11
 -7.4699441940571409E-01 a       312     0    21     1    12
 -5.2192087202732496E-01 a       313     0    21     1    13
  4.9980538163735361E-01 a       314     0    21     1    14
  5.7484014456143206E-01 a       315     0    21     1    15
  2.4876935812880879E-01 a       316     0    22     1     1
  1.1053708947972997E-01 a       317     0    22     1     2
  1.4423264682030632E-01 a       318     0    22     1     3
  2.4997413610101277E-01 a       319     0    22     1     4
 -3.1143273001605359E-01 a       320     0    22     1     5
 -2.3304872518780986E+00 a       321     0    22     1     6
  7.6232603786592301E-01 a       322     0    22     1     7
  1.3161877028069519E-01 a       323     0    22     1     8
  2.0238040670908997E+00 a       324     0    22     1     9
  3.2193153663055224E-01 a       325     0    22     1    10
  5.2653998506289557E-01 a       326     0    22     1    11
  5.6186643028370487E-01 a       327     0    22     1    12
  7.3274876578845205E-01 a       328     0    22     1    13
  2.0767282675901236E-02 a       329     0    22     1    14
 -1.6889216698817480E-01 a       330     0    22     1    15
  5.5754420501775659E-01 a       331     0    23     1     1
  1.2802627166182079E-01 a       332     0    23     1     2
  2.4093413812310285E-01 a       333     0    23     1     3
  1.0782514035073707E+00 a       334     0    23     1     4
 -2.8503580432765357E-01 a       335     0    23     1     5
 -2.7204927615537355E-01 a       336     0    23     1     6
 -1.0273009836517930E+00 a       337     0    23     1     7
 -1.8203320113983437E-01 a       338     0    23     1     8
  3.7838094837092806E-01 a       339     0    23     1     9
  9.0886461358228599E-01 a       340     0    23     1    10
  1.0967416214194419E+00 a       341     0    23     1    11
 -3.1169332203135780E-01 a       342     0    23     1    12
 -2.2708918471062101E-01 a       343     0    23     1    13
  7.3619348060611922E-01 a       344     0    23     1    14
 -1.5580562471035675E-01 a       345     0    23     1    15
 -9.9115828964211658E-02 a       346     0    24     1     1
 -6.4840670828208202E-01 a       347     0    24     1     2
 -1.3769564564501960E-01 a       348     0    24     1     3
 -6.6462001748750568E-02 a       349     0    24     1     4
 -6.6588765231893776E-01 a       350     0    24     1     5
 -9.8311787889926694E-01 a       351     0    24     1     6
  6.4866558682918496E-01 a       352     0    24     1     7
  3.3536482883397578E-01 a       353     0    24     1     8
 -2.4598723517160981E-01 a       354     0    24     1     9
 -4.0142608034942256E-01 a       355     0    24     1    10
 -4.5090338882559983E-01 a       356     0    24     1    11
 -6.5461019657860853E-01 a       357     0    24     1    12
 -5.6889882689577981E-02 a       358     0    24     1    13
 -2.5248309832189747E-01 a       359     0    24     1    14
 -3.9744741461656607E-01 a       360     0    24     1    15
  3.6708775253976450E-02 a       361     0    25     1     1
  5.2752466801593879E-02 a       362     0    25     1     2
  5.3534073228145879E-02 a       363     0    25     1     3
 -3.2125871344241252E-01 a       364     0    25     1     4
  9.4106329142213063E-01 a       365     0    25     1     5
  1.5157076454825280E+00 a       366     0    25     1     6
 -5.5938778010846762E-02 a       367     0    25     1     7
 -5.8640520658763218E-01 a       368     0    25     1     8
 -2.6702147476207516E-01 a       369     0    25     1     9
 -5.6399229019381680E-01 a       370     0    25     1    10
  1.4234621742084446E+00 a       371     0    25     1    11
  8.5431629678840618E-02 a       372     0    25     1    12
  8.0912102354024884E-01 a       373     0    25     1    13
  3.0163788775072820E-01 a       374     0    25     1    14
 -2.0088488582099503E-01 a       375     0    25     1    15
  4.8821948756955125E-01 a       376     0    26     1     1
  8.6389419793696420E-01 a       377     0    26     1     2
 -1.0269402710428690E+00 a       378     0    26     1     3
  7.1142789266985640E-01 a       379     0    26     1     4
 -7.4734761276908224E-01 a       380     0    26     1     5
  3.7784535805990782E-01 a       381     0    26     1     6
 -2.0479446842711957E-01 a       382     0    26     1     7
 -2.2154131893769871E-01 a       383     0    26     1     8
  6.7299102406379363E-01 a       384     0    26     1     9
  2.9113995795700109E-01 a       385     0    26     1    10
 -4.1849334374559466E-01 a       386     0    26     1    11
  3.7670359725697117E-01 a       387     0    26     1    12
  1.1267432641402390E-01 a       388     0    26     1    13
  9.2039445433498313E-01 a       389     0    26     1    14
  8.4121797609745785E-01 a       390     0    26     1    15
  3.7942048818826335E-01 a       391     0    27     1     1
 -8.1306606500597545E-01 a       392     0    27     1     2
  5.1620527081084833E-01 a       393     0    27     1     3
 -3.9423543320187521E-01 a       394     0    27     1     4
 -2.7522978557463856E-01 a       395     0    27     1     5
  5.5273872333487428E-01 a       396     0    27     1     6
 -4.2893451724815485E-01 a       397     0    27     1     7
  4.0505149177932520E-01 a       398     0    27     1     8
  7.6573723329215596E-02 a       399     0    27     1     9
 -2.1796729742112903E-03 a       400     0    27     1    10
 -4.7561889216027992E-01 a       401     0    27     1    11
  4.1390110013561376E-01 a       402     0    27     1    12
  2.9068697094366502E-01 a       403     0    27     1    13
  1.8324360376559753E-01 a       404     0    27     1    14
 -2.1645099187917352E-01 a       405     0    27     1    15
 -7.3387543813878395E-02 a       406     0    28     1     1
 -7.7986678573186874E-01 a       407     0    28     1     2
  5.1215422931080457E-01 a       408     0    28     1     3
  5.8729691457269792E-02 a       409     0    28     1     4
  2.7283426878195294E-01 a       410     0    28     1     5
 -2.9680246155546780E-01 a       411     0    28     1     6
 -8.5613201595701871E-01 a       412     0    28     1     7
  1.5860170250858679E-01 a       413     0    28     1     8
  3.8162442299234300E-01 a       414     0    28     1     9
 -2.9618556642759536E-01 a       415     0    28     1    10
 -6.7323445816939853E-01 a       416     0    28     1    11
 -2.6020144850301147E-01 a       417     0    28     1    12
 -5.6168271925806024E-01 a       418     0    28     1    13
 -1.0644128775707330E-01 a       419     0    28     1    14
 -1.7316014484193884E-02 a       420     0    28     1    15
 -1.8514136580995902E-01 a       421     0    29     1     1
 -3.0325326964796118E-01 a       422     0    29     1     2
  7.8935464913840814E-01 a       423     0    29     1     3
 -1.1047110646978735E+00 a       424     0    29     1     4
  2.4274234499180872E-01 a       425     0    29     1     5
  2.6028936947208068E-02 a       426     0    29     1     6
  6.7897317388124812E-01 a       427     0    29     1     7
  1.5227736396713221E+00 a       428     0    29     1     8
 -1.6991798754853638E-01 a       429     0    29     1     9
 -6.3040308276301948E-01 a       430     0    29     1    10
 -6.2989175702940325E-01 a       431     0    29     1    11
  1.1692615393143868E+00 a       432     0    29     1    12
  8.3260588345003406E-01 a       433     0    29     1    13
 -9.0392253328515382E-01 a       434     0    29     1    14
  1.0919009579385053E+00 a       435     0    29     1    15
  3.9974259835366999E-01 a       436     0    30     1     1
 -5.5297713342249484E-02 a       437     0    30     1     2
 -1.2796830405632480E+00 a       438     0    30     1     3
 -5.5475156430148653E-01 a       439     0    30     1     4
  6.0070167000253971E-01 a       440     0    30     1     5
 -1.9105793168402485E-01 a       441     0    30     1     6
  1.2755378486121702E-01 a       442     0    30     1     7
  7.8691950571325872E-02 a       443     0    30     1     8
  4.5472153785735236E-01 a       444     0    30     1     9
 -4.7843986682144457E-02 a       445     0    30     1    10
  7.9575338613020896E-01 a       446     0    30     1    11
  7.5888890386837979E-02 a       447     0    30     1    12
 -7.3946798843305434E-02 a       448     0    30     1    13
 -1.7828945022358039E-01 a       449     0    30     1    14
  2.4411402036642404E-01 a       450     0    30     1    15
 -9.2412716023913011E-01 a       451     0    31     1     1
  9.5336788486910651E-01 a       452     0    31     1     2
 -3.8350937293991827E-01 a       453     0    31     1     3
  6.6686931316876774E-01 a       454     0    31     1     4
  2.9388704297860324E-01 a       455     0    31     1     5
 -9.5768613129692726E-01 a       456     0    31     1     6
 -1.8548199027287671E-01 a       457     0    31     1     7
  3.1400391806049777E-01 a       458     0    31     1     8
 -6.5116475608433227E-02 a       459     0    31     1     9
  9.1932891063667144E-01 a       460     0    31     1    10
 -1.3224546557326147E+00 a       461     0    31     1    11
 -6.3909062113192716E-01 a       462     0    31     1    12
 -1.6805195816323845E-01 a       463     0    31     1    13
  1.1255715920033604E+00 a       464     0    31     1    14
 -5.2367895194362768E-01 a       465     0    31     1    15
  1.0090741061014257E+00 a       466     0    32     1     1
  1.5207297245922063E-03 a       467     0    32     1     2
 -3.5012070578201843E-01 a       468     0    32     1     3
  3.0651944788726366E-02 a       469     0    32     1     4
 -9.2895054041880509E-01 a       470     0    32     1     5
  6.1123152971029293E-01 a       471     0    32     1     6
 -1.8655565494206949E+00 a       472     0    32     1     7
  1.0707013108648362E+00 a       473     0    32     1     8
 -3.6592120492448782E-01 a       474     0    32     1     9
 -1.4173617516716291E-01 a       475     0    32     1    10
  7.3001556066003045E-02 a       476     0    32     1    11
 -2.9026634686756418E-02 a       477     0    32     1    12
  1.1181908790798174E+00 a       478     0    32     1    13
  8.2278707396767914E-01 a       479     0    32     1    14
  3.2742435932818520E-01 a       480     0    32     1    15
  9.6022837192866584E-02 a       481     0    33     1     1
 -6.1562715079613209E-02 a       482     0    33     1     2
  6.4443441494494069E-01 a       483     0    33     1     3
  1.2241419888691618E+00 a       484     0    33     1     4
 -1.6526720915232346E-01 a       485     0    33     1     5
 -2.5578268734974574E-01 a       486     0    33     1     6
 -9.4776740793379588E-01 a       487     0    33     1     7
  3.4674354082628950E-01 a       488     0    33     1     8
  8.2349084235153219E-02 a       489     0    33     1     9
  6.1701030108827792E-01 a       490     0    33     1    10
 -1.6566360887615098E-01 a       491     0    33     1    11
  2.3503236995741900E-01 a       492     0    33     1    12
  5.2293316717134319E-01 a       493     0    33     1    13
  1.2010458902721504E+00 a       494     0    33     1    14
 -1.2033889231063184E+00 a       495     0    33     1    15
 -2.5656493783640169E-02 a       496     0    34     1     1
  1.0489052946139448E+00 a       497     0    34     1     2
  3.4555833228471144E-01 a       498     0    34     1     3
  9.1578287921638324E-01 a       499     0    34     1     4
 -6.5123321765046904E-01 a       500     0    34     1     5
 -1.3731134576582835E-01 a       501     0    34     1     6
  1.0144357774491486E+00 a       502     0    34     1     7
  5.7635918536432473E-01 a       503     0    34     1     8
  2.5279418908060564E-01 a       504     0    34     1     9
  5.1502743655197281E-01 a       505     0    34     1    10
 -1.0818613253334221E-01 a       506     0    34     1    11
 -8.3249889575202585E-01 a       507     0    34     1    12
 -6.2794804933585213E-01 a       508     0    34     1    13
 -2.2647259998551275E-01 a       509     0    34     1    14
  9.2388893451481080E-01 a       510     0    34     1    15
 -7.4085482101020161E-01 a       511     0    35     1     1
  1.3049146258382036E-01 a       512     0    35     1     2
 -5.4299155082073236E-01 a       513     0    35     1     3
 -3.3479094874081333E-01 a       514     0    35     1     4
  1.5098801184905339E-01 a       515     0    35     1     5
  9.6759805548202196E-02 a       516     0    35     1     6
  1.3596522299556228E+00 a       517     0    35     1     7
 -1.7792413371778365E-01 a       518     0    35     1     8
 -4.5885738443853924E-01 a       519     0    35     1     9
 -7.8970047588238590E-01 a       520     0    35     1    10
 -1.1451240644548852E+00 a       521     0    35     1    11
  4.7051835510058510E-01 a       522     0    35     1    12
  3.8119689145414436E-02 a       523     0    35     1    13
 -6.5872663869863535E-01 a       524     0    35     1    14
  4.6138637448277570E-01 a       525     0    35     1    15
 -9.0123502708529118E-03 a       526     0    36     1     1
  6.2156131748003685E-01 a       527     0    36     1     2
 -2.9641512725165736E-01 a       528     0    36     1     3
  4.3858033832652915E-01 a       529     0    36     1     4
 -2.0862306857852769E-01 a       530     0    36     1     5
  2.0970528100535962E-01 a       531     0    36     1     6
 -1.3354954958840745E-01 a       532     0    36     1     7
 -2.9800613469705889E-01 a       533     0    36     1     8
  5.4495446070382014E-01 a       534     0    36     1     9
  1.5704984909245943E+00 a       535     0    36     1    10
  4.6833109175273580E-01 a       536     0    36     1    11
  2.0949846338476061E-01 a       537     0    36     1    12
 -5.2519179512140468E-01 a       538     0    36     1    13
 -6.6335495167145364E-01 a       539     0    36     1    14
 -5.5357059315308500E-03 a       540     0    36     1    15
  1.6323258085575820E-01 a       541     0    37     1     1
  3.0661499868598041E-01 a       542     0    37     1     2
  1.1869804110470159E+00 a       543     0    37     1     3
 -5.7601649474331817E-01 a       544     0    37     1     4
 -1.3364401688654429E-01 a       545     0    37     1     5
 -3.4320500311886598E-01 a       546     0    37     1     6
 -5.8273735569437324E-02 a       547     0    37     1     7
  7.5286076688360737E-01 a       548     0    37     1     8
 -4.1784992987507613E-01 a       549     0    37     1     9
 -1.0744374596911783E-01 a       550     0    37     1    10
 -5.7628153189446985E-01 a       551     0    37     1    11
  2.3995152173557213E-01 a       552     0    37     1    12
 -4.9305927567475105E-01 a       553     0    37     1    13
 -5.5133468136125852E-01 a       554     0    37     1    14
  1.2265917002666431E+00 a       555     0    37     1    15
 -1.2235529880989886E+00 a       556     0    38     1     1
 -1.5489603462711263E-01 a       557     0    38     1     2
  1.8093939301921209E+00 a       558     0    38     1     3
 -6.2726981745698143E-02 a       559     0    38     1     4
  1.5126652589357117E+00 a       560     0    38     1     5
  2.6077001270394651E-01 a       561     0    38     1     6
  1.4893376567210255E+00 a       562     0    38     1     7
  9.7326650032381487E-02 a       563     0    38     1     8
 -7.8596462577145532E-01 a       564     0    38     1     9
 -6.5011780684765830E-01 a       565     0    38     1    10
 -6.5637682722120783E-01 a       566     0    38     1    11
 -3.3299189303998589E-01 a       567     0    38     1    12
 -4.8423263633473418E-01 a       568     0    38     1    13
 -1.4698876488586401E+00 a       569     0    38     1    14
  2.1638310024848137E-03 a       570     0    38     1    15
 -1.9791464054225816E-02 a       571     0    39     1     1
  9.5315192565796036E-01 a       572     0    39     1     2
 -4.4820468222240284E-02 a       573     0    39     1     3
 -3.0008111920218506E-02 a       574     0    39     1     4
  2.6927558184860884E-01 a       575     0    39     1     5
 -3.1271674170789437E-01 a       576     0    39     1     6
  1.2318925276379042E+00 a       577     0    39     1     7
  7.9922711718326656E-02 a       578     0    39     1     8
  2.7433605410676898E-01 a       579     0    39     1     9
 -6.2264725906545904E-01 a       580     0    39     1    10
  1.7885012172596498E-01 a       581     0    39     1    11
 -3.6803410143185883E-01 a       582     0    39     1    12
 -3.2006834792139649E-01 a       583     0    39     1    13
 -2.6421823173825087E-01 a       584     0    39     1    14
  5.9163719641218260E-01 a       585     0    39     1    15
  5.8734891379988663E-02 a       586     0    40     1     1
  8.0871258955471936E-01 a       587     0    40     1     2
 -6.0885193875998667E-01 a       588     0    40     1     3
 -7.3681295262762370E-01 a       589     0    40     1     4
 -7.3486419921759427E-01 a       590     0    40     1     5
  2.9765213442693755E-01 a       591     0    40     1     6
  8.4121013189689975E-01 a       592     0    40     1     7
  1.9174026456149298E-01 a       593     0    40     1     8
 -7.8249420888454391E-01 a       594     0    40     1     9
  6.2568298117365651E-01 a       595     0    40     1    10
  4.0205330350715884E-02 a       596     0    40     1    11
  6.9332898327881820E-01 a       597     0    40     1    12
  4.8318778626141884E-01 a       598     0    40     1    13
 -2.4826916058090881E-01 a       599     0    40     1    14
  1.5647415482690707E-01 a       600     0    40     1    15
  7.0078319023582514E-01 a       601     0    41     1     1
  5.7312665645949168E-01 a       602     0    41     1     2
 -1.0328868300799987E+00 a       603     0    41     1     3
 -3.4278200725412949E-01 a       604     0    41     1     4
 -2.8704131651043951E-01 a       605     0    41     1     5
  6.5140509958952778E-02 a       606     0    41     1     6
 -1.3872942541031286E-01 a       607     0    41     1     7
 -1.1774216981683365E+00 a       608     0    41     1     8
  2.3193224027981402E-01 a       609     0    41     1     9
  1.1122895170813242E-01 a       610     0    41     1    10
  3.8294480004321896E-01 a       611     0    41     1    11
 -1.3718214128572792E+00 a       612     0    41     1    12
  5.3931322365614032E-01 a       613     0    41     1    13
 -8.1526699619599274E-01 a       614     0    41     1    14
  3.0076712778515585E-01 a       615     0    41     1    15
 -7.9216517348008408E-01 a       616     0    42     1     1
 -1.5503484885521582E-01 a       617     0    42     1     2
 -7.1033994704414419E-02 a       618     0    42     1     3
 -5.4896050437730781E-01 a       619     0    42     1     4
  3.8321732528878205E-01 a       620     0    42     1     5
 -3.4896898879697358E-01 a       621     0    42     1     6
  4.9213323280490651E-01 a       622     0    42     1     7
 -2.3922901279688838E-01 a       623     0    42     1     8
 -1.1562116724979485E-01 a       624     0    42     1     9
 -4.2601915758361364E-01 a       625     0    42     1    10
 -1.6613296547533465E-01 a       626     0    42     1    11
 -3.2070589223512452E-01 a       627     0    42     1    12
 -9.6688623561869413E-01 a       628     0    42     1    13
  6.6507408202279794E-01 a       629     0    42     1    14
  1.0983572653851559E+00 a       630     0    42     1    15
  7.2678312447634208E-01 a       631     0    43     1     1
  7.1759056530497967E-01 a       632     0    43     1     2
  1.1626264744998439E-01 a       633     0    43     1     3
  7.6269675120102820E-01 a       634     0    43     1     4
  4.4685523886343242E-01 a       635     0    43     1     5
 -7.5649325532606893E-01 a       636     0    43     1     6
  2.2359373311647990E-01 a       637     0    43     1     7
 -2.1735165363547249E-01 a       638     0    43     1     8
 -5.2123338490105930E-01 a       639     0    43     1     9
 -9.6500248485434370E-01 a       640     0    43     1    10
  1.2437933389545311E-01 a       641     0    43     1    11
  5.2159453450213311E-01 a       642     0    43     1    12
  4.4401114212630566E-01 a       643     0    43     1    13
  8.5207491523540591E-01 a       644     0    43     1    14
 -4.5409530612167270E-01 a       645     0    43     1    15
 -6.1523553589294189E-01 a       646     0    44     1     1
  4.3497065500373566E-01 a       647     0    44     1     2
 -1.8402165251517222E-01 a       648     0    44     1     3
  3.1613081867987752E-01 a       649     0    44     1     4
  8.1006153249464397E-01 a       650     0    44     1     5
 -4.7953091891409133E-01 a       651     0    44     1     6
  7.3167675534829291E-01 a       652     0    44     1     7
 -5.0696571636883692E-01 a       653     0    44     1     8
  2.9138620581986081E-02 a       654     0    44     1     9
  5.6434461947153958E-01 a       655     0    44     1    10
 -1.3189083109984728E-01 a       656     0    44     1    11
 -4.1587119338061457E-01 a       657     0    44     1    12
 -1.2517472103176919E+00 a       658     0    44     1    13
  2.3723488100393680E-01 a       659     0    44     1    14
  2.3208418413001836E-01 a       660     0    44     1    15
  3.0795465411965184E-01 a       661     0    45     1     1
  1.4038132509239443E-01 a       662     0    45     1     2
 -5.1900850502443829E-01 a       663     0    45     1     3
 -4.9771244986839530E-01 a       664     0    45     1     4
 -3.0545032826139606E-01 a       665     0    45     1     5
 -5.2738513297333783E-02 a       666     0    45     1     6
 -5.8580382801938669E-01 a       667     0    45     1     7
 -1.0573830881962021E-01 a       668     0    45     1     8
  1.2452208012639663E+00 a       669     0    45     1     9
 -2.1334916934303530E-01 a       670     0    45     1    10
  1.9782672408179605E-01 a       671     0    45     1    11
 -5.1956544781577596E-01 a       672     0    45     1    12
  2.6393348023494845E-01 a       673     0    45     1    13
 -1.2947328192946821E+00 a       674     0    45     1    14
 -6.3242259134738976E-01 a       675     0    45     1    15
  5.9548941694323065E-01 a       676     0    46     1     1
 -1.7087673524196495E-01 a       677     0    46     1     2
 -7.7674427454860140E-01 a       678     0    46     1     3
 -3.3244074648948430E-01 a       679     0    46     1     4
  3.3481278293470118E-01 a       680     0    46     1     5
  1.0292995267272766E+00 a       681     0    46     1     6
 -4.5550149268678836E-01 a       682     0    46     1     7
  5.5058219752223758E-01 a       683     0    46     1     8
 -1.7919042125753581E+00 a       684     0    46     1     9
  7.1823307064768430E-02 a       685     0    46     1    10
  2.8188544464533638E-03 a       686     0    46     1    11
 -4.8347271102031131E-01 a       687     0    46     1    12
  1.3550021452699190E-01 a       688     0    46     1    13
  3.3294143012500693E-01 a       689     0    46     1    14
 -1.3413612104363195E-02 a       690     0    46     1    15
  2.9222630447909131E-01 a       691     0    47     1     1
  2.2090304531239939E-02 a       692     0    47     1     2
  3.7719562970761178E-01 a       693     0    47     1     3
  4.1234586309176396E-01 a       694     0    47     1     4
  1.4167947634591474E-01 a       695     0    47     1     5
  3.1066070630268944E-01 a       696     0    47     1     6
 -5.6494166201184115E-01 a       697     0    47     1     7
 -2.0336466251953320E-01 a       698     0    47     1     8
  7.4394969798470578E-01 a       699     0    47     1     9
 -1.1341392538705208E-01 a       700     0    47     1    10
  6.1059376560252188E-01 a       701     0    47     1    11
  1.1745488348723948E-01 a       702     0    47     1    12
 -4.6274599500967606E-01 a       703     0    47     1    13
  2.7357697999687958E-01 a       704     0    47     1    14
 -5.8350466124221123E-01 a       705     0    47     1    15
 -1.5336113001182778E-02 a       706     0    48     1     1
  3.8385779407123133E-01 a       707     0    48     1     2
  3.8279156264502651E-01 a       708     0    48     1     3
  2.2365141618858356E-01 a       709     0    48     1     4
  5.3030556655353600E-01 a       710     0    48     1     5
  4.3040853529810064E-01 a       711     0    48     1     6
 -6.4872391992436484E-01 a       712     0    48     1     7
 -5.5916129496616918E-01 a       713     0    48     1     8
  2.1952105092487609E-01 a       714     0    48     1     9
 -7.3279545442969152E-01 a       715     0    48     1    10
 -9.4322291649335588E-02 a       716     0    48     1    11
 -3.3333250819053756E-01 a       717     0    48     1    12
  1.2467963950757119E+00 a       718     0    48     1    13
  1.9292773379743711E-01 a       719     0    48     1    14
 -5.0543630598949263E-01 a       720     0    48     1    15
 -2.8482417692093198E-01 a       721     0    49     1     1
  6.4972360636390392E-01 a       722     0    49     1     2
 -2.7685459677853352E-01 a       723     0    49     1     3
 -1.4682030388951239E-01 a       724     0    49     1     4
 -7.5202618064609239E-01 a       725     0    49     1     5
 -9.2468817126721892E-01 a       726     0    49     1     6
 -2.2857346493210529E-01 a       727     0    49     1     7
 -3.3784254948602704E-01 a       728     0    49     1     8
  3.4593567706275175E-01 a       729     0    49     1     9
  5.6984647341251737E-01 a       730     0    49     1    10
 -7.1441358136904287E-01 a       731     0    49     1    11
 -5.9455333338791452E-02 a       732     0    49     1    12
  4.0495715998820908E-01 a       733     0    49     1    13
  8.8355098987490754E-01 a       734     0    49     1    14
 -1.2552611171277508E-01 a       735     0    49     1    15
  6.5559996747330751E-01 a       736     0    50     1     1
 -6.5458789188481126E-01 a       737     0    50     1     2
  9.6191496801116591E-02 a       738     0    50     1     3
  4.5623320985474269E-01 a       739     0    50     1     4
 -4.6076408615034675E-01 a       740     0    50     1     5
  3.4450412184278140E-01 a       741     0    50     1     6
 -2.8072443617338466E-01 a       742     0    50     1     7
 -5.7340692654241832E-01 a       743     0    50     1     8
  9.8078158123426007E-01 a       744     0    50     1     9
 -1.0461019828527419E-01 a       745     0    50     1    10
  3.3063088419362530E-01 a       746     0    50     1    11
  3.6675240879807069E-01 a       747     0    50     1    12
  2.8979391213500721E-01 a       748     0    50     1    13
 -6.3923543347385758E-01 a       749     0    50     1    14
 -4.3252160254297478E-01 a       750     0    50     1    15
 -1.9682430156370131E-01 a       751     0    51     1     1
  4.1574834207686201E-01 a       752     0    51     1     2
 -1.3479881661820764E-01 a       753     0    51     1     3
 -6.1992409691982782E-02 a       754     0    51     1     4
 -1.5311773334951952E-02 a       755     0    51     1     5
  6.1023463954080293E-01 a       756     0    51     1     6
  8.2385339117323730E-01 a       757     0    51     1     7
 -2.3506381999868189E-01 a       758     0    51     1     8
 -5.7334761466417961E-01 a       759     0    51     1     9
  1.1598947204203035E-01 a       760     0    51     1    10
 -2.0226200088877574E-01 a       761     0    51     1    11
  1.0319986817682083E+00 a       762     0    51     1    12
 -3.2099242432655700E-01 a       763     0    51     1    13
  1.6908745601420899E-01 a       764     0    51     1    14
  5.5284820236468990E-01 a       765     0    51     1    15
 -9.3272460095284768E-02 a       766     0    52     1     1
 -1.3279473469498081E-02 a       767     0    52     1     2
 -1.9500239237877276E-01 a       768     0    52     1     3
 -3.6814342492524782E-01 a       769     0    52     1     4
  4.1378379422698716E-02 a       770     0    52     1     5
  1.7644364800435150E-01 a       771     0    52     1     6
  5.6137998748685844E-02 a       772     0    52     1     7
 -1.3473646420089849E-01 a       773     0    52     1     8
  5.2965709443381404E-01 a       774     0    52     1     9
 -4.0603581826079016E-01 a       775     0    52     1    10
  4.3113141302618746E-01 a       776     0    52     1    11
  2.0475853945843439E-01 a       777     0    52     1    12
 -1.3212571897951508E-02 a       778     0    52     1    13
  2.3201661476835064E-01 a       779     0    52     1    14
 -5.5094839066666124E-01 a       780     0    52     1    15
 -2.5335756435531659E-01 a       781     0    53     1     1
 -1.2697841098063073E-01 a       782     0    53     1     2
  1.7519614430583577E-01 a       783     0    53     1     3
  6.5524037926470990E-01 a       784     0    53     1     4
  2.5310298066576703E-01 a       785     0    53     1     5
  2.8899691631452684E-01 a       786     0    53     1     6
 -1.6553609617684625E-01 a       787     0    53     1     7
  1.2638903853923708E-01 a       788     0    53     1     8
  5.2827264981223276E-01 a       789     0    53     1     9
 -1.1691192223485902E-01 a       790     0    53     1    10
 -4.2287283021074852E-02 a       791     0    53     1    11
  5.6608619907377755E-01 a       792     0    53     1    12
 -3.9174438089656605E-01 a       793     0    53     1    13
  1.0670316147068120E+00 a       794     0    53     1    14
 -5.2148276274872507E-01 a       795     0    53     1    15
  1.2563016844547220E-01 a       796     0    54     1     1
  4.5679926545332222E-01 a       797     0    54     1     2
 -1.2971873808160309E-01 a       798     0    54     1     3
 -1.1964047427977563E-01 a       799     0    54     1     4
 -4.4995389073956443E-01 a       800     0    54     1     5
 -5.2713069245109856E-01 a       801     0    54     1     6
 -1.7098548413518357E-02 a       802     0    54     1     7
 -8.2602664482686231E-02 a       803     0    54     1     8
  1.2447992939999451E-01 a       804     0    54     1     9
  4.5471899094733315E-01 a       805     0    54     1    10
  2.9351594605766274E-01 a       806     0    54     1    11
  3.5975594112043618E-01 a       807     0    54     1    12
  6.7934017458497531E-02 a       808     0    54     1    13
 -3.9823698563223803E-01 a       809     0    54     1    14
 -7.7905699690589347E-01 a       810     0    54     1    15
 -3.3021216232101464E-01 a       811     0    55     1     1
  6.7685503274493730E-01 a       812     0    55     1     2
  4.7163441605036710E-01 a       813     0    55     1     3
 -2.9397560376817594E-01 a       814     0    55     1     4
 -2.4098363692666797E-02 a       815     0    55     1     5
  6.5983012796040863E-01 a       816     0    55     1     6
 -8.9342153863180795E-01 a       817     0    55     1     7
 -1.0352462857504682E-01 a       818     0    55     1     8
  1.9796295759277074E-01 a       819     0    55     1     9
  3.2783416515871577E-01 a       820     0    55     1    10
 -2.5283074011465415E-02 a       821     0    55     1    11
 -6.5797429350036685E-02 a       822     0    55     1    12
 -1.3548023859751865E-01 a       823     0    55     1    13
 -5.3528149043009732E-01 a       824     0    55     1    14
  1.0252213938585888E+00 a       825     0    55     1    15
  1.6891000487813862E-01 a       826     0    56     1     1
 -1.0106251571272408E-01 a       827     0    56     1     2
  3.7618255879578683E-01 a       828     0    56     1     3
 -1.9361422699544739E-01 a       829     0    56     1     4
 -2.5433641452489408E-01 a       830     0    56     1     5
 -2.8620733807569176E-01 a       831     0    56     1     6
  1.3407454839259317E-01 a       832     0    56     1     7
  9.4392782086060042E-04 a       833     0    56     1     8
  2.1436029871953410E-01 a       834     0    56     1     9
 -2.4838915616397103E-01 a       835     0    56     1    10
 -2.0288149498970676E-01 a       836     0    56     1    11
  3.3186711252740436E-01 a       837     0    56     1    12
  3.7839162271136556E-01 a       838     0    56     1    13
 -1.9996805658670239E-01 a       839     0    56     1    14
  4.2768897629149150E-02 a       840     0    56     1    15
 -9.7486501342156931E-02 a       841     0    57     1     1
 -1.0303313259856957E+00 a       842     0    57     1     2
  3.2719246972707466E-01 a       843     0    57     1     3
 -4.5232312068755193E-02 a       844     0    57     1     4
  1.9490930550194460E-01 a       845     0    57     1     5
  2.9645159611037292E-01 a       846     0    57     1     6
 -6.2938594245137724E-01 a       847     0    57     1     7
  1.1049404987938399E-01 a       848     0    57     1     8
 -4.6614950366488828E-01 a       849     0    57     1     9
  5.7603386153055514E-01 a       850     0    57     1    10
 -7.3834650766239379E-02 a       851     0    57     1    11
  4.6263751988049812E-01 a       852     0    57     1    12
  5.9665332967749729E-02 a       853     0    57     1    13
  3.7676193186440216E-01 a       854     0    57     1    14
  3.5571764908878312E-01 a       855     0    57     1    15
 -1.1691312186068695E-01 a       856     0    58     1     1
 -8.1312269582998109E-01 a       857     0    58     1     2
 -1.5920415932783680E-01 a       858     0    58     1     3
 -1.1828726331954253E-01 a       859     0    58     1     4
 -6.7822448677556907E-02 a       860     0    58     1     5
  9.2337362200795609E-02 a       861     0    58     1     6
 -2.6705808900241029E-01 a       862     0    58     1     7
  8.8716083758670128E-02 a       863     0    58     1     8
  8.8930105482869282E-02 a       864     0    58     1     9
 -8.8627848829458777E-01 a       865     0    58     1    10
  6.7797501092198315E-02 a       866     0    58     1    11
  1.5105868180705187E-01 a       867     0    58     1    12
 -8.8277873583161512E-03 a       868     0    58     1    13
  4.0291635743358450E-02 a       869     0    58     1    14
  3.8205699421132933E-01 a       870     0    58     1    15
 -6.1971074561238459E-02 a       871     0    59     1     1
  2.5618723917670216E-01 a       872     0    59     1     2
 -2.3991783481106463E-01 a       873     0    59     1     3
 -5.3644362830350256E-01 a       874     0    59     1     4
 -1.3237075972070494E-01 a       875     0    59     1     5
 -3.1697894482971628E-01 a       876     0    59     1     6
 -7.5562426217408276E-03 a       877     0    59     1     7
  1.9676550347342431E-01 a       878     0    59     1     8
 -5.3943335992602870E-01 a       879     0    59     1     9
  1.1815427288281335E-01 a       880     0    59     1    10
 -2.9766493011686163E-01 a       881     0    59     1    11
 -2.0613442180204183E-01 a       882     0    59     1    12
  4.4229167245609324E-01 a       883     0    59     1    13
 -1.4323030212214238E-01 a       884     0    59     1    14
  4.2045053871181393E-01 a       885     0    59     1    15
  2.1059144118655844E-02 a       886     0    60     1     1
 -7.1724548185884396E-01 a       887     0    60     1     2
 -6.1160019438682468E-02 a       888     0    60     1     3
 -1.1164853426380004E-01 a       889     0    60     1     4
 -1.3213917192222477E-01 a       890     0    60     1     5
 -7.2258068832008984E-02 a       891     0    60     1     6
  1.1188463113411526E-01 a       892     0    60     1     7
  2.9724292812285186E-01 a       893     0    60     1     8
 -1.4429668908147511E-01 a       894     0    60     1     9
  3.9003506053295961E-01 a       895     0    60     1    10
 -1.0472633165699933E-02 a       896     0    60     1    11
  3.1643993350571142E-01 a       897     0    60     1    12
 -4.8070303966953476E-01 a       898     0    60     1    13
  3.5479998510147610E-02 a       899     0    60     1    14
  4.5763634271220527E-01 a       900     0    60     1    15
  1.6668415783402049E-01 a       901     0    61     1     1
 -4.0164286177375436E-01 a       902     0    61     1     2
 -1.4097046335807784E-01 a       903     0    61     1     3
  1.9885729021601792E-01 a       904     0    61     1     4
  3.2661276132895672E-01 a       905     0    61     1     5
  9.8858480165613083E-01 a       906     0    61     1     6
  3.2449091726116891E-01 a       907     0    61     1     7
  2.0693315473936216E-01 a       908     0    61     1     8
 -2.9318496823538254E-01 a       909     0    61     1     9
 -4.4327096509212260E-01 a       910     0    61     1    10
  4.0860117949788788E-01 a       911     0    61     1    11
 -6.1657477838673931E-02 a       912     0    61     1    12
 -2.1875551839404919E-01 a       913     0    61     1    13
 -1.6304811327980928E-01 a       914     0    61     1    14
  8.3372874029621666E-02 a       915     0    61     1    15
 -1.7175021228444107E-01 a       916     0    62     1     1
  9.7350956024363877E-01 a       917     0    62     1     2
 -1.3067083295325183E-01 a       918     0    62     1     3
 -3.0306012654459880E-01 a       919     0    62     1     4
  5.0971799261764573E-02 a       920     0    62     1     5
 -2.5248562050825204E-02 a       921     0    62     1     6
 -1.3382904489996977E-01 a       922     0    62     1     7
  4.6138107901004477E-01 a       923     0    62     1     8
 -4.1795131832659504E-01 a       924     0    62     1     9
  6.6480044441212999E-02 a       925     0    62     1    10
 -1.4516973482865655E-01 a       926     0    62     1    11
 -2.7567141502775123E-02 a       927     0    62     1    12
 -2.1579401382619401E-01 a       928     0    62     1    13
  3.3682051314519157E-01 a       929     0    62     1    14
  5.8633816316772357E-02 a       930     0    62     1    15
  9.1257999893103930E-02 a       931     0    63     1     1
 -7.3989821172229756E-02 a       932     0    63     1     2
 -1.3727477694569012E-01 a       933     0    63     1     3
  1.5621604269354464E-01 a       934     0    63     1     4
 -4.0215400546838248E-03 a       935     0    63     1     5
 -4.1861629084942586E-01 a       936     0    63     1     6
 -1.3935530116011899E-01 a       937     0    63     1     7
  4.4135502866989029E-02 a       938     0    63     1     8
  2.9607258650304435E-01 a       939     0    63     1     9
 -4.4894980920960020E-01 a       940     0    63     1    10
  3.2652664487634558E-03 a       941     0    63     1    11
 -4.8501828757853671E-01 a       942     0    63     1    12
 -3.2301128764337023E-01 a       943     0    63     1    13
 -2.0616094949469346E-01 a       944     0    63     1    14
 -2.1998214879587791E-01 a       945     0    63     1    15
  6.1263338232530093E-02 a       946     0    64     1     1
 -5.2344127780342842E-01 a       947     0    64     1     2
  3.8998096809900379E-01 a       948     0    64     1     3
  2.9908027785865471E-01 a       949     0    64     1     4
 -2.7113725252171011E-02 a       950     0    64     1     5
  1.0601706864368426E-01 a       951     0    64     1     6
 -3.5204047284766360E-01 a       952     0    64     1     7
  2.4109912642061681E-03 a       953     0    64     1     8
  1.1528636462415022E-01 a       954     0    64     1     9
  3.7915055413022697E-01 a       955     0    64     1    10
 -3.4330195159933846E-01 a       956     0    64     1    11
 -4.7165980804708463E-02 a       957     0    64     1    12
  7.8953424762380695E-02 a       958     0    64     1    13
 -3.4713749227122720E-01 a       959     0    64     1    14
 -1.8775223743300715E-01 a       960     0    64     1    15
 -1.8492318342221155E+00 b       961     1     1
 -8.7839752322682074E-01 b       962     1     2
 -5.5915161422305693E-01 b       963     1     3
 -2.5393678487449162E-01 b       964     1     4
  6.1611475502651759E-02 b       965     1     5
  1.2625897010365521E-02 b       966     1     6
 -4.1796042017090812E-01 b       967     1     7
  3.2736046432106836E-01 b       968     1     8
 -6.8686602257168006E-01 b       969     1     9
  5.6944837901875378E-01 b       970     1    10
  1.0232316370580881E-01 b       971     1    11
 -7.7807481460636507E-01 b       972     1    12
  4.0750667464306128E-01 b       973     1    13
 -3.7502930290018627E-01 b       974     1    14
 -4.2273209575937226E-01 b       975     1    15
  1.1449374442446469E+00 a       976     1     1     2     1
 -1.8758637978011490E+00 a       977     1     1     2     2
  3.0637419901810632E+00 a       978     1     1     2     3
  1.5002084905141841E+00 a       979     1     1     2     4
 -1.3881140038411390E+00 a       980     1     1     2     5
 -2.0373312731875140E-01 a       981     1     1     2     6
 -8.0701681932085090E-01 a       982     1     1     2     7
  7.4384419767194965E-01 a       983     1     1     2     8
 -7.2349524798706721E-01 a       984     1     1     2     9
 -5.8250339397845807E-01 a       985     1     1     2    10
  2.4741944106545449E-01 a       986     1     1     2    11
  5.4833910851321355E-01 a       987     1     1     2    12
 -2.7503041523630312E-01 a       988     1     1     2    13
 -7.7714623301012573E-02 a       989     1     1     2    14
 -2.8457719009782188E-02 a       990     1     1     2    15
 -8.8019008736027152E-02 a       991     1     2     2     1
  2.3267892323581382E-02 a       992     1     2     2     2
 -1.4591518633200962E-01 a       993     1     2     2     3
  1.1290604446099677E+00 a       994     1     2     2     4
 -9.9294607067332674E-02 a       995     1     2     2     5
  3.6934442932200058E-02 a       996     1     2     2     6
 -6.3948575941874897E-01 a       997     1     2     2     7
 -7.8020593166755225E-01 a       998     1     2     2     8
 -9.0733803266513174E-02 a       999     1     2     2     9
  9.1780521614238586E-01 a      1000     1     2     2    10
  4.7508937374543425E-01 a      1001     1     2     2    11
 -2.3151131514220363E-01 a      1002     1     2     2    12
 -2.7818384831260601E-01 a      1003     1     2     2    13
  3.1116885371620728E-01 a      1004     1     2     2    14
  2.4509162542767998E-01 a      1005     1     2     2    15
  6.7408124926898988E-02 a      1006     1     3     2     1
  3.2000198648227324E-01 a      1007     1     3     2     2
 -6.2560525726788085E-01 a      1008     1     3     2     3
 -3.2377668502358325E-01 a      1009     1     3     2     4
  3.0818618619589794E-01 a      1010     1     3     2     5
  6.3843010151524104E-01 a      1011     1     3     2     6
  7.1023783279005159E-01 a      1012     1     3     2     7
  1.6539326743576990E+00 a      1013     1     3     2     8
 -6.8505926856656363E-01 a      1014     1     3     2     9
  7.9929298561304374E-01 a      1015     1     3     2    10
 -1.1193364782099333E+00 a      1016     1     3     2    11
 -2.6176022197789667E-01 a      1017     1     3     2    12
  1.2205171653037294E-01 a      1018     1     3     2    13
  4.7224276562467143E-01 a      1019     1     3     2    14
 -9.7029689831732754E-02 a      1020     1     3     2    15
  2.2595933463558780E-02 a      1021     1     4     2     1
  2.0949559395626199E-01 a      1022     1     4     2     2
 -1.5285471713088785E+00 a      1023     1     4     2     3
  2.8316499928205957E-01 a      1024     1     4     2     4
  3.6206427733329394E-01 a      1025     1     4     2     5
 -3.2190645977612670E-01 a      1026     1     4     2     6
 -8.2323275039038502E-01 a      1027     1     4     2     7
  4.8395374319601320E-01 a      1028     1     4     2     8
  1.6040189330334200E+00 a      1029     1     4     2     9
  2.1825016989505502E-01 a      1030     1     4     2    10
  6.8925728622926818E-01 a      1031     1     4     2    11
 -7.7931861849801047E-03 a      1032     1     4     2    12
  5.4579866075690942E-01 a      1033     1     4     2    13
 -7.3473237950786163E-01 a      1034     1     4     2    14
  3.1114774122573491E-02 a      1035     1     4     2    15
 -4.4110382931171255E-01 a      1036     1     5     2     1
  1.2437643285123939E-01 a      1037     1     5     2     2
  1.2023820961770555E+00 a      1038     1     5     2     3
 -7.0347279301176036E-01 a      1039     1     5     2     4
 -6.6952986412787829E-01 a      1040     1     5     2     5
  7.0651802801262387E-01 a      1041     1     5     2     6
 -6.6070426909493563E-01 a      1042     1     5     2     7
 -6.2346881304028934E-01 a      1043     1     5     2     8
 -3.4691956071358832E-01 a      1044     1     5     2     9
 -7.7683633934882243E-02 a      1045     1     5     2    10
  3.5744911774645971E-01 a      1046     1     5     2    11
  4.3865782993157904E-01 a      1047     1     5     2    12
  1.5004968831910936E-01 a      1048     1     5     2    13
  3.8580227122220084E-01 a      1049     1     5     2    14
 -8.8231613493735828E-01 a      1050     1     5     2    15
 -6.6782302159730789E-01 a      1051     1     6     2     1
 -4.6338910893547619E-01 a      1052     1     6     2     2
 -1.9896264341767875E-01 a      1053     1     6     2     3
 -4.6101500987011662E-01 a      1054     1     6     2     4
 -2.5271823976830110E-01 a      1055     1     6     2     5
 -9.4561012088921936E-01 a      1056     1     6     2     6
  4.7283117720646228E-01 a      1057     1     6     2     7
 -1.0617310576061365E+00 a      1058     1     6     2     8
  5.5113938785879080E-01 a      1059     1     6     2     9
 -9.2279971115320125E-01 a      1060     1     6     2    10
  1.4137793670017271E+00 a      1061     1     6     2    11
  4.8471097032887284E-01 a      1062     1     6     2    12
  3.1076587772929115E-01 a      1063     1     6     2    13
  3.9656161913825844E-01 a      1064     1     6     2    14
  1.5865583170210082E-01 a      1065     1     6     2    15
  6.2793568180325954E-01 a      1066     1     7     2     1
 -7.3389948365425173E-01 a      1067     1     7     2     2
  4.5952721052934520E-01 a      1068     1     7     2     3
  5.1964661237643706E-01 a      1069     1     7     2     4
 -4.3561695376332288E-01 a      1070     1     7     2     5
  2.0938051819838075E-02 a      1071     1     7     2     6
 -8.7332428638721549E-01 a      1072     1     7     2     7
 -9.9872838002937603E-01 a      1073     1     7     2     8
 -1.2734099492797951E-01 a      1074     1     7     2     9
 -9.2591734247182456E-01 a      1075     1     7     2    10
 -1.7440343409464437E-01 a      1076     1     7     2    11
  5.1846254295066885E-01 a      1077     1     7     2    12
 -3.2219639918861637E-01 a      1078     1     7     2    13
 -2.3939422341588035E-01 a      1079     1     7     2    14
  2.3312975801808942E-02 a      1080     1     7     2    15
  2.3950455563245829E-01 a      1081     1     8     2     1
  7.3617943958849841E-01 a      1082     1     8     2     2
 -1.1688342069104569E+00 a      1083     1     8     2     3
  7.2925739266646605E-01 a      1084     1     8     2     4
 -9.9312064583646192E-02 a      1085     1     8     2     5
  6.8305949824273715E-01 a      1086     1     8     2     6
  1.1427598820156002E+00 a      1087     1     8     2     7
 -1.3616858867530809E-01 a      1088     1     8     2     8
  1.2904454621262245E+00 a      1089     1     8     2     9
  9.9985615156420915E-01 a      1090     1     8     2    10
 -1.2648271713722261E+00 a      1091     1     8     2    11
  9.2879684693609055E-01 a      1092     1     8     2    12
  4.2794241816246176E-01 a      1093     1     8     2    13
 -9.5732808666323799E-01 a      1094     1     8     2    14
 -2.0001584795694941E-01 a      1095     1     8     2    15
  3.5286618733585340E-01 a      1096     1     9     2     1
  5.6624719360857181E-02 a      1097     1     9     2     2
  6.4274651997946763E-01 a      1098     1     9     2     3
 -1.2099505168647910E-02 a      1099     1     9     2     4
 -1.0547447842956532E+00 a      1100     1     9     2     5
  8.1789517246208010E-01 a      1101     1     9     2     6
  1.7326283295551897E-02 a      1102     1     9     2     7
 -1.5480422241519071E-01 a      1103     1     9     2     8
 -2.1448053372054021E-01 a      1104     1     9     2     9
 -2.2574240303893292E-01 a      1105     1     9     2    10
 -4.4203506066740769E-02 a      1106     1     9     2    11
  5.2580660295420434E-01 a      1107     1     9     2    12
 -6.6558662419139936E-01 a      1108     1     9     2    13
  4.8430787459962688E-01 a      1109     1     9     2    14
 -1.8678058999482805E-01 a      1110     1     9     2    15
 -6.0201244874864146E-01 a      1111     1    10     2     1
 -6.7738012273886306E-01 a      1112     1    10     2     2
  9.5268272408192037E-02 a      1113     1    10     2     3
 -1.3055338564071439E+00 a      1114     1    10     2     4
 -1.0891670247188698E+00 a      1115     1    10     2     5
 -5.6635050332644632E-01 a      1116     1    10     2     6
 -1.4751252499137453E-02 a      1117     1    10     2     7
  8.3696732749022618E-01 a      1118     1    10     2     8
  1.8347806339885542E+00 a      1119     1    10     2     9
  9.7023795344799224E-01 a      1120     1    10     2    10
 -1.3746131235772288E+00 a      1121     1    10     2    11
 -1.3357997217947751E-01 a      1122     1    10     2    12
 -5.7885058185285121E-01 a      1123     1    10     2    13
  6.8381346745243277E-01 a      1124     1    10     2    14
  4.7523076117279844E-01 a      1125     1    10     2    15
  1.5159262948520699E-01 a      1126     1    11     2     1
 -8.3684283547699648E-02 a      1127     1    11     2     2
 -5.6730069232820635E-01 a      1128     1    11     2     3
  1.3116787304863120E-01 a      1129     1    11     2     4
 -9.0644324769984227E-02 a      1130     1    11     2     5
  1.6801207673374657E-02 a      1131     1    11     2     6
  5.0355432801118483E-01 a      1132     1    11     2     7
 -5.1299511512805174E-01 a      1133     1    11     2     8
  4.2153992067428048E-01 a      1134     1    11     2     9
  1.3710500738762749E-01 a      1135     1    11     2    10
 -4.4649520597435227E-01 a      1136     1    11     2    11
 -1.1225128826742871E-01 a      1137     1    11     2    12
 -5.7903622452749082E-01 a      1138     1    11     2    13
  1.8691129760251837E-01 a      1139     1    11     2    14
  3.9805226951328576E-01 a      1140     1    11     2    15
  8.1207061448767395E-02 a      1141     1    12     2     1
  5.3343399375763045E-01 a      1142     1    12     2     2
 -1.0962758115872790E+00 a      1143     1    12     2     3
 -1.2056723881214308E+00 a      1144     1    12     2     4
  5.0926414734298875E-01 a      1145     1    12     2     5
  1.8604181155118832E-01 a      1146     1    12     2     6
  5.3140982900087352E-01 a      1147     1    12     2     7
  5.7254889871893466E-01 a      1148     1    12     2     8
  9.6656181877644565E-01 a      1149     1    12     2     9
 -5.8746055430922617E-01 a      1150     1    12     2    10
 -3.8177438298591870E-01 a      1151     1    12     2    11
  8.0326262920443772E-02 a      1152     1    12     2    12
  6.7949562900833027E-01 a      1153     1    12     2    13
 -3.7245723152815985E-01 a      1154     1    12     2    14
 -3.3986341434755285E-01 a      1155     1    12     2    15
  5.3445458535957879E-01 a      1156     1    13     2     1
  7.5660432685127565E-01 a      1157     1    13     2     2
 -1.0103618362760125E+00 a      1158     1    13     2     3
 -1.2088029721559634E+00 a      1159     1    13     2     4
  5.7808725010107864E-01 a      1160     1    13     2     5
  6.3106998098481648E-01 a      1161     1    13     2     6
  6.0835642749756302E-01 a      1162     1    13     2     7
  9.3732121558028769E-01 a      1163     1    13     2     8
 -1.1668429544026748E+00 a      1164     1    13     2     9
 -8.5267222553136257E-01 a      1165     1    13     2    10
  2.6029423362990511E-01 a      1166     1    13     2    11
  4.8155930644829265E-01 a      1167     1    13     2    12
  2.6628513625787331E-01 a      1168     1    13     2    13
 -5.3052885061262123E-01 a      1169     1    13     2    14
 -2.3300616497502155E-01 a      1170     1    13     2    15
  4.5617614132409107E-01 a      1171     1    14     2     1
 -1.0381327243995524E+00 a      1172     1    14     2     2
  2.8878856446187912E-01 a      1173     1    14     2     3
 -4.2620672672622395E-01 a      1174     1    14     2     4
 -7.9861045441474809E-01 a      1175     1    14     2     5
  3.7263292369827816E-01 a      1176     1    14     2     6
  1.9070492837678135E-01 a      1177     1    14     2     7
 -3.7179895540789465E-01 a      1178     1    14     2     8
  2.3731897173414099E-01 a      1179     1    14     2     9
 -3.1677776748721365E-01 a      1180     1    14     2    10
 -1.8365175328952770E+00 a      1181     1    14     2    11
  4.4975926650469555E-01 a      1182     1    14     2    12
  4.0023838054668465E-01 a      1183     1    14     2    13
  3.2352601068206338E-01 a      1184     1    14     2    14
 -5.3206390391825142E-01 a      1185     1    14     2    15
 -5.4714761454232441E-01 a      1186     1    15     2     1
  9.8802481710141929E-02 a      1187     1    15     2     2
  1.7213975658150582E-01 a      1188     1    15     2     3
 -3.3430105457135401E-02 a      1189     1    15     2     4
  7.0972627577181358E-01 a      1190     1    15     2     5
 -2.1623931702809785E-02 a      1191     1    15     2     6
  2.1514521675455628E-01 a      1192     1    15     2     7
  3.9166303129499214E-01 a      1193     1    15     2     8
  4.3190390298816494E-01 a      1194     1    15     2     9
 -4.3908953111593513E-01 a      1195     1    15     2    10
  6.0712185568431143E-01 a      1196     1    15     2    11
  4.9650775310008860E-01 a      1197     1    15     2    12
 -3.1367641476593588E-01 a      1198     1    15     2    13
  1.1880909580282903E+00 a      1199     1    15     2    14
  5.8309687994926240E-01 a      1200     1    15     2    15
  6.5608575052622617E-02 b      1201     2     1
  3.5953313685212157E-01 b      1202     2     2
 -1.5920653915630336E+00 b      1203     2     3
  5.0532150606611226E-01 b      1204     2     4
  3.1263639306753827E-01 b      1205     2     5
 -1.2363085396798010E-01 b      1206     2     6
  1.6028843678556898E-01 b      1207     2     7
  9.3951011756377448E-02 b      1208     2     8
  7.8267337134174442E-02 b      1209     2     9
 -6.5484373016767827E-01 b      1210     2    10
  8.7333890629256716E-01 b      1211     2    11
 -6.0501167396593003E-01 b      1212     2    12
 -4.5699685738176427E-01 b      1213     2    13
 -5.8568470345264434E-01 b      1214     2    14
  3.3629384780876120E-01 b      1215     2    15
  1.1149286095060154E+00 a      1216     2     1     3     1
  6.0973053460058924E-01 a      1217     2     2     3     1
  5.5572944168291283E-01 a      1218     2     3     3     1
 -4.5086978339365300E-02 a      1219     2     4     3     1
  3.2202994825475190E-01 a      1220     2     5     3     1
 -1.3140509014766080E+00 a      1221     2     6     3     1
 -4.1154336867562050E-02 a      1222     2     7     3     1
  3.6804510466232843E-02 a      1223     2     8     3     1
  2.8828879857104800E-01 a      1224     2     9     3     1
  3.3019419560912072E-01 a      1225     2    10     3     1
 -5.5998793839480809E-02 a      1226     2    11     3     1
  4.7149515029744532E-01 a      1227     2    12     3     1
 -3.4567997355615238E-01 a      1228     2    13     3     1
  6.4613265500699768E-01 a      1229     2    14     3     1
 -1.0571320555361867E+00 a      1230     2    15     3     1
 -5.8731987419472498E-01 b      1231     3     1
