################################################################################
# Neural network connection values (weights and biases).
################################################################################
# Col  Name       Description
################################################################################
# 1    connection Neural network connection value.
# 2    t          Connection type (a = weight, b = bias).
# 3    index      Index enumerating weights.
# 4    l_s        Starting point layer (end point layer for biases).
# 5    n_s        Starting point neuron in starting layer (end point neuron for biases).
# 6    l_e        End point layer.
# 7    n_e        End point neuron in end layer.
################################################################################
#                      1 2         3     4     5     6     7
#             connection t     index   l_s   n_s   l_e   n_e
############################################################
 -6.2174327417285340E-02 a         1     0     1     1     1
  5.8724896615954492E-01 a         2     0     1     1     2
 -1.3194413895695556E+00 a         3     0     1     1     3
  3.8901745977118474E-01 a         4     0     1     1     4
  4.1036800724034594E-02 a         5     0     1     1     5
  1.3606761290581804E+00 a         6     0     1     1     6
  9.5286564209396030E-01 a         7     0     1     1     7
 -5.9654720369227887E-01 a         8     0     1     1     8
 -2.7049934820067445E-01 a         9     0     1     1     9
  1.0809586547679104E+00 a        10     0     1     1    10
  7.7978673371362905E-01 a        11     0     1     1    11
 -2.4304686637412659E-01 a        12     0     1     1    12
  3.1807204247276599E-01 a        13     0     1     1    13
  5.6439783178935221E-01 a        14     0     1     1    14
  8.0028611340255879E-02 a        15     0     1     1    15
  1.3406652861260180E+00 a        16     0     2     1     1
  2.1153125859813038E+00 a        17     0     2     1     2
  4.6752935446166155E-01 a        18     0     2     1     3
 -1.5742620124371958E+00 a        19     0     2     1     4
 -8.3029383415258215E-02 a        20     0     2     1     5
 -2.6564389400692501E-01 a        21     0     2     1     6
  1.6776363746920415E+00 a        22     0     2     1     7
 -1.0013157043748437E+00 a        23     0     2     1     8
 -3.3482665472491675E+00 a        24     0     2     1     9
  7.3428062430510876E-01 a        25     0     2     1    10
  2.1217046234531489E+00 a        26     0     2     1    11
  2.1892955478478799E+00 a        27     0     2     1    12
  2.0811266271402609E+00 a        28     0     2     1    13
 -1.9375204047597225E-01 a        29     0     2     1    14
 -1.5511756921222790E+00 a        30     0     2     1    15
 -4.2405869317445333E-01 a        31     0     3     1     1
 -1.7239700859304505E-01 a        32     0     3     1     2
 -7.2976601943519204E-01 a        33     0     3     1     3
  7.7200412443552147E-01 a        34     0     3     1     4
 -6.9237597298429110E-01 a        35     0     3     1     5
 -1.5038741034546796E-01 a        36     0     3     1     6
  7.4439573125823433E-01 a        37     0     3     1     7
  2.4253070726761222E-01 a        38     0     3     1     8
 -6.2698371907657924E-01 a        39     0     3     1     9
  8.6098287601879639E-02 a        40     0     3     1    10
  6.1306171714996849E-01 a        41     0     3     1    11
  9.6857636649596301E-01 a        42     0     3     1    12
  7.2988917700754219E-01 a        43     0     3     1    13
  7.6265520979861479E-01 a        44     0     3     1    14
 -1.1535912876645681E-01 a        45     0     3     1    15
  2.6766848808106928E-02 a        46     0     4     1     1
 -8.9540609219969436E-01 a        47     0     4     1     2
 -7.0943676724921034E-01 a        48     0     4     1     3
  1.2557095066152864E+00 a        49     0     4     1     4
  1.3438824565683072E+00 a        50     0     4     1     5
  1.5800974224058513E+00 a        51     0     4     1     6
  2.0828902800027222E+00 a        52     0     4     1     7
  1.9261147991902563E+00 a        53     0     4     1     8
  2.7465752303621191E+00 a        54     0     4     1     9
 -9.7463558969206898E-01 a        55     0     4     1    10
 -2.5046604185954693E+00 a        56     0     4     1    11
 -8.6594903877147980E-02 a        57     0     4     1    12
  1.2123320889302272E-01 a        58     0     4     1    13
  1.0134445984272582E+00 a        59     0     4     1    14
 -5.3213294066630523E-01 a        60     0     4     1    15
 -1.6359920811214393E-01 a        61     0     5     1     1
 -1.6282039213620667E-01 a        62     0     5     1     2
  7.3703368668828251E-01 a        63     0     5     1     3
 -9.5314150899988070E-01 a        64     0     5     1     4
  1.0050219313772055E+00 a        65     0     5     1     5
 -4.8935997484219979E-01 a        66     0     5     1     6
 -6.9862232012790737E-01 a        67     0     5     1     7
  5.8776940627357976E-01 a        68     0     5     1     8
  6.7196563124779995E-01 a        69     0     5     1     9
 -3.8512985112784487E-01 a        70     0     5     1    10
 -8.0862934543704612E-01 a        71     0     5     1    11
  5.4243472769241008E-01 a        72     0     5     1    12
 -2.6364229172456244E-01 a        73     0     5     1    13
  3.0938552695313187E-01 a        74     0     5     1    14
  1.2206152340910676E+00 a        75     0     5     1    15
  6.9088955818761635E-02 a        76     0     6     1     1
 -5.7127214598430620E-01 a        77     0     6     1     2
 -9.7254872207472787E-01 a        78     0     6     1     3
  1.3419622375953781E+00 a        79     0     6     1     4
  9.0619929377185626E-01 a        80     0     6     1     5
  7.5200675425812002E-01 a        81     0     6     1     6
  1.7204037445287643E+00 a        82     0     6     1     7
  4.1572230438309599E-01 a        83     0     6     1     8
  2.9485200928511426E+00 a        84     0     6     1     9
 -2.7630868342637371E+00 a        85     0     6     1    10
 -2.2969905322446675E+00 a        86     0     6     1    11
 -1.4267841148439844E+00 a        87     0     6     1    12
  7.8069713277885866E-01 a        88     0     6     1    13
  9.5981556141955104E-01 a        89     0     6     1    14
  1.9547106790644136E-01 a        90     0     6     1    15
 -6.0987855229560339E-01 a        91     0     7     1     1
 -1.1156078848677291E+00 a        92     0     7     1     2
  1.5101222637373752E+00 a        93     0     7     1     3
  6.7486311585831543E-02 a        94     0     7     1     4
  6.4711462647931553E-02 a        95     0     7     1     5
 -2.8021586905772961E-01 a        96     0     7     1     6
 -7.1350962538383478E-01 a        97     0     7     1     7
  7.0734469871932559E-01 a        98     0     7     1     8
  3.0790854388574518E-01 a        99     0     7     1     9
  4.9072396328623136E-01 a       100     0     7     1    10
 -2.4104108598280649E-01 a       101     0     7     1    11
 -2.8154855717606780E-01 a       102     0     7     1    12
  7.0896707950247750E-01 a       103     0     7     1    13
 -9.6670002159089696E-01 a       104     0     7     1    14
  8.6147891032307855E-02 a       105     0     7     1    15
 -1.6969801132466520E+00 a       106     0     8     1     1
  2.6955198954310626E+00 a       107     0     8     1     2
  2.0500062023680701E+00 a       108     0     8     1     3
 -1.0147844745094621E+00 a       109     0     8     1     4
 -1.6778047993315854E+00 a       110     0     8     1     5
 -3.2812118339014216E+00 a       111     0     8     1     6
 -1.9624119808339795E+00 a       112     0     8     1     7
 -4.2851393837013096E-01 a       113     0     8     1     8
 -4.0020756130626705E+00 a       114     0     8     1     9
  1.9462828614571817E+00 a       115     0     8     1    10
  4.3640288265954732E+00 a       116     0     8     1    11
  3.1043878536281605E-01 a       117     0     8     1    12
  1.7625059985475869E-01 a       118     0     8     1    13
 -7.7778379608779769E-01 a       119     0     8     1    14
  4.3154183560356474E-01 a       120     0     8     1    15
  6.2917564749343580E-01 a       121     0     9     1     1
  3.1236031849733603E-01 a       122     0     9     1     2
  9.7474825904136897E-01 a       123     0     9     1     3
 -7.4519534862113368E-01 a       124     0     9     1     4
  1.2645070034281666E-01 a       125     0     9     1     5
 -3.5195188234800739E-01 a       126     0     9     1     6
 -1.5776338300855792E+00 a       127     0     9     1     7
 -8.7287138843122850E-02 a       128     0     9     1     8
 -3.8924632337325960E-01 a       129     0     9     1     9
 -2.4885817557142073E-01 a       130     0     9     1    10
  5.4968028399202795E-01 a       131     0     9     1    11
  9.3920605609289620E-01 a       132     0     9     1    12
  1.0188389728977973E+00 a       133     0     9     1    13
  4.6257944175854791E-02 a       134     0     9     1    14
 -1.0847851388411383E+00 a       135     0     9     1    15
 -4.8339253046620190E-01 a       136     0    10     1     1
 -4.2466301955345536E+00 a       137     0    10     1     2
 -2.4755782910788144E+00 a       138     0    10     1     3
 -2.1117004538772326E+00 a       139     0    10     1     4
  2.1881255260176529E+00 a       140     0    10     1     5
  1.8217518370875783E+00 a       141     0    10     1     6
 -1.0649983409533201E+00 a       142     0    10     1     7
  1.3540621955328083E+00 a       143     0    10     1     8
  2.5763153023310843E+00 a       144     0    10     1     9
  4.6749809507048798E+00 a       145     0    10     1    10
 -1.8864888814990406E+00 a       146     0    10     1    11
 -5.9816970634937194E-01 a       147     0    10     1    12
  2.4829421476045238E-01 a       148     0    10     1    13
 -1.8705030264132311E-01 a       149     0    10     1    14
  4.8646485066272310E-02 a       150     0    10     1    15
 -4.8856863276972484E-01 a       151     0    11     1     1
  1.2612162239092637E+00 a       152     0    11     1     2
 -1.3035010546518340E+00 a       153     0    11     1     3
  7.8681001137685225E-01 a       154     0    11     1     4
  3.3732797953974114E-01 a       155     0    11     1     5
  4.1761852844347386E-01 a       156     0    11     1     6
 -1.0517935664744280E+00 a       157     0    11     1     7
 -8.2713669002493817E-01 a       158     0    11     1     8
  5.2088581112329080E-01 a       159     0    11     1     9
 -8.3652040791849125E-01 a       160     0    11     1    10
 -1.1209580500302168E+00 a       161     0    11     1    11
  4.0201621223996603E-01 a       162     0    11     1    12
  2.0635946613028497E-01 a       163     0    11     1    13
  5.6508377809496335E-01 a       164     0    11     1    14
 -2.9825577741826131E-01 a       165     0    11     1    15
 -1.7713576472659465E-01 a       166     0    12     1     1
  2.2622461118668542E+00 a       167     0    12     1     2
  1.3816745067025935E+00 a       168     0    12     1     3
  2.6242859236153162E+00 a       169     0    12     1     4
 -8.6261120543278080E-01 a       170     0    12     1     5
 -3.0042682420866349E+00 a       171     0    12     1     6
 -1.4491452005573695E+00 a       172     0    12     1     7
 -1.4095141703025902E+00 a       173     0    12     1     8
 -9.1926726937821079E-01 a       174     0    12     1     9
 -3.4537102314031971E+00 a       175     0    12     1    10
  1.5888130981935841E-01 a       176     0    12     1    11
  8.7043716096833501E-01 a       177     0    12     1    12
  4.2343815739381591E-01 a       178     0    12     1    13
  1.0308589705087938E+00 a       179     0    12     1    14
 -1.6399615522078961E+00 a       180     0    12     1    15
 -5.5638784645220540E-01 a       181     0    13     1     1
 -3.8659721901622157E-01 a       182     0    13     1     2
 -5.7084738154985264E-02 a       183     0    13     1     3
 -3.6351403514675767E-01 a       184     0    13     1     4
 -5.8438336136843738E-01 a       185     0    13     1     5
 -3.5505836783527478E-02 a       186     0    13     1     6
  1.1349366193909973E+00 a       187     0    13     1     7
  7.9092327013271124E-01 a       188     0    13     1     8
 -1.0500660310427005E-01 a       189     0    13     1     9
  7.0517637510570941E-01 a       190     0    13     1    10
  3.6249535782725140E-01 a       191     0    13     1    11
  7.3516746383545731E-02 a       192     0    13     1    12
 -1.2112520706315761E+00 a       193     0    13     1    13
 -4.9448556215349870E-01 a       194     0    13     1    14
 -1.7902678033773770E-01 a       195     0    13     1    15
 -7.4148425256436978E-01 a       196     0    14     1     1
 -5.5077718571183980E-02 a       197     0    14     1     2
 -6.0994543422631442E-01 a       198     0    14     1     3
 -4.6158405088594656E-01 a       199     0    14     1     4
 -7.0334765353170639E-02 a       200     0    14     1     5
  1.7102957414106172E+00 a       201     0    14     1     6
  6.8926020605267468E-01 a       202     0    14     1     7
 -1.1689570774121252E-01 a       203     0    14     1     8
  1.1072059453124969E-01 a       204     0    14     1     9
  9.4157097567773795E-01 a       205     0    14     1    10
  2.0154895857166580E-01 a       206     0    14     1    11
  2.3320585214261969E-01 a       207     0    14     1    12
 -1.1899251034653699E+00 a       208     0    14     1    13
 -1.3009203867721724E+00 a       209     0    14     1    14
  4.3413706893121812E-01 a       210     0    14     1    15
  1.6700130774321201E-01 a       211     0    15     1     1
 -7.8008929147031392E-02 a       212     0    15     1     2
  1.1709652623715375E-02 a       213     0    15     1     3
  9.8844689825644524E-02 a       214     0    15     1     4
  2.0070647410635400E-01 a       215     0    15     1     5
 -1.4496874449403510E-01 a       216     0    15     1     6
 -2.5343667471325587E-01 a       217     0    15     1     7
 -3.3236880456689050E-01 a       218     0    15     1     8
 -5.6674277372899505E-02 a       219     0    15     1     9
 -1.5017951960437712E-01 a       220     0    15     1    10
 -5.1984923958924484E-02 a       221     0    15     1    11
 -8.6129959687370902E-02 a       222     0    15     1    12
  1.9730341906771007E-01 a       223     0    15     1    13
  1.0930219416705299E-01 a       224     0    15     1    14
  6.0914760086096080E-03 a       225     0    15     1    15
 -3.0408792950616222E-02 a       226     0    16     1     1
 -3.9984182173323529E-01 a       227     0    16     1     2
 -9.2348230125209058E-03 a       228     0    16     1     3
  2.3141237438933387E-01 a       229     0    16     1     4
  2.0438019363072140E-02 a       230     0    16     1     5
 -5.2378039192437498E-01 a       231     0    16     1     6
  1.8442878628870324E-01 a       232     0    16     1     7
  7.5221712664342452E-02 a       233     0    16     1     8
 -3.9818656538663344E-02 a       234     0    16     1     9
 -8.1217527296098324E-02 a       235     0    16     1    10
 -3.5502966722347234E-02 a       236     0    16     1    11
  2.0976625914322083E-01 a       237     0    16     1    12
  6.1381411546575815E-01 a       238     0    16     1    13
  7.9698580997377824E-02 a       239     0    16     1    14
  2.0369030316468729E-02 a       240     0    16     1    15
 -1.4714583142355270E-01 a       241     0    17     1     1
  7.3601559541815599E-04 a       242     0    17     1     2
 -3.9653656871550530E-01 a       243     0    17     1     3
  3.5133231750311500E-01 a       244     0    17     1     4
 -5.0438585131213676E-01 a       245     0    17     1     5
  2.3450545152956953E-01 a       246     0    17     1     6
  4.9413247261458126E-01 a       247     0    17     1     7
 -2.4408240850912710E-01 a       248     0    17     1     8
  3.6711770457398915E-02 a       249     0    17     1     9
 -3.0459997449312592E-01 a       250     0    17     1    10
 -2.5583003668168638E-02 a       251     0    17     1    11
  7.1447113597919290E-02 a       252     0    17     1    12
 -3.5299153259314781E-01 a       253     0    17     1    13
 -3.3940055193147245E-02 a       254     0    17     1    14
  8.0346099189814654E-02 a       255     0    17     1    15
  1.5383584509657875E-02 a       256     0    18     1     1
  5.9457007461527267E-01 a       257     0    18     1     2
  7.8983986344109480E-01 a       258     0    18     1     3
 -9.4942266350570806E-02 a       259     0    18     1     4
  5.9931526017487924E-01 a       260     0    18     1     5
 -7.8077614559623754E-01 a       261     0    18     1     6
 -1.0660481461738400E+00 a       262     0    18     1     7
 -1.0534459703433998E+00 a       263     0    18     1     8
 -3.0913062965518025E-02 a       264     0    18     1     9
  5.7961473508356753E-01 a       265     0    18     1    10
 -6.0393011830495757E-01 a       266     0    18     1    11
 -3.3656046617467433E-01 a       267     0    18     1    12
  5.8025145050358128E-02 a       268     0    18     1    13
  2.5639171754698270E-01 a       269     0    18     1    14
 -1.6540538314165798E-01 a       270     0    18     1    15
  1.0785985442953234E+00 a       271     0    19     1     1
  1.5734829341054788E+00 a       272     0    19     1     2
 -2.5582542665592478E-01 a       273     0    19     1     3
  4.5619541717983170E-01 a       274     0    19     1     4
 -1.0335677768372546E+00 a       275     0    19     1     5
 -3.5563752142125291E+00 a       276     0    19     1     6
 -1.1176542210864338E+00 a       277     0    19     1     7
 -1.3045931289169950E+00 a       278     0    19     1     8
  2.3772705660170101E-02 a       279     0    19     1     9
  7.3463003340415423E-01 a       280     0    19     1    10
  4.0411122204526286E+00 a       281     0    19     1    11
 -2.6651535659916920E-01 a       282     0    19     1    12
  1.1609629341268268E-01 a       283     0    19     1    13
 -2.4225258830057492E-01 a       284     0    19     1    14
  3.5556345756437280E-01 a       285     0    19     1    15
  3.8189283513208067E-01 a       286     0    20     1     1
  2.1204665151750363E-01 a       287     0    20     1     2
  6.6625381007838891E-01 a       288     0    20     1     3
 -4.5888960487472519E-01 a       289     0    20     1     4
  6.7651623336791034E-01 a       290     0    20     1     5
 -4.0578879640203891E-01 a       291     0    20     1     6
  4.9187081414456202E-01 a       292     0    20     1     7
 -1.2723784555515227E-01 a       293     0    20     1     8
  1.0015566273214280E-01 a       294     0    20     1     9
 -6.5886958048368666E-02 a       295     0    20     1    10
 -2.7488467126380467E-01 a       296     0    20     1    11
  2.2145828693904077E-01 a       297     0    20     1    12
  4.0226895579733507E-01 a       298     0    20     1    13
  6.4524017880604034E-01 a       299     0    20     1    14
 -6.2840096252752575E-01 a       300     0    20     1    15
  7.3024864415285740E-01 a       301     0    21     1     1
 -1.8689967797495768E-01 a       302     0    21     1     2
  7.8746128249211955E-01 a       303     0    21     1     3
 -3.2011288559824130E-01 a       304     0    21     1     4
 -2.2369230522946270E-02 a       305     0    21     1     5
 -3.6479389292618364E-01 a       306     0    21     1     6
 -1.9901847314119139E-01 a       307     0    21     1     7
  9.3925800376641877E-01 a       308     0    21     1     8
  8.9321601226385966E-02 a       309     0    21     1     9
 -5.9239957572949320E-01 a       310     0    21     1    10
  2.9348767994519087E-01 a       311     0    21     1    11
 -2.7871591217148339E-01 a       312     0    21     1    12
 -7.4696695260531831E-01 a       313     0    21     1    13
 -1.7448185130833990E-01 a       314     0    21     1    14
 -2.5443077661031271E-01 a       315     0    21     1    15
 -4.0768960136341320E-02 a       316     0    22     1     1
 -2.2008734910814360E+00 a       317     0    22     1     2
 -3.0169539866933809E-01 a       318     0    22     1     3
  3.7733340464755932E-01 a       319     0    22     1     4
  5.0742028571751419E-01 a       320     0    22     1     5
  1.5319344329248810E+00 a       321     0    22     1     6
  6.8248353281646335E-01 a       322     0    22     1     7
 -2.4536160118446682E+00 a       323     0    22     1     8
 -3.9790246306722560E-01 a       324     0    22     1     9
  5.0853163569905000E+00 a       325     0    22     1    10
 -2.5194787002979191E+00 a       326     0    22     1    11
 -4.2594864247928738E-01 a       327     0    22     1    12
 -1.1551823637146608E+00 a       328     0    22     1    13
  1.9472791961685392E+00 a       329     0    22     1    14
  1.8155183865960152E+00 a       330     0    22     1    15
  3.2790444956976340E-02 a       331     0    23     1     1
  1.0899043982989219E-01 a       332     0    23     1     2
  1.8430879810894457E-01 a       333     0    23     1     3
 -1.2723207043238849E-01 a       334     0    23     1     4
  2.7305637790603438E-01 a       335     0    23     1     5
 -1.7210526961355854E-01 a       336     0    23     1     6
 -5.2071348536777431E-02 a       337     0    23     1     7
 -8.6042430747016327E-02 a       338     0    23     1     8
 -8.2859367492962976E-03 a       339     0    23     1     9
  1.2223555098776100E-01 a       340     0    23     1    10
 -2.0138311736351684E-02 a       341     0    23     1    11
 -9.7568496424337119E-03 a       342     0    23     1    12
  2.5577759573599257E-01 a       343     0    23     1    13
 -1.4156635970190323E-01 a       344     0    23     1    14
  3.4431708812359058E-01 a       345     0    23     1    15
 -5.8109121116121643E-01 a       346     0    24     1     1
 -6.1864963825565666E-01 a       347     0    24     1     2
 -2.1190839105944109E-01 a       348     0    24     1     3
  6.5891249674547750E-02 a       349     0    24     1     4
 -9.3154853258960224E-02 a       350     0    24     1     5
  3.8444633917216581E-01 a       351     0    24     1     6
 -6.1373345922802558E-01 a       352     0    24     1     7
  3.5641890097137718E-01 a       353     0    24     1     8
  6.9168940688885738E-02 a       354     0    24     1     9
  3.3115085241595482E-01 a       355     0    24     1    10
 -1.7124718883501125E-01 a       356     0    24     1    11
  4.4270335371903924E-01 a       357     0    24     1    12
  2.6881353333553199E-02 a       358     0    24     1    13
 -1.3254917361456202E-02 a       359     0    24     1    14
 -5.3311954269049588E-01 a       360     0    24     1    15
 -7.8718795409554287E-01 a       361     0    25     1     1
 -1.7382913943340836E+00 a       362     0    25     1     2
 -1.1731924447575917E+00 a       363     0    25     1     3
  3.6657089918577267E-02 a       364     0    25     1     4
  7.3654328327934601E-02 a       365     0    25     1     5
  8.3543432712763577E-01 a       366     0    25     1     6
  1.0299474185151106E-01 a       367     0    25     1     7
  2.4504354959790149E+00 a       368     0    25     1     8
  2.3993072461835030E-01 a       369     0    25     1     9
 -1.1324540917047692E-01 a       370     0    25     1    10
 -1.2813717708799450E+00 a       371     0    25     1    11
 -1.6937377079465401E+00 a       372     0    25     1    12
  2.7368361671456615E-01 a       373     0    25     1    13
 -3.3939725946748251E+00 a       374     0    25     1    14
 -1.1044157841289428E+00 a       375     0    25     1    15
 -1.5554437352659362E-01 a       376     0    26     1     1
 -1.4135176583835060E-01 a       377     0    26     1     2
 -3.3880150977539814E-01 a       378     0    26     1     3
  2.1991519616699001E-01 a       379     0    26     1     4
 -4.9899799320550658E-01 a       380     0    26     1     5
  4.0397574716001261E-01 a       381     0    26     1     6
 -7.5538386102799351E-02 a       382     0    26     1     7
  2.7420223473188954E-01 a       383     0    26     1     8
 -3.6617801521418129E-02 a       384     0    26     1     9
  1.5629371239716760E-02 a       385     0    26     1    10
  7.0201719237108925E-02 a       386     0    26     1    11
  6.0045089548147971E-03 a       387     0    26     1    12
 -6.4044354194768816E-01 a       388     0    26     1    13
  8.3854425297983204E-02 a       389     0    26     1    14
  3.6225304532028657E-02 a       390     0    26     1    15
  3.5476294832319810E-01 a       391     0    27     1     1
 -4.5553153196677265E-01 a       392     0    27     1     2
  2.5866580281581103E-01 a       393     0    27     1     3
 -2.4356309600490147E-01 a       394     0    27     1     4
 -2.8425170923151033E-01 a       395     0    27     1     5
  1.8833544577338518E-01 a       396     0    27     1     6
 -2.6441073670047216E-01 a       397     0    27     1     7
 -1.6754895984261609E-01 a       398     0    27     1     8
  7.6483748112261773E-02 a       399     0    27     1     9
 -8.2469708359162019E-01 a       400     0    27     1    10
 -2.2788037172219028E-01 a       401     0    27     1    11
 -4.8350573936511781E-01 a       402     0    27     1    12
 -9.9288774153322309E-02 a       403     0    27     1    13
 -6.4509728280122880E-01 a       404     0    27     1    14
  5.0720677995853981E-02 a       405     0    27     1    15
 -1.8565839664775103E+00 a       406     0    28     1     1
  5.1823793169587251E-01 a       407     0    28     1     2
  9.2865712097204123E-01 a       408     0    28     1     3
 -2.5784315605099289E-01 a       409     0    28     1     4
 -6.3255692341211145E-01 a       410     0    28     1     5
  2.4771473908519562E-01 a       411     0    28     1     6
 -1.2985076060920058E+00 a       412     0    28     1     7
  1.5940836705830246E+00 a       413     0    28     1     8
  2.1337597322784910E-01 a       414     0    28     1     9
 -3.6528906571937552E+00 a       415     0    28     1    10
  1.3903053085850374E+00 a       416     0    28     1    11
  1.6038406037416597E+00 a       417     0    28     1    12
  3.5738141038886551E-01 a       418     0    28     1    13
  2.2095555399704292E+00 a       419     0    28     1    14
  9.5271352970571405E-02 a       420     0    28     1    15
  3.6346370092408370E-01 a       421     0    29     1     1
 -1.3997522823487357E-01 a       422     0    29     1     2
  3.2609554523348416E-01 a       423     0    29     1     3
 -3.4846094880153278E-01 a       424     0    29     1     4
  2.4332404568185811E-01 a       425     0    29     1     5
 -7.2522485125465483E-02 a       426     0    29     1     6
 -5.2256687983475836E-01 a       427     0    29     1     7
  5.5987485323708952E-01 a       428     0    29     1     8
 -7.4723948854670055E-02 a       429     0    29     1     9
  1.0758454009465851E-01 a       430     0    29     1    10
  2.6593063969987574E-01 a       431     0    29     1    11
 -3.8947476281916332E-01 a       432     0    29     1    12
  5.1136113456812948E-01 a       433     0    29     1    13
 -5.7551343482196793E-01 a       434     0    29     1    14
 -2.7121100413122429E-01 a       435     0    29     1    15
 -2.0052088470295579E-01 a       436     0    30     1     1
 -1.0081097072278256E-01 a       437     0    30     1     2
 -8.2945189526493790E-01 a       438     0    30     1     3
  4.2282586268476757E-01 a       439     0    30     1     4
  2.9600848847019787E-02 a       440     0    30     1     5
 -1.2876506853271782E-01 a       441     0    30     1     6
  1.7430559071021439E+00 a       442     0    30     1     7
 -1.1424089091601428E-01 a       443     0    30     1     8
  2.5959810464395006E-01 a       444     0    30     1     9
 -9.6799664384131656E-01 a       445     0    30     1    10
  5.1025979991687331E-01 a       446     0    30     1    11
 -2.0933504638831479E-01 a       447     0    30     1    12
 -1.7709037624908833E-01 a       448     0    30     1    13
  2.0558429179506946E-01 a       449     0    30     1    14
 -1.9500795792618789E-01 a       450     0    30     1    15
 -1.0659419269226402E+00 a       451     0    31     1     1
 -1.2325028538349292E+00 a       452     0    31     1     2
  1.6670251110582655E-02 a       453     0    31     1     3
 -6.5599045347155016E-01 a       454     0    31     1     4
 -1.3380726430576129E+00 a       455     0    31     1     5
  1.1705021028468623E+00 a       456     0    31     1     6
 -2.2301227427248418E+00 a       457     0    31     1     7
  5.9134237458569372E-01 a       458     0    31     1     8
  2.6506050149462018E-01 a       459     0    31     1     9
 -3.5975005723272901E+00 a       460     0    31     1    10
 -1.4532730221342316E+00 a       461     0    31     1    11
 -1.8261746143977589E-01 a       462     0    31     1    12
 -4.6143401214515939E-01 a       463     0    31     1    13
  4.5340598020939515E-01 a       464     0    31     1    14
 -1.7373472111456947E-01 a       465     0    31     1    15
  1.5124146237444816E-01 a       466     0    32     1     1
  2.9523737296482921E-01 a       467     0    32     1     2
 -9.0469946227350040E-01 a       468     0    32     1     3
  4.7460599053051211E-01 a       469     0    32     1     4
 -5.0788070730542534E-01 a       470     0    32     1     5
  4.4213002843197136E-01 a       471     0    32     1     6
  7.0088524059141355E-01 a       472     0    32     1     7
 -8.0448549247865779E-06 a       473     0    32     1     8
 -1.1968133988731236E-01 a       474     0    32     1     9
  5.0026723793370798E-01 a       475     0    32     1    10
  7.3610686632252911E-02 a       476     0    32     1    11
  2.9548357672760472E-01 a       477     0    32     1    12
  2.1497197781388949E-02 a       478     0    32     1    13
 -9.4973603709640836E-02 a       479     0    32     1    14
  6.9492470729548428E-01 a       480     0    32     1    15
  7.2019242265536063E-02 a       481     0    33     1     1
  7.5279094909975264E-01 a       482     0    33     1     2
 -1.0007243214576840E+00 a       483     0    33     1     3
  3.3860642467575184E-04 a       484     0    33     1     4
 -8.4854786079067115E-02 a       485     0    33     1     5
  6.1671093479235561E-01 a       486     0    33     1     6
  1.1777648079517573E+00 a       487     0    33     1     7
 -2.3140684119653412E+00 a       488     0    33     1     8
  3.6229852557951275E-02 a       489     0    33     1     9
  1.8741233713420954E-01 a       490     0    33     1    10
 -1.6797311189040798E+00 a       491     0    33     1    11
  1.4909753088223746E-01 a       492     0    33     1    12
 -4.9290120892552608E-02 a       493     0    33     1    13
 -1.9601190447650602E-01 a       494     0    33     1    14
 -4.1803544070183572E-02 a       495     0    33     1    15
  1.5917163280174396E+00 a       496     0    34     1     1
  1.0378203105904424E+00 a       497     0    34     1     2
  1.5589705735983335E+00 a       498     0    34     1     3
 -1.2419802806134855E-01 a       499     0    34     1     4
  1.1135251607467358E+00 a       500     0    34     1     5
  8.9946214872222829E-01 a       501     0    34     1     6
  1.3131748855200174E+00 a       502     0    34     1     7
  6.1136277487275525E-01 a       503     0    34     1     8
 -4.3316008207252266E-01 a       504     0    34     1     9
 -8.3076038313322220E-01 a       505     0    34     1    10
 -3.6151685508613959E-02 a       506     0    34     1    11
  4.9466033866319620E-01 a       507     0    34     1    12
  2.4679976237065890E-01 a       508     0    34     1    13
 -4.8109937722502683E-01 a       509     0    34     1    14
  3.7464824468865228E+00 a       510     0    34     1    15
 -3.4163708089901906E-01 a       511     0    35     1     1
 -1.3854724681981956E-01 a       512     0    35     1     2
 -2.2291138506245750E-01 a       513     0    35     1     3
  1.4811757039025314E-01 a       514     0    35     1     4
 -2.5254937760697133E-01 a       515     0    35     1     5
  1.7472970305322241E-01 a       516     0    35     1     6
  1.6183033218267748E-01 a       517     0    35     1     7
  5.6421147313131033E-02 a       518     0    35     1     8
  8.8104315331679756E-03 a       519     0    35     1     9
 -4.6805787197815335E-02 a       520     0    35     1    10
 -3.7757765124179735E-02 a       521     0    35     1    11
  1.6069575762843599E-01 a       522     0    35     1    12
 -4.5971235731100396E-01 a       523     0    35     1    13
  2.2073372957244308E-01 a       524     0    35     1    14
 -5.6377047645738565E-01 a       525     0    35     1    15
  5.9017008253166116E-02 a       526     0    36     1     1
 -2.0375803697408915E-01 a       527     0    36     1     2
 -2.2925377214556489E-01 a       528     0    36     1     3
 -2.3429847072809859E-01 a       529     0    36     1     4
 -8.9431923042330042E-01 a       530     0    36     1     5
 -9.9030757122111790E-02 a       531     0    36     1     6
  4.1317468288120351E-01 a       532     0    36     1     7
  8.1626563585051515E-01 a       533     0    36     1     8
 -1.3750882965227901E-01 a       534     0    36     1     9
 -4.0354506050656103E-01 a       535     0    36     1    10
  5.3690466752189991E-01 a       536     0    36     1    11
 -5.1424937870154797E-01 a       537     0    36     1    12
  1.0655564623432003E+00 a       538     0    36     1    13
 -2.6022403680579764E-01 a       539     0    36     1    14
  3.0856580967442371E-01 a       540     0    36     1    15
 -4.6913075397161963E-01 a       541     0    37     1     1
 -1.1182813457698654E-01 a       542     0    37     1     2
  1.4413527128472703E-01 a       543     0    37     1     3
 -4.1802352435414525E-01 a       544     0    37     1     4
 -1.4614736338679271E+00 a       545     0    37     1     5
  1.0445113523172807E+00 a       546     0    37     1     6
 -7.5624271955463074E-01 a       547     0    37     1     7
  9.2995138246794762E-01 a       548     0    37     1     8
 -2.0207861434207394E-01 a       549     0    37     1     9
  6.0360391869269558E-01 a       550     0    37     1    10
  6.2051646273982963E-01 a       551     0    37     1    11
  1.2825709966271610E+00 a       552     0    37     1    12
  1.0819433101110274E+00 a       553     0    37     1    13
  2.6057722199004139E+00 a       554     0    37     1    14
  4.6414419139667668E-01 a       555     0    37     1    15
  3.5753684622226900E-01 a       556     0    38     1     1
  1.1677968577724990E-01 a       557     0    38     1     2
  2.6357911128245487E-01 a       558     0    38     1     3
 -2.1256691337906219E-01 a       559     0    38     1     4
  7.8853925717566761E-02 a       560     0    38     1     5
 -5.4421506547194742E-01 a       561     0    38     1     6
 -4.2822243405163501E-01 a       562     0    38     1     7
 -3.6299932962960768E-01 a       563     0    38     1     8
 -2.6931330286406987E-03 a       564     0    38     1     9
 -2.4964680824459867E-01 a       565     0    38     1    10
  1.6859997523921533E-02 a       566     0    38     1    11
 -4.0464326482245827E-01 a       567     0    38     1    12
 -2.6330285061241787E-01 a       568     0    38     1    13
 -5.5593729769986118E-02 a       569     0    38     1    14
 -8.9454010002119255E-01 a       570     0    38     1    15
 -3.1483624297834095E-01 a       571     0    39     1     1
  6.7106458912593159E-01 a       572     0    39     1     2
  3.4075219226229372E-02 a       573     0    39     1     3
  4.9871437670577279E-01 a       574     0    39     1     4
  7.5911837888081946E-01 a       575     0    39     1     5
 -2.9935774888874067E-01 a       576     0    39     1     6
 -7.0687460490225595E-01 a       577     0    39     1     7
  3.3190455983778466E-01 a       578     0    39     1     8
 -1.9407627673933056E-01 a       579     0    39     1     9
  5.2369706157410278E-01 a       580     0    39     1    10
  5.1053747632208657E-01 a       581     0    39     1    11
 -4.7399791284661943E-02 a       582     0    39     1    12
 -1.3080631724049023E+00 a       583     0    39     1    13
  3.0037823793949198E-01 a       584     0    39     1    14
 -9.6547128665460918E-02 a       585     0    39     1    15
  2.8426035001398536E-01 a       586     0    40     1     1
  1.9842773865529098E-01 a       587     0    40     1     2
  2.5797856293405624E-01 a       588     0    40     1     3
  3.3074014776888694E-01 a       589     0    40     1     4
  1.8199740845006507E+00 a       590     0    40     1     5
 -1.3933706985492826E+00 a       591     0    40     1     6
  1.5196612399079448E+00 a       592     0    40     1     7
 -2.6928953521385677E+00 a       593     0    40     1     8
  5.7085210893559460E-02 a       594     0    40     1     9
  1.3906894575244204E+00 a       595     0    40     1    10
 -5.6492265309944856E-01 a       596     0    40     1    11
 -6.8486383758389988E-02 a       597     0    40     1    12
 -1.5488541822082817E+00 a       598     0    40     1    13
 -3.6312861860731727E+00 a       599     0    40     1    14
 -2.5696573550572759E+00 a       600     0    40     1    15
 -8.1221142872200591E-01 a       601     0    41     1     1
  1.8200655815838993E-01 a       602     0    41     1     2
  5.3652939567587155E-01 a       603     0    41     1     3
  2.8608986581915591E-01 a       604     0    41     1     4
  7.2104242701121901E-01 a       605     0    41     1     5
  7.8849892780137695E-02 a       606     0    41     1     6
 -2.3216067951312733E-01 a       607     0    41     1     7
  2.0973764888093493E-02 a       608     0    41     1     8
  4.3165173281187512E-02 a       609     0    41     1     9
  6.9504739040066113E-02 a       610     0    41     1    10
 -8.0149353870383716E-02 a       611     0    41     1    11
 -2.8807319774734130E-01 a       612     0    41     1    12
  2.5443271189892835E-01 a       613     0    41     1    13
  4.9273135816918739E-01 a       614     0    41     1    14
  2.1785549292021375E-01 a       615     0    41     1    15
  9.4618177292151973E-01 a       616     0    42     1     1
  1.8317997691474339E-01 a       617     0    42     1     2
  8.3078756536830900E-01 a       618     0    42     1     3
 -1.7224831310762315E-01 a       619     0    42     1     4
 -3.2188297939267602E-01 a       620     0    42     1     5
  5.1115168697712676E-01 a       621     0    42     1     6
  4.9896742442788816E-01 a       622     0    42     1     7
  3.3965061128283264E-01 a       623     0    42     1     8
 -1.2063302219751920E-01 a       624     0    42     1     9
 -2.5068886647069888E-01 a       625     0    42     1    10
 -9.1112351401067979E-02 a       626     0    42     1    11
 -7.0762902283140816E-01 a       627     0    42     1    12
 -3.1516501837280558E-01 a       628     0    42     1    13
 -7.2010337312174905E-02 a       629     0    42     1    14
  1.7843878819570086E-01 a       630     0    42     1    15
  9.4288416572481892E-01 a       631     0    43     1     1
 -7.2019537066173289E-01 a       632     0    43     1     2
  7.9342105517947556E-02 a       633     0    43     1     3
  1.0138922351554622E+00 a       634     0    43     1     4
  2.0367213702960867E+00 a       635     0    43     1     5
 -3.3461498575865507E+00 a       636     0    43     1     6
 -9.1801123460430101E-01 a       637     0    43     1     7
 -2.5714343227730843E+00 a       638     0    43     1     8
  3.0293064765056055E-01 a       639     0    43     1     9
  5.6531629710125125E-02 a       640     0    43     1    10
 -2.9681217734446258E-01 a       641     0    43     1    11
  2.2209382349394495E+00 a       642     0    43     1    12
  1.1631909752090723E+00 a       643     0    43     1    13
  9.5362142017953533E-01 a       644     0    43     1    14
 -1.6582270809952531E+00 a       645     0    43     1    15
  2.9281293511194068E-01 a       646     0    44     1     1
 -2.9833129181259938E-01 a       647     0    44     1     2
 -2.7243468590738273E-01 a       648     0    44     1     3
 -3.7540333182335062E-01 a       649     0    44     1     4
 -8.9680413223444677E-01 a       650     0    44     1     5
 -4.1291070258205437E-01 a       651     0    44     1     6
  4.1253061229771015E-01 a       652     0    44     1     7
 -4.0843884596455979E-02 a       653     0    44     1     8
 -8.5794685947431559E-02 a       654     0    44     1     9
 -9.5359569356296955E-02 a       655     0    44     1    10
  2.3579244650307746E-01 a       656     0    44     1    11
 -3.8749624884155259E-01 a       657     0    44     1    12
 -1.1641352125074198E+00 a       658     0    44     1    13
  2.2344114401949772E-01 a       659     0    44     1    14
  2.8909882149628291E-01 a       660     0    44     1    15
 -3.7979073885265426E-02 a       661     0    45     1     1
 -1.1624966946443764E+00 a       662     0    45     1     2
  9.1539864689696215E-02 a       663     0    45     1     3
 -1.9304233302024879E-01 a       664     0    45     1     4
 -3.4905496787707591E-01 a       665     0    45     1     5
 -3.0085890715531932E-01 a       666     0    45     1     6
 -6.7525819261306896E-01 a       667     0    45     1     7
  9.4397376789799559E-01 a       668     0    45     1     8
 -8.5862425319152350E-02 a       669     0    45     1     9
  7.5678443086728986E-01 a       670     0    45     1    10
  6.8193418923469840E-01 a       671     0    45     1    11
 -2.2911325558859368E-02 a       672     0    45     1    12
  8.4237115582486655E-01 a       673     0    45     1    13
  4.9354449569134290E-02 a       674     0    45     1    14
  1.1023903653926130E-02 a       675     0    45     1    15
  2.2755987553168517E+00 a       676     0    46     1     1
  1.0307589936362802E+00 a       677     0    46     1     2
 -6.4741764195716944E-01 a       678     0    46     1     3
  5.4047407205596198E-01 a       679     0    46     1     4
 -9.8566269496833481E-01 a       680     0    46     1     5
  1.7702291423282808E+00 a       681     0    46     1     6
  2.6156663086116416E+00 a       682     0    46     1     7
  6.0626564578681964E-02 a       683     0    46     1     8
 -1.1926253679167390E-01 a       684     0    46     1     9
  1.5582000706956012E+00 a       685     0    46     1    10
  5.6862423253420713E-01 a       686     0    46     1    11
 -2.1243220448646878E+00 a       687     0    46     1    12
  3.5781190515192285E+00 a       688     0    46     1    13
 -8.4661795268492657E-01 a       689     0    46     1    14
 -8.0086772124336691E-01 a       690     0    46     1    15
  2.7466469764702117E-01 a       691     0    47     1     1
  2.8431335096139415E-01 a       692     0    47     1     2
  2.7428580175677907E-02 a       693     0    47     1     3
 -1.2521032246512231E-01 a       694     0    47     1     4
  1.8022547488753544E-02 a       695     0    47     1     5
 -6.4029282486438119E-02 a       696     0    47     1     6
  1.6381458355601602E-01 a       697     0    47     1     7
 -1.6834628493316353E-01 a       698     0    47     1     8
 -1.6067303777061687E-02 a       699     0    47     1     9
 -6.1170508337456554E-04 a       700     0    47     1    10
 -2.0914077367050958E-03 a       701     0    47     1    11
  6.6755323138835754E-02 a       702     0    47     1    12
  1.5921713839803103E-01 a       703     0    47     1    13
 -4.0211571239732458E-02 a       704     0    47     1    14
  1.7398972831489226E-01 a       705     0    47     1    15
 -3.6349196888272522E-01 a       706     0    48     1     1
 -6.6410423146320910E-03 a       707     0    48     1     2
  3.8873754371060207E-02 a       708     0    48     1     3
 -2.7414381571886828E-02 a       709     0    48     1     4
  4.5011556532491587E-01 a       710     0    48     1     5
 -3.8326401980324507E-03 a       711     0    48     1     6
 -6.4403386762521908E-01 a       712     0    48     1     7
 -5.0893852799873762E-01 a       713     0    48     1     8
  3.9840972714228651E-02 a       714     0    48     1     9
  3.8597063448282620E-01 a       715     0    48     1    10
 -2.2203156642435201E-01 a       716     0    48     1    11
  3.4541825706408325E-01 a       717     0    48     1    12
 -1.8942527928627237E-01 a       718     0    48     1    13
  6.2249126899495288E-01 a       719     0    48     1    14
 -1.8077236637342364E-01 a       720     0    48     1    15
 -1.5306635733720380E+00 a       721     0    49     1     1
  1.3402839617815505E+00 a       722     0    49     1     2
 -4.8870969987116369E-01 a       723     0    49     1     3
 -3.4235925248679799E-01 a       724     0    49     1     4
 -1.0337561734770886E+00 a       725     0    49     1     5
  1.9344519448404731E+00 a       726     0    49     1     6
  1.5337365461224559E+00 a       727     0    49     1     7
  1.1827988300355881E-01 a       728     0    49     1     8
 -8.1510757239235232E-02 a       729     0    49     1     9
  2.8199537973629424E-01 a       730     0    49     1    10
 -3.6790982310856873E-01 a       731     0    49     1    11
 -6.2220307734198921E-01 a       732     0    49     1    12
 -1.0592623391551914E+00 a       733     0    49     1    13
  3.3081261047539745E-01 a       734     0    49     1    14
  1.1286178787894963E+00 a       735     0    49     1    15
 -2.0057934074604339E-01 a       736     0    50     1     1
  1.0785887508322432E-01 a       737     0    50     1     2
  2.4887986904209006E-01 a       738     0    50     1     3
  1.5723286557741850E-01 a       739     0    50     1     4
  6.4839247645480980E-01 a       740     0    50     1     5
  2.0779510901658096E-01 a       741     0    50     1     6
  1.8512670241209675E-01 a       742     0    50     1     7
  4.4380151651114072E-02 a       743     0    50     1     8
  1.6753532241442253E-02 a       744     0    50     1     9
  2.6544232800026036E-02 a       745     0    50     1    10
 -8.2860089472994045E-02 a       746     0    50     1    11
  2.0143676073775299E-01 a       747     0    50     1    12
  2.9343976457321941E-01 a       748     0    50     1    13
 -1.1788016311495546E-01 a       749     0    50     1    14
 -5.0356453634731457E-01 a       750     0    50     1    15
  4.0933682388615494E-01 a       751     0    51     1     1
 -8.6216268384004563E-02 a       752     0    51     1     2
  2.0292910524816174E-01 a       753     0    51     1     3
 -6.1969855055484260E-02 a       754     0    51     1     4
 -2.4758649740264652E-01 a       755     0    51     1     5
 -2.7538119889547345E-02 a       756     0    51     1     6
  6.0835889031826662E-01 a       757     0    51     1     7
 -4.3590718739010470E-01 a       758     0    51     1     8
  7.9731698136615195E-02 a       759     0    51     1     9
 -5.2180724831035397E-01 a       760     0    51     1    10
 -1.6797585052285491E-01 a       761     0    51     1    11
 -1.5736666075794306E-01 a       762     0    51     1    12
  6.4029161883001284E-01 a       763     0    51     1    13
 -1.8928300771504700E-01 a       764     0    51     1    14
  1.7171472726909193E-01 a       765     0    51     1    15
 -5.3467009386302211E-01 a       766     0    52     1     1
 -9.3186780830415450E-01 a       767     0    52     1     2
 -2.9946118314586118E-01 a       768     0    52     1     3
 -1.0320189821121346E+00 a       769     0    52     1     4
 -1.1887592550708110E+00 a       770     0    52     1     5
  7.3473666820981776E-01 a       771     0    52     1     6
 -1.6685603895714818E+00 a       772     0    52     1     7
  2.6195088831035247E+00 a       773     0    52     1     8
  1.1911383468824412E-01 a       774     0    52     1     9
 -1.6859968385204169E+00 a       775     0    52     1    10
  1.6895748070092159E-01 a       776     0    52     1    11
 -4.9473807542273263E-01 a       777     0    52     1    12
 -1.5596149524883205E+00 a       778     0    52     1    13
  2.5309192525514312E-01 a       779     0    52     1    14
  2.3902671726555152E-01 a       780     0    52     1    15
  5.0501530839013364E-01 a       781     0    53     1     1
  2.0518041870234599E-01 a       782     0    53     1     2
 -2.0890515671492396E-01 a       783     0    53     1     3
 -1.0868873082293525E-01 a       784     0    53     1     4
 -3.4847700769570367E-01 a       785     0    53     1     5
  3.2321382616035857E-02 a       786     0    53     1     6
  2.2929480191956497E-01 a       787     0    53     1     7
 -2.2471296470610028E-02 a       788     0    53     1     8
 -3.2944549226581347E-02 a       789     0    53     1     9
 -3.5632557451392485E-03 a       790     0    53     1    10
  6.1031441006478636E-02 a       791     0    53     1    11
  2.0538535515504483E-01 a       792     0    53     1    12
 -1.1062498219069140E-01 a       793     0    53     1    13
 -2.6968293307626567E-01 a       794     0    53     1    14
 -2.3089466509662076E-02 a       795     0    53     1    15
 -4.6587330511001168E-01 a       796     0    54     1     1
 -2.4774967127543299E-01 a       797     0    54     1     2
  1.9260470741762270E-01 a       798     0    54     1     3
  1.0415295399461401E-02 a       799     0    54     1     4
  3.7969290708137149E-01 a       800     0    54     1     5
 -4.6384248830253570E-02 a       801     0    54     1     6
 -5.4903456180288979E-01 a       802     0    54     1     7
 -3.8721361548340483E-01 a       803     0    54     1     8
 -2.5060173713057458E-03 a       804     0    54     1     9
  1.1520351210535766E-01 a       805     0    54     1    10
  1.1807839180879662E-01 a       806     0    54     1    11
  2.7264675318834841E-01 a       807     0    54     1    12
 -4.7317150666429303E-01 a       808     0    54     1    13
  4.7892186092479833E-01 a       809     0    54     1    14
  1.4379207817403813E-01 a       810     0    54     1    15
  1.0659471722185646E-01 a       811     0    55     1     1
  5.0554140314752438E-01 a       812     0    55     1     2
  2.7918687425524152E-01 a       813     0    55     1     3
  3.5322652623415285E-01 a       814     0    55     1     4
  3.1323849894889422E-01 a       815     0    55     1     5
 -1.0507770407967842E+00 a       816     0    55     1     6
  8.9278433777207489E-01 a       817     0    55     1     7
  5.0840578247826840E-01 a       818     0    55     1     8
 -5.1516609733133337E-02 a       819     0    55     1     9
  1.4162968121623398E-01 a       820     0    55     1    10
 -1.5606831069854497E-02 a       821     0    55     1    11
 -4.1255081940725702E-01 a       822     0    55     1    12
 -1.3480573471823734E+00 a       823     0    55     1    13
  6.3541204735151779E-01 a       824     0    55     1    14
  3.2265279663724417E-01 a       825     0    55     1    15
 -2.6834539639407612E-01 a       826     0    56     1     1
 -1.4824806478802466E-01 a       827     0    56     1     2
  2.1014172333778242E-01 a       828     0    56     1     3
  1.2376791187421296E-01 a       829     0    56     1     4
  5.4421999740952953E-01 a       830     0    56     1     5
  1.4857890943277197E-01 a       831     0    56     1     6
 -5.7794718280398794E-01 a       832     0    56     1     7
  3.0236127336916174E-02 a       833     0    56     1     8
  7.3848375840763508E-02 a       834     0    56     1     9
  5.5924586568423078E-03 a       835     0    56     1    10
 -1.2018657126616965E-01 a       836     0    56     1    11
  4.7957221199467007E-02 a       837     0    56     1    12
  9.8043727535530467E-01 a       838     0    56     1    13
 -6.8646629529261011E-02 a       839     0    56     1    14
 -2.3346006704530750E-01 a       840     0    56     1    15
  2.0816834865500417E-01 a       841     0    57     1     1
  4.1036987798144159E-01 a       842     0    57     1     2
  1.0584918412243015E-01 a       843     0    57     1     3
 -2.6226068911859534E-02 a       844     0    57     1     4
  4.0630593689630640E-01 a       845     0    57     1     5
 -2.8503663240072672E-03 a       846     0    57     1     6
 -4.8085309027337417E-02 a       847     0    57     1     7
 -3.9696749788811346E-02 a       848     0    57     1     8
  6.1651761778822069E-02 a       849     0    57     1     9
 -3.3041878053551227E-01 a       850     0    57     1    10
 -1.8153895931783218E-01 a       851     0    57     1    11
 -1.1793379929478592E-01 a       852     0    57     1    12
 -6.6513485422300234E-02 a       853     0    57     1    13
  1.3200792070570405E-01 a       854     0    57     1    14
 -1.6912159353181522E-02 a       855     0    57     1    15
 -7.4407567942632657E-01 a       856     0    58     1     1
 -1.1127621304447759E+00 a       857     0    58     1     2
  4.7844840016855765E-03 a       858     0    58     1     3
 -1.1829516926291030E+00 a       859     0    58     1     4
 -6.1232461256233128E-01 a       860     0    58     1     5
  1.2673406928636293E+00 a       861     0    58     1     6
  6.1336805119028828E-03 a       862     0    58     1     7
  5.6612254157713260E-01 a       863     0    58     1     8
 -7.4284352022030528E-02 a       864     0    58     1     9
 -4.0114615818577792E-01 a       865     0    58     1    10
 -6.8073566703073631E-03 a       866     0    58     1    11
 -4.5215462724434663E-01 a       867     0    58     1    12
  8.0756366613932673E-01 a       868     0    58     1    13
 -8.0830756144728844E-01 a       869     0    58     1    14
  2.1622771910350688E-01 a       870     0    58     1    15
 -2.9354297136537827E-01 a       871     0    59     1     1
 -2.0470999217902455E-01 a       872     0    59     1     2
 -7.3094032363961491E-03 a       873     0    59     1     3
  5.1964457675558039E-02 a       874     0    59     1     4
  4.0385154124793099E-02 a       875     0    59     1     5
 -5.6333126320180409E-03 a       876     0    59     1     6
 -1.0538356128297367E-01 a       877     0    59     1     7
  9.6211109087064248E-02 a       878     0    59     1     8
  1.7118226532524532E-02 a       879     0    59     1     9
 -1.0377891932540146E-02 a       880     0    59     1    10
 -1.6169018879502565E-02 a       881     0    59     1    11
 -9.5023471165293513E-02 a       882     0    59     1    12
 -1.7181048846759492E-01 a       883     0    59     1    13
  3.4048760370005773E-02 a       884     0    59     1    14
 -2.1604152076973465E-01 a       885     0    59     1    15
  2.4294667158056379E-01 a       886     0    60     1     1
  1.7597796364539475E-01 a       887     0    60     1     2
 -1.6145913684295540E-01 a       888     0    60     1     3
  3.7609881221936578E-02 a       889     0    60     1     4
 -1.2815413362369771E-01 a       890     0    60     1     5
 -5.3023821039149460E-02 a       891     0    60     1     6
  2.2421949689293014E-01 a       892     0    60     1     7
  1.8997614254775444E-01 a       893     0    60     1     8
  9.5991255787885254E-04 a       894     0    60     1     9
 -8.1310215100610428E-02 a       895     0    60     1    10
 -1.1989896946957755E-02 a       896     0    60     1    11
 -2.7886680126389399E-02 a       897     0    60     1    12
  1.5244310871907490E-01 a       898     0    60     1    13
 -3.4814287942021660E-01 a       899     0    60     1    14
  4.9324900693947092E-02 a       900     0    60     1    15
  4.3387077557163745E-01 a       901     0    61     1     1
 -8.0607869113968922E-01 a       902     0    61     1     2
  3.4486382043231276E-02 a       903     0    61     1     3
 -2.5370884980741252E-02 a       904     0    61     1     4
 -1.8995265958911856E-01 a       905     0    61     1     5
 -2.0114465133474607E-01 a       906     0    61     1     6
 -6.3834753942646105E-01 a       907     0    61     1     7
  1.2240507185252653E-01 a       908     0    61     1     8
  1.2234884136002667E-02 a       909     0    61     1     9
 -9.7529137702412144E-02 a       910     0    61     1    10
  5.3187988935824333E-02 a       911     0    61     1    11
  3.2947396834385856E-02 a       912     0    61     1    12
 -1.0974992149556292E-01 a       913     0    61     1    13
 -2.9578430713498088E-01 a       914     0    61     1    14
 -2.2137002883653101E-01 a       915     0    61     1    15
  7.3850897656617676E-02 a       916     0    62     1     1
  1.6703824686874291E-01 a       917     0    62     1     2
 -5.7397794989466573E-02 a       918     0    62     1     3
 -5.2009463337741237E-02 a       919     0    62     1     4
 -3.0529715046008460E-01 a       920     0    62     1     5
 -5.5473154072349304E-02 a       921     0    62     1     6
  1.7954250473932051E-01 a       922     0    62     1     7
 -2.1309437960272695E-02 a       923     0    62     1     8
 -2.0304156987473346E-02 a       924     0    62     1     9
  4.1891926234497133E-03 a       925     0    62     1    10
  4.7577524507792103E-02 a       926     0    62     1    11
 -6.2189363485070613E-02 a       927     0    62     1    12
  3.9423354993749500E-02 a       928     0    62     1    13
  8.5164545541350195E-02 a       929     0    62     1    14
  2.9419896978900928E-01 a       930     0    62     1    15
 -1.2438214458126666E-02 a       931     0    63     1     1
  1.0384707041234398E-01 a       932     0    63     1     2
 -1.0072796614176678E-01 a       933     0    63     1     3
  4.6192372695401794E-02 a       934     0    63     1     4
  2.9757901238735437E-02 a       935     0    63     1     5
  6.2430840111898443E-02 a       936     0    63     1     6
 -1.0907063675088884E-01 a       937     0    63     1     7
  7.7768923159965711E-02 a       938     0    63     1     8
 -3.3749513873468452E-02 a       939     0    63     1     9
  1.4501426488652161E-01 a       940     0    63     1    10
  4.6477486835758509E-02 a       941     0    63     1    11
  8.8501510555734741E-02 a       942     0    63     1    12
  1.1466131904653568E-02 a       943     0    63     1    13
 -1.6991948292875961E-01 a       944     0    63     1    14
 -4.2425284112287021E-02 a       945     0    63     1    15
  4.6487364756708649E-01 a       946     0    64     1     1
  4.0279046691197234E-01 a       947     0    64     1     2
  3.9501458386517702E-01 a       948     0    64     1     3
  8.4941280611965031E-01 a       949     0    64     1     4
  1.0517464651752713E+00 a       950     0    64     1     5
 -1.1263181090268957E+00 a       951     0    64     1     6
 -6.6793625197493889E-01 a       952     0    64     1     7
 -7.1548449820295135E-01 a       953     0    64     1     8
  2.2945116979068703E-02 a       954     0    64     1     9
  2.3612447978957871E-01 a       955     0    64     1    10
 -7.1698593494318119E-02 a       956     0    64     1    11
  7.0549477987901987E-01 a       957     0    64     1    12
 -6.7197316408779673E-01 a       958     0    64     1    13
  1.5404758756071761E+00 a       959     0    64     1    14
 -1.5151607767804864E-01 a       960     0    64     1    15
 -2.1150388570050183E-01 b       961     1     1
 -5.3079116123947068E-01 b       962     1     2
 -4.3290363093293129E-02 b       963     1     3
  4.2358108489150936E-01 b       964     1     4
  1.5380554475380964E-01 b       965     1     5
 -6.0597524167408912E-01 b       966     1     6
  2.7207247257019090E-01 b       967     1     7
 -4.8481985152579976E-01 b       968     1     8
  5.4760896676465787E-01 b       969     1     9
  1.0406062977858026E+00 b       970     1    10
  4.8856071354921743E-01 b       971     1    11
  5.0070666880933856E-01 b       972     1    12
  1.9229353444315578E-01 b       973     1    13
  3.9426416226819111E-01 b       974     1    14
 -3.7867844428541003E-01 b       975     1    15
  2.6128336271092323E-01 a       976     1     1     2     1
 -3.8617710431007946E-01 a       977     1     1     2     2
 -5.7625767500299442E-02 a       978     1     1     2     3
 -3.0282240854619319E-01 a       979     1     1     2     4
 -5.8629084912363183E-01 a       980     1     1     2     5
 -3.5108006559519012E-01 a       981     1     1     2     6
 -1.2434358220764967E-01 a       982     1     1     2     7
  2.1473279445425814E-01 a       983     1     1     2     8
  5.9808975285678612E-01 a       984     1     1     2     9
 -7.0496576967820224E-01 a       985     1     1     2    10
 -1.4553492156684950E-01 a       986     1     1     2    11
  1.3140107973772064E+00 a       987     1     1     2    12
  4.5675455886118610E-01 a       988     1     1     2    13
 -1.2968820514343912E-01 a       989     1     1     2    14
  4.8261751026067679E-01 a       990     1     1     2    15
 -3.3471459349122962E-01 a       991     1     2     2     1
  8.7470216087229546E-01 a       992     1     2     2     2
  8.4852456391248166E-01 a       993     1     2     2     3
  4.8663515784786150E-02 a       994     1     2     2     4
  2.4054832322663269E-01 a       995     1     2     2     5
 -5.4137594681576351E-01 a       996     1     2     2     6
 -8.7130011431975329E-01 a       997     1     2     2     7
  7.7673812518512086E-01 a       998     1     2     2     8
 -4.8666134684230661E-01 a       999     1     2     2     9
  9.3331447471228302E-01 a      1000     1     2     2    10
 -4.7411592849154377E-01 a      1001     1     2     2    11
 -1.4836940458536290E+00 a      1002     1     2     2    12
 -4.0040104288429368E-01 a      1003     1     2     2    13
  7.4195735415397113E-01 a      1004     1     2     2    14
 -1.2669379096058284E-01 a      1005     1     2     2    15
 -5.6038706697270224E-01 a      1006     1     3     2     1
 -1.1769681781177747E-01 a      1007     1     3     2     2
 -1.9112829884849741E-01 a      1008     1     3     2     3
  1.7721650871273839E-01 a      1009     1     3     2     4
  7.4247127346260233E-01 a      1010     1     3     2     5
  1.0764382403862527E+00 a      1011     1     3     2     6
  1.2182731886455464E-01 a      1012     1     3     2     7
 -3.1911248526408020E-01 a      1013     1     3     2     8
  7.5341335027179468E-01 a      1014     1     3     2     9
 -1.1205105258613202E+00 a      1015     1     3     2    10
 -5.5318290956520766E-01 a      1016     1     3     2    11
 -1.1915603298258954E+00 a      1017     1     3     2    12
  2.9999752289614195E-02 a      1018     1     3     2    13
 -4.1775037304950485E-01 a      1019     1     3     2    14
  8.3921961831489048E-02 a      1020     1     3     2    15
  1.7477467265370109E-01 a      1021     1     4     2     1
  7.7052319037273331E-01 a      1022     1     4     2     2
  3.5164757705820793E-01 a      1023     1     4     2     3
  1.0082102566725815E-01 a      1024     1     4     2     4
  1.8000823371211255E-01 a      1025     1     4     2     5
 -4.0161666708323385E-01 a      1026     1     4     2     6
 -1.0119944237870564E+00 a      1027     1     4     2     7
  1.8851850290096563E+00 a      1028     1     4     2     8
  1.9982827775999203E+00 a      1029     1     4     2     9
 -1.0297212896874699E+00 a      1030     1     4     2    10
 -3.1663306005116409E-01 a      1031     1     4     2    11
 -4.5959074549087237E-01 a      1032     1     4     2    12
 -2.9410645099159943E-01 a      1033     1     4     2    13
  1.7211063733375778E+00 a      1034     1     4     2    14
 -8.3525955216536751E-01 a      1035     1     4     2    15
  1.0611341862664050E-01 a      1036     1     5     2     1
 -4.0883640857383025E-01 a      1037     1     5     2     2
 -3.0358340410034568E-01 a      1038     1     5     2     3
 -3.2926786462963459E-01 a      1039     1     5     2     4
 -5.1854714119820611E-01 a      1040     1     5     2     5
 -9.7323390905299345E-01 a      1041     1     5     2     6
  1.7277980598746862E-01 a      1042     1     5     2     7
  1.3333554275307509E-02 a      1043     1     5     2     8
 -1.1687652259603477E-01 a      1044     1     5     2     9
  1.0274536419736282E+00 a      1045     1     5     2    10
  2.2141503947805685E-01 a      1046     1     5     2    11
  1.3636237865823109E-01 a      1047     1     5     2    12
  2.9183343051380400E-01 a      1048     1     5     2    13
 -7.4373642381773331E-01 a      1049     1     5     2    14
 -8.3762734457101959E-02 a      1050     1     5     2    15
 -4.2803894917475849E-01 a      1051     1     6     2     1
 -8.7370344547441181E-01 a      1052     1     6     2     2
 -9.2342489815566675E-01 a      1053     1     6     2     3
  8.6571185052338712E-02 a      1054     1     6     2     4
  1.7914791494828730E-01 a      1055     1     6     2     5
 -6.7750408863924527E-01 a      1056     1     6     2     6
 -5.1344813348985918E-01 a      1057     1     6     2     7
  5.6226980381787239E-01 a      1058     1     6     2     8
 -1.3771739582958875E+00 a      1059     1     6     2     9
  1.1746773829679553E+00 a      1060     1     6     2    10
  8.8609460105469129E-01 a      1061     1     6     2    11
  1.0651446344529949E+00 a      1062     1     6     2    12
 -1.7738703188928406E-01 a      1063     1     6     2    13
  2.2498164010685859E-03 a      1064     1     6     2    14
 -7.5690296478384711E-01 a      1065     1     6     2    15
  4.1993707224365950E-01 a      1066     1     7     2     1
 -1.7199797019526192E-01 a      1067     1     7     2     2
  8.5329654623223658E-02 a      1068     1     7     2     3
  1.8034832150528185E-01 a      1069     1     7     2     4
  2.0368982666800678E-01 a      1070     1     7     2     5
  5.2591160572601259E-01 a      1071     1     7     2     6
  2.0318796118237042E-01 a      1072     1     7     2     7
 -8.3691921179502152E-02 a      1073     1     7     2     8
 -4.1789960131247328E-01 a      1074     1     7     2     9
  2.2154202342921750E-01 a      1075     1     7     2    10
  2.4376310271180441E-02 a      1076     1     7     2    11
 -2.3019719401224137E-01 a      1077     1     7     2    12
  1.0859692263672270E-01 a      1078     1     7     2    13
  1.8032860853799701E+00 a      1079     1     7     2    14
 -9.3418201511442700E-02 a      1080     1     7     2    15
 -3.1561668548800537E-01 a      1081     1     8     2     1
 -7.0104843657364835E-01 a      1082     1     8     2     2
 -1.0934442784013823E+00 a      1083     1     8     2     3
  5.4981618909933183E-01 a      1084     1     8     2     4
 -1.2535972022485203E-01 a      1085     1     8     2     5
  1.5057184179086380E+00 a      1086     1     8     2     6
  1.3492747101864254E-02 a      1087     1     8     2     7
 -1.3872758022159211E+00 a      1088     1     8     2     8
 -3.7944274461665239E-01 a      1089     1     8     2     9
 -9.7790212423216583E-01 a      1090     1     8     2    10
 -7.2737843915982509E-02 a      1091     1     8     2    11
 -9.6094997852350872E-01 a      1092     1     8     2    12
 -7.3836624106741944E-01 a      1093     1     8     2    13
 -2.9662688385583116E+00 a      1094     1     8     2    14
 -8.6037199542092491E-01 a      1095     1     8     2    15
  5.7812064299194110E-01 a      1096     1     9     2     1
  4.9990205217858180E-01 a      1097     1     9     2     2
  3.5507328229790330E-01 a      1098     1     9     2     3
 -1.1307114396226949E+00 a      1099     1     9     2     4
  5.3417502946990125E-01 a      1100     1     9     2     5
 -6.7878404409448534E-01 a      1101     1     9     2     6
  2.0171561738782153E+00 a      1102     1     9     2     7
  3.7306634275028794E-01 a      1103     1     9     2     8
  6.9579566399391601E-01 a      1104     1     9     2     9
  1.3104547551402752E+00 a      1105     1     9     2    10
  9.3497184428121188E-02 a      1106     1     9     2    11
 -7.0164660685414959E-01 a      1107     1     9     2    12
 -7.8877293008807636E-01 a      1108     1     9     2    13
 -8.0306006488810899E-01 a      1109     1     9     2    14
 -8.5169131258565778E-01 a      1110     1     9     2    15
  2.0199930032846658E-01 a      1111     1    10     2     1
  4.3483317855629416E-01 a      1112     1    10     2     2
  8.9504997584342272E-01 a      1113     1    10     2     3
 -6.6535045423774175E-01 a      1114     1    10     2     4
  4.4260603326325226E-01 a      1115     1    10     2     5
 -1.1067026624329872E-01 a      1116     1    10     2     6
  4.4695499547132528E-01 a      1117     1    10     2     7
  1.0174989930643799E+00 a      1118     1    10     2     8
  2.1051866403452946E-01 a      1119     1    10     2     9
 -1.2615009670497621E+00 a      1120     1    10     2    10
 -5.1729625383497257E-01 a      1121     1    10     2    11
  1.7495878175752416E-01 a      1122     1    10     2    12
 -3.7608561021433679E-01 a      1123     1    10     2    13
  1.2815953717053350E+00 a      1124     1    10     2    14
  2.0973617853071346E-02 a      1125     1    10     2    15
  3.9756703961008576E-02 a      1126     1    11     2     1
  1.7696284994817452E-01 a      1127     1    11     2     2
  1.1330249515042934E+00 a      1128     1    11     2     3
 -5.7219476115397971E-01 a      1129     1    11     2     4
  8.9344159177877380E-01 a      1130     1    11     2     5
 -5.5460364642176208E-01 a      1131     1    11     2     6
  6.4954266823474971E-01 a      1132     1    11     2     7
 -4.1836650566451522E-01 a      1133     1    11     2     8
 -2.8299382534287071E-01 a      1134     1    11     2     9
 -1.5092842131178177E+00 a      1135     1    11     2    10
  6.3844800021436532E-01 a      1136     1    11     2    11
  3.4528841105722541E-01 a      1137     1    11     2    12
 -1.3832081790285538E+00 a      1138     1    11     2    13
  2.1449653232293237E-01 a      1139     1    11     2    14
 -7.3438965815943835E-01 a      1140     1    11     2    15
  9.4783778430084148E-02 a      1141     1    12     2     1
  2.1631867472520047E-01 a      1142     1    12     2     2
  4.8086264780426619E-01 a      1143     1    12     2     3
 -7.3607558752394453E-01 a      1144     1    12     2     4
  9.0546210722814574E-02 a      1145     1    12     2     5
  3.0898542298431259E-01 a      1146     1    12     2     6
  5.8543383162170515E-01 a      1147     1    12     2     7
 -1.1426217118085447E+00 a      1148     1    12     2     8
  8.5546299300493500E-01 a      1149     1    12     2     9
 -5.2239515463348574E-01 a      1150     1    12     2    10
  1.1928030641953768E+00 a      1151     1    12     2    11
  6.8570230424633205E-01 a      1152     1    12     2    12
  7.3368845073311695E-01 a      1153     1    12     2    13
  6.5968721585602497E-01 a      1154     1    12     2    14
 -5.1347176434074526E-01 a      1155     1    12     2    15
 -4.1447800008590031E-02 a      1156     1    13     2     1
 -5.7401662555198474E-01 a      1157     1    13     2     2
 -1.0563660570193020E-01 a      1158     1    13     2     3
  1.7175514249797122E-01 a      1159     1    13     2     4
  1.6189225526995726E-01 a      1160     1    13     2     5
  3.0512652029840082E-01 a      1161     1    13     2     6
 -2.0843371328489513E-01 a      1162     1    13     2     7
  2.9510517459524271E-03 a      1163     1    13     2     8
 -1.5944938697484054E-01 a      1164     1    13     2     9
 -1.4766851272922188E-01 a      1165     1    13     2    10
 -3.7148372624251880E-01 a      1166     1    13     2    11
 -2.6267491320774977E-01 a      1167     1    13     2    12
 -5.3602079558762072E-01 a      1168     1    13     2    13
  4.2569202100432268E-01 a      1169     1    13     2    14
  1.6277216087634347E-01 a      1170     1    13     2    15
  4.3565729974562639E-01 a      1171     1    14     2     1
  6.7215735477038421E-02 a      1172     1    14     2     2
  5.8224466955627519E-01 a      1173     1    14     2     3
  3.1575467332002893E-01 a      1174     1    14     2     4
 -1.2673636481530068E-01 a      1175     1    14     2     5
  4.8376621429537336E-01 a      1176     1    14     2     6
 -4.1118581202375998E-01 a      1177     1    14     2     7
 -6.7470321266096270E-02 a      1178     1    14     2     8
 -7.5838352507854742E-02 a      1179     1    14     2     9
  2.3579981839716738E-01 a      1180     1    14     2    10
 -1.0876275852779798E+00 a      1181     1    14     2    11
 -9.5244432604149265E-01 a      1182     1    14     2    12
  4.4494149244433935E-02 a      1183     1    14     2    13
  9.9286218148517413E-01 a      1184     1    14     2    14
  5.3130901152210153E-01 a      1185     1    14     2    15
 -7.6114025128003193E-01 a      1186     1    15     2     1
 -5.4189280955161234E-01 a      1187     1    15     2     2
 -5.4031565357816735E-01 a      1188     1    15     2     3
 -6.4740810208858257E-01 a      1189     1    15     2     4
 -4.3575891675945461E-01 a      1190     1    15     2     5
 -8.4764860124861285E-01 a      1191     1    15     2     6
  4.9653243941381048E-01 a      1192     1    15     2     7
 -7.1434210332884251E-01 a      1193     1    15     2     8
  2.2903188337198285E-01 a      1194     1    15     2     9
 -8.3076707125830562E-01 a      1195     1    15     2    10
 -5.5564568487992538E-01 a      1196     1    15     2    11
 -1.7283794435663451E+00 a      1197     1    15     2    12
 -2.2775814107685591E-01 a      1198     1    15     2    13
 -1.0508066714761595E+00 a      1199     1    15     2    14
  3.8715296680496131E-01 a      1200     1    15     2    15
 -1.5155670947189528E-01 b      1201     2     1
 -5.3313757637603720E-01 b      1202     2     2
 -1.7085160629327807E+00 b      1203     2     3
  8.9859770443827558E-01 b      1204     2     4
 -2.1687410101491184E-02 b      1205     2     5
  1.8539985365163443E+00 b      1206     2     6
 -2.7060985710213847E-01 b      1207     2     7
 -1.7055867564708025E+00 b      1208     2     8
  2.3813773621818246E-01 b      1209     2     9
  1.5954486200221620E+00 b      1210     2    10
 -4.8388292619836476E-01 b      1211     2    11
  1.5564047754077967E-01 b      1212     2    12
  1.4315820499365652E+00 b      1213     2    13
 -5.9523840340380253E-02 b      1214     2    14
 -4.2291448237494678E-01 b      1215     2    15
 -8.2165461540588425E-01 a      1216     2     1     3     1
 -4.6985957667957051E-01 a      1217     2     2     3     1
  7.6871012598312949E-01 a      1218     2     3     3     1
  9.6295840108198372E-01 a      1219     2     4     3     1
 -1.0217629498107557E+00 a      1220     2     5     3     1
  2.5885429905521834E-01 a      1221     2     6     3     1
  5.3404757060147601E-01 a      1222     2     7     3     1
  4.0890000201978294E-01 a      1223     2     8     3     1
  2.3221803199461388E-01 a      1224     2     9     3     1
 -9.1767101237095583E-02 a      1225     2    10     3     1
  3.3006240364584188E-01 a      1226     2    11     3     1
 -1.3073925573831696E-01 a      1227     2    12     3     1
  1.8892969620726732E-01 a      1228     2    13     3     1
  6.2055387265472189E-02 a      1229     2    14     3     1
 -4.5530428439723297E-01 a      1230     2    15     3     1
 -5.1767705305993161E-01 b      1231     3     1
