################################################################################
# Neural network connection values (weights and biases).
################################################################################
# Col  Name       Description
################################################################################
# 1    connection Neural network connection value.
# 2    t          Connection type (a = weight, b = bias).
# 3    index      Index enumerating weights.
# 4    l_s        Starting point layer (end point layer for biases).
# 5    n_s        Starting point neuron in starting layer (end point neuron for biases).
# 6    l_e        End point layer.
# 7    n_e        End point neuron in end layer.
################################################################################
#                      1 2         3     4     5     6     7
#             connection t     index   l_s   n_s   l_e   n_e
############################################################
 -8.9161571126082018E-01 a         1     0     1     1     1
 -7.0792703374106536E-01 a         2     0     1     1     2
  6.3261597394140445E-01 a         3     0     1     1     3
 -1.6868996849586728E-02 a         4     0     1     1     4
  1.6599941514093410E+00 a         5     0     1     1     5
 -2.8942504427057369E-01 a         6     0     1     1     6
  1.0376866699685412E+00 a         7     0     1     1     7
 -9.8588707270152676E-01 a         8     0     1     1     8
  2.4576179624037545E-01 a         9     0     1     1     9
 -1.2913298335456032E+00 a        10     0     1     1    10
  2.2088365407401894E-01 a        11     0     1     1    11
 -6.3638169406049927E-01 a        12     0     1     1    12
 -7.6180936207245065E-01 a        13     0     1     1    13
 -4.5272439251040665E-02 a        14     0     1     1    14
  1.1718880532930405E+00 a        15     0     1     1    15
 -5.2613885597872313E-02 a        16     0     2     1     1
  2.7464570852177690E-02 a        17     0     2     1     2
 -1.7499433286925579E+00 a        18     0     2     1     3
  6.7373785940103881E-01 a        19     0     2     1     4
  2.4268713191214215E+00 a        20     0     2     1     5
  1.5497269827188296E+00 a        21     0     2     1     6
 -9.0830462333202244E-01 a        22     0     2     1     7
 -3.8750804869496958E+00 a        23     0     2     1     8
 -1.1550902322344236E+00 a        24     0     2     1     9
 -1.1659116527341366E-01 a        25     0     2     1    10
  3.8657304199409235E+00 a        26     0     2     1    11
  2.4220671565065182E+00 a        27     0     2     1    12
 -1.5463826075523166E+00 a        28     0     2     1    13
  1.8714473104382792E+00 a        29     0     2     1    14
  4.1604751151717726E-03 a        30     0     2     1    15
 -2.0180792748818485E-01 a        31     0     3     1     1
 -7.0359981984026232E-01 a        32     0     3     1     2
 -7.9436150302451514E-01 a        33     0     3     1     3
  6.6521027544700773E-01 a        34     0     3     1     4
 -3.4799240365592582E-01 a        35     0     3     1     5
  1.4594456865837802E-01 a        36     0     3     1     6
  1.1472731954467446E+00 a        37     0     3     1     7
 -8.2474319405345076E-01 a        38     0     3     1     8
  8.6232480145032736E-02 a        39     0     3     1     9
 -3.4442081844504369E-01 a        40     0     3     1    10
  2.4200582549688554E-01 a        41     0     3     1    11
  6.0802255870336464E-01 a        42     0     3     1    12
 -1.5940319744421327E-01 a        43     0     3     1    13
  1.4949753647182526E-01 a        44     0     3     1    14
  5.0293381972728324E-01 a        45     0     3     1    15
 -1.2030181409974550E+00 a        46     0     4     1     1
 -1.7969568688230272E-01 a        47     0     4     1     2
  2.7668789738632351E+00 a        48     0     4     1     3
 -1.7229668466877388E+00 a        49     0     4     1     4
  7.3557610270714557E-01 a        50     0     4     1     5
  1.0735928407482629E+00 a        51     0     4     1     6
  6.5320596415045773E-01 a        52     0     4     1     7
  1.1726383919194892E+00 a        53     0     4     1     8
  5.8766899580893339E-01 a        54     0     4     1     9
 -4.8571228430267782E-01 a        55     0     4     1    10
 -2.7867869248363437E+00 a        56     0     4     1    11
 -1.8391339679045369E+00 a        57     0     4     1    12
  7.0956635692176118E-01 a        58     0     4     1    13
 -1.3726368267214173E+00 a        59     0     4     1    14
 -1.3326088389448432E+00 a        60     0     4     1    15
 -1.0907890657734223E+00 a        61     0     5     1     1
  1.9149786836520986E-02 a        62     0     5     1     2
  6.2783918781158388E-01 a        63     0     5     1     3
 -3.7902853968908146E-01 a        64     0     5     1     4
 -3.0396016727841396E-01 a        65     0     5     1     5
  1.7211664111701236E-01 a        66     0     5     1     6
 -4.9841278116801352E-01 a        67     0     5     1     7
  2.3982904310623551E-01 a        68     0     5     1     8
  3.2769325961031620E-01 a        69     0     5     1     9
  3.3722675190894297E-01 a        70     0     5     1    10
 -3.8381515411616018E-01 a        71     0     5     1    11
 -1.1922755037713992E+00 a        72     0     5     1    12
 -1.5168184340912280E-01 a        73     0     5     1    13
 -2.2885200077958043E-01 a        74     0     5     1    14
 -5.0580363190229982E-01 a        75     0     5     1    15
 -8.5512199156999003E-01 a        76     0     6     1     1
  7.5705802139723322E-01 a        77     0     6     1     2
  2.8853748670516661E+00 a        78     0     6     1     3
 -5.7362823986414024E-01 a        79     0     6     1     4
 -2.4075481147161280E+00 a        80     0     6     1     5
 -2.5433295761869239E+00 a        81     0     6     1     6
  7.9074766374492444E-01 a        82     0     6     1     7
  2.9532381970393327E+00 a        83     0     6     1     8
  2.8358937271530134E+00 a        84     0     6     1     9
 -7.0504738900609620E-01 a        85     0     6     1    10
 -2.4946246509181718E+00 a        86     0     6     1    11
 -3.3416877714821127E+00 a        87     0     6     1    12
  7.9835576298371114E-01 a        88     0     6     1    13
 -3.4230384440541148E+00 a        89     0     6     1    14
 -1.6752706893858310E-01 a        90     0     6     1    15
 -6.8795946407804598E-01 a        91     0     7     1     1
 -3.9847244249496760E-01 a        92     0     7     1     2
  8.9070835620386879E-01 a        93     0     7     1     3
  5.5133925525086169E-01 a        94     0     7     1     4
  1.8491427400357130E-01 a        95     0     7     1     5
 -2.6064914128627581E-01 a        96     0     7     1     6
 -5.7748695476803413E-01 a        97     0     7     1     7
 -1.4465272295986809E-01 a        98     0     7     1     8
  4.7413701281098825E-01 a        99     0     7     1     9
 -5.7448341696210592E-01 a       100     0     7     1    10
 -1.1355196823936600E+00 a       101     0     7     1    11
  1.3221659311571382E-01 a       102     0     7     1    12
 -2.2806996647023003E-01 a       103     0     7     1    13
 -2.7053390529136695E-01 a       104     0     7     1    14
 -1.6004461424290273E+00 a       105     0     7     1    15
  1.1902085534907592E+00 a       106     0     8     1     1
  4.4949020460540628E-01 a       107     0     8     1     2
 -4.3857744566197709E+00 a       108     0     8     1     3
  4.4078886027621396E+00 a       109     0     8     1     4
  1.7479763369715373E+00 a       110     0     8     1     5
 -1.6320406546822188E+00 a       111     0     8     1     6
 -2.8582499119419247E-01 a       112     0     8     1     7
  1.2099056842435120E-01 a       113     0     8     1     8
 -1.1670400703033941E+00 a       114     0     8     1     9
 -7.1907138337555021E-01 a       115     0     8     1    10
  3.3810964947450919E+00 a       116     0     8     1    11
  3.7989517207276617E+00 a       117     0     8     1    12
 -7.4148221519499513E-01 a       118     0     8     1    13
  5.2152369589235752E+00 a       119     0     8     1    14
  1.7027589459226631E+00 a       120     0     8     1    15
  7.0317313549828842E-01 a       121     0     9     1     1
  8.1145281334304920E-01 a       122     0     9     1     2
 -1.3094977193614554E-02 a       123     0     9     1     3
  6.6674081620191572E-01 a       124     0     9     1     4
  2.0846186035635467E-01 a       125     0     9     1     5
  7.7465326146279700E-01 a       126     0     9     1     6
 -1.3289436306005836E-01 a       127     0     9     1     7
 -7.4811013714161567E-01 a       128     0     9     1     8
  5.4115514159564587E-02 a       129     0     9     1     9
 -2.7917050984188224E-01 a       130     0     9     1    10
 -2.2256511748764510E-01 a       131     0     9     1    11
  2.0529819670360999E-01 a       132     0     9     1    12
 -6.9387478442600559E-01 a       133     0     9     1    13
  4.3115815518988965E-02 a       134     0     9     1    14
 -7.2125085991975846E-01 a       135     0     9     1    15
 -6.9455396845847339E-01 a       136     0    10     1     1
 -3.4270569100116971E-01 a       137     0    10     1     2
  2.9770901147559998E+00 a       138     0    10     1     3
  7.7127779415414921E-01 a       139     0    10     1     4
 -1.7507937600707553E+00 a       140     0    10     1     5
  2.2320474959467584E+00 a       141     0    10     1     6
  2.8618277945929094E-01 a       142     0    10     1     7
 -1.0256893262754490E+00 a       143     0    10     1     8
 -4.3575832599326197E-01 a       144     0    10     1     9
  1.1803211759895136E+00 a       145     0    10     1    10
 -7.5308453230981509E-01 a       146     0    10     1    11
 -5.4539892531816703E-01 a       147     0    10     1    12
  1.7877340674834701E+00 a       148     0    10     1    13
 -5.6979656518940596E+00 a       149     0    10     1    14
 -8.1014924653337617E-01 a       150     0    10     1    15
  4.1212069916454747E-01 a       151     0    11     1     1
 -8.8317955460299258E-01 a       152     0    11     1     2
  5.7992360868885218E-01 a       153     0    11     1     3
 -6.5499255725160588E-01 a       154     0    11     1     4
  3.0019545573979695E-01 a       155     0    11     1     5
 -6.8986895901135004E-01 a       156     0    11     1     6
  6.9084453302405667E-03 a       157     0    11     1     7
 -1.2261868229756591E-01 a       158     0    11     1     8
  7.4825726668825854E-01 a       159     0    11     1     9
 -1.6965617255417245E-01 a       160     0    11     1    10
  8.6076751852953226E-01 a       161     0    11     1    11
  3.2968481674282304E-02 a       162     0    11     1    12
 -2.1144279016208589E-01 a       163     0    11     1    13
  1.4860462203151707E-02 a       164     0    11     1    14
 -9.0920334402769787E-01 a       165     0    11     1    15
  8.5283286074214604E-01 a       166     0    12     1     1
  3.3615285281992274E-01 a       167     0    12     1     2
 -1.0517041161993912E+00 a       168     0    12     1     3
 -1.7702511390311702E+00 a       169     0    12     1     4
  1.3637593973349600E+00 a       170     0    12     1     5
 -1.3196882429952246E+00 a       171     0    12     1     6
  1.9906151383751483E+00 a       172     0    12     1     7
  4.6262666584137468E+00 a       173     0    12     1     8
  1.4129474807095486E+00 a       174     0    12     1     9
 -1.4415671718363219E+00 a       175     0    12     1    10
 -7.1667921970220749E-01 a       176     0    12     1    11
 -4.2987828449661930E-01 a       177     0    12     1    12
 -2.0673665900824605E+00 a       178     0    12     1    13
  3.2592304537983194E+00 a       179     0    12     1    14
 -6.0001256737823017E-01 a       180     0    12     1    15
  2.9848603912250476E-01 a       181     0    13     1     1
  7.0407623205733294E-02 a       182     0    13     1     2
  4.9417850198582962E-02 a       183     0    13     1     3
  2.0576036300889480E-01 a       184     0    13     1     4
  5.3865047118175344E-02 a       185     0    13     1     5
  3.1663176123966125E-01 a       186     0    13     1     6
  3.8210497791812834E-02 a       187     0    13     1     7
  4.5321609246835354E-01 a       188     0    13     1     8
 -5.6735065883749491E-01 a       189     0    13     1     9
 -1.6964608152707961E-01 a       190     0    13     1    10
 -2.8030264045526287E-02 a       191     0    13     1    11
 -9.4345184491411091E-02 a       192     0    13     1    12
  5.4405385301933340E-01 a       193     0    13     1    13
 -1.5146267537608527E-01 a       194     0    13     1    14
  1.2155356278764318E+00 a       195     0    13     1    15
  3.3527766481387344E-01 a       196     0    14     1     1
  1.8772725164485620E+00 a       197     0    14     1     2
  1.5180981161028795E-01 a       198     0    14     1     3
  5.2460458054212156E-01 a       199     0    14     1     4
 -8.5407425543854765E-01 a       200     0    14     1     5
  3.4873721092669618E-01 a       201     0    14     1     6
  9.7895863202000624E-02 a       202     0    14     1     7
 -2.4253145265227092E+00 a       203     0    14     1     8
 -2.0135645093223983E-01 a       204     0    14     1     9
  5.7339548175900157E-01 a       205     0    14     1    10
 -6.0947027383318406E-03 a       206     0    14     1    11
  4.7367542175237642E-01 a       207     0    14     1    12
  7.8749267581310711E-01 a       208     0    14     1    13
 -6.6181398197829977E-01 a       209     0    14     1    14
  7.8641760601088928E-01 a       210     0    14     1    15
 -2.2298616377024760E-01 a       211     0    15     1     1
 -1.2164402660288581E-01 a       212     0    15     1     2
 -6.2940457972832084E-02 a       213     0    15     1     3
 -6.3823832714062723E-02 a       214     0    15     1     4
 -1.1540982647829261E-01 a       215     0    15     1     5
 -1.0033689673671120E-01 a       216     0    15     1     6
 -8.2094079722278016E-02 a       217     0    15     1     7
 -5.1894322672303456E-02 a       218     0    15     1     8
  3.5480379792309266E-02 a       219     0    15     1     9
  1.1845794390627278E-01 a       220     0    15     1    10
 -1.3096026926745888E-01 a       221     0    15     1    11
  6.5895178342996699E-02 a       222     0    15     1    12
 -1.2110031928355508E-01 a       223     0    15     1    13
  7.9980036560234266E-02 a       224     0    15     1    14
 -3.0420947915968849E-01 a       225     0    15     1    15
 -7.9829561167848923E-02 a       226     0    16     1     1
 -2.4789644833390045E-01 a       227     0    16     1     2
 -6.9569365883727100E-02 a       228     0    16     1     3
 -2.1094725480961671E-01 a       229     0    16     1     4
  1.3702060112913053E-01 a       230     0    16     1     5
 -6.9690042975711450E-02 a       231     0    16     1     6
 -1.6003899596815765E-01 a       232     0    16     1     7
  5.4981887942877328E-01 a       233     0    16     1     8
 -7.9812541208631529E-02 a       234     0    16     1     9
  3.5494468493873735E-02 a       235     0    16     1    10
 -3.1913725244881630E-01 a       236     0    16     1    11
 -6.0846548549266410E-02 a       237     0    16     1    12
 -2.4130066339203607E-01 a       238     0    16     1    13
  1.6237187824327634E-01 a       239     0    16     1    14
 -2.9862713497220722E-01 a       240     0    16     1    15
  8.7549790749779324E-02 a       241     0    17     1     1
  1.3080795534746961E-01 a       242     0    17     1     2
 -3.1084022520908766E-01 a       243     0    17     1     3
 -1.8866457609638929E-01 a       244     0    17     1     4
  6.8228250594865009E-02 a       245     0    17     1     5
 -1.1723198299708690E-01 a       246     0    17     1     6
  4.4051998235178019E-01 a       247     0    17     1     7
 -2.9014716856630907E-01 a       248     0    17     1     8
  8.3912511614461652E-04 a       249     0    17     1     9
  1.3833735975689926E-01 a       250     0    17     1    10
 -3.8048905882040907E-01 a       251     0    17     1    11
  2.5631311198077339E-01 a       252     0    17     1    12
 -3.1346261546290982E-01 a       253     0    17     1    13
  4.4388939514448875E-02 a       254     0    17     1    14
 -1.7893821447295896E-01 a       255     0    17     1    15
  6.7781933917658144E-01 a       256     0    18     1     1
  9.3150026756470650E-01 a       257     0    18     1     2
  8.7670060849081888E-01 a       258     0    18     1     3
  5.7088444249495585E-01 a       259     0    18     1     4
  1.0183893060954687E-01 a       260     0    18     1     5
  6.9815662479493512E-01 a       261     0    18     1     6
 -5.6080726299150241E-01 a       262     0    18     1     7
 -1.8252857002674139E-01 a       263     0    18     1     8
  6.8606084696248382E-01 a       264     0    18     1     9
  6.2150294194362610E-01 a       265     0    18     1    10
  1.0697632539093709E+00 a       266     0    18     1    11
  5.8057314592185039E-01 a       267     0    18     1    12
  1.7736869853098027E+00 a       268     0    18     1    13
 -2.4729898300682293E-01 a       269     0    18     1    14
  2.8481153324043740E-01 a       270     0    18     1    15
 -1.0896544223474320E+00 a       271     0    19     1     1
 -1.8546347412560533E+00 a       272     0    19     1     2
  4.7388687865769258E-01 a       273     0    19     1     3
 -1.1590195569099284E+00 a       274     0    19     1     4
 -1.1133269455210629E-01 a       275     0    19     1     5
 -1.1262313819127847E+00 a       276     0    19     1     6
  1.4158213620521494E+00 a       277     0    19     1     7
  8.9600620358265504E-01 a       278     0    19     1     8
 -2.5820264429108488E+00 a       279     0    19     1     9
  6.0123165196868145E-01 a       280     0    19     1    10
  1.1087609660257982E+00 a       281     0    19     1    11
  2.1463922568324865E+00 a       282     0    19     1    12
 -2.5414440749738763E+00 a       283     0    19     1    13
  1.2639134188107097E+00 a       284     0    19     1    14
  2.3085362804600646E+00 a       285     0    19     1    15
  2.1377049386092842E-01 a       286     0    20     1     1
  1.3423768101323286E-02 a       287     0    20     1     2
  3.9041849463212336E-01 a       288     0    20     1     3
  3.7963982671563506E-01 a       289     0    20     1     4
 -4.4464791516790714E-01 a       290     0    20     1     5
 -7.5373554832159212E-02 a       291     0    20     1     6
  4.1298741776854685E-02 a       292     0    20     1     7
 -8.0628526026639488E-02 a       293     0    20     1     8
 -9.6599672634323586E-01 a       294     0    20     1     9
  6.5781463304186050E-01 a       295     0    20     1    10
  4.3079581198572325E-01 a       296     0    20     1    11
 -7.5000954190349037E-02 a       297     0    20     1    12
  5.0902943788924127E-01 a       298     0    20     1    13
 -4.7637107170801662E-02 a       299     0    20     1    14
  7.8661761596676005E-01 a       300     0    20     1    15
  1.2565203931841176E+00 a       301     0    21     1     1
  1.0227948394144366E-01 a       302     0    21     1     2
 -4.8599124463823273E-01 a       303     0    21     1     3
  1.8348445345184993E-03 a       304     0    21     1     4
 -1.2256800152493774E-01 a       305     0    21     1     5
  1.7165544487030493E-01 a       306     0    21     1     6
 -9.0246715573513137E-01 a       307     0    21     1     7
  4.5364197597328926E-01 a       308     0    21     1     8
 -8.8992531303658196E-02 a       309     0    21     1     9
  9.5256452075767539E-01 a       310     0    21     1    10
 -8.1505746432117554E-02 a       311     0    21     1    11
 -3.4867006404877515E-01 a       312     0    21     1    12
 -1.4359374668780567E-01 a       313     0    21     1    13
  5.2851802229790579E-02 a       314     0    21     1    14
  4.7197077730520298E-01 a       315     0    21     1    15
 -1.2864574331701695E+00 a       316     0    22     1     1
  1.5608006117046480E-01 a       317     0    22     1     2
  1.0446330298975759E+00 a       318     0    22     1     3
  3.9868957209041436E+00 a       319     0    22     1     4
 -1.1799483138833418E+00 a       320     0    22     1     5
  1.7248404533217323E+00 a       321     0    22     1     6
 -8.6284386946943215E-01 a       322     0    22     1     7
  1.2567279365565918E+00 a       323     0    22     1     8
  6.1483207070349077E-01 a       324     0    22     1     9
  1.8455443045948559E+00 a       325     0    22     1    10
 -2.0094766705914138E+00 a       326     0    22     1    11
 -6.5280481940886970E-01 a       327     0    22     1    12
  2.0550753477601078E+00 a       328     0    22     1    13
 -1.3404774323700968E+00 a       329     0    22     1    14
 -1.3434286078228337E+00 a       330     0    22     1    15
 -4.1380835734618487E-01 a       331     0    23     1     1
 -3.4664811329465539E-01 a       332     0    23     1     2
  8.4281547320856715E-02 a       333     0    23     1     3
  2.1489197152943090E-01 a       334     0    23     1     4
  3.4799233390044218E-02 a       335     0    23     1     5
 -4.8821665877467980E-02 a       336     0    23     1     6
 -2.1514035680413010E-01 a       337     0    23     1     7
 -1.6079078547895950E-01 a       338     0    23     1     8
  5.2503740915963562E-02 a       339     0    23     1     9
 -8.1834460691145153E-02 a       340     0    23     1    10
  2.7155729335092586E-02 a       341     0    23     1    11
 -1.7555173581593123E-01 a       342     0    23     1    12
 -2.4190699771970570E-03 a       343     0    23     1    13
 -2.8382809609843785E-02 a       344     0    23     1    14
  2.7738590043684236E-01 a       345     0    23     1    15
 -6.9906952139126632E-01 a       346     0    24     1     1
  3.4469752548625832E-01 a       347     0    24     1     2
 -4.4380459717993109E-01 a       348     0    24     1     3
 -3.4545544088286095E-01 a       349     0    24     1     4
 -6.9457844849316841E-01 a       350     0    24     1     5
 -3.3322273453647255E-01 a       351     0    24     1     6
  1.5426300915116900E-01 a       352     0    24     1     7
 -2.9805877039124107E-01 a       353     0    24     1     8
 -7.4161755570942256E-01 a       354     0    24     1     9
  2.9427160940409747E-01 a       355     0    24     1    10
 -6.6227667144905022E-01 a       356     0    24     1    11
 -7.3659582921246955E-02 a       357     0    24     1    12
 -5.2390672139014705E-01 a       358     0    24     1    13
  1.2680808298907031E-01 a       359     0    24     1    14
  3.4174656666429776E-01 a       360     0    24     1    15
  3.8717356881580561E-01 a       361     0    25     1     1
 -7.0688245322637733E-01 a       362     0    25     1     2
 -1.7759501634522588E+00 a       363     0    25     1     3
  6.8567894071319557E-01 a       364     0    25     1     4
 -9.7144656210364788E-01 a       365     0    25     1     5
  1.8092008343144902E-01 a       366     0    25     1     6
 -1.4844589949414480E-01 a       367     0    25     1     7
  1.7969569973240618E-01 a       368     0    25     1     8
  1.3228521853345983E+00 a       369     0    25     1     9
 -1.2470357096058210E-01 a       370     0    25     1    10
  6.3065281005851709E-02 a       371     0    25     1    11
 -1.3041093483208896E+00 a       372     0    25     1    12
  1.9137254034613811E+00 a       373     0    25     1    13
 -5.6581000341112253E-01 a       374     0    25     1    14
  3.1553180763441652E-01 a       375     0    25     1    15
  2.2680304753449135E-01 a       376     0    26     1     1
 -2.5954616449964222E-02 a       377     0    26     1     2
 -2.2324998948577912E-01 a       378     0    26     1     3
 -5.3595742272569191E-01 a       379     0    26     1     4
  5.2902136855494046E-02 a       380     0    26     1     5
  4.6770030473913998E-01 a       381     0    26     1     6
 -3.3963123488708363E-01 a       382     0    26     1     7
  3.3896290998989931E-01 a       383     0    26     1     8
  1.0072008348592314E+00 a       384     0    26     1     9
 -3.8240895423105170E-01 a       385     0    26     1    10
 -3.3244657174867126E-01 a       386     0    26     1    11
 -1.7666704004163460E-02 a       387     0    26     1    12
 -1.6519108907069155E-01 a       388     0    26     1    13
  3.1110715342952591E-02 a       389     0    26     1    14
 -1.1806135144822900E+00 a       390     0    26     1    15
 -1.6672899270759137E-01 a       391     0    27     1     1
  3.3073338514922634E-01 a       392     0    27     1     2
 -2.1705012829280348E-01 a       393     0    27     1     3
 -2.1874676216574843E-01 a       394     0    27     1     4
 -1.4018193500776568E-01 a       395     0    27     1     5
 -4.5371416686466359E-01 a       396     0    27     1     6
 -3.1474096949146718E-01 a       397     0    27     1     7
  9.5146488938392570E-01 a       398     0    27     1     8
 -2.3711405517650797E-01 a       399     0    27     1     9
 -6.7820741244820615E-01 a       400     0    27     1    10
 -3.5468863078258750E-01 a       401     0    27     1    11
  4.7698368114377832E-01 a       402     0    27     1    12
 -4.9761848841222214E-02 a       403     0    27     1    13
  6.2855870286075810E-02 a       404     0    27     1    14
 -2.0157496785546365E+00 a       405     0    27     1    15
  3.4754874630914617E-02 a       406     0    28     1     1
  1.6363071117676899E+00 a       407     0    28     1     2
 -3.2897731779789557E-01 a       408     0    28     1     3
 -2.0316138667789803E+00 a       409     0    28     1     4
  2.0316108516282885E+00 a       410     0    28     1     5
 -1.9132791731685928E+00 a       411     0    28     1     6
  7.0226488134375165E-01 a       412     0    28     1     7
  4.7398574094567758E-01 a       413     0    28     1     8
  1.1275861987997902E+00 a       414     0    28     1     9
 -2.4122350670998292E+00 a       415     0    28     1    10
  3.6515693435180935E-02 a       416     0    28     1    11
 -3.8751445146833918E-01 a       417     0    28     1    12
 -6.4982302187572516E-01 a       418     0    28     1    13
  5.1730511956454550E-01 a       419     0    28     1    14
  1.4113906306321816E-01 a       420     0    28     1    15
 -5.5201052441045073E-01 a       421     0    29     1     1
 -4.6867186473521633E-01 a       422     0    29     1     2
  6.0775309963291904E-02 a       423     0    29     1     3
 -6.5915672743733084E-02 a       424     0    29     1     4
 -1.5699521741091690E-01 a       425     0    29     1     5
  1.9826249153447542E-01 a       426     0    29     1     6
 -3.2317240162346342E-02 a       427     0    29     1     7
  7.7965322633577661E-01 a       428     0    29     1     8
  6.3833954267547643E-01 a       429     0    29     1     9
 -3.0145616838182382E-01 a       430     0    29     1    10
 -2.1410656129191752E-01 a       431     0    29     1    11
  3.0929942333054104E-02 a       432     0    29     1    12
  8.1066309516630952E-01 a       433     0    29     1    13
 -6.4342819157723061E-03 a       434     0    29     1    14
 -2.2318721351117907E-01 a       435     0    29     1    15
  9.7462715737656247E-01 a       436     0    30     1     1
 -3.5235066126838424E-02 a       437     0    30     1     2
 -3.1036690915760910E-02 a       438     0    30     1     3
 -7.7165566998421131E-01 a       439     0    30     1     4
 -3.2523114862317826E-01 a       440     0    30     1     5
 -8.4622566827779166E-01 a       441     0    30     1     6
 -4.2294696465888909E-01 a       442     0    30     1     7
  2.2606672579760290E-02 a       443     0    30     1     8
 -8.2784749078103614E-01 a       444     0    30     1     9
  8.5400795328637469E-01 a       445     0    30     1    10
  5.7015906929562632E-01 a       446     0    30     1    11
  5.2088073437107685E-01 a       447     0    30     1    12
 -1.3767833281777750E-01 a       448     0    30     1    13
  3.0434830032189902E-01 a       449     0    30     1    14
  4.8295615310028189E-01 a       450     0    30     1    15
  1.8551507036676353E+00 a       451     0    31     1     1
  8.4322015112776560E-01 a       452     0    31     1     2
 -1.6289813067391390E+00 a       453     0    31     1     3
 -1.1690528502196296E+00 a       454     0    31     1     4
  1.4426083157745675E+00 a       455     0    31     1     5
  1.2594522308946110E+00 a       456     0    31     1     6
  1.8498653707199688E+00 a       457     0    31     1     7
 -3.0717100709818808E+00 a       458     0    31     1     8
 -5.0781052612451594E-01 a       459     0    31     1     9
 -1.1641787282472291E+00 a       460     0    31     1    10
 -1.3029959573662737E+00 a       461     0    31     1    11
  5.9396311735148789E-02 a       462     0    31     1    12
  9.6297716666060240E-01 a       463     0    31     1    13
 -8.4148653258079786E-01 a       464     0    31     1    14
 -1.5424363921979059E-01 a       465     0    31     1    15
  1.4414060612853163E-01 a       466     0    32     1     1
  2.1116706441801672E-01 a       467     0    32     1     2
 -5.3488069999845789E-01 a       468     0    32     1     3
 -2.2953142942005431E-01 a       469     0    32     1     4
  1.1693106297348682E-01 a       470     0    32     1     5
 -1.3345021760562245E-01 a       471     0    32     1     6
  5.6553564835704606E-01 a       472     0    32     1     7
 -3.3825445960860612E-01 a       473     0    32     1     8
 -5.9371210493785374E-02 a       474     0    32     1     9
 -3.0803808921595133E-01 a       475     0    32     1    10
  2.0525037877895558E-01 a       476     0    32     1    11
 -1.9762320762268823E-01 a       477     0    32     1    12
 -5.6685297457435497E-03 a       478     0    32     1    13
  8.3944677270127235E-03 a       479     0    32     1    14
  1.4226110374143734E+00 a       480     0    32     1    15
 -9.3352319677413653E-01 a       481     0    33     1     1
  1.1796299976374265E-01 a       482     0    33     1     2
  5.2314895181681302E-02 a       483     0    33     1     3
 -7.3636376342423426E-01 a       484     0    33     1     4
 -1.0845496037799804E+00 a       485     0    33     1     5
  1.1926901315296214E+00 a       486     0    33     1     6
  7.7628249040430541E-01 a       487     0    33     1     7
 -2.1480776148327246E-01 a       488     0    33     1     8
 -1.0610955441803855E+00 a       489     0    33     1     9
 -2.7876535729247875E-01 a       490     0    33     1    10
  8.5530748799199652E-01 a       491     0    33     1    11
 -1.0522224529240529E+00 a       492     0    33     1    12
 -2.8997257774269164E-01 a       493     0    33     1    13
  2.9953817653939018E-02 a       494     0    33     1    14
  1.1143371673489848E-01 a       495     0    33     1    15
 -1.8192420482070792E+00 a       496     0    34     1     1
 -3.6528165803087487E-02 a       497     0    34     1     2
  7.0945731388816113E-01 a       498     0    34     1     3
 -5.6896871630424051E-01 a       499     0    34     1     4
 -1.3552259340024384E+00 a       500     0    34     1     5
 -1.2390336524806920E+00 a       501     0    34     1     6
 -1.2750362139364315E+00 a       502     0    34     1     7
 -4.3171752644924615E+00 a       503     0    34     1     8
 -2.1614581339407271E+00 a       504     0    34     1     9
  1.2586414329625319E+00 a       505     0    34     1    10
  2.1737587695368097E+00 a       506     0    34     1    11
 -2.9137337280706350E+00 a       507     0    34     1    12
 -5.5440327215690532E-01 a       508     0    34     1    13
  1.2697249749006976E+00 a       509     0    34     1    14
  1.7846742968279056E-02 a       510     0    34     1    15
  7.7160603993045640E-01 a       511     0    35     1     1
  2.3927710344701222E-01 a       512     0    35     1     2
 -6.1838429224017256E-02 a       513     0    35     1     3
 -1.7871521526875273E-01 a       514     0    35     1     4
 -5.1493221091292798E-02 a       515     0    35     1     5
  1.9312993006102678E-02 a       516     0    35     1     6
 -1.0156937977428178E-02 a       517     0    35     1     7
  1.5509291134969602E-01 a       518     0    35     1     8
 -2.5449448529087265E-01 a       519     0    35     1     9
  1.4237014552207086E-01 a       520     0    35     1    10
  2.2379192620182145E-01 a       521     0    35     1    11
  7.9784103668271864E-02 a       522     0    35     1    12
  6.3669668764509399E-02 a       523     0    35     1    13
  2.3502613518876218E-02 a       524     0    35     1    14
 -1.2399926950193627E-01 a       525     0    35     1    15
  1.2738753509015410E+00 a       526     0    36     1     1
 -4.8697132774171836E-01 a       527     0    36     1     2
 -3.9317548460868268E-01 a       528     0    36     1     3
 -1.7428170086258857E-02 a       529     0    36     1     4
  9.9015419971344332E-01 a       530     0    36     1     5
  3.5982508800552004E-01 a       531     0    36     1     6
  1.2026469315546130E-01 a       532     0    36     1     7
 -1.0295566084811969E-01 a       533     0    36     1     8
  1.1153364213988275E+00 a       534     0    36     1     9
  4.1525794562418206E-01 a       535     0    36     1    10
  3.4445609075080674E-01 a       536     0    36     1    11
 -2.7668473738193528E-01 a       537     0    36     1    12
 -3.5945735066727152E-01 a       538     0    36     1    13
 -1.0482302013457188E-01 a       539     0    36     1    14
 -6.0932906089759864E-01 a       540     0    36     1    15
  1.1581444084096624E+00 a       541     0    37     1     1
  3.1073952954690759E-02 a       542     0    37     1     2
  5.4737578907269735E-01 a       543     0    37     1     3
 -3.4585710952852300E-01 a       544     0    37     1     4
  3.5952579776758226E-01 a       545     0    37     1     5
 -9.5549649164368511E-01 a       546     0    37     1     6
 -1.1420651326346369E+00 a       547     0    37     1     7
 -2.9631164365631006E+00 a       548     0    37     1     8
  5.3727167847598289E-01 a       549     0    37     1     9
  4.9082232645212120E-01 a       550     0    37     1    10
 -1.4475631588087894E+00 a       551     0    37     1    11
  4.6590106427754041E-01 a       552     0    37     1    12
 -1.2155856942522651E+00 a       553     0    37     1    13
  2.9287276485372810E-01 a       554     0    37     1    14
 -8.8465614589038388E-01 a       555     0    37     1    15
 -1.3363349914108839E-02 a       556     0    38     1     1
 -5.2911195803958944E-01 a       557     0    38     1     2
  6.2226604036684570E-02 a       558     0    38     1     3
  2.7360341563529961E-01 a       559     0    38     1     4
  2.0384507101529512E-01 a       560     0    38     1     5
 -4.4082653513722675E-01 a       561     0    38     1     6
  6.5351764146633226E-02 a       562     0    38     1     7
  2.8134326704163642E-01 a       563     0    38     1     8
 -3.9014716908793534E-01 a       564     0    38     1     9
  1.2525741264999898E-01 a       565     0    38     1    10
  1.0176300015891046E-01 a       566     0    38     1    11
  1.7406436761245858E-01 a       567     0    38     1    12
 -2.1795687762386323E-01 a       568     0    38     1    13
 -6.6676469547112642E-03 a       569     0    38     1    14
  3.5540124280579222E-01 a       570     0    38     1    15
 -3.8434011759855585E-01 a       571     0    39     1     1
  2.5950652008213192E-02 a       572     0    39     1     2
 -3.6957835139093669E-02 a       573     0    39     1     3
  2.4055924368735265E-01 a       574     0    39     1     4
  2.1892153849695584E-01 a       575     0    39     1     5
 -2.0729689343444008E-01 a       576     0    39     1     6
 -2.9575028511982066E-01 a       577     0    39     1     7
  3.4578279148628061E-01 a       578     0    39     1     8
  9.7634387793801458E-02 a       579     0    39     1     9
  3.2565051871703432E-01 a       580     0    39     1    10
  2.8015562554957452E-01 a       581     0    39     1    11
  5.0906730738378780E-01 a       582     0    39     1    12
  2.2778968599232646E-01 a       583     0    39     1    13
  1.4443725504603461E-01 a       584     0    39     1    14
  6.1303116310247785E-01 a       585     0    39     1    15
  9.0595163974331594E-02 a       586     0    40     1     1
 -6.6571166845935081E-01 a       587     0    40     1     2
 -1.7965650847307432E-01 a       588     0    40     1     3
 -1.0926406617415447E+00 a       589     0    40     1     4
 -7.9626577834967811E-04 a       590     0    40     1     5
  2.6970537214802479E+00 a       591     0    40     1     6
 -9.3557054259803907E-01 a       592     0    40     1     7
  1.6128950889632914E+00 a       593     0    40     1     8
  1.7665665735362681E+00 a       594     0    40     1     9
 -1.2954614824845667E+00 a       595     0    40     1    10
 -9.9280273046804784E-02 a       596     0    40     1    11
  2.1724284395230753E+00 a       597     0    40     1    12
  3.6781401531876573E-01 a       598     0    40     1    13
 -5.7678905523380293E-02 a       599     0    40     1    14
 -6.7729180680313883E-01 a       600     0    40     1    15
  1.8125819107498300E-01 a       601     0    41     1     1
  3.4189074498130867E-01 a       602     0    41     1     2
 -6.0363047739897091E-02 a       603     0    41     1     3
 -3.5733838191779721E-01 a       604     0    41     1     4
 -1.2926456980037151E-01 a       605     0    41     1     5
 -2.0850900213393037E-01 a       606     0    41     1     6
 -8.5039419718831971E-02 a       607     0    41     1     7
 -3.2214991925132169E-01 a       608     0    41     1     8
 -3.2973511182500664E-01 a       609     0    41     1     9
  4.2480524605339458E-02 a       610     0    41     1    10
 -2.0392985509873146E-01 a       611     0    41     1    11
  1.1284520181731628E-01 a       612     0    41     1    12
 -6.4795994515310396E-01 a       613     0    41     1    13
  4.6019263847802264E-02 a       614     0    41     1    14
  2.7499456039145703E-01 a       615     0    41     1    15
  1.6945146612419426E-01 a       616     0    42     1     1
 -8.5607114099186821E-01 a       617     0    42     1     2
 -1.9041878544602223E-01 a       618     0    42     1     3
  7.3515157719354651E-01 a       619     0    42     1     4
  3.7852355632884555E-01 a       620     0    42     1     5
  7.0511896666046570E-02 a       621     0    42     1     6
 -3.8821335363841181E-01 a       622     0    42     1     7
 -6.7970347025746128E-02 a       623     0    42     1     8
  3.1082380920512923E-02 a       624     0    42     1     9
 -4.7498687016707300E-02 a       625     0    42     1    10
 -3.2010759921190290E-01 a       626     0    42     1    11
 -6.1424288132784199E-01 a       627     0    42     1    12
 -1.2876796871362872E-01 a       628     0    42     1    13
  5.4293138702250863E-03 a       629     0    42     1    14
 -2.5964735657150045E-01 a       630     0    42     1    15
 -4.0811219722463471E-01 a       631     0    43     1     1
  9.6312083629170475E-01 a       632     0    43     1     2
 -1.8015496838437356E-01 a       633     0    43     1     3
 -2.3856805889298331E+00 a       634     0    43     1     4
  1.5057942396735499E-01 a       635     0    43     1     5
 -1.9057995814391528E+00 a       636     0    43     1     6
  1.1672560098015532E+00 a       637     0    43     1     7
  2.8677035040553069E+00 a       638     0    43     1     8
  1.4652783687252191E-01 a       639     0    43     1     9
 -2.8985532965386653E+00 a       640     0    43     1    10
 -1.3798898813776352E+00 a       641     0    43     1    11
 -1.1433526630377815E+00 a       642     0    43     1    12
  1.4696364496879737E+00 a       643     0    43     1    13
  1.2842585279078031E+00 a       644     0    43     1    14
  5.1375686406886647E+00 a       645     0    43     1    15
 -3.0268783089017006E-02 a       646     0    44     1     1
  8.2183042115383553E-01 a       647     0    44     1     2
  2.4050898868255713E-01 a       648     0    44     1     3
  2.9085327697742897E-01 a       649     0    44     1     4
  8.3168198362749010E-02 a       650     0    44     1     5
 -2.3798705821478184E-02 a       651     0    44     1     6
 -1.6737500883375261E-01 a       652     0    44     1     7
  5.4474779346504154E-01 a       653     0    44     1     8
 -1.7794023599345660E-01 a       654     0    44     1     9
  3.3961385244391945E-01 a       655     0    44     1    10
  2.0043280219943727E-01 a       656     0    44     1    11
  2.6368498835138138E-01 a       657     0    44     1    12
  6.2776310130887414E-01 a       658     0    44     1    13
 -6.0478605696674563E-02 a       659     0    44     1    14
 -9.6724980204824884E-01 a       660     0    44     1    15
 -5.7185826832297448E-01 a       661     0    45     1     1
  1.9703116321450190E-01 a       662     0    45     1     2
 -2.7329345703803559E-01 a       663     0    45     1     3
  2.3330502642462400E-01 a       664     0    45     1     4
  1.1331105966393107E-01 a       665     0    45     1     5
 -4.2237431880052045E-01 a       666     0    45     1     6
 -4.7968204984246865E-01 a       667     0    45     1     7
  6.0788900482495067E-01 a       668     0    45     1     8
  1.5028391560665189E-01 a       669     0    45     1     9
 -2.9767767630740466E-01 a       670     0    45     1    10
 -3.3129479639782655E-01 a       671     0    45     1    11
  2.5195474557191483E-01 a       672     0    45     1    12
  4.9277295179739145E-01 a       673     0    45     1    13
 -1.8828197553825293E-01 a       674     0    45     1    14
  7.2342205291123096E-01 a       675     0    45     1    15
  9.2301090782153805E-01 a       676     0    46     1     1
 -2.7204610781517955E+00 a       677     0    46     1     2
  1.0912971251458308E+00 a       678     0    46     1     3
  2.5687491329517749E+00 a       679     0    46     1     4
 -1.5401673438694672E+00 a       680     0    46     1     5
  2.5875372954688953E+00 a       681     0    46     1     6
 -2.0664872699479857E+00 a       682     0    46     1     7
  1.4204815177729351E+00 a       683     0    46     1     8
 -1.1375591265277694E+00 a       684     0    46     1     9
  4.2754693737485494E-01 a       685     0    46     1    10
  1.2610512461121659E+00 a       686     0    46     1    11
  1.7344734397129884E+00 a       687     0    46     1    12
  8.1209367534005872E-01 a       688     0    46     1    13
 -1.0573803524835563E+00 a       689     0    46     1    14
 -5.7698483128559841E-01 a       690     0    46     1    15
 -6.6325009992543127E-01 a       691     0    47     1     1
 -7.6571920852833930E-02 a       692     0    47     1     2
  8.9335600405916288E-02 a       693     0    47     1     3
  1.7848781521935159E-01 a       694     0    47     1     4
  8.2128724367351261E-02 a       695     0    47     1     5
 -1.4797599333170588E-02 a       696     0    47     1     6
  1.5686827952320553E-01 a       697     0    47     1     7
 -4.2706481321970156E-02 a       698     0    47     1     8
  1.0567140727494354E-01 a       699     0    47     1     9
  2.3167803737904777E-01 a       700     0    47     1    10
  2.3561333130125060E-02 a       701     0    47     1    11
 -3.3908869590025946E-02 a       702     0    47     1    12
 -7.1633086185771397E-02 a       703     0    47     1    13
 -3.0482650585435596E-02 a       704     0    47     1    14
  2.7426096309422981E-01 a       705     0    47     1    15
 -6.3428359012921498E-01 a       706     0    48     1     1
  2.5827433012199846E-02 a       707     0    48     1     2
  2.4983932838134276E-01 a       708     0    48     1     3
 -4.2606048006213623E-04 a       709     0    48     1     4
 -4.3975615233638454E-01 a       710     0    48     1     5
 -5.1589235307950745E-02 a       711     0    48     1     6
  6.5362611208796426E-02 a       712     0    48     1     7
 -2.3051608545932803E-01 a       713     0    48     1     8
 -1.7418852692860368E-01 a       714     0    48     1     9
 -3.0377036392356765E-01 a       715     0    48     1    10
 -1.4704588403026239E-01 a       716     0    48     1    11
  1.9946234760300582E-01 a       717     0    48     1    12
  3.2210705734808637E-01 a       718     0    48     1    13
 -7.0506954474322661E-02 a       719     0    48     1    14
  3.9786808453896472E-01 a       720     0    48     1    15
 -5.9746154255077266E-01 a       721     0    49     1     1
 -1.9720706590102892E+00 a       722     0    49     1     2
  2.0305471503116110E-01 a       723     0    49     1     3
  1.0917217484619473E+00 a       724     0    49     1     4
 -4.0986200027243846E-01 a       725     0    49     1     5
  1.1047074876172183E+00 a       726     0    49     1     6
 -2.5563847644467402E-01 a       727     0    49     1     7
 -1.4039491245387123E-02 a       728     0    49     1     8
 -1.4710947352741530E-01 a       729     0    49     1     9
  5.0104387187347366E-01 a       730     0    49     1    10
  1.2225275821975174E+00 a       731     0    49     1    11
 -3.8683700712116409E-02 a       732     0    49     1    12
 -9.8738752994920032E-01 a       733     0    49     1    13
 -5.2948575569118006E-01 a       734     0    49     1    14
 -1.0023330585929526E+00 a       735     0    49     1    15
  1.9721394996658315E-01 a       736     0    50     1     1
 -4.9126630289413442E-01 a       737     0    50     1     2
 -3.3373515255823022E-02 a       738     0    50     1     3
 -3.1561918482414497E-01 a       739     0    50     1     4
 -2.2023106909974269E-01 a       740     0    50     1     5
  2.8932580957863435E-01 a       741     0    50     1     6
 -8.6551980961408773E-02 a       742     0    50     1     7
 -2.7662357484576139E-01 a       743     0    50     1     8
 -5.7163084106017018E-03 a       744     0    50     1     9
 -5.2779947170754113E-02 a       745     0    50     1    10
 -9.8771376491590082E-02 a       746     0    50     1    11
 -2.9604249459574041E-02 a       747     0    50     1    12
 -1.2905354427244284E-01 a       748     0    50     1    13
  6.5297472880818816E-02 a       749     0    50     1    14
 -6.6157150824966713E-03 a       750     0    50     1    15
  4.3474183498500285E-01 a       751     0    51     1     1
 -2.4474263350675809E-01 a       752     0    51     1     2
  2.7415172521072735E-02 a       753     0    51     1     3
 -1.5203673821379507E-01 a       754     0    51     1     4
 -3.3675584478548161E-02 a       755     0    51     1     5
  1.4656837164691897E-01 a       756     0    51     1     6
 -6.4623659386403756E-02 a       757     0    51     1     7
 -3.3862344600502414E-01 a       758     0    51     1     8
  9.1722117924497540E-02 a       759     0    51     1     9
  3.0943860791198724E-01 a       760     0    51     1    10
 -2.8128555397211258E-01 a       761     0    51     1    11
 -2.6523171372740822E-01 a       762     0    51     1    12
 -4.1287993814114371E-01 a       763     0    51     1    13
  1.0100285534890890E-01 a       764     0    51     1    14
 -5.4781210220240151E-01 a       765     0    51     1    15
 -4.6956919001246006E-01 a       766     0    52     1     1
  2.5366676115916653E+00 a       767     0    52     1     2
 -8.4944248949765544E-01 a       768     0    52     1     3
 -6.4538922379767005E-01 a       769     0    52     1     4
  1.2275959411984225E+00 a       770     0    52     1     5
 -1.8512084970105804E+00 a       771     0    52     1     6
 -6.6507233136214611E-03 a       772     0    52     1     7
 -2.7131500127536423E-01 a       773     0    52     1     8
 -7.1341823678480812E-02 a       774     0    52     1     9
  2.7997386665849375E+00 a       775     0    52     1    10
 -5.1878710464399813E-01 a       776     0    52     1    11
 -7.4420770976920037E-01 a       777     0    52     1    12
 -6.9183724697422677E-02 a       778     0    52     1    13
 -3.8450934694921286E-02 a       779     0    52     1    14
 -1.5477916971413743E+00 a       780     0    52     1    15
 -1.7028154930773048E-01 a       781     0    53     1     1
  5.6445749155950603E-02 a       782     0    53     1     2
 -1.3430240538748880E-02 a       783     0    53     1     3
  1.6550492697001670E-01 a       784     0    53     1     4
  4.8604280656219842E-02 a       785     0    53     1     5
  1.2539173519675526E-01 a       786     0    53     1     6
 -5.5148816162375131E-02 a       787     0    53     1     7
  3.5146324316562658E-02 a       788     0    53     1     8
 -4.1248364159786593E-03 a       789     0    53     1     9
  5.8531248401515391E-02 a       790     0    53     1    10
  5.2565443700019288E-01 a       791     0    53     1    11
 -6.3464452008764938E-02 a       792     0    53     1    12
  3.0898290345719687E-01 a       793     0    53     1    13
 -2.8686953745889327E-02 a       794     0    53     1    14
  1.4520552666139608E-01 a       795     0    53     1    15
  1.1258887589412901E-01 a       796     0    54     1     1
  4.4184020020615727E-01 a       797     0    54     1     2
 -8.8337296244657068E-03 a       798     0    54     1     3
 -6.0342935787592644E-02 a       799     0    54     1     4
 -7.7927189564793428E-02 a       800     0    54     1     5
  3.7732739687338014E-02 a       801     0    54     1     6
  1.6310533710674169E-01 a       802     0    54     1     7
  1.1807608251235173E-01 a       803     0    54     1     8
  3.7378984063132642E-02 a       804     0    54     1     9
  2.3889403012829467E-02 a       805     0    54     1    10
  1.1197427150376829E-01 a       806     0    54     1    11
  3.4360086039008725E-02 a       807     0    54     1    12
 -1.7129585373013909E-01 a       808     0    54     1    13
 -4.8202688506311327E-02 a       809     0    54     1    14
  4.3824143168129193E-01 a       810     0    54     1    15
 -9.7819036482249166E-01 a       811     0    55     1     1
  4.5241567686201432E+00 a       812     0    55     1     2
  3.5075195551363697E-01 a       813     0    55     1     3
  5.4700938866901261E-01 a       814     0    55     1     4
  1.7511623992086525E-01 a       815     0    55     1     5
  6.5982513941438659E-01 a       816     0    55     1     6
 -7.7214475733045729E-01 a       817     0    55     1     7
 -5.3270921082640155E-01 a       818     0    55     1     8
 -7.3041227085584434E-03 a       819     0    55     1     9
  1.6178769001676681E+00 a       820     0    55     1    10
  3.0246489416535016E-01 a       821     0    55     1    11
  4.3357719283908434E-02 a       822     0    55     1    12
 -1.4809056498394875E+00 a       823     0    55     1    13
 -7.1373542361956579E-03 a       824     0    55     1    14
 -9.4898122969921755E-02 a       825     0    55     1    15
  2.0921672546065284E-01 a       826     0    56     1     1
  1.5326263748998137E-01 a       827     0    56     1     2
 -4.7925775261191801E-02 a       828     0    56     1     3
 -1.4990976564758721E-01 a       829     0    56     1     4
 -2.5005177179146837E-03 a       830     0    56     1     5
  4.3745561220589958E-02 a       831     0    56     1     6
  3.1127689141214038E-01 a       832     0    56     1     7
 -1.7149202063984587E-01 a       833     0    56     1     8
  2.8256386754556218E-01 a       834     0    56     1     9
 -9.6790696926805211E-02 a       835     0    56     1    10
 -4.6697893603772078E-01 a       836     0    56     1    11
 -4.4769390167870356E-02 a       837     0    56     1    12
 -3.9975438416672299E-01 a       838     0    56     1    13
  1.4721158693201619E-02 a       839     0    56     1    14
 -3.3295231867981674E-02 a       840     0    56     1    15
 -2.6382142109294598E-01 a       841     0    57     1     1
 -8.6136885884728820E-01 a       842     0    57     1     2
  4.2028823507076221E-02 a       843     0    57     1     3
  1.1303217913884554E-02 a       844     0    57     1     4
  4.2984297777322975E-02 a       845     0    57     1     5
  5.7029250899214998E-02 a       846     0    57     1     6
  2.1652028316794131E-01 a       847     0    57     1     7
 -1.7065711858542265E-01 a       848     0    57     1     8
  1.9553615373045447E-01 a       849     0    57     1     9
 -6.6949425010538785E-02 a       850     0    57     1    10
  1.8484907960548230E-01 a       851     0    57     1    11
  3.2817366070029018E-02 a       852     0    57     1    12
  1.4586024338656262E-01 a       853     0    57     1    13
  3.3562966172173345E-02 a       854     0    57     1    14
 -6.0812485618264867E-01 a       855     0    57     1    15
  8.6625825416429314E-01 a       856     0    58     1     1
 -2.6402116453687650E+00 a       857     0    58     1     2
 -6.7697503909018975E-01 a       858     0    58     1     3
 -2.7249437800048643E-01 a       859     0    58     1     4
  3.1467486028338548E-01 a       860     0    58     1     5
 -9.3316181305128076E-01 a       861     0    58     1     6
  2.0474492557528459E-01 a       862     0    58     1     7
 -7.7520711866904257E-01 a       863     0    58     1     8
  2.2684065378153168E-01 a       864     0    58     1     9
 -1.8113311116996689E-01 a       865     0    58     1    10
  3.4328971931331476E-01 a       866     0    58     1    11
 -8.0482690587913699E-02 a       867     0    58     1    12
  1.6193466656508215E-01 a       868     0    58     1    13
 -1.5812863043169184E-01 a       869     0    58     1    14
 -3.1303278366574920E+00 a       870     0    58     1    15
  3.8335293733733711E-01 a       871     0    59     1     1
  2.7133841295917369E-02 a       872     0    59     1     2
 -3.0884708574554116E-02 a       873     0    59     1     3
 -8.1903020547607286E-02 a       874     0    59     1     4
 -2.1617075576665788E-02 a       875     0    59     1     5
  9.0560588363428028E-03 a       876     0    59     1     6
 -1.8653172776840615E-01 a       877     0    59     1     7
 -1.7999019379634114E-03 a       878     0    59     1     8
  1.9483691206503603E-02 a       879     0    59     1     9
 -1.9784694338459249E-01 a       880     0    59     1    10
 -1.8464642344950133E-01 a       881     0    59     1    11
  2.5807838286544399E-02 a       882     0    59     1    12
 -3.0746851751911879E-04 a       883     0    59     1    13
  1.6407306575911891E-02 a       884     0    59     1    14
 -2.4630627335775299E-01 a       885     0    59     1    15
 -1.7293526358795555E-01 a       886     0    60     1     1
  1.5127617715366989E-01 a       887     0    60     1     2
 -3.2181292746716654E-02 a       888     0    60     1     3
 -9.2513716575628790E-02 a       889     0    60     1     4
  9.5816506048748931E-02 a       890     0    60     1     5
  3.2678255830728309E-02 a       891     0    60     1     6
 -4.8891804619083955E-02 a       892     0    60     1     7
 -5.0479762798597387E-03 a       893     0    60     1     8
  3.2968883557309453E-02 a       894     0    60     1     9
  4.5934819240277285E-04 a       895     0    60     1    10
 -2.2813588872876434E-02 a       896     0    60     1    11
 -2.4286221080488911E-02 a       897     0    60     1    12
 -3.7483676785478613E-02 a       898     0    60     1    13
  4.4999632052706739E-02 a       899     0    60     1    14
 -1.0960294812265024E-01 a       900     0    60     1    15
  3.3620641806949297E-01 a       901     0    61     1     1
 -1.2884481611649412E+00 a       902     0    61     1     2
 -1.8020523521680537E-01 a       903     0    61     1     3
 -3.8870400048241438E-01 a       904     0    61     1     4
  3.9154842342699003E-02 a       905     0    61     1     5
 -2.0962306564638072E-01 a       906     0    61     1     6
  2.1260165971085865E-01 a       907     0    61     1     7
  7.9153899081092050E-02 a       908     0    61     1     8
 -1.8328183563113425E-02 a       909     0    61     1     9
 -4.2657483716469075E-01 a       910     0    61     1    10
 -3.8102241954382426E-01 a       911     0    61     1    11
  1.4898230437501101E-02 a       912     0    61     1    12
  2.7244899322699723E-01 a       913     0    61     1    13
  1.3193324459306416E-01 a       914     0    61     1    14
 -6.5960065970983484E-01 a       915     0    61     1    15
  5.8621897954801994E-02 a       916     0    62     1     1
  8.7445404131299267E-02 a       917     0    62     1     2
 -1.8118322136758243E-02 a       918     0    62     1     3
  5.7881966184141917E-02 a       919     0    62     1     4
  8.9710093280650327E-02 a       920     0    62     1     5
 -7.9563624732248026E-02 a       921     0    62     1     6
 -2.0524842668178586E-01 a       922     0    62     1     7
  1.1328907494910247E-01 a       923     0    62     1     8
  4.7152498039882883E-02 a       924     0    62     1     9
  2.2888251110131871E-02 a       925     0    62     1    10
  1.4578032531851431E-01 a       926     0    62     1    11
  1.1139104872989927E-02 a       927     0    62     1    12
  4.3483290211008399E-02 a       928     0    62     1    13
 -1.8552221726617576E-02 a       929     0    62     1    14
  1.0269228377622674E-01 a       930     0    62     1    15
 -1.2863956074043853E-01 a       931     0    63     1     1
  4.5851395964931391E-01 a       932     0    63     1     2
 -7.0943662345318119E-03 a       933     0    63     1     3
 -1.7739473526578245E-02 a       934     0    63     1     4
 -1.0041277499870091E-02 a       935     0    63     1     5
  9.8991341897120846E-04 a       936     0    63     1     6
 -6.9956595755397546E-02 a       937     0    63     1     7
  1.9667256095855970E-02 a       938     0    63     1     8
 -1.0558190854012806E-01 a       939     0    63     1     9
  4.5400872269936762E-02 a       940     0    63     1    10
 -4.7975180374229412E-03 a       941     0    63     1    11
  4.3999708121914706E-02 a       942     0    63     1    12
 -1.0783637774765921E-01 a       943     0    63     1    13
 -9.3191872858722248E-03 a       944     0    63     1    14
  3.1601064571067822E-01 a       945     0    63     1    15
 -6.4542525814503793E-01 a       946     0    64     1     1
 -6.5869405841041240E-01 a       947     0    64     1     2
  3.5167056359982118E-01 a       948     0    64     1     3
 -3.8118489734160321E-01 a       949     0    64     1     4
 -7.0073193090973748E-02 a       950     0    64     1     5
  5.6348901448245858E-01 a       951     0    64     1     6
  5.1735408343598455E-01 a       952     0    64     1     7
  5.3572670358792707E-01 a       953     0    64     1     8
  5.1816405438624225E-03 a       954     0    64     1     9
 -7.3167296032961493E-01 a       955     0    64     1    10
 -1.6926157168849057E-01 a       956     0    64     1    11
 -2.3744374993315498E-02 a       957     0    64     1    12
 -8.3762434770238281E-01 a       958     0    64     1    13
  4.0196632875726307E-01 a       959     0    64     1    14
  4.1480343807995662E-01 a       960     0    64     1    15
 -1.2379553527052582E-01 b       961     1     1
  2.6596713354672857E-01 b       962     1     2
  4.1972835735311192E-01 b       963     1     3
 -3.0587857358272019E-01 b       964     1     4
 -3.8231495129453635E-01 b       965     1     5
  3.5428438488790272E-02 b       966     1     6
  4.1935944664417985E-01 b       967     1     7
  2.9430159134513173E-01 b       968     1     8
 -2.3140234531357995E-01 b       969     1     9
 -5.5752554347557881E-02 b       970     1    10
  3.4227294623224665E-02 b       971     1    11
  2.4146413504831342E-02 b       972     1    12
  7.2157582532505660E-01 b       973     1    13
  1.1119694806310765E+00 b       974     1    14
 -1.2460297936605074E+00 b       975     1    15
  1.4957043619570021E-01 a       976     1     1     2     1
  4.0186854737513940E-02 a       977     1     1     2     2
 -1.7814951914110028E-01 a       978     1     1     2     3
 -1.9349226236399578E-02 a       979     1     1     2     4
 -1.2609672650742260E-01 a       980     1     1     2     5
  3.9702485908372825E-01 a       981     1     1     2     6
 -3.8251419322113017E-01 a       982     1     1     2     7
  6.2086796061339010E-02 a       983     1     1     2     8
 -1.4531225813063955E-01 a       984     1     1     2     9
 -2.8471773663007094E-01 a       985     1     1     2    10
 -1.0648519099606134E-01 a       986     1     1     2    11
 -6.0619011226316444E-01 a       987     1     1     2    12
  3.4971258626751330E-02 a       988     1     1     2    13
 -7.1304882583086437E-01 a       989     1     1     2    14
  5.2506676717926394E-02 a       990     1     1     2    15
  2.2024866430480819E-01 a       991     1     2     2     1
 -4.5316225871895782E-01 a       992     1     2     2     2
  1.9386455816892789E-01 a       993     1     2     2     3
 -8.9613995959611642E-02 a       994     1     2     2     4
  6.3898848831599175E-01 a       995     1     2     2     5
  6.8008934972976387E-01 a       996     1     2     2     6
  3.2611019861312712E-01 a       997     1     2     2     7
 -2.2232757145145932E-01 a       998     1     2     2     8
  1.0794509130541052E-01 a       999     1     2     2     9
  6.4412799285355163E-02 a      1000     1     2     2    10
  4.0270251731626588E-01 a      1001     1     2     2    11
  1.2773309194398169E-01 a      1002     1     2     2    12
 -3.6261486290758255E-01 a      1003     1     2     2    13
  9.9826992651466939E-01 a      1004     1     2     2    14
 -1.9098851187755705E-01 a      1005     1     2     2    15
  1.8668273977988601E+00 a      1006     1     3     2     1
  9.4182676132963072E-01 a      1007     1     3     2     2
 -3.7124272125024965E-01 a      1008     1     3     2     3
  1.2252296727648113E+00 a      1009     1     3     2     4
 -4.7149550186682709E-01 a      1010     1     3     2     5
  1.8444278862872729E-01 a      1011     1     3     2     6
  4.2940019083706316E-01 a      1012     1     3     2     7
  1.4083407479500512E+00 a      1013     1     3     2     8
 -1.9492189280033956E-01 a      1014     1     3     2     9
 -1.3240924029698153E-01 a      1015     1     3     2    10
  2.5810120372612305E-01 a      1016     1     3     2    11
  2.2006072751530364E-01 a      1017     1     3     2    12
  1.4724659273984437E+00 a      1018     1     3     2    13
  2.8498536760234403E+00 a      1019     1     3     2    14
  1.9109473303061921E+00 a      1020     1     3     2    15
  7.0386973616121562E-01 a      1021     1     4     2     1
 -9.3059171217082937E-01 a      1022     1     4     2     2
 -7.4948628517290686E-02 a      1023     1     4     2     3
 -6.2053703719672182E-01 a      1024     1     4     2     4
  8.5530477019443818E-01 a      1025     1     4     2     5
  1.3960402274580592E+00 a      1026     1     4     2     6
 -8.4807855843269708E-01 a      1027     1     4     2     7
 -1.1237902081430284E+00 a      1028     1     4     2     8
  1.7360770264855763E+00 a      1029     1     4     2     9
 -3.1164729238129235E-01 a      1030     1     4     2    10
  5.2613495040838332E-01 a      1031     1     4     2    11
 -8.8503555926108490E-01 a      1032     1     4     2    12
 -4.0678175849596004E-01 a      1033     1     4     2    13
  1.4472811558311154E+00 a      1034     1     4     2    14
 -1.1424600550827351E+00 a      1035     1     4     2    15
  7.4911306276416723E-01 a      1036     1     5     2     1
  3.9050654283991804E-01 a      1037     1     5     2     2
 -6.9486886550092608E-01 a      1038     1     5     2     3
  1.7250630337735464E+00 a      1039     1     5     2     4
 -1.4714899841025636E-01 a      1040     1     5     2     5
  8.4454978228487232E-01 a      1041     1     5     2     6
  1.3391340237863298E+00 a      1042     1     5     2     7
 -2.7614910498831993E-02 a      1043     1     5     2     8
  2.5353733646418769E-01 a      1044     1     5     2     9
 -7.9604740239232294E-02 a      1045     1     5     2    10
 -1.6100314838126106E-01 a      1046     1     5     2    11
  1.0128446900697689E-01 a      1047     1     5     2    12
 -4.3229362344755518E-01 a      1048     1     5     2    13
 -1.2472283933374491E+00 a      1049     1     5     2    14
  1.0938832018249078E+00 a      1050     1     5     2    15
  5.5176626607638835E-01 a      1051     1     6     2     1
 -5.8393126291610353E-01 a      1052     1     6     2     2
  6.3954826480184934E-01 a      1053     1     6     2     3
  5.0757956776321000E-01 a      1054     1     6     2     4
  1.1448475662067295E+00 a      1055     1     6     2     5
 -2.6343239205334207E-01 a      1056     1     6     2     6
 -2.8409067990936898E-02 a      1057     1     6     2     7
 -1.1533968273146982E+00 a      1058     1     6     2     8
  2.2108334524786093E+00 a      1059     1     6     2     9
  3.8210841763555031E-01 a      1060     1     6     2    10
 -2.9785945810629172E-01 a      1061     1     6     2    11
 -4.8079434779463842E-01 a      1062     1     6     2    12
 -1.2115451351435165E-01 a      1063     1     6     2    13
  1.0789615399634620E+00 a      1064     1     6     2    14
 -7.6774153186853067E-01 a      1065     1     6     2    15
 -2.3856020491950383E-01 a      1066     1     7     2     1
 -2.5536200385453306E-01 a      1067     1     7     2     2
  4.9135452694768794E-01 a      1068     1     7     2     3
 -7.0820200399841593E-01 a      1069     1     7     2     4
  6.0918756630644311E-01 a      1070     1     7     2     5
  1.1297641395239966E+00 a      1071     1     7     2     6
 -8.9599302859932251E-01 a      1072     1     7     2     7
  1.1980794877934579E-01 a      1073     1     7     2     8
 -1.1854417785174330E-01 a      1074     1     7     2     9
  5.4399054727364060E-01 a      1075     1     7     2    10
  5.5395180306799219E-01 a      1076     1     7     2    11
  2.3255759006325080E-01 a      1077     1     7     2    12
 -6.4466827623236925E-02 a      1078     1     7     2    13
  7.3036887787706860E-03 a      1079     1     7     2    14
  1.0030443702227808E-01 a      1080     1     7     2    15
  5.4524493374595229E-01 a      1081     1     8     2     1
 -4.3575295613893039E-01 a      1082     1     8     2     2
  5.8541329115880558E-01 a      1083     1     8     2     3
 -1.0026863068659349E+00 a      1084     1     8     2     4
  5.4212797174171323E-01 a      1085     1     8     2     5
  1.1604861582864743E+00 a      1086     1     8     2     6
 -2.6414972047817353E-01 a      1087     1     8     2     7
 -5.9132465618927454E-01 a      1088     1     8     2     8
  5.0128725216466052E-01 a      1089     1     8     2     9
  3.6869454762796039E-01 a      1090     1     8     2    10
  4.1374793988721081E-01 a      1091     1     8     2    11
  1.9440358641397301E-01 a      1092     1     8     2    12
  5.9436284169135434E-01 a      1093     1     8     2    13
  8.9673705552544236E-01 a      1094     1     8     2    14
 -7.7873607801102152E-01 a      1095     1     8     2    15
  8.1479031972595850E-01 a      1096     1     9     2     1
 -6.6635251403603643E-02 a      1097     1     9     2     2
 -3.2778262849490758E-01 a      1098     1     9     2     3
 -1.3063400719231899E+00 a      1099     1     9     2     4
 -6.1531134991496794E-01 a      1100     1     9     2     5
  7.6333414234331862E-02 a      1101     1     9     2     6
 -3.0128964799680619E-01 a      1102     1     9     2     7
  5.9405915861215651E-02 a      1103     1     9     2     8
 -8.5116287997846374E-01 a      1104     1     9     2     9
  4.8075563938590310E-01 a      1105     1     9     2    10
  6.0098698390293315E-01 a      1106     1     9     2    11
  1.1887933583605086E+00 a      1107     1     9     2    12
  6.7090602073465055E-01 a      1108     1     9     2    13
  2.1806470672083273E+00 a      1109     1     9     2    14
 -2.3746722876965607E+00 a      1110     1     9     2    15
  9.6309369358184416E-01 a      1111     1    10     2     1
  6.4253721128871222E-01 a      1112     1    10     2     2
 -3.3827917685824122E-01 a      1113     1    10     2     3
  3.7754746295555247E-01 a      1114     1    10     2     4
 -6.1777473336969269E-01 a      1115     1    10     2     5
 -2.2298315153604931E-01 a      1116     1    10     2     6
  6.8807260791058911E-01 a      1117     1    10     2     7
  1.2121585767913805E-01 a      1118     1    10     2     8
  2.8455342085388102E-01 a      1119     1    10     2     9
 -3.5172275527701474E-01 a      1120     1    10     2    10
 -9.7300912324830735E-01 a      1121     1    10     2    11
  6.0269968046039568E-01 a      1122     1    10     2    12
  8.6809850961822332E-01 a      1123     1    10     2    13
  6.2334466617599960E-01 a      1124     1    10     2    14
  3.8475066382744200E-01 a      1125     1    10     2    15
 -3.1532009912133291E-01 a      1126     1    11     2     1
 -4.4480279971866869E-02 a      1127     1    11     2     2
 -6.7483800344197120E-01 a      1128     1    11     2     3
 -1.0083145821346971E-01 a      1129     1    11     2     4
 -8.0388108529955327E-01 a      1130     1    11     2     5
 -6.9013427137483552E-01 a      1131     1    11     2     6
 -1.2731465580180745E-01 a      1132     1    11     2     7
 -1.3363044458977019E-01 a      1133     1    11     2     8
 -6.1276774904717479E-01 a      1134     1    11     2     9
 -1.7910101982450403E-02 a      1135     1    11     2    10
  1.9757295446842515E-01 a      1136     1    11     2    11
  7.8449544785565006E-01 a      1137     1    11     2    12
  3.4940868853679308E-01 a      1138     1    11     2    13
  8.6233111736251622E-01 a      1139     1    11     2    14
 -2.0283516300894280E-01 a      1140     1    11     2    15
  9.2721612398642975E-02 a      1141     1    12     2     1
 -2.5736211985280766E-01 a      1142     1    12     2     2
  5.0375256635329457E-01 a      1143     1    12     2     3
 -4.9884182031735896E-01 a      1144     1    12     2     4
  2.8148730707140696E-01 a      1145     1    12     2     5
 -1.2486457092199841E+00 a      1146     1    12     2     6
 -7.7963143163288784E-01 a      1147     1    12     2     7
  2.6021325241479254E-01 a      1148     1    12     2     8
  3.0499888541741976E-01 a      1149     1    12     2     9
 -7.1008750322240077E-01 a      1150     1    12     2    10
 -5.4136064749269819E-01 a      1151     1    12     2    11
 -1.1287520600285874E+00 a      1152     1    12     2    12
  3.8309610713352565E-01 a      1153     1    12     2    13
  1.9134569017818213E+00 a      1154     1    12     2    14
 -6.1731360846621275E-01 a      1155     1    12     2    15
 -9.7487953494062113E-02 a      1156     1    13     2     1
  6.3612819959577116E-01 a      1157     1    13     2     2
  7.8867304553584483E-01 a      1158     1    13     2     3
 -6.9608752039245408E-02 a      1159     1    13     2     4
 -3.4294903797221538E-01 a      1160     1    13     2     5
 -1.1093950227070908E+00 a      1161     1    13     2     6
  5.5647451547802207E-01 a      1162     1    13     2     7
  5.5692588586783243E-01 a      1163     1    13     2     8
 -6.5701095831020503E-02 a      1164     1    13     2     9
 -8.6513163454826292E-01 a      1165     1    13     2    10
 -1.3041463767724748E+00 a      1166     1    13     2    11
 -6.4388022363056674E-01 a      1167     1    13     2    12
  3.2220972093693451E-01 a      1168     1    13     2    13
 -1.8621297541088062E+00 a      1169     1    13     2    14
  1.6299568679356062E+00 a      1170     1    13     2    15
  1.9894637489604178E-01 a      1171     1    14     2     1
 -6.8423931042068442E-01 a      1172     1    14     2     2
  1.1447988030761993E+00 a      1173     1    14     2     3
 -1.1601088154583269E-01 a      1174     1    14     2     4
  6.0646604187045383E-01 a      1175     1    14     2     5
  2.1210907849556157E-01 a      1176     1    14     2     6
 -1.5342460215580009E+00 a      1177     1    14     2     7
  1.8121879039492650E-01 a      1178     1    14     2     8
  1.9464923772145721E+00 a      1179     1    14     2     9
 -7.1040798386976234E-01 a      1180     1    14     2    10
  2.6448312176297955E+00 a      1181     1    14     2    11
 -2.0279055830830144E+00 a      1182     1    14     2    12
 -2.7951333374985117E+00 a      1183     1    14     2    13
  9.0961110453900307E-01 a      1184     1    14     2    14
  1.5283203920698535E-02 a      1185     1    14     2    15
 -5.9637060265451081E-01 a      1186     1    15     2     1
 -1.8372948602639444E-01 a      1187     1    15     2     2
  1.1490622441163201E+00 a      1188     1    15     2     3
 -1.3912743212116234E+00 a      1189     1    15     2     4
  5.0372931856276504E-01 a      1190     1    15     2     5
  6.3619203120115264E-01 a      1191     1    15     2     6
 -1.3138605472378002E+00 a      1192     1    15     2     7
  1.6417396177992358E-01 a      1193     1    15     2     8
  2.0847351101054690E+00 a      1194     1    15     2     9
 -3.3380186898578262E-01 a      1195     1    15     2    10
  1.1011437016551093E+00 a      1196     1    15     2    11
 -1.2355856462433530E+00 a      1197     1    15     2    12
 -8.9487034557343359E-01 a      1198     1    15     2    13
  1.2459243303587071E+00 a      1199     1    15     2    14
 -7.1059009213399235E-02 a      1200     1    15     2    15
 -8.9507712390712535E-01 b      1201     2     1
 -3.8478694839133804E-01 b      1202     2     2
 -1.7000453223668532E+00 b      1203     2     3
  8.7224159392777667E-01 b      1204     2     4
  5.7881332960290011E-01 b      1205     2     5
 -1.4676801115745777E-01 b      1206     2     6
  1.3582608843488864E+00 b      1207     2     7
 -3.5686855954800967E-01 b      1208     2     8
 -2.9898678722383685E+00 b      1209     2     9
  5.3775325037389010E-01 b      1210     2    10
 -1.3731198064733359E+00 b      1211     2    11
  1.0033433036804271E+00 b      1212     2    12
  2.3458272700128147E+00 b      1213     2    13
 -1.9522208094818820E+00 b      1214     2    14
  1.2460839474953873E+00 b      1215     2    15
  5.4866456133082608E-01 a      1216     2     1     3     1
  9.8417472969747466E-01 a      1217     2     2     3     1
  3.2908794031351252E-01 a      1218     2     3     3     1
  2.4240248970212019E-01 a      1219     2     4     3     1
  4.7128898564631067E-01 a      1220     2     5     3     1
 -1.3226121004905392E-01 a      1221     2     6     3     1
 -2.6318025469251582E-01 a      1222     2     7     3     1
 -6.1736129604101653E-01 a      1223     2     8     3     1
 -2.2675172724224593E-01 a      1224     2     9     3     1
 -5.1851368739601544E-01 a      1225     2    10     3     1
  3.6141838255135561E-01 a      1226     2    11     3     1
  2.1656087865612769E-01 a      1227     2    12     3     1
 -2.8807508561253264E-01 a      1228     2    13     3     1
 -6.5542849879910925E-01 a      1229     2    14     3     1
 -8.4195224798834498E-02 a      1230     2    15     3     1
 -2.5250999807344138E-01 b      1231     3     1
