################################################################################
# Neural network connection values (weights and biases).
################################################################################
# Col  Name       Description
################################################################################
# 1    connection Neural network connection value.
# 2    t          Connection type (a = weight, b = bias).
# 3    index      Index enumerating weights.
# 4    l_s        Starting point layer (end point layer for biases).
# 5    n_s        Starting point neuron in starting layer (end point neuron for biases).
# 6    l_e        End point layer.
# 7    n_e        End point neuron in end layer.
################################################################################
#                      1 2         3     4     5     6     7
#             connection t     index   l_s   n_s   l_e   n_e
############################################################
 -4.1423498964568589E-01 a         1     0     1     1     1
  9.5443860108363365E-02 a         2     0     1     1     2
 -8.0391812882691815E-01 a         3     0     1     1     3
 -5.5790800995770318E-01 a         4     0     1     1     4
 -6.3143117231013834E-01 a         5     0     1     1     5
  3.8016537998612115E-01 a         6     0     1     1     6
  3.4690731166605060E-01 a         7     0     1     1     7
 -2.3174319208697658E-01 a         8     0     1     1     8
  1.9599729316732561E+00 a         9     0     1     1     9
 -3.9947563495067540E-01 a        10     0     1     1    10
 -1.9088081126480161E-01 a        11     0     1     1    11
  1.2177984541191236E-01 a        12     0     1     1    12
 -1.4780731524888657E+00 a        13     0     1     1    13
 -8.7623072615075659E-01 a        14     0     1     1    14
  5.0703389955400369E-01 a        15     0     1     1    15
 -1.0257981044719815E+00 a        16     0     2     1     1
  8.9394181118303617E-01 a        17     0     2     1     2
 -3.2268970315264203E+00 a        18     0     2     1     3
 -1.8310602734388033E+00 a        19     0     2     1     4
 -1.2479357621821510E+00 a        20     0     2     1     5
 -1.4026640090384463E+00 a        21     0     2     1     6
  3.5362198488998686E+00 a        22     0     2     1     7
 -1.7032797561041619E+00 a        23     0     2     1     8
  8.1509176655128157E-01 a        24     0     2     1     9
 -2.2713486093433035E+00 a        25     0     2     1    10
 -3.1109729854583605E+00 a        26     0     2     1    11
 -3.4657961845844669E+00 a        27     0     2     1    12
  6.1289121627491205E-01 a        28     0     2     1    13
  3.1833789118084037E+00 a        29     0     2     1    14
  1.3812694490587241E-01 a        30     0     2     1    15
  7.6798050022878805E-01 a        31     0     3     1     1
  8.0401000031124936E-01 a        32     0     3     1     2
 -1.3412657283795817E+00 a        33     0     3     1     3
 -1.2227769609826677E+00 a        34     0     3     1     4
  1.9043365508452165E-01 a        35     0     3     1     5
 -4.0414685986088045E-01 a        36     0     3     1     6
 -7.6418515639792628E-02 a        37     0     3     1     7
 -5.4935798184643343E-02 a        38     0     3     1     8
  6.0790329958298039E-01 a        39     0     3     1     9
 -4.3089959636027247E-01 a        40     0     3     1    10
  9.5726770509475700E-02 a        41     0     3     1    11
  1.5430555106374089E-01 a        42     0     3     1    12
 -3.9398196218228626E-01 a        43     0     3     1    13
 -8.9612375795184229E-01 a        44     0     3     1    14
  1.7815793158979878E-01 a        45     0     3     1    15
  2.6222918559571822E+00 a        46     0     4     1     1
  6.2397141506465625E-01 a        47     0     4     1     2
  3.4127675526582568E-01 a        48     0     4     1     3
 -1.6219230140921062E+00 a        49     0     4     1     4
 -5.3181402228171470E-01 a        50     0     4     1     5
  6.1302855517100363E-01 a        51     0     4     1     6
 -4.4773490203174093E+00 a        52     0     4     1     7
 -6.8780652753066640E-01 a        53     0     4     1     8
 -6.6058095231988601E-01 a        54     0     4     1     9
  1.0224426053100906E-01 a        55     0     4     1    10
  1.3070266669386179E+00 a        56     0     4     1    11
  2.3054200147074959E+00 a        57     0     4     1    12
  3.1751842421796039E-01 a        58     0     4     1    13
 -2.2677055086614746E+00 a        59     0     4     1    14
 -6.9687744675697783E-01 a        60     0     4     1    15
 -6.5099998299408679E-01 a        61     0     5     1     1
  8.7108912882945366E-01 a        62     0     5     1     2
  9.0064949414083006E-01 a        63     0     5     1     3
 -4.5791817291874543E-01 a        64     0     5     1     4
  1.2380836091269341E-01 a        65     0     5     1     5
 -5.8720130804548654E-01 a        66     0     5     1     6
 -6.2412232699489911E-01 a        67     0     5     1     7
  5.4753292071415405E-01 a        68     0     5     1     8
 -1.3934830256426518E+00 a        69     0     5     1     9
 -6.1249543882045857E-02 a        70     0     5     1    10
  1.0834852520498268E+00 a        71     0     5     1    11
 -3.8821295034295378E-01 a        72     0     5     1    12
  4.2736253571748506E-01 a        73     0     5     1    13
  1.5427601508333739E+00 a        74     0     5     1    14
  7.8401277835486768E-02 a        75     0     5     1    15
  1.0253614081876157E+00 a        76     0     6     1     1
 -1.0884166803030459E-01 a        77     0     6     1     2
 -3.5063713322501566E-01 a        78     0     6     1     3
 -6.1211687081936272E-01 a        79     0     6     1     4
  1.5743511437026414E-01 a        80     0     6     1     5
  1.7189025648784972E+00 a        81     0     6     1     6
 -2.5933393374594762E+00 a        82     0     6     1     7
  4.5958139695970079E-01 a        83     0     6     1     8
  4.4723212686215763E-01 a        84     0     6     1     9
 -4.0065203450284720E-01 a        85     0     6     1    10
  1.7598250570020093E+00 a        86     0     6     1    11
  2.4168163341999991E+00 a        87     0     6     1    12
 -1.4235267556816971E+00 a        88     0     6     1    13
 -3.3241298853582406E+00 a        89     0     6     1    14
 -5.9797269384456941E-01 a        90     0     6     1    15
  2.3886578343516379E-01 a        91     0     7     1     1
 -1.1503721479610036E-01 a        92     0     7     1     2
  1.6336986016768285E+00 a        93     0     7     1     3
 -2.5583989782884792E-01 a        94     0     7     1     4
  5.8975244082116995E-01 a        95     0     7     1     5
  6.2246252442975025E-01 a        96     0     7     1     6
  5.5204845747262965E-01 a        97     0     7     1     7
  1.8724605869448493E-01 a        98     0     7     1     8
 -3.4339420849437857E-01 a        99     0     7     1     9
  9.8480395700397416E-01 a       100     0     7     1    10
  1.0629658605857173E+00 a       101     0     7     1    11
 -8.3279039414847622E-01 a       102     0     7     1    12
 -9.1025677547001402E-02 a       103     0     7     1    13
  6.5368166805791772E-02 a       104     0     7     1    14
 -3.9482439733116009E-01 a       105     0     7     1    15
 -3.8378982965139938E+00 a       106     0     8     1     1
 -3.1204950668623016E-01 a       107     0     8     1     2
  2.3300915891251259E-01 a       108     0     8     1     3
  8.2915520656618191E-01 a       109     0     8     1     4
  7.8469250291051362E-01 a       110     0     8     1     5
 -2.5279073303615589E+00 a       111     0     8     1     6
  5.9208947567638788E+00 a       112     0     8     1     7
  1.5952832430812983E-01 a       113     0     8     1     8
  2.0824177207140053E+00 a       114     0     8     1     9
  2.8203092697236493E-01 a       115     0     8     1    10
  2.2753149708222908E-01 a       116     0     8     1    11
 -4.7011877842222631E+00 a       117     0     8     1    12
 -1.0437284257607671E+00 a       118     0     8     1    13
  8.4545327248270519E-01 a       119     0     8     1    14
 -1.5099027373635818E+00 a       120     0     8     1    15
 -2.3859072391916275E-01 a       121     0     9     1     1
  9.1450111904386788E-01 a       122     0     9     1     2
  1.0298182977102637E+00 a       123     0     9     1     3
  8.0255309469748159E-01 a       124     0     9     1     4
 -4.6272100305152136E-01 a       125     0     9     1     5
 -5.3189005314663362E-02 a       126     0     9     1     6
  1.6977867304744793E-01 a       127     0     9     1     7
  6.1195604612838828E-01 a       128     0     9     1     8
  1.3200150085788216E+00 a       129     0     9     1     9
 -3.7502826226570884E-01 a       130     0     9     1    10
 -7.8182732130660981E-01 a       131     0     9     1    11
 -3.6847051491892613E-01 a       132     0     9     1    12
 -1.9214602771943898E-01 a       133     0     9     1    13
 -8.8244445016726814E-01 a       134     0     9     1    14
 -9.0363025126317098E-01 a       135     0     9     1    15
  5.9821902202687727E-01 a       136     0    10     1     1
 -6.3696834327972118E-01 a       137     0    10     1     2
  4.1897653554258953E+00 a       138     0    10     1     3
 -1.6214656691407456E+00 a       139     0    10     1     4
 -8.9338272775138483E-01 a       140     0    10     1     5
  1.0211234526006610E+00 a       141     0    10     1     6
 -3.9242221484267743E+00 a       142     0    10     1     7
  1.4438611783691682E+00 a       143     0    10     1     8
  2.0530019213040993E+00 a       144     0    10     1     9
 -1.3431604385547089E+00 a       145     0    10     1    10
 -8.3470644983731135E-01 a       146     0    10     1    11
  2.2198411227166002E+00 a       147     0    10     1    12
  4.1372505303372153E-01 a       148     0    10     1    13
  3.5481967496160488E-01 a       149     0    10     1    14
 -3.8552486181733353E-01 a       150     0    10     1    15
 -5.6650518871610389E-01 a       151     0    11     1     1
  1.1995339618007415E-01 a       152     0    11     1     2
 -1.2757672108260257E-01 a       153     0    11     1     3
  8.0066881737713658E-01 a       154     0    11     1     4
 -9.9551506119005573E-01 a       155     0    11     1     5
  1.7127246645668329E-01 a       156     0    11     1     6
 -4.2250616848458267E-01 a       157     0    11     1     7
  1.5780288822811916E-01 a       158     0    11     1     8
 -4.1413297375254510E-01 a       159     0    11     1     9
 -6.1297149940975681E-01 a       160     0    11     1    10
 -2.4579299545902708E-01 a       161     0    11     1    11
 -8.3923572512276434E-01 a       162     0    11     1    12
 -1.6675197906456843E-01 a       163     0    11     1    13
 -2.9161916037597863E-01 a       164     0    11     1    14
 -8.3980412633974610E-01 a       165     0    11     1    15
  1.6662971104727486E+00 a       166     0    12     1     1
  7.2677205198001316E-01 a       167     0    12     1     2
 -3.4545762374550071E+00 a       168     0    12     1     3
  2.1066574705299317E+00 a       169     0    12     1     4
 -1.0730886160500464E+00 a       170     0    12     1     5
  4.4794169176899745E-01 a       171     0    12     1     6
  1.4405941251711583E+00 a       172     0    12     1     7
  1.0831043321820202E+00 a       173     0    12     1     8
 -5.0166586156176897E-02 a       174     0    12     1     9
  1.9847624675715139E-01 a       175     0    12     1    10
 -1.6169938078813384E+00 a       176     0    12     1    11
 -1.9992749951542017E+00 a       177     0    12     1    12
  9.7087201913844823E-01 a       178     0    12     1    13
 -3.3385953306464669E+00 a       179     0    12     1    14
 -2.3614020215322912E-01 a       180     0    12     1    15
  7.0971879031196061E-01 a       181     0    13     1     1
 -1.0414078530496971E+00 a       182     0    13     1     2
 -5.3403605065966464E-01 a       183     0    13     1     3
 -5.9165230360596544E-01 a       184     0    13     1     4
  2.2268678174076287E-01 a       185     0    13     1     5
 -1.5280066465100847E-01 a       186     0    13     1     6
  3.3727430014445357E-02 a       187     0    13     1     7
  2.4605580338845523E-01 a       188     0    13     1     8
 -2.2780218247688322E-01 a       189     0    13     1     9
 -4.1323196461963030E-01 a       190     0    13     1    10
  1.0425187942904172E-02 a       191     0    13     1    11
  7.3593570997875335E-01 a       192     0    13     1    12
  9.9228935441652691E-02 a       193     0    13     1    13
  3.3184761387614986E-01 a       194     0    13     1    14
 -3.9174529843210681E-01 a       195     0    13     1    15
 -1.0637388680393640E+00 a       196     0    14     1     1
  8.2360235765102885E-01 a       197     0    14     1     2
  1.2086570443056737E+00 a       198     0    14     1     3
 -8.5191378652750716E-01 a       199     0    14     1     4
  1.3837330869819178E+00 a       200     0    14     1     5
 -4.4037625517293016E-01 a       201     0    14     1     6
 -1.3735831001690749E-01 a       202     0    14     1     7
 -3.4228993286500364E-01 a       203     0    14     1     8
  3.4325332269959069E-01 a       204     0    14     1     9
  1.2944607976401636E+00 a       205     0    14     1    10
  8.0466974332146834E-01 a       206     0    14     1    11
  1.4286888294777839E-01 a       207     0    14     1    12
 -7.5011711762471089E-01 a       208     0    14     1    13
  1.5528138940884169E+00 a       209     0    14     1    14
 -2.7899869708833475E-01 a       210     0    14     1    15
 -1.8335440840793121E-01 a       211     0    15     1     1
 -4.8824377163892756E-02 a       212     0    15     1     2
  1.3529875301567323E-01 a       213     0    15     1     3
 -2.5765357610310978E-02 a       214     0    15     1     4
 -2.4833487926931663E-01 a       215     0    15     1     5
  3.8394803553216103E-02 a       216     0    15     1     6
  6.6724160678577754E-02 a       217     0    15     1     7
 -2.7902088019425286E-01 a       218     0    15     1     8
  2.0924644898167122E-01 a       219     0    15     1     9
  3.1591289360032926E-01 a       220     0    15     1    10
  8.7484642392479856E-02 a       221     0    15     1    11
 -1.3125112648845841E-01 a       222     0    15     1    12
 -6.8271600826172937E-02 a       223     0    15     1    13
  1.3750877263578234E-02 a       224     0    15     1    14
 -1.0340673917734405E-01 a       225     0    15     1    15
  7.5232271686007834E-01 a       226     0    16     1     1
 -5.2392606553988708E-01 a       227     0    16     1     2
 -2.4649803123329767E-01 a       228     0    16     1     3
 -1.6073922095491175E-01 a       229     0    16     1     4
 -1.7742682588650732E-01 a       230     0    16     1     5
  2.9071898914173014E-02 a       231     0    16     1     6
  6.4353074207046432E-02 a       232     0    16     1     7
  3.2420641236706314E-02 a       233     0    16     1     8
 -1.4316527532125628E-01 a       234     0    16     1     9
 -1.5424552872597755E-01 a       235     0    16     1    10
 -3.5427050418353756E-02 a       236     0    16     1    11
  2.2934764541219094E-01 a       237     0    16     1    12
  7.5249250300735343E-02 a       238     0    16     1    13
 -2.5184734726554539E-02 a       239     0    16     1    14
 -8.2043104116904658E-02 a       240     0    16     1    15
  5.0852033360868332E-01 a       241     0    17     1     1
 -3.2526554537104879E-01 a       242     0    17     1     2
  5.2651575659659622E-01 a       243     0    17     1     3
 -3.2155352189193698E-01 a       244     0    17     1     4
 -1.8673908901395527E-02 a       245     0    17     1     5
  1.1425253049534234E-01 a       246     0    17     1     6
 -1.3482914970638329E-02 a       247     0    17     1     7
  8.0592628389543647E-02 a       248     0    17     1     8
  3.3674880699464960E-01 a       249     0    17     1     9
 -3.0408068756208578E-02 a       250     0    17     1    10
  2.0946779909475594E-02 a       251     0    17     1    11
  7.1417804903400905E-01 a       252     0    17     1    12
  1.5463198111003901E-01 a       253     0    17     1    13
  7.3897654743340602E-01 a       254     0    17     1    14
  2.2551087506082354E-01 a       255     0    17     1    15
  8.0663092332802666E-02 a       256     0    18     1     1
 -7.8090584612220471E-01 a       257     0    18     1     2
 -1.3344480542124615E-01 a       258     0    18     1     3
  9.7235661892535896E-01 a       259     0    18     1     4
 -6.4878236371499987E-01 a       260     0    18     1     5
 -2.8557733628736626E-01 a       261     0    18     1     6
  8.9899632373798832E-02 a       262     0    18     1     7
  2.5167082759353016E-01 a       263     0    18     1     8
  5.2934239553699280E-01 a       264     0    18     1     9
  9.2072622328142528E-01 a       265     0    18     1    10
  3.2756974348990209E-01 a       266     0    18     1    11
  4.0871837530262589E-01 a       267     0    18     1    12
  3.8048905878356037E-01 a       268     0    18     1    13
 -3.2038494097249426E-01 a       269     0    18     1    14
  1.2779279420507064E+00 a       270     0    18     1    15
 -1.4146225450968586E+00 a       271     0    19     1     1
  1.3134514711882312E+00 a       272     0    19     1     2
 -2.9608968540843417E-01 a       273     0    19     1     3
  2.4113668994600514E+00 a       274     0    19     1     4
  1.5006840003389894E+00 a       275     0    19     1     5
 -8.8155669938708281E-01 a       276     0    19     1     6
  4.7279573307202583E-01 a       277     0    19     1     7
  3.2116171080295014E-01 a       278     0    19     1     8
 -2.1258561748042137E-01 a       279     0    19     1     9
  1.2333852282956175E+00 a       280     0    19     1    10
 -1.0238555493706476E+00 a       281     0    19     1    11
 -2.4674968121715097E+00 a       282     0    19     1    12
 -3.5544926433758228E-01 a       283     0    19     1    13
 -9.7019560830699880E-01 a       284     0    19     1    14
  1.7872171253059255E+00 a       285     0    19     1    15
 -4.5688430785666417E-01 a       286     0    20     1     1
 -1.3968817890118379E-01 a       287     0    20     1     2
 -8.4762926578667663E-01 a       288     0    20     1     3
  5.8478729254298423E-01 a       289     0    20     1     4
  6.6018925738832335E-02 a       290     0    20     1     5
 -2.3940190478638096E-01 a       291     0    20     1     6
  3.0446079689039125E-02 a       292     0    20     1     7
  3.0701740958208146E-01 a       293     0    20     1     8
 -3.6011046904933876E-02 a       294     0    20     1     9
 -5.8212175091412532E-01 a       295     0    20     1    10
  2.9798813988395772E-02 a       296     0    20     1    11
 -7.1435236840588001E-01 a       297     0    20     1    12
  1.8785576536716492E-01 a       298     0    20     1    13
 -8.7134380413777046E-01 a       299     0    20     1    14
  8.9968283754107856E-02 a       300     0    20     1    15
 -4.4305330243065960E-01 a       301     0    21     1     1
 -1.4228905233195346E-01 a       302     0    21     1     2
 -5.5574569952548980E-01 a       303     0    21     1     3
  7.9237077078130880E-02 a       304     0    21     1     4
  9.2721006246968340E-01 a       305     0    21     1     5
  1.8254092306199612E-01 a       306     0    21     1     6
  1.2383850489937499E-01 a       307     0    21     1     7
 -5.1629419537216936E-01 a       308     0    21     1     8
 -4.3169932441314318E-01 a       309     0    21     1     9
  4.2921859545985225E-01 a       310     0    21     1    10
  1.0092590099479525E-01 a       311     0    21     1    11
 -7.8862159825476597E-01 a       312     0    21     1    12
  4.9833722327650493E-01 a       313     0    21     1    13
  4.1647897606127371E-01 a       314     0    21     1    14
 -6.5564329161927981E-01 a       315     0    21     1    15
  4.6319702421336867E-01 a       316     0    22     1     1
  4.4613221604106995E-01 a       317     0    22     1     2
  1.9348938206965798E+00 a       318     0    22     1     3
 -1.9889371842253711E-01 a       319     0    22     1     4
 -5.3737384529291676E-01 a       320     0    22     1     5
  1.2368224588917416E+00 a       321     0    22     1     6
  3.6032342392881561E-01 a       322     0    22     1     7
 -1.0186484412956858E+00 a       323     0    22     1     8
  1.1092872498451884E+00 a       324     0    22     1     9
  3.2906099883064797E+00 a       325     0    22     1    10
  8.4161824133003171E-01 a       326     0    22     1    11
  3.5899257708624459E+00 a       327     0    22     1    12
 -1.2375853954438809E+00 a       328     0    22     1    13
  1.3728960515510911E+00 a       329     0    22     1    14
  1.8508076432962766E+00 a       330     0    22     1    15
 -1.6439479360247061E-01 a       331     0    23     1     1
  3.0123656696556522E-01 a       332     0    23     1     2
 -1.2944708209583591E-01 a       333     0    23     1     3
  1.1074900965378480E-01 a       334     0    23     1     4
 -7.6406932373126443E-02 a       335     0    23     1     5
 -2.8766463494087544E-02 a       336     0    23     1     6
  1.8548303537875390E-03 a       337     0    23     1     7
 -6.8963446712775503E-02 a       338     0    23     1     8
 -2.2540242426934123E-01 a       339     0    23     1     9
 -9.8597234879885913E-03 a       340     0    23     1    10
 -1.7392182720368580E-02 a       341     0    23     1    11
 -2.7908073183399551E-01 a       342     0    23     1    12
 -2.0654342539061843E-01 a       343     0    23     1    13
 -1.6825928960919959E-01 a       344     0    23     1    14
 -9.9355414155612026E-02 a       345     0    23     1    15
  2.3395741788921542E-01 a       346     0    24     1     1
 -1.5682488709276668E-01 a       347     0    24     1     2
  1.2793888304226959E+00 a       348     0    24     1     3
 -5.9300397306015204E-02 a       349     0    24     1     4
  8.4339535808228716E-01 a       350     0    24     1     5
  1.8901700073323585E-01 a       351     0    24     1     6
 -8.4617574131431533E-02 a       352     0    24     1     7
  6.3669059171848374E-01 a       353     0    24     1     8
 -7.3465287735089146E-02 a       354     0    24     1     9
  5.4086004177997071E-01 a       355     0    24     1    10
 -3.3465541142424599E-01 a       356     0    24     1    11
  2.9045677507765322E-01 a       357     0    24     1    12
  2.0655881959483127E-01 a       358     0    24     1    13
  1.0078787229427919E+00 a       359     0    24     1    14
 -9.8530417158061934E-01 a       360     0    24     1    15
  6.3010986595212459E-01 a       361     0    25     1     1
  1.3299598462619635E+00 a       362     0    25     1     2
  2.4258125687043313E+00 a       363     0    25     1     3
 -1.5902174281011647E+00 a       364     0    25     1     4
  1.3534810913680722E+00 a       365     0    25     1     5
  5.9882438109507119E-01 a       366     0    25     1     6
 -2.6279127368203586E-01 a       367     0    25     1     7
  1.8770196775905876E+00 a       368     0    25     1     8
 -1.3623278951267757E+00 a       369     0    25     1     9
 -7.0807112821838314E-01 a       370     0    25     1    10
  3.3303734392344730E-01 a       371     0    25     1    11
  1.4502980962382939E+00 a       372     0    25     1    12
 -3.7300467119868946E-01 a       373     0    25     1    13
 -8.9877625378731429E-01 a       374     0    25     1    14
 -1.1840115899351872E-01 a       375     0    25     1    15
  2.1242610048702487E-01 a       376     0    26     1     1
  4.8877038223921943E-01 a       377     0    26     1     2
  7.3025456357768970E-01 a       378     0    26     1     3
 -4.3315361609989456E-01 a       379     0    26     1     4
 -9.7222331437692391E-02 a       380     0    26     1     5
  2.2779191665065646E-01 a       381     0    26     1     6
 -5.0029725391596030E-02 a       382     0    26     1     7
 -1.0739729749245949E-01 a       383     0    26     1     8
  2.7029369512150264E-01 a       384     0    26     1     9
  1.8401806947468152E-01 a       385     0    26     1    10
  7.1582035175164149E-02 a       386     0    26     1    11
  3.0553648262757777E-01 a       387     0    26     1    12
 -1.9157624189422979E-02 a       388     0    26     1    13
  6.3058864798050895E-01 a       389     0    26     1    14
 -2.1584014585783959E-01 a       390     0    26     1    15
  2.7811117312140904E-01 a       391     0    27     1     1
  2.9704987694634277E-01 a       392     0    27     1     2
  4.5172119972074037E-01 a       393     0    27     1     3
  3.7037415802248203E-01 a       394     0    27     1     4
 -2.2988069314459424E-02 a       395     0    27     1     5
  1.4406218903011830E-01 a       396     0    27     1     6
 -1.7230267637584185E-01 a       397     0    27     1     7
 -5.7152745900151136E-01 a       398     0    27     1     8
 -1.3779734623733646E+00 a       399     0    27     1     9
 -1.1746806590595467E+00 a       400     0    27     1    10
 -7.6107315247372564E-01 a       401     0    27     1    11
  1.7570986481863099E-01 a       402     0    27     1    12
  5.7530909541915387E-01 a       403     0    27     1    13
 -4.5518873148470551E-01 a       404     0    27     1    14
  9.9028412363205601E-02 a       405     0    27     1    15
 -2.1498752278209760E-01 a       406     0    28     1     1
 -1.0089716453814250E+00 a       407     0    28     1     2
 -1.0116016744930654E+00 a       408     0    28     1     3
  1.0048644464519993E+00 a       409     0    28     1     4
 -1.9653153974691846E+00 a       410     0    28     1     5
 -3.0337121225387720E-01 a       411     0    28     1     6
 -1.2095482613668189E-01 a       412     0    28     1     7
  1.5786686108537928E+00 a       413     0    28     1     8
  7.5254275686916072E-01 a       414     0    28     1     9
 -2.9268834068522613E+00 a       415     0    28     1    10
  7.3784740242535252E-01 a       416     0    28     1    11
 -1.6650565553448229E+00 a       417     0    28     1    12
  1.3914425506902655E+00 a       418     0    28     1    13
  5.3376318163639268E-02 a       419     0    28     1    14
 -1.6289820284339618E+00 a       420     0    28     1    15
 -1.2590014436317393E-01 a       421     0    29     1     1
 -7.8952405702283512E-02 a       422     0    29     1     2
 -2.2940508521061012E-01 a       423     0    29     1     3
 -2.2077891006269448E-01 a       424     0    29     1     4
  8.6140477171667475E-03 a       425     0    29     1     5
 -2.2454638584585312E-01 a       426     0    29     1     6
 -2.6116893041362485E-02 a       427     0    29     1     7
 -3.1319882861094306E-01 a       428     0    29     1     8
  2.9337318229120196E-01 a       429     0    29     1     9
  1.4323319708069490E-01 a       430     0    29     1    10
 -1.4375114170003961E-01 a       431     0    29     1    11
 -7.4006234999384513E-01 a       432     0    29     1    12
 -3.5228582435008898E-01 a       433     0    29     1    13
 -5.7977620786294493E-01 a       434     0    29     1    14
 -4.4617479732502768E-01 a       435     0    29     1    15
  4.4813119754214042E-01 a       436     0    30     1     1
 -4.0409901812802618E-01 a       437     0    30     1     2
  7.1888633948199776E-01 a       438     0    30     1     3
  1.2011729382523801E+00 a       439     0    30     1     4
 -8.1197729937428798E-01 a       440     0    30     1     5
 -6.0987556783891583E-01 a       441     0    30     1     6
 -5.7434022588025165E-02 a       442     0    30     1     7
 -2.4818899532086883E-01 a       443     0    30     1     8
 -3.8289525303239219E-01 a       444     0    30     1     9
 -1.4057746627329025E-02 a       445     0    30     1    10
 -7.2203481516695966E-01 a       446     0    30     1    11
  1.4474249454013122E-01 a       447     0    30     1    12
 -5.2237291195183544E-01 a       448     0    30     1    13
  2.7902667425237261E-02 a       449     0    30     1    14
  1.2326949315468525E+00 a       450     0    30     1    15
  7.3881827765826569E-01 a       451     0    31     1     1
 -3.2996380716565843E-01 a       452     0    31     1     2
 -8.9117024100349918E-01 a       453     0    31     1     3
  3.7058073315836064E+00 a       454     0    31     1     4
 -2.9995455765606482E-01 a       455     0    31     1     5
 -2.1364800404209081E+00 a       456     0    31     1     6
 -6.2977126155946783E-01 a       457     0    31     1     7
  6.1016663136521576E-01 a       458     0    31     1     8
 -4.3454762062919633E-01 a       459     0    31     1     9
  2.4879646705246497E-01 a       460     0    31     1    10
  2.0926006593155702E+00 a       461     0    31     1    11
  6.7349654067871167E-01 a       462     0    31     1    12
  1.0856654248093098E+00 a       463     0    31     1    13
 -6.4364587446881194E-01 a       464     0    31     1    14
 -1.2480428334653892E+00 a       465     0    31     1    15
 -7.1357740446654966E-02 a       466     0    32     1     1
 -4.2756820273478424E-01 a       467     0    32     1     2
  9.0450105976524398E-01 a       468     0    32     1     3
 -1.6602630090792259E-02 a       469     0    32     1     4
 -1.7269437791552739E-01 a       470     0    32     1     5
  4.3667824273087441E-01 a       471     0    32     1     6
 -1.7926047454715033E-02 a       472     0    32     1     7
 -5.8544874542998038E-01 a       473     0    32     1     8
 -4.8790022699925534E-01 a       474     0    32     1     9
  3.8625205852761352E-01 a       475     0    32     1    10
 -9.8874162850147856E-02 a       476     0    32     1    11
  7.5515830086509572E-01 a       477     0    32     1    12
  2.5847320620280390E-01 a       478     0    32     1    13
  3.8453506215172650E-01 a       479     0    32     1    14
 -3.1209712115780719E-01 a       480     0    32     1    15
  1.8202517969331330E-01 a       481     0    33     1     1
  6.2081262220709466E-01 a       482     0    33     1     2
 -1.2959586112710555E+00 a       483     0    33     1     3
 -4.9483698052937108E-01 a       484     0    33     1     4
 -7.0975642560860164E-01 a       485     0    33     1     5
  2.5732561037450147E-01 a       486     0    33     1     6
 -1.0662131782453618E-01 a       487     0    33     1     7
  6.5447123605330793E-01 a       488     0    33     1     8
  2.7265365641980710E-01 a       489     0    33     1     9
 -7.4343693225713525E-01 a       490     0    33     1    10
  2.0468400060449234E-02 a       491     0    33     1    11
  1.5929423514906926E+00 a       492     0    33     1    12
  1.3173622038515631E-01 a       493     0    33     1    13
  1.0242015645023617E+00 a       494     0    33     1    14
 -1.0077427276168540E+00 a       495     0    33     1    15
 -2.1653509556728658E+00 a       496     0    34     1     1
  2.1987016816035532E-01 a       497     0    34     1     2
  1.0819012926424463E+00 a       498     0    34     1     3
  1.4212679399033326E+00 a       499     0    34     1     4
  4.6222275546516123E-01 a       500     0    34     1     5
  1.6940229891708252E+00 a       501     0    34     1     6
  6.7335985840367951E-01 a       502     0    34     1     7
  4.8003983425995994E-01 a       503     0    34     1     8
  4.7050410371228846E-01 a       504     0    34     1     9
  2.0631777762612544E+00 a       505     0    34     1    10
  2.9846872918167020E+00 a       506     0    34     1    11
  1.8241937512259485E+00 a       507     0    34     1    12
 -1.9675115997531556E+00 a       508     0    34     1    13
  6.5432252182671782E+00 a       509     0    34     1    14
  5.3217086385182544E-01 a       510     0    34     1    15
 -1.6150872922255650E-02 a       511     0    35     1     1
 -7.1271887232477482E-01 a       512     0    35     1     2
  1.6653970481851904E-01 a       513     0    35     1     3
  9.1857122446382874E-02 a       514     0    35     1     4
  2.7000088476127448E-01 a       515     0    35     1     5
  4.4600989632895736E-02 a       516     0    35     1     6
  1.4908963565770339E-02 a       517     0    35     1     7
  3.7152997951106509E-01 a       518     0    35     1     8
  2.8449168765986077E-01 a       519     0    35     1     9
 -1.0769023868439084E-01 a       520     0    35     1    10
  1.7114370806332665E-01 a       521     0    35     1    11
  3.1080753672827910E-01 a       522     0    35     1    12
  3.7541583811376122E-01 a       523     0    35     1    13
  1.5686255155158657E-01 a       524     0    35     1    14
  4.8437690998097782E-01 a       525     0    35     1    15
 -4.4045894725492857E-01 a       526     0    36     1     1
 -1.1492139961882708E+00 a       527     0    36     1     2
 -5.7563643186045255E-01 a       528     0    36     1     3
 -1.1299105199632377E-02 a       529     0    36     1     4
 -1.6862788680649393E-01 a       530     0    36     1     5
 -1.7854220403615442E-01 a       531     0    36     1     6
  7.7059326175682050E-02 a       532     0    36     1     7
 -6.5352497634215367E-01 a       533     0    36     1     8
 -1.3536625167177783E+00 a       534     0    36     1     9
 -6.4640425544989777E-01 a       535     0    36     1    10
  4.6768872363333874E-01 a       536     0    36     1    11
 -6.0085662427160635E-01 a       537     0    36     1    12
 -6.4379404488367009E-01 a       538     0    36     1    13
 -1.5667316345586726E+00 a       539     0    36     1    14
  6.5280024345245014E-01 a       540     0    36     1    15
  9.0702133833876730E-01 a       541     0    37     1     1
 -4.6921952023004782E-01 a       542     0    37     1     2
  5.3597728106385967E-01 a       543     0    37     1     3
  3.3767160984161110E-01 a       544     0    37     1     4
  2.4542967596798773E-01 a       545     0    37     1     5
  3.9963088119578660E-01 a       546     0    37     1     6
 -1.1396565758926476E-01 a       547     0    37     1     7
 -1.8964896880422284E+00 a       548     0    37     1     8
 -1.3868076000332326E+00 a       549     0    37     1     9
 -6.6670546416351284E-01 a       550     0    37     1    10
 -1.2401759398733312E+00 a       551     0    37     1    11
 -3.6824155573985518E-01 a       552     0    37     1    12
 -6.8690604610536887E-01 a       553     0    37     1    13
  1.5988294428451100E-01 a       554     0    37     1    14
 -3.1272328200858945E+00 a       555     0    37     1    15
 -1.4240861439128380E-02 a       556     0    38     1     1
 -1.3171150035421674E-02 a       557     0    38     1     2
 -9.5999615928324422E-01 a       558     0    38     1     3
  4.0196788437521125E-01 a       559     0    38     1     4
  2.1719903505487584E-01 a       560     0    38     1     5
 -1.6706388062086636E-01 a       561     0    38     1     6
 -7.7982074539404353E-03 a       562     0    38     1     7
  2.0737062482293087E-01 a       563     0    38     1     8
  7.1888447041590461E-02 a       564     0    38     1     9
 -4.3528959372850375E-02 a       565     0    38     1    10
 -1.9819590572343349E-01 a       566     0    38     1    11
 -1.2931002415462489E-01 a       567     0    38     1    12
 -1.2364166919076873E-01 a       568     0    38     1    13
 -4.5073695614216772E-02 a       569     0    38     1    14
  1.3348623380282015E-01 a       570     0    38     1    15
 -2.1845219325445017E-01 a       571     0    39     1     1
 -8.6416173851129888E-02 a       572     0    39     1     2
 -5.8353745311897232E-01 a       573     0    39     1     3
 -9.7901314290436095E-02 a       574     0    39     1     4
  2.9146674820280400E-02 a       575     0    39     1     5
  5.0015490958885522E-02 a       576     0    39     1     6
  1.7150885214618694E-01 a       577     0    39     1     7
  2.8867825506585884E-02 a       578     0    39     1     8
  7.6400180817371455E-01 a       579     0    39     1     9
  9.6791966166008503E-01 a       580     0    39     1    10
 -3.2679762685870845E-01 a       581     0    39     1    11
 -1.6512420189218049E-01 a       582     0    39     1    12
  3.6829026736440829E-01 a       583     0    39     1    13
  1.4673252772213136E-01 a       584     0    39     1    14
 -4.7311856358246751E-01 a       585     0    39     1    15
  9.4257141665310673E-01 a       586     0    40     1     1
 -7.8587134293953353E-01 a       587     0    40     1     2
 -1.6139026194795243E+00 a       588     0    40     1     3
 -3.8566965695433835E+00 a       589     0    40     1     4
  1.3308149984832833E+00 a       590     0    40     1     5
  6.8786339255646145E-02 a       591     0    40     1     6
 -4.1503630293590527E-01 a       592     0    40     1     7
 -1.2890709889450458E+00 a       593     0    40     1     8
 -3.6628698476979915E-01 a       594     0    40     1     9
 -2.4287675970928641E-01 a       595     0    40     1    10
 -2.8634401364988689E+00 a       596     0    40     1    11
 -1.5645386010584086E+00 a       597     0    40     1    12
  2.6676257429813326E+00 a       598     0    40     1    13
 -2.1441155833851395E+00 a       599     0    40     1    14
  1.3566877567092446E+00 a       600     0    40     1    15
 -2.6608248930564415E-01 a       601     0    41     1     1
  4.3805015965548499E-01 a       602     0    41     1     2
  2.1189623521007941E-01 a       603     0    41     1     3
  4.6502553379337708E-01 a       604     0    41     1     4
 -3.3922263057880109E-01 a       605     0    41     1     5
  3.0779185531541475E-01 a       606     0    41     1     6
  2.1654703972009803E-02 a       607     0    41     1     7
 -4.0884237721316241E-01 a       608     0    41     1     8
  7.6099735296014681E-01 a       609     0    41     1     9
  3.2346546255970593E-01 a       610     0    41     1    10
  8.5613470472740739E-03 a       611     0    41     1    11
  2.8142895101421189E-01 a       612     0    41     1    12
  2.6954254585486531E-01 a       613     0    41     1    13
 -1.4968234321201951E-01 a       614     0    41     1    14
  1.1030963527767935E-01 a       615     0    41     1    15
 -2.5060024921845298E-01 a       616     0    42     1     1
 -9.7351435782417095E-01 a       617     0    42     1     2
 -4.5012882625129969E-01 a       618     0    42     1     3
  3.0983527958631885E-01 a       619     0    42     1     4
  4.7205083563690720E-01 a       620     0    42     1     5
  1.1226008707092863E-01 a       621     0    42     1     6
  1.6640655700639051E-01 a       622     0    42     1     7
 -7.3355454504598450E-01 a       623     0    42     1     8
  4.0539401570381489E-01 a       624     0    42     1     9
  1.5000770635090142E+00 a       625     0    42     1    10
  6.3707803383684969E-01 a       626     0    42     1    11
  2.6235867720437206E-01 a       627     0    42     1    12
 -2.2730668951964542E-01 a       628     0    42     1    13
 -2.3364569670120275E-01 a       629     0    42     1    14
  1.3101142819542047E+00 a       630     0    42     1    15
 -3.5030615578568175E-01 a       631     0    43     1     1
 -1.6965001179831696E+00 a       632     0    43     1     2
 -3.5187177192573706E+00 a       633     0    43     1     3
 -1.0173505936607243E+00 a       634     0    43     1     4
 -1.1300149285005525E+00 a       635     0    43     1     5
  1.9146215310297221E+00 a       636     0    43     1     6
  2.3699297012002807E-01 a       637     0    43     1     7
  8.0671659451234945E-01 a       638     0    43     1     8
 -5.3166436421120589E-01 a       639     0    43     1     9
  6.7275608510884066E-01 a       640     0    43     1    10
  3.8215209950425827E-01 a       641     0    43     1    11
 -5.4169985908657681E-01 a       642     0    43     1    12
  1.2403736880829199E+00 a       643     0    43     1    13
  6.2428069957276411E-01 a       644     0    43     1    14
  2.1067844338216504E-01 a       645     0    43     1    15
  1.6597446572652758E-01 a       646     0    44     1     1
  4.1076710666128302E-01 a       647     0    44     1     2
  2.3112574747645508E-02 a       648     0    44     1     3
  7.0264793293207520E-02 a       649     0    44     1     4
  6.6914110966939244E-01 a       650     0    44     1     5
 -3.5164268839591034E-01 a       651     0    44     1     6
  6.3197579747817020E-03 a       652     0    44     1     7
  8.8572472579114525E-01 a       653     0    44     1     8
  8.4908833216014923E-01 a       654     0    44     1     9
 -4.3192751510345362E-01 a       655     0    44     1    10
  1.5987832374964037E-01 a       656     0    44     1    11
 -1.9199827896633109E-01 a       657     0    44     1    12
  5.3482403857113683E-02 a       658     0    44     1    13
  2.6157090178313541E-01 a       659     0    44     1    14
 -7.3262043766046159E-01 a       660     0    44     1    15
  5.2879907047600416E-01 a       661     0    45     1     1
  5.0556550584385469E-02 a       662     0    45     1     2
  9.2071966881711775E-01 a       663     0    45     1     3
 -1.2174252262442573E+00 a       664     0    45     1     4
  3.2728583197738575E-01 a       665     0    45     1     5
  2.5311273762568878E-02 a       666     0    45     1     6
 -1.8981748413685917E-01 a       667     0    45     1     7
  7.3066813250825058E-01 a       668     0    45     1     8
 -5.6772529583735853E-01 a       669     0    45     1     9
  1.3393049941039850E-01 a       670     0    45     1    10
  2.7947610943577628E-01 a       671     0    45     1    11
  1.2472213483943870E-01 a       672     0    45     1    12
  4.3179178006915797E-01 a       673     0    45     1    13
  5.7117298747912826E-01 a       674     0    45     1    14
  7.7474432805639060E-01 a       675     0    45     1    15
  5.7926368512162496E-01 a       676     0    46     1     1
 -4.6618732380269806E-01 a       677     0    46     1     2
  2.1162690653346319E+00 a       678     0    46     1     3
 -1.8989370722549568E+00 a       679     0    46     1     4
 -1.0194090781151641E+00 a       680     0    46     1     5
 -9.1017739740339609E-01 a       681     0    46     1     6
 -3.0857743228594864E-01 a       682     0    46     1     7
 -1.8398004841621574E+00 a       683     0    46     1     8
 -5.5340720038048730E-01 a       684     0    46     1     9
 -9.1408432798905581E-01 a       685     0    46     1    10
 -2.3571688455361168E+00 a       686     0    46     1    11
 -9.1419090083944055E-01 a       687     0    46     1    12
 -3.0874222800812540E-01 a       688     0    46     1    13
 -3.3823559592713863E+00 a       689     0    46     1    14
  2.3450156689126782E+00 a       690     0    46     1    15
  1.0880488404359158E-01 a       691     0    47     1     1
  2.7582260246536960E-01 a       692     0    47     1     2
  1.0853273914340790E-01 a       693     0    47     1     3
 -1.7303804926836455E-01 a       694     0    47     1     4
 -1.8468474398807583E-01 a       695     0    47     1     5
 -6.9351827218822257E-02 a       696     0    47     1     6
 -1.4396380164144908E-02 a       697     0    47     1     7
 -2.8314020499003317E-01 a       698     0    47     1     8
 -2.9121716926607438E-01 a       699     0    47     1     9
  4.7155059294655167E-02 a       700     0    47     1    10
 -1.5551121718876143E-01 a       701     0    47     1    11
 -1.7529690713766993E-01 a       702     0    47     1    12
 -2.1642954480414095E-01 a       703     0    47     1    13
 -2.7191824858056241E-03 a       704     0    47     1    14
  9.9306719786552489E-01 a       705     0    47     1    15
  1.5183787288548764E-01 a       706     0    48     1     1
  5.7060734121562218E-01 a       707     0    48     1     2
  2.3243964889127727E-01 a       708     0    48     1     3
 -7.3130790815091162E-01 a       709     0    48     1     4
  3.7051810107009919E-01 a       710     0    48     1     5
 -3.7784268621072065E-03 a       711     0    48     1     6
 -8.1588648891956717E-02 a       712     0    48     1     7
  3.6800174104445915E-01 a       713     0    48     1     8
  3.2501578747069465E-01 a       714     0    48     1     9
  6.0495181342422558E-02 a       715     0    48     1    10
  4.6203859008215699E-02 a       716     0    48     1    11
  4.9963798567554688E-02 a       717     0    48     1    12
  4.0193289978421298E-01 a       718     0    48     1    13
  9.6148569302109066E-01 a       719     0    48     1    14
  2.2272194621207256E-01 a       720     0    48     1    15
 -1.1543939754385901E-01 a       721     0    49     1     1
 -5.2264541240574136E-01 a       722     0    49     1     2
 -5.1902702185397505E-02 a       723     0    49     1     3
 -5.5414066538135853E-01 a       724     0    49     1     4
 -9.9938646062615200E-01 a       725     0    49     1     5
 -6.7126943556275231E-01 a       726     0    49     1     6
 -4.1199228588069021E-02 a       727     0    49     1     7
 -1.0267180437915189E+00 a       728     0    49     1     8
 -6.2677809787886049E-02 a       729     0    49     1     9
  4.0777843233142881E-02 a       730     0    49     1    10
 -3.8737591906620866E-01 a       731     0    49     1    11
  7.7854431283055969E-01 a       732     0    49     1    12
 -5.2425198189307520E-01 a       733     0    49     1    13
  4.9400928718283783E-02 a       734     0    49     1    14
  1.4719937917044934E+00 a       735     0    49     1    15
 -1.4686322203218269E-01 a       736     0    50     1     1
  2.3137692538922734E-02 a       737     0    50     1     2
  2.0353716280105300E-01 a       738     0    50     1     3
  4.9573725780640482E-02 a       739     0    50     1     4
 -5.1772049930390873E-01 a       740     0    50     1     5
  4.5520218822994320E-02 a       741     0    50     1     6
  4.6596619014317324E-02 a       742     0    50     1     7
 -2.8797327355592695E-01 a       743     0    50     1     8
 -3.7070681209400047E-01 a       744     0    50     1     9
  9.6957992178929295E-02 a       745     0    50     1    10
  8.8464658628173071E-02 a       746     0    50     1    11
  3.4449642173600269E-02 a       747     0    50     1    12
 -1.1613887941822941E-01 a       748     0    50     1    13
 -1.3011785719715191E-01 a       749     0    50     1    14
  5.2867900331808582E-01 a       750     0    50     1    15
 -3.7542480212711227E-02 a       751     0    51     1     1
 -2.2891138291141278E-01 a       752     0    51     1     2
 -5.9989134497197193E-02 a       753     0    51     1     3
  7.7597979409293125E-02 a       754     0    51     1     4
  2.4024583242276487E-01 a       755     0    51     1     5
 -2.6015098890041849E-01 a       756     0    51     1     6
  1.1930525370335057E-01 a       757     0    51     1     7
 -8.7928555019407717E-01 a       758     0    51     1     8
 -2.7380514515653798E-01 a       759     0    51     1     9
 -5.6460382049950734E-02 a       760     0    51     1    10
  2.3948773280504299E-01 a       761     0    51     1    11
 -2.9448239428859974E-01 a       762     0    51     1    12
 -5.3344712946725747E-01 a       763     0    51     1    13
 -5.8265865819314855E-01 a       764     0    51     1    14
  6.3157443981640593E-01 a       765     0    51     1    15
 -5.9080880507227029E-01 a       766     0    52     1     1
  2.0368758415420678E+00 a       767     0    52     1     2
  1.6066534056756401E+00 a       768     0    52     1     3
  2.8932359933737746E+00 a       769     0    52     1     4
  1.4345198559686965E+00 a       770     0    52     1     5
 -4.6821562319412591E-01 a       771     0    52     1     6
  2.5354642999322186E-01 a       772     0    52     1     7
  1.4977595213262540E+00 a       773     0    52     1     8
  6.4773062636734893E-02 a       774     0    52     1     9
 -5.9290900166972171E-01 a       775     0    52     1    10
  2.3528864911144121E+00 a       776     0    52     1    11
  2.0722606873389275E+00 a       777     0    52     1    12
 -1.1178833528852432E+00 a       778     0    52     1    13
  2.4085702894889089E+00 a       779     0    52     1    14
 -2.2016010256939804E+00 a       780     0    52     1    15
  1.8104678934099711E-01 a       781     0    53     1     1
 -6.6831986027810086E-01 a       782     0    53     1     2
  1.8186828406762176E-01 a       783     0    53     1     3
 -2.2753599141527625E-01 a       784     0    53     1     4
  4.0724916308921444E-01 a       785     0    53     1     5
 -1.0841774577359560E-01 a       786     0    53     1     6
 -1.5795181304439382E-02 a       787     0    53     1     7
  8.1095492069222563E-01 a       788     0    53     1     8
 -2.2054081884650778E-01 a       789     0    53     1     9
 -3.5066175734805805E-01 a       790     0    53     1    10
 -2.0324249394556168E-02 a       791     0    53     1    11
 -4.7513694693637136E-02 a       792     0    53     1    12
 -1.9605986675796994E-02 a       793     0    53     1    13
  2.0329398076380337E-01 a       794     0    53     1    14
  4.1550337549177996E-01 a       795     0    53     1    15
 -1.8224030870050703E-01 a       796     0    54     1     1
  3.8471380706315411E-01 a       797     0    54     1     2
 -4.0537875755569851E-02 a       798     0    54     1     3
 -2.5326006622991261E-02 a       799     0    54     1     4
  2.1802749923947883E-02 a       800     0    54     1     5
  1.9905191219741748E-02 a       801     0    54     1     6
 -6.2388363449287512E-02 a       802     0    54     1     7
  3.0603821661752928E-01 a       803     0    54     1     8
  8.1962774455186349E-02 a       804     0    54     1     9
 -5.2034424635381271E-01 a       805     0    54     1    10
 -1.9048966074298707E-01 a       806     0    54     1    11
 -2.2802319967444673E-01 a       807     0    54     1    12
  1.6285959345094925E-01 a       808     0    54     1    13
 -2.4882455902384994E-02 a       809     0    54     1    14
 -2.8076771396681260E-01 a       810     0    54     1    15
  5.4307285935071681E-01 a       811     0    55     1     1
  7.4113241274233332E-01 a       812     0    55     1     2
  3.0103755229803730E-01 a       813     0    55     1     3
 -5.2935478493381971E-01 a       814     0    55     1     4
  2.7534000871755998E-01 a       815     0    55     1     5
 -2.1703984366408907E-01 a       816     0    55     1     6
 -6.1251730759405765E-02 a       817     0    55     1     7
 -3.5859629918821656E-01 a       818     0    55     1     8
  9.6164378598566455E-02 a       819     0    55     1     9
 -1.3729652087237315E-01 a       820     0    55     1    10
 -5.8293470267735281E-01 a       821     0    55     1    11
 -5.1443689742965448E-01 a       822     0    55     1    12
 -1.5158688463439984E-01 a       823     0    55     1    13
  4.4411097334872460E-02 a       824     0    55     1    14
  8.6921716427691553E-01 a       825     0    55     1    15
 -9.5852306636470846E-02 a       826     0    56     1     1
  2.1657342307348787E-01 a       827     0    56     1     2
 -4.1753745074303417E-01 a       828     0    56     1     3
  5.5512427846267288E-02 a       829     0    56     1     4
 -6.4898724358706317E-01 a       830     0    56     1     5
  8.5672908177380117E-02 a       831     0    56     1     6
 -1.6241010329126553E-02 a       832     0    56     1     7
 -7.6821776070273429E-01 a       833     0    56     1     8
 -4.7677046319989275E-01 a       834     0    56     1     9
  3.0884834628810137E-01 a       835     0    56     1    10
 -5.1076472616864668E-02 a       836     0    56     1    11
 -4.4430042157243971E-02 a       837     0    56     1    12
 -9.9396867594124846E-02 a       838     0    56     1    13
 -3.0425541881709756E-01 a       839     0    56     1    14
 -2.2708246149789227E-01 a       840     0    56     1    15
 -2.3238387495500909E-01 a       841     0    57     1     1
  4.4912663398396074E-01 a       842     0    57     1     2
  1.3251747269501377E-01 a       843     0    57     1     3
  4.7391989032290605E-01 a       844     0    57     1     4
  2.4971273079307527E-01 a       845     0    57     1     5
 -4.4171614020844927E-04 a       846     0    57     1     6
  2.9610221726735178E-02 a       847     0    57     1     7
 -3.3158269021316231E-02 a       848     0    57     1     8
  3.3354613146649276E-01 a       849     0    57     1     9
 -6.9437016699829629E-02 a       850     0    57     1    10
  1.6102350209464940E-02 a       851     0    57     1    11
 -2.7085435776108613E-01 a       852     0    57     1    12
  4.1067513519759909E-02 a       853     0    57     1    13
 -4.1573450640134457E-01 a       854     0    57     1    14
  4.0394494844390133E-01 a       855     0    57     1    15
 -9.5923261719368258E-01 a       856     0    58     1     1
 -3.0963153735567478E-01 a       857     0    58     1     2
  1.2513011921021022E-01 a       858     0    58     1     3
 -1.4934041107936125E-01 a       859     0    58     1     4
 -2.2849664440940040E-01 a       860     0    58     1     5
 -1.5925584320833747E-01 a       861     0    58     1     6
  9.1429266088915800E-02 a       862     0    58     1     7
  4.2190406474141673E-01 a       863     0    58     1     8
 -2.0367298467691328E-01 a       864     0    58     1     9
 -1.2625456531914250E-01 a       865     0    58     1    10
  7.5367992706511044E-01 a       866     0    58     1    11
  7.1676793845472919E-01 a       867     0    58     1    12
  1.2134012628137429E-01 a       868     0    58     1    13
 -7.2206766207556183E-01 a       869     0    58     1    14
 -9.1749442107725598E-01 a       870     0    58     1    15
 -5.4076035616211847E-02 a       871     0    59     1     1
  1.3315702991575560E-02 a       872     0    59     1     2
 -2.7308295925900256E-01 a       873     0    59     1     3
  7.1493016086029440E-02 a       874     0    59     1     4
  5.1768780337021696E-02 a       875     0    59     1     5
  2.1405434489213462E-02 a       876     0    59     1     6
  8.5578195657246853E-03 a       877     0    59     1     7
  1.1663647524567519E-02 a       878     0    59     1     8
  6.8639870218264454E-02 a       879     0    59     1     9
  4.9262668629184415E-02 a       880     0    59     1    10
  8.0590805116542416E-02 a       881     0    59     1    11
  5.2693568385617028E-02 a       882     0    59     1    12
  6.0750272488539481E-02 a       883     0    59     1    13
 -6.7572266034103851E-02 a       884     0    59     1    14
 -8.7394288488925131E-01 a       885     0    59     1    15
  7.2267555896386851E-02 a       886     0    60     1     1
 -3.0566307575750701E-01 a       887     0    60     1     2
  5.2360354739600330E-02 a       888     0    60     1     3
  2.1496073774089525E-01 a       889     0    60     1     4
 -3.7429432893560308E-02 a       890     0    60     1     5
  3.9560470576482286E-02 a       891     0    60     1     6
  2.1728496535209998E-02 a       892     0    60     1     7
  6.0017431959482920E-02 a       893     0    60     1     8
 -1.3653145178523587E-01 a       894     0    60     1     9
 -4.8425108778034104E-02 a       895     0    60     1    10
 -4.9267916476847112E-02 a       896     0    60     1    11
  1.2594126869565800E-01 a       897     0    60     1    12
 -1.4631342154417429E-02 a       898     0    60     1    13
 -2.1711560240744984E-01 a       899     0    60     1    14
  1.9826505153290819E-01 a       900     0    60     1    15
  1.1851830398818682E-01 a       901     0    61     1     1
  8.7790225991461204E-02 a       902     0    61     1     2
  5.1829398606007424E-02 a       903     0    61     1     3
  2.7390207350482443E-01 a       904     0    61     1     4
  1.9364910141615121E-01 a       905     0    61     1     5
  9.1707695174464893E-02 a       906     0    61     1     6
  5.0201007583815432E-02 a       907     0    61     1     7
  3.9429191103535616E-01 a       908     0    61     1     8
  5.4341746366036336E-02 a       909     0    61     1     9
 -4.2695768061039398E-02 a       910     0    61     1    10
  3.2453625657414781E-01 a       911     0    61     1    11
 -3.2836910943554204E-02 a       912     0    61     1    12
  1.5780373926172969E-01 a       913     0    61     1    13
 -1.1604505739313210E-01 a       914     0    61     1    14
 -7.1761884999380143E-01 a       915     0    61     1    15
  9.5329734983953238E-02 a       916     0    62     1     1
  2.3662452773024600E-01 a       917     0    62     1     2
  1.6283057419490696E-01 a       918     0    62     1     3
 -2.7090755688860317E-02 a       919     0    62     1     4
  2.4935325352847096E-01 a       920     0    62     1     5
  1.3795002602655634E-02 a       921     0    62     1     6
 -1.9143525869953434E-02 a       922     0    62     1     7
  2.2719885359194597E-01 a       923     0    62     1     8
  3.2620623440720609E-01 a       924     0    62     1     9
  1.0857679700278761E-02 a       925     0    62     1    10
 -3.6617921657293780E-02 a       926     0    62     1    11
  6.3425276666866856E-02 a       927     0    62     1    12
  5.0949581276794401E-02 a       928     0    62     1    13
  1.3365381713402333E-01 a       929     0    62     1    14
 -1.4152363406376811E-01 a       930     0    62     1    15
 -1.8532973449225113E-02 a       931     0    63     1     1
 -1.3590676530706183E-01 a       932     0    63     1     2
 -3.9942976392987425E-02 a       933     0    63     1     3
  1.3325162540310440E-01 a       934     0    63     1     4
 -1.5670544601502523E-01 a       935     0    63     1     5
  7.9322984102127875E-02 a       936     0    63     1     6
 -1.8220772561605807E-02 a       937     0    63     1     7
  3.1229815987785386E-01 a       938     0    63     1     8
 -5.5984819945084405E-02 a       939     0    63     1     9
  2.4873779282336302E-02 a       940     0    63     1    10
 -1.1625972001900393E-01 a       941     0    63     1    11
  1.9940339002065494E-01 a       942     0    63     1    12
  9.1591170818345585E-02 a       943     0    63     1    13
  2.5577737910276260E-01 a       944     0    63     1    14
 -2.3136396122024327E-01 a       945     0    63     1    15
  9.2636728915168554E-01 a       946     0    64     1     1
 -2.4349707620610447E-01 a       947     0    64     1     2
 -8.3313157156314577E-01 a       948     0    64     1     3
  8.6728631865131314E-02 a       949     0    64     1     4
 -1.0869965365750145E+00 a       950     0    64     1     5
  1.9661043358484565E-01 a       951     0    64     1     6
 -8.8472956236957501E-02 a       952     0    64     1     7
 -2.5258723643632580E-01 a       953     0    64     1     8
  8.4027652229143476E-02 a       954     0    64     1     9
  1.3444692690267632E-01 a       955     0    64     1    10
 -6.3425114633846102E-01 a       956     0    64     1    11
 -9.3485245440668929E-01 a       957     0    64     1    12
  2.4630074299277899E-01 a       958     0    64     1    13
 -3.5002969952482110E-01 a       959     0    64     1    14
 -3.5570341214186130E-01 a       960     0    64     1    15
  4.9023901589074559E-01 b       961     1     1
  2.1697547934029920E-01 b       962     1     2
  1.1640110533089798E-01 b       963     1     3
 -6.7455102592092986E-01 b       964     1     4
 -2.7428921906472548E-01 b       965     1     5
  5.5461404331041533E-02 b       966     1     6
  1.3768607013991008E-01 b       967     1     7
  4.2951947047099898E-01 b       968     1     8
  7.5514597927618654E-01 b       969     1     9
 -5.8636485867246901E-01 b       970     1    10
 -2.0460904868014620E-01 b       971     1    11
 -1.0922377737644797E+00 b       972     1    12
 -6.4666200622525261E-01 b       973     1    13
 -3.8470862531018168E-01 b       974     1    14
 -1.1463779302540607E+00 b       975     1    15
  2.8184822509352274E-02 a       976     1     1     2     1
 -1.3770629209847576E-01 a       977     1     1     2     2
  1.0996588896567621E+00 a       978     1     1     2     3
  1.7520987584805459E-01 a       979     1     1     2     4
 -2.8268343141089437E-02 a       980     1     1     2     5
 -2.1360614269135194E+00 a       981     1     1     2     6
 -1.2794548817917324E+00 a       982     1     1     2     7
 -3.4421621787596629E-01 a       983     1     1     2     8
  1.0391596538222430E+00 a       984     1     1     2     9
 -6.9132476983204683E-01 a       985     1     1     2    10
 -6.2357322193282883E-01 a       986     1     1     2    11
 -4.6423439750686635E-01 a       987     1     1     2    12
 -1.0548175086315054E-01 a       988     1     1     2    13
 -6.4788396495796252E-01 a       989     1     1     2    14
  3.5185402713166281E-01 a       990     1     1     2    15
  1.3749846805299334E-01 a       991     1     2     2     1
 -4.8596793507853162E-02 a       992     1     2     2     2
 -1.1662830655656853E-01 a       993     1     2     2     3
 -7.7982015668032911E-01 a       994     1     2     2     4
  2.0989874579249787E-01 a       995     1     2     2     5
 -9.2323092434707058E-02 a       996     1     2     2     6
  1.4591240327124091E-01 a       997     1     2     2     7
  2.2996272354232704E-02 a       998     1     2     2     8
  2.9934282259673928E-02 a       999     1     2     2     9
  5.0964436993900623E-03 a      1000     1     2     2    10
 -1.4197035635244271E-01 a      1001     1     2     2    11
 -6.2487604346055312E-02 a      1002     1     2     2    12
 -3.5674942687728473E-02 a      1003     1     2     2    13
 -3.1600045093497564E-01 a      1004     1     2     2    14
  1.7168103399182619E-01 a      1005     1     2     2    15
  6.2565687043386808E-01 a      1006     1     3     2     1
  5.7896421334407061E-02 a      1007     1     3     2     2
 -1.1564818270367421E+00 a      1008     1     3     2     3
 -1.0600211836535043E+00 a      1009     1     3     2     4
  9.1192785915899033E-01 a      1010     1     3     2     5
  3.2208966275306766E-01 a      1011     1     3     2     6
  1.0705953196285061E+00 a      1012     1     3     2     7
  2.8649544068547330E+00 a      1013     1     3     2     8
  3.5045042932899789E-01 a      1014     1     3     2     9
 -8.6138215580713995E-01 a      1015     1     3     2    10
 -3.4450669303313453E-01 a      1016     1     3     2    11
 -1.2099403753874145E+00 a      1017     1     3     2    12
  8.7654024609639747E-01 a      1018     1     3     2    13
 -1.4638787466162198E-01 a      1019     1     3     2    14
 -2.5383050012392072E-01 a      1020     1     3     2    15
  6.0863525303338417E-01 a      1021     1     4     2     1
 -2.9170923706444124E-01 a      1022     1     4     2     2
 -1.0482134283346725E+00 a      1023     1     4     2     3
  3.1870257194462248E-01 a      1024     1     4     2     4
  4.0539672692758338E-01 a      1025     1     4     2     5
 -1.6834120115469722E+00 a      1026     1     4     2     6
  1.3190699684399245E+00 a      1027     1     4     2     7
 -1.0782584793381260E+00 a      1028     1     4     2     8
  5.9609356765737442E-01 a      1029     1     4     2     9
 -2.3347214879142600E-01 a      1030     1     4     2    10
 -7.0304037720823531E-01 a      1031     1     4     2    11
  5.8161262237953570E-01 a      1032     1     4     2    12
 -3.4125837214125938E-02 a      1033     1     4     2    13
  1.3427096878049001E+00 a      1034     1     4     2    14
 -2.4955164655034506E-01 a      1035     1     4     2    15
  6.1514800734526776E-01 a      1036     1     5     2     1
 -2.5150099728395686E-02 a      1037     1     5     2     2
 -7.8388680404844446E-01 a      1038     1     5     2     3
  1.5910900594591845E-01 a      1039     1     5     2     4
  5.0172459771897493E-01 a      1040     1     5     2     5
 -6.4640037046386031E-02 a      1041     1     5     2     6
  1.0217345655582402E+00 a      1042     1     5     2     7
 -4.3334784437148693E-01 a      1043     1     5     2     8
  5.8164595484918404E-02 a      1044     1     5     2     9
 -5.6075867307702372E-02 a      1045     1     5     2    10
 -3.3059555136758983E-01 a      1046     1     5     2    11
  2.2440298309046577E-01 a      1047     1     5     2    12
  2.8971749058576313E-01 a      1048     1     5     2    13
  1.0143783220749492E+00 a      1049     1     5     2    14
 -6.0733155928225768E-03 a      1050     1     5     2    15
  1.2394397193985716E+00 a      1051     1     6     2     1
  6.1117857286763733E-01 a      1052     1     6     2     2
  4.8041959370722487E-01 a      1053     1     6     2     3
  1.4667638735770625E+00 a      1054     1     6     2     4
  5.0270039555932378E-01 a      1055     1     6     2     5
  4.7561252853943070E-01 a      1056     1     6     2     6
  3.5441864407278872E-01 a      1057     1     6     2     7
  8.3735623006965731E-01 a      1058     1     6     2     8
 -6.2053185992612647E-01 a      1059     1     6     2     9
  1.3209432950091771E-01 a      1060     1     6     2    10
  6.0219271808916353E-01 a      1061     1     6     2    11
 -8.4592300131005882E-01 a      1062     1     6     2    12
  1.2727016565952889E+00 a      1063     1     6     2    13
  6.3338789853410349E-01 a      1064     1     6     2    14
  1.8632069134838930E-01 a      1065     1     6     2    15
 -8.1453014846802418E-01 a      1066     1     7     2     1
 -4.9011027810036240E-01 a      1067     1     7     2     2
  5.9479377373713815E-01 a      1068     1     7     2     3
  8.6878446994444414E-01 a      1069     1     7     2     4
 -4.1015912086334744E-01 a      1070     1     7     2     5
 -1.2270910798285539E+00 a      1071     1     7     2     6
 -5.0329353523224363E-01 a      1072     1     7     2     7
  1.0673900429743581E+00 a      1073     1     7     2     8
  3.7219404379037518E-01 a      1074     1     7     2     9
  9.8942452260981273E-01 a      1075     1     7     2    10
 -1.4857951954758639E-01 a      1076     1     7     2    11
 -4.1367358218539968E-01 a      1077     1     7     2    12
 -6.8143476309654738E-01 a      1078     1     7     2    13
 -1.6029645087379199E-01 a      1079     1     7     2    14
  1.3784058282860112E+00 a      1080     1     7     2    15
 -1.7324266183335496E-01 a      1081     1     8     2     1
  3.0433945925224609E-01 a      1082     1     8     2     2
 -3.5718675579010561E-01 a      1083     1     8     2     3
  7.0995450773653157E-01 a      1084     1     8     2     4
 -2.5150629347706754E-01 a      1085     1     8     2     5
 -3.4077087198841854E-01 a      1086     1     8     2     6
  3.9872947575697526E-01 a      1087     1     8     2     7
  8.9321303740420943E-01 a      1088     1     8     2     8
 -1.0243584382179205E+00 a      1089     1     8     2     9
  9.9127863131978633E-01 a      1090     1     8     2    10
 -2.6541461056362603E-01 a      1091     1     8     2    11
 -4.8158480070284548E-01 a      1092     1     8     2    12
 -7.4258943155353185E-01 a      1093     1     8     2    13
 -5.5480020686680265E-01 a      1094     1     8     2    14
 -6.0731041575940892E-01 a      1095     1     8     2    15
 -4.7087421056641826E-01 a      1096     1     9     2     1
  4.2457983541488264E-01 a      1097     1     9     2     2
  4.0174454357699874E-01 a      1098     1     9     2     3
  1.4042655348847791E-01 a      1099     1     9     2     4
 -6.0627875476296711E-01 a      1100     1     9     2     5
  1.2865564585035838E-01 a      1101     1     9     2     6
 -4.7057649986346978E-01 a      1102     1     9     2     7
 -5.9080040350524443E-01 a      1103     1     9     2     8
 -5.6885798145097966E-01 a      1104     1     9     2     9
  2.2655827844070034E-01 a      1105     1     9     2    10
  4.9314529332306856E-01 a      1106     1     9     2    11
 -3.6297147783504069E-01 a      1107     1     9     2    12
  4.9461825573762125E-01 a      1108     1     9     2    13
  2.8363707230799038E-02 a      1109     1     9     2    14
 -9.9720802683218347E-03 a      1110     1     9     2    15
  4.5207496607878533E-01 a      1111     1    10     2     1
  1.3255027829034166E-01 a      1112     1    10     2     2
  5.7062432925850108E-02 a      1113     1    10     2     3
 -4.0187992983162618E-01 a      1114     1    10     2     4
  3.0024900913224611E-01 a      1115     1    10     2     5
 -1.1501383317274123E+00 a      1116     1    10     2     6
 -7.6862169900637198E-02 a      1117     1    10     2     7
 -6.7418805108594404E-01 a      1118     1    10     2     8
 -9.5286964956611242E-01 a      1119     1    10     2     9
 -8.4074462794022709E-01 a      1120     1    10     2    10
  1.0829618799407661E+00 a      1121     1    10     2    11
  1.2440745720976681E-01 a      1122     1    10     2    12
  3.4955870901039054E-01 a      1123     1    10     2    13
 -7.0128345964347782E-01 a      1124     1    10     2    14
 -9.3532884238939407E-01 a      1125     1    10     2    15
 -6.3765469458068630E-02 a      1126     1    11     2     1
 -3.1393726218517626E-01 a      1127     1    11     2     2
  3.4098811580924698E-01 a      1128     1    11     2     3
 -6.8995716283764230E-01 a      1129     1    11     2     4
 -1.4226606248252402E-01 a      1130     1    11     2     5
 -1.3723182770010992E-01 a      1131     1    11     2     6
 -1.7196396515164358E-01 a      1132     1    11     2     7
  4.2753957879699922E-01 a      1133     1    11     2     8
  1.9554377648340175E+00 a      1134     1    11     2     9
  2.9688190947529926E-02 a      1135     1    11     2    10
 -1.6037550274282479E+00 a      1136     1    11     2    11
 -2.5812862644666795E-01 a      1137     1    11     2    12
 -1.6686684665513377E-01 a      1138     1    11     2    13
  1.0180810353259202E+00 a      1139     1    11     2    14
  8.3199684514356143E-01 a      1140     1    11     2    15
  1.1575133763296543E+00 a      1141     1    12     2     1
 -6.4791974627894999E-01 a      1142     1    12     2     2
 -1.2568411696282169E+00 a      1143     1    12     2     3
  8.7874452737181052E-01 a      1144     1    12     2     4
  1.2062044885918892E+00 a      1145     1    12     2     5
  3.1931035233224270E+00 a      1146     1    12     2     6
  1.6084901954750712E+00 a      1147     1    12     2     7
  4.5037230660169525E-01 a      1148     1    12     2     8
  1.8231334110013599E+00 a      1149     1    12     2     9
  9.8108024344046818E-01 a      1150     1    12     2    10
  6.7310287283965520E-01 a      1151     1    12     2    11
  9.2480635762751812E-02 a      1152     1    12     2    12
 -1.3355359285169929E-01 a      1153     1    12     2    13
  1.9025656240707056E+00 a      1154     1    12     2    14
  1.0479846547562768E-01 a      1155     1    12     2    15
 -8.3788073006165054E-01 a      1156     1    13     2     1
 -1.7251417780971123E-01 a      1157     1    13     2     2
  2.9257667058554676E-01 a      1158     1    13     2     3
  2.9721810631737977E-01 a      1159     1    13     2     4
 -5.9233093728350994E-01 a      1160     1    13     2     5
 -1.7748736374435472E+00 a      1161     1    13     2     6
 -7.5721722952462411E-01 a      1162     1    13     2     7
  6.2845497839975062E-01 a      1163     1    13     2     8
  6.1578878620208310E-01 a      1164     1    13     2     9
 -9.5168852218756361E-01 a      1165     1    13     2    10
 -1.0476814793995706E+00 a      1166     1    13     2    11
 -6.3555763563872159E-01 a      1167     1    13     2    12
 -7.6558265912331480E-01 a      1168     1    13     2    13
 -1.4899989160425735E+00 a      1169     1    13     2    14
 -3.5030412442788667E-01 a      1170     1    13     2    15
  3.3962814230683880E-01 a      1171     1    14     2     1
 -1.1699812966195362E-01 a      1172     1    14     2     2
 -1.3284891846944394E-01 a      1173     1    14     2     3
 -1.6276797231108292E-01 a      1174     1    14     2     4
  5.4997382128060501E-01 a      1175     1    14     2     5
 -5.2046364462325490E-01 a      1176     1    14     2     6
 -1.0710356834526003E-01 a      1177     1    14     2     7
  1.5710815222658245E+00 a      1178     1    14     2     8
 -8.8849714504258415E-01 a      1179     1    14     2     9
  3.9604784945228305E-01 a      1180     1    14     2    10
  4.2855723369117249E-01 a      1181     1    14     2    11
 -1.6166055483973865E-01 a      1182     1    14     2    12
 -3.2881494068038347E-01 a      1183     1    14     2    13
 -9.2717942093354377E-01 a      1184     1    14     2    14
  4.6105565731546350E-01 a      1185     1    14     2    15
 -2.8853196634762462E-01 a      1186     1    15     2     1
  8.7196356675084782E-02 a      1187     1    15     2     2
  3.2859106425423046E-01 a      1188     1    15     2     3
 -6.8518622240021021E-01 a      1189     1    15     2     4
 -4.1505716582924368E-01 a      1190     1    15     2     5
 -6.6424419981138988E-02 a      1191     1    15     2     6
 -3.1768268979477871E-01 a      1192     1    15     2     7
 -8.9962465018600923E-01 a      1193     1    15     2     8
 -6.8039945839846316E-01 a      1194     1    15     2     9
  4.1314712463969677E-01 a      1195     1    15     2    10
  7.7691007812815105E-01 a      1196     1    15     2    11
  6.7890380938551653E-02 a      1197     1    15     2    12
  4.2772182604112211E-02 a      1198     1    15     2    13
  4.3425186216700223E-01 a      1199     1    15     2    14
  5.1885141833501451E-02 a      1200     1    15     2    15
  4.8035616344616539E-01 b      1201     2     1
  5.4395953564395150E-01 b      1202     2     2
  9.4024157090684818E-02 b      1203     2     3
 -1.3114782847396411E-01 b      1204     2     4
  7.8243937773706163E-01 b      1205     2     5
  5.8558561993719260E-01 b      1206     2     6
 -3.3668136403921112E-01 b      1207     2     7
 -9.7821580384778750E-01 b      1208     2     8
 -3.1114280694018742E-01 b      1209     2     9
 -4.8271206343253087E-01 b      1210     2    10
  8.9216443908588239E-01 b      1211     2    11
 -1.4656537897027455E-02 b      1212     2    12
 -1.6628900059315177E-01 b      1213     2    13
 -6.1910161682861967E-02 b      1214     2    14
 -6.8383256937830081E-02 b      1215     2    15
 -8.6992810927768371E-01 a      1216     2     1     3     1
 -1.5659358843111189E+00 a      1217     2     2     3     1
  8.2564743428673260E-01 a      1218     2     3     3     1
  1.0784757289162679E-01 a      1219     2     4     3     1
  7.4765093529203697E-01 a      1220     2     5     3     1
 -1.9427583796110029E-01 a      1221     2     6     3     1
  5.3775627737549980E-01 a      1222     2     7     3     1
 -1.0880734369144902E-01 a      1223     2     8     3     1
 -2.9763385707529605E-01 a      1224     2     9     3     1
  3.1115669500393789E-01 a      1225     2    10     3     1
 -2.9473633184978493E-01 a      1226     2    11     3     1
 -5.8211867264692818E-01 a      1227     2    12     3     1
  7.1226958769557103E-01 a      1228     2    13     3     1
 -6.9932045871580195E-02 a      1229     2    14     3     1
 -2.9577635617479026E-01 a      1230     2    15     3     1
  2.0763696701311676E-01 b      1231     3     1
