################################################################################
# Neural network connection values (weights and biases).
################################################################################
# Col  Name       Description
################################################################################
# 1    connection Neural network connection value.
# 2    t          Connection type (a = weight, b = bias).
# 3    index      Index enumerating weights.
# 4    l_s        Starting point layer (end point layer for biases).
# 5    n_s        Starting point neuron in starting layer (end point neuron for biases).
# 6    l_e        End point layer.
# 7    n_e        End point neuron in end layer.
################################################################################
#                      1 2         3     4     5     6     7
#             connection t     index   l_s   n_s   l_e   n_e
############################################################
 -8.0308710120348747E-01 a         1     0     1     1     1
 -9.9713970774115879E-01 a         2     0     1     1     2
  4.6891237061402302E-01 a         3     0     1     1     3
 -1.3787477460195785E+00 a         4     0     1     1     4
 -4.8068845910612146E-01 a         5     0     1     1     5
 -9.9560584672938844E-03 a         6     0     1     1     6
 -2.9276069813257499E-01 a         7     0     1     1     7
  6.5611426069555057E-02 a         8     0     1     1     8
  3.0010339577791445E-01 a         9     0     1     1     9
  3.8613707034123107E-01 a        10     0     1     1    10
 -9.8784939884831591E-01 a        11     0     1     1    11
  3.0378737487976820E-01 a        12     0     1     1    12
 -8.2631791635376428E-01 a        13     0     1     1    13
 -6.5365766779199330E-01 a        14     0     1     1    14
  5.8262310972872822E-01 a        15     0     1     1    15
  3.9248727453074304E-02 a        16     0     2     1     1
  3.1091490579426706E-01 a        17     0     2     1     2
  7.5507982912135219E-01 a        18     0     2     1     3
 -2.4189682794048731E-01 a        19     0     2     1     4
  5.9397620567633425E-01 a        20     0     2     1     5
  2.6716580127559911E-02 a        21     0     2     1     6
  8.9373525742380144E-01 a        22     0     2     1     7
  2.3162410552910533E+00 a        23     0     2     1     8
 -4.8860342238652082E-01 a        24     0     2     1     9
  1.2387932528158552E-01 a        25     0     2     1    10
  5.5588880492975146E-01 a        26     0     2     1    11
  9.9884493985931910E-01 a        27     0     2     1    12
  7.9911621588168036E-01 a        28     0     2     1    13
  7.5375384053782224E-01 a        29     0     2     1    14
  1.1839940699379645E+00 a        30     0     2     1    15
  6.4712859048951399E-01 a        31     0     3     1     1
  4.8410891431422393E-01 a        32     0     3     1     2
 -1.7390634932694218E-01 a        33     0     3     1     3
  1.0274789753289103E-01 a        34     0     3     1     4
 -1.8278611428018687E-01 a        35     0     3     1     5
  5.9588587410442573E-01 a        36     0     3     1     6
 -2.4100087177596535E-01 a        37     0     3     1     7
  6.0752046945344425E-02 a        38     0     3     1     8
  3.1791289244768761E-01 a        39     0     3     1     9
  3.9448031611603307E-01 a        40     0     3     1    10
 -4.3305769442750403E-01 a        41     0     3     1    11
  1.2814560021359830E-02 a        42     0     3     1    12
 -1.1594427917227639E+00 a        43     0     3     1    13
  1.0652128548332142E-01 a        44     0     3     1    14
 -1.1220248823704209E+00 a        45     0     3     1    15
  1.4011029155165040E+00 a        46     0     4     1     1
  5.5293272103332847E-01 a        47     0     4     1     2
 -4.1959153666330962E-01 a        48     0     4     1     3
  4.3449917269862116E-02 a        49     0     4     1     4
 -1.2830023831636590E+00 a        50     0     4     1     5
 -3.6215828770328373E-01 a        51     0     4     1     6
  1.0063907206816272E+00 a        52     0     4     1     7
  7.4053029806394921E-01 a        53     0     4     1     8
 -5.0185405035837516E-01 a        54     0     4     1     9
  5.7478284284817760E-01 a        55     0     4     1    10
  1.9596225817790567E+00 a        56     0     4     1    11
  7.2866461909516356E-01 a        57     0     4     1    12
 -8.5650991255721087E-01 a        58     0     4     1    13
 -1.3540398428587547E-01 a        59     0     4     1    14
 -8.1815720590213759E-01 a        60     0     4     1    15
 -8.0257899298078661E-01 a        61     0     5     1     1
  4.4025874094895945E-02 a        62     0     5     1     2
 -8.1782751975288948E-01 a        63     0     5     1     3
 -9.6103825569947093E-02 a        64     0     5     1     4
  4.5221924800921276E-01 a        65     0     5     1     5
 -6.4957317017356386E-01 a        66     0     5     1     6
 -6.8481332329081124E-01 a        67     0     5     1     7
 -1.0588389994265723E+00 a        68     0     5     1     8
 -1.0612535870276263E+00 a        69     0     5     1     9
 -3.9964377886156210E-01 a        70     0     5     1    10
  1.3221070251181064E+00 a        71     0     5     1    11
  4.3522999559563241E-01 a        72     0     5     1    12
 -3.1336310692738817E-01 a        73     0     5     1    13
 -5.7855752772052016E-01 a        74     0     5     1    14
  6.7942925490844153E-01 a        75     0     5     1    15
  1.3098340433993108E+00 a        76     0     6     1     1
  6.4284553253378873E-01 a        77     0     6     1     2
  3.0396365224155281E-01 a        78     0     6     1     3
  3.6781383300985859E-01 a        79     0     6     1     4
 -4.0733997431980368E-01 a        80     0     6     1     5
  5.0228212125790395E-01 a        81     0     6     1     6
 -4.1052925295740739E-01 a        82     0     6     1     7
  1.1138591728112992E+00 a        83     0     6     1     8
  4.9870191481820370E-01 a        84     0     6     1     9
  7.6360049884256387E-01 a        85     0     6     1    10
 -6.1759658419845917E-02 a        86     0     6     1    11
 -5.9284273050904046E-01 a        87     0     6     1    12
  3.3225651090431751E-03 a        88     0     6     1    13
 -4.4862830581945112E-01 a        89     0     6     1    14
  4.1154200822040972E-02 a        90     0     6     1    15
  1.4363270102441800E-01 a        91     0     7     1     1
  6.8049072470562022E-01 a        92     0     7     1     2
 -6.4924388395726423E-02 a        93     0     7     1     3
  1.3161031653668749E+00 a        94     0     7     1     4
  3.4722523429533025E-01 a        95     0     7     1     5
 -4.7773752265389491E-02 a        96     0     7     1     6
 -7.2924039735297624E-02 a        97     0     7     1     7
  4.9893624863764913E-01 a        98     0     7     1     8
  6.5677306507963638E-03 a        99     0     7     1     9
 -1.0299757980723387E+00 a       100     0     7     1    10
  2.4173919750123013E-01 a       101     0     7     1    11
 -2.5985291605705135E-01 a       102     0     7     1    12
  3.8079269090100221E-01 a       103     0     7     1    13
  9.1043243647391803E-01 a       104     0     7     1    14
 -5.9241608127257117E-01 a       105     0     7     1    15
  1.1967189103844018E+00 a       106     0     8     1     1
  3.5925713652078173E-01 a       107     0     8     1     2
  9.2819644785292574E-02 a       108     0     8     1     3
  1.6794261707400188E-01 a       109     0     8     1     4
 -5.6184556224116899E-01 a       110     0     8     1     5
  4.5499572540947686E-01 a       111     0     8     1     6
 -4.8308570513942101E-01 a       112     0     8     1     7
  9.8910943581029442E-01 a       113     0     8     1     8
  5.9831681061002573E-01 a       114     0     8     1     9
  1.2877628978134317E+00 a       115     0     8     1    10
 -4.0204052972583387E-01 a       116     0     8     1    11
 -1.5560586919615977E-02 a       117     0     8     1    12
  2.4473588340902741E-01 a       118     0     8     1    13
  5.1746474016574739E-01 a       119     0     8     1    14
 -1.8598973160886654E+00 a       120     0     8     1    15
  6.1989655742949168E-01 a       121     0     9     1     1
  1.2546823298221987E-01 a       122     0     9     1     2
 -2.1378003632539438E-01 a       123     0     9     1     3
  8.1013278134731681E-01 a       124     0     9     1     4
 -2.3042239696606137E-01 a       125     0     9     1     5
 -8.5453792456379252E-01 a       126     0     9     1     6
  1.1730935552395183E+00 a       127     0     9     1     7
  5.1083820667519153E-01 a       128     0     9     1     8
  7.9578632444438346E-01 a       129     0     9     1     9
 -2.1067329006864621E-01 a       130     0     9     1    10
 -1.1240965467247270E-01 a       131     0     9     1    11
 -8.9778990895019362E-01 a       132     0     9     1    12
  8.6857680956400851E-01 a       133     0     9     1    13
  8.0320675108649608E-01 a       134     0     9     1    14
 -7.2023273379635072E-02 a       135     0     9     1    15
  3.4645683867440064E-01 a       136     0    10     1     1
  6.5615896453478528E-01 a       137     0    10     1     2
 -6.2196572363757252E-01 a       138     0    10     1     3
 -3.5260782123488249E-01 a       139     0    10     1     4
 -2.3974606368911949E-01 a       140     0    10     1     5
  2.1234383705976292E-01 a       141     0    10     1     6
  7.2674448651717305E-01 a       142     0    10     1     7
 -8.4302552899646965E-01 a       143     0    10     1     8
 -8.4797759485987312E-01 a       144     0    10     1     9
  2.7293838209640775E-01 a       145     0    10     1    10
  1.5868935690851269E-01 a       146     0    10     1    11
  5.8839370689116932E-02 a       147     0    10     1    12
 -1.5348035225955619E+00 a       148     0    10     1    13
 -1.5764926969962363E+00 a       149     0    10     1    14
 -1.8125302697900048E+00 a       150     0    10     1    15
  2.0046099188402586E-02 a       151     0    11     1     1
 -1.4640146135598900E-01 a       152     0    11     1     2
  5.5732285506256918E-01 a       153     0    11     1     3
 -1.1013885419950300E+00 a       154     0    11     1     4
  4.3781592055397761E-01 a       155     0    11     1     5
  1.8851484964771217E+00 a       156     0    11     1     6
  5.2062207950921158E-01 a       157     0    11     1     7
  8.6520462177810353E-01 a       158     0    11     1     8
 -8.2915739788864118E-01 a       159     0    11     1     9
 -4.6725200909468351E-01 a       160     0    11     1    10
 -6.0833429682576357E-01 a       161     0    11     1    11
  5.3142329519159692E-01 a       162     0    11     1    12
 -5.7179962651089844E-01 a       163     0    11     1    13
  8.8589161830542329E-01 a       164     0    11     1    14
  1.9746513859555168E-01 a       165     0    11     1    15
 -1.9836697210508725E-01 a       166     0    12     1     1
  2.2991089216116087E-01 a       167     0    12     1     2
 -2.6714911706106148E-01 a       168     0    12     1     3
  2.7801276084325935E-02 a       169     0    12     1     4
 -1.4437785115537017E-02 a       170     0    12     1     5
  5.8065058501114919E-01 a       171     0    12     1     6
  4.2931292695913487E-01 a       172     0    12     1     7
 -9.6247096310344782E-01 a       173     0    12     1     8
 -1.1001606022551554E-01 a       174     0    12     1     9
 -6.0707932663973707E-01 a       175     0    12     1    10
 -1.5583872235764220E+00 a       176     0    12     1    11
  4.2761962310087320E-01 a       177     0    12     1    12
 -9.3097104095874628E-01 a       178     0    12     1    13
  1.3522675224532718E-01 a       179     0    12     1    14
  7.4529006608117288E-02 a       180     0    12     1    15
 -2.7418491471107947E-01 a       181     0    13     1     1
 -2.2984386739247076E+00 a       182     0    13     1     2
  8.8398423499988477E-01 a       183     0    13     1     3
 -1.0598954165434153E+00 a       184     0    13     1     4
  3.6231503418274733E+00 a       185     0    13     1     5
 -8.4230860302970789E-01 a       186     0    13     1     6
 -2.1232600956313417E+00 a       187     0    13     1     7
 -1.1638224796663166E+00 a       188     0    13     1     8
  1.1766952674077337E-01 a       189     0    13     1     9
  1.0526568597917150E+00 a       190     0    13     1    10
  9.4180586123913235E-01 a       191     0    13     1    11
  2.4886127669381271E+00 a       192     0    13     1    12
 -4.2514620580714507E-01 a       193     0    13     1    13
  4.1195580695762452E-01 a       194     0    13     1    14
 -6.4825217072756047E-01 a       195     0    13     1    15
 -4.4976935141029156E-01 a       196     0    14     1     1
 -7.3043269648148068E-01 a       197     0    14     1     2
  7.4213766895077382E-01 a       198     0    14     1     3
 -9.6111729268274004E-01 a       199     0    14     1     4
 -1.1181085309805538E+00 a       200     0    14     1     5
  3.1288206387869877E-01 a       201     0    14     1     6
 -2.1283051782794157E-01 a       202     0    14     1     7
  1.1090818641525475E-01 a       203     0    14     1     8
  2.6889467830080943E-01 a       204     0    14     1     9
 -2.7969788846126159E-01 a       205     0    14     1    10
 -9.4199061044638144E-01 a       206     0    14     1    11
  1.1579848034332116E-03 a       207     0    14     1    12
  1.8924924282802502E+00 a       208     0    14     1    13
  3.2924128121647418E-02 a       209     0    14     1    14
  1.7804131182290947E-01 a       210     0    14     1    15
  5.2307934966065761E-01 a       211     0    15     1     1
  1.6299941102576609E+00 a       212     0    15     1     2
 -1.4098883671768512E+00 a       213     0    15     1     3
 -5.8545604611059043E-01 a       214     0    15     1     4
 -3.5382942313784431E+00 a       215     0    15     1     5
  4.1504120160454772E-01 a       216     0    15     1     6
  2.1619248596167036E+00 a       217     0    15     1     7
  1.0183621796296529E+00 a       218     0    15     1     8
  4.8077993477122778E-02 a       219     0    15     1     9
  1.3206639189979903E+00 a       220     0    15     1    10
 -1.0755914962183057E+00 a       221     0    15     1    11
 -1.8959581005541799E+00 a       222     0    15     1    12
 -5.6349369552257644E-01 a       223     0    15     1    13
  7.0810181140720496E-01 a       224     0    15     1    14
  3.6549502857633848E-01 a       225     0    15     1    15
 -2.6400118050615795E-01 a       226     0    16     1     1
  9.7695729142620161E-02 a       227     0    16     1     2
 -2.4074608616142251E-01 a       228     0    16     1     3
  1.0884876203944246E-01 a       229     0    16     1     4
 -3.9759893538982287E-02 a       230     0    16     1     5
 -3.1134562161306356E-01 a       231     0    16     1     6
  2.4995956334792097E-01 a       232     0    16     1     7
 -1.5047310201315567E-01 a       233     0    16     1     8
 -1.4568859663716466E-01 a       234     0    16     1     9
 -4.8481016924219050E-01 a       235     0    16     1    10
  3.6754479318732380E-01 a       236     0    16     1    11
  2.5328915238655995E-02 a       237     0    16     1    12
 -4.3976673674083322E-01 a       238     0    16     1    13
 -2.1106721696907718E-01 a       239     0    16     1    14
  1.5867198401000546E-01 a       240     0    16     1    15
 -3.5130574407288023E-01 a       241     0    17     1     1
  6.8798196417941604E-02 a       242     0    17     1     2
 -2.8378822965727185E-01 a       243     0    17     1     3
  2.0431123115436123E-01 a       244     0    17     1     4
  1.6097915629102410E-02 a       245     0    17     1     5
  6.0539977773280995E-01 a       246     0    17     1     6
  4.3169992725374728E-01 a       247     0    17     1     7
  7.3650292245001159E-01 a       248     0    17     1     8
 -1.9391457495927314E-01 a       249     0    17     1     9
 -1.6804688768237545E-02 a       250     0    17     1    10
  1.5858076163288140E-01 a       251     0    17     1    11
  3.0429710753181294E-01 a       252     0    17     1    12
  4.1475256346287792E-01 a       253     0    17     1    13
  6.3240914071038901E-01 a       254     0    17     1    14
 -4.0498206552749977E-01 a       255     0    17     1    15
 -2.1586385990154014E-01 a       256     0    18     1     1
 -3.3926287532696942E-01 a       257     0    18     1     2
  3.0356730445250335E-01 a       258     0    18     1     3
 -1.0947304664427371E-01 a       259     0    18     1     4
 -3.4180391643932562E-01 a       260     0    18     1     5
 -4.7058402523150789E-01 a       261     0    18     1     6
 -2.5004041885130494E-02 a       262     0    18     1     7
 -2.3458981719456809E-01 a       263     0    18     1     8
  3.6433513171345334E-02 a       264     0    18     1     9
 -1.2261708814859563E-01 a       265     0    18     1    10
  5.7536579556389811E-01 a       266     0    18     1    11
  3.7454242221429146E-01 a       267     0    18     1    12
 -3.8502102290152151E-01 a       268     0    18     1    13
  3.3147123252261751E-01 a       269     0    18     1    14
 -5.6281146707543507E-02 a       270     0    18     1    15
 -7.3120210350656722E-01 a       271     0    19     1     1
  9.6494652663780683E-02 a       272     0    19     1     2
  4.4106217048278212E-01 a       273     0    19     1     3
 -5.1214987557851567E-02 a       274     0    19     1     4
 -6.5880395437574479E-01 a       275     0    19     1     5
 -3.6063065280962459E-01 a       276     0    19     1     6
  3.4678442553563660E-01 a       277     0    19     1     7
 -4.6197837915382411E-01 a       278     0    19     1     8
 -3.5728796227018805E-01 a       279     0    19     1     9
 -2.1976422588242839E-01 a       280     0    19     1    10
  3.9870140150097449E-01 a       281     0    19     1    11
  9.2164375317259295E-01 a       282     0    19     1    12
  6.6337991372039851E-01 a       283     0    19     1    13
  5.7862868240444021E-01 a       284     0    19     1    14
 -3.0047569360650145E-01 a       285     0    19     1    15
  1.3217545753432439E-01 a       286     0    20     1     1
 -1.1876360848675171E+00 a       287     0    20     1     2
 -3.5203545125396973E-01 a       288     0    20     1     3
 -8.3952703917990090E-01 a       289     0    20     1     4
 -2.5694499363442275E-01 a       290     0    20     1     5
 -8.3177126868305074E-01 a       291     0    20     1     6
  3.5841703134097846E-01 a       292     0    20     1     7
 -1.9161106309781822E-01 a       293     0    20     1     8
  3.0413878949161000E-01 a       294     0    20     1     9
  2.4432524241378043E-02 a       295     0    20     1    10
  1.1621257200682777E-01 a       296     0    20     1    11
 -9.5625450011325552E-01 a       297     0    20     1    12
 -5.7265275522116099E-01 a       298     0    20     1    13
  2.2084950700536068E-01 a       299     0    20     1    14
  3.5313892807262054E-01 a       300     0    20     1    15
  3.4648823816328111E-01 a       301     0    21     1     1
  5.4496859146162979E-01 a       302     0    21     1     2
  5.3984711291328369E-01 a       303     0    21     1     3
 -7.9847636430106550E-01 a       304     0    21     1     4
 -5.8504600933509725E-02 a       305     0    21     1     5
  4.1639078353233716E-01 a       306     0    21     1     6
 -4.5727122510043017E-02 a       307     0    21     1     7
  8.3865472204939107E-01 a       308     0    21     1     8
 -1.8548596436138931E-01 a       309     0    21     1     9
  5.8292479525606490E-02 a       310     0    21     1    10
 -2.7590431318799219E-01 a       311     0    21     1    11
 -7.1009035487828498E-01 a       312     0    21     1    12
  9.7321177690886029E-01 a       313     0    21     1    13
  1.1333757090666021E+00 a       314     0    21     1    14
 -2.9683339340109349E-01 a       315     0    21     1    15
 -1.5191292339178193E+00 a       316     0    22     1     1
 -3.9566001525000127E-01 a       317     0    22     1     2
  1.2611662807326426E-01 a       318     0    22     1     3
  1.3221123325888828E+00 a       319     0    22     1     4
  7.2927459513879922E-01 a       320     0    22     1     5
 -1.3661433384526076E+00 a       321     0    22     1     6
  7.2306336746013533E-01 a       322     0    22     1     7
 -1.7397384525751098E+00 a       323     0    22     1     8
  3.8547779246129282E-01 a       324     0    22     1     9
  1.6882233877395963E-01 a       325     0    22     1    10
 -6.0447979610909108E-01 a       326     0    22     1    11
  1.0091208016079440E+00 a       327     0    22     1    12
  4.5627421616730975E-03 a       328     0    22     1    13
 -5.0179514134630721E-01 a       329     0    22     1    14
  6.5019362859061203E-01 a       330     0    22     1    15
 -3.3968204801219576E-01 a       331     0    23     1     1
 -6.1523920287790856E-01 a       332     0    23     1     2
  1.0925400486440762E-01 a       333     0    23     1     3
 -9.1439335021287305E-01 a       334     0    23     1     4
  1.5004594221788065E-02 a       335     0    23     1     5
 -5.7642938995101950E-02 a       336     0    23     1     6
 -2.4396903893271770E-02 a       337     0    23     1     7
 -4.7042698688073210E-02 a       338     0    23     1     8
  5.7955917192816765E-02 a       339     0    23     1     9
 -5.5388267655803415E-03 a       340     0    23     1    10
  3.1058378609869458E-01 a       341     0    23     1    11
 -2.7443938223566772E-01 a       342     0    23     1    12
 -1.3589661429703470E+00 a       343     0    23     1    13
 -1.5340664881975941E-01 a       344     0    23     1    14
  1.3416966217840789E-01 a       345     0    23     1    15
  4.3098836402325247E-01 a       346     0    24     1     1
  7.7691540752064703E-01 a       347     0    24     1     2
  1.4153744941617527E-01 a       348     0    24     1     3
  1.0601712682419620E+00 a       349     0    24     1     4
 -6.5541228369829763E-01 a       350     0    24     1     5
  1.8917268106812579E-01 a       351     0    24     1     6
  3.3084672942996723E-01 a       352     0    24     1     7
  7.0348748104643621E-01 a       353     0    24     1     8
 -2.4910365222387168E-02 a       354     0    24     1     9
 -8.9646603936899924E-02 a       355     0    24     1    10
  2.8532513547601829E-01 a       356     0    24     1    11
  2.3301496559069354E-01 a       357     0    24     1    12
  5.3897887953779355E-01 a       358     0    24     1    13
  2.2507647208856707E-01 a       359     0    24     1    14
 -2.8276529072821810E-01 a       360     0    24     1    15
 -1.0699189831510181E+00 a       361     0    25     1     1
  1.0777146763674748E+00 a       362     0    25     1     2
 -1.1706168512481310E-01 a       363     0    25     1     3
 -1.3722513732999356E-03 a       364     0    25     1     4
 -8.4140494588654235E-01 a       365     0    25     1     5
 -1.7649659928848963E-01 a       366     0    25     1     6
  4.0895840588368293E-01 a       367     0    25     1     7
 -2.2692840166440328E-01 a       368     0    25     1     8
  1.9129283126716598E-01 a       369     0    25     1     9
 -1.9285830211581501E-01 a       370     0    25     1    10
  7.5373581633046827E-01 a       371     0    25     1    11
 -2.8615620564486888E-01 a       372     0    25     1    12
  2.0946527149935790E-01 a       373     0    25     1    13
 -5.0430119762257319E-01 a       374     0    25     1    14
 -4.3895056087357387E-01 a       375     0    25     1    15
 -5.9870938788211125E-01 a       376     0    26     1     1
  7.0530094197015047E-01 a       377     0    26     1     2
  5.0723422687459452E-01 a       378     0    26     1     3
 -4.2681883781776647E-01 a       379     0    26     1     4
  1.1816024183927745E-01 a       380     0    26     1     5
 -3.2140364548105683E-02 a       381     0    26     1     6
  3.8130001732500102E-01 a       382     0    26     1     7
  2.3373574341406120E-01 a       383     0    26     1     8
 -1.4087955640653022E-01 a       384     0    26     1     9
  5.6111060111180289E-01 a       385     0    26     1    10
 -1.5118326968244361E-01 a       386     0    26     1    11
  4.4968459975793196E-01 a       387     0    26     1    12
  1.8616981014857761E+00 a       388     0    26     1    13
 -1.6373403962673450E+00 a       389     0    26     1    14
  1.4004066650710392E-01 a       390     0    26     1    15
  6.8226058322514202E-02 a       391     0    27     1     1
  9.1804392589861772E-01 a       392     0    27     1     2
  3.4691814931881321E-01 a       393     0    27     1     3
  8.6544382180653290E-01 a       394     0    27     1     4
  2.5396783407214629E-01 a       395     0    27     1     5
  1.2030311522503769E-01 a       396     0    27     1     6
  3.7941995085325009E-01 a       397     0    27     1     7
 -7.2602059821427839E-02 a       398     0    27     1     8
  9.9101950212857295E-02 a       399     0    27     1     9
  2.7589012125632667E-01 a       400     0    27     1    10
  4.2364420205633135E-01 a       401     0    27     1    11
  1.8110650508123247E-01 a       402     0    27     1    12
 -1.2566217837830962E-01 a       403     0    27     1    13
 -1.1445812957186061E+00 a       404     0    27     1    14
  6.7352112902814371E-02 a       405     0    27     1    15
  4.1719219025955639E-01 a       406     0    28     1     1
 -1.7960535218329518E-01 a       407     0    28     1     2
 -8.4838165990419023E-01 a       408     0    28     1     3
  3.0169595097870244E-01 a       409     0    28     1     4
 -1.2631176444605058E-01 a       410     0    28     1     5
  1.6334688655175680E-01 a       411     0    28     1     6
 -8.6488325293837331E-01 a       412     0    28     1     7
  5.0188051796099802E-02 a       413     0    28     1     8
 -2.7639341671706220E-02 a       414     0    28     1     9
 -1.7970172255375096E+00 a       415     0    28     1    10
 -1.7721220067260093E-02 a       416     0    28     1    11
 -1.8277649665428183E-01 a       417     0    28     1    12
 -1.1401251235978618E+00 a       418     0    28     1    13
 -1.3006602617090018E-01 a       419     0    28     1    14
 -1.6260511653173057E-01 a       420     0    28     1    15
  1.2415490941585463E+00 a       421     0    29     1     1
  1.0571858880899354E+00 a       422     0    29     1     2
  1.2850282698490093E-01 a       423     0    29     1     3
  1.9378869568437163E+00 a       424     0    29     1     4
  2.0203355265143660E-02 a       425     0    29     1     5
  4.7821176949658900E-01 a       426     0    29     1     6
 -7.5518600534470903E-01 a       427     0    29     1     7
 -8.1286592677268643E-01 a       428     0    29     1     8
  2.8101069633451875E-01 a       429     0    29     1     9
  1.5146927725508021E-02 a       430     0    29     1    10
 -2.9742271492265487E-01 a       431     0    29     1    11
  3.8615483383064442E-01 a       432     0    29     1    12
  4.8135835513725622E-01 a       433     0    29     1    13
  6.9111876492067092E-01 a       434     0    29     1    14
  5.9870839611959725E-01 a       435     0    29     1    15
 -8.6434302466524865E-02 a       436     0    30     1     1
 -5.3981971821245012E-01 a       437     0    30     1     2
 -4.0049979496675225E-01 a       438     0    30     1     3
  3.7711493021005744E-02 a       439     0    30     1     4
 -3.7155945139370455E-01 a       440     0    30     1     5
  2.9017382787315055E-01 a       441     0    30     1     6
 -4.0085388366480096E-01 a       442     0    30     1     7
 -5.7350856593851229E-01 a       443     0    30     1     8
  1.1533187357711326E-01 a       444     0    30     1     9
  8.3372397776987475E-02 a       445     0    30     1    10
  8.0227887016446148E-02 a       446     0    30     1    11
  2.6692926987853818E-02 a       447     0    30     1    12
 -9.6772610579516660E-01 a       448     0    30     1    13
 -8.2827071179742973E-01 a       449     0    30     1    14
  4.7945857942340991E-01 a       450     0    30     1    15
  4.0399094821285952E-01 a       451     0    31     1     1
 -4.8002446089141737E-01 a       452     0    31     1     2
  1.1120544464116753E+00 a       453     0    31     1     3
  1.4156502031122381E-01 a       454     0    31     1     4
  3.0862084643375726E-01 a       455     0    31     1     5
  7.1147354588364264E-01 a       456     0    31     1     6
  3.1176052104485075E-01 a       457     0    31     1     7
 -1.3589687613474828E+00 a       458     0    31     1     8
  7.3463957804302327E-01 a       459     0    31     1     9
 -1.3259570814438537E+00 a       460     0    31     1    10
 -5.2700532100592379E-01 a       461     0    31     1    11
  1.3824630966630449E-02 a       462     0    31     1    12
 -5.5848856659225371E-03 a       463     0    31     1    13
 -6.6652912280409715E-01 a       464     0    31     1    14
  1.1333950847471934E+00 a       465     0    31     1    15
  3.0768338245814325E-01 a       466     0    32     1     1
 -3.5251380283947131E-01 a       467     0    32     1     2
  1.1985246231789255E+00 a       468     0    32     1     3
 -1.1568637847861956E+00 a       469     0    32     1     4
 -1.7462169011273565E-01 a       470     0    32     1     5
 -1.2258536047294394E-01 a       471     0    32     1     6
 -8.6544801596040100E-01 a       472     0    32     1     7
 -1.8541298987677474E-01 a       473     0    32     1     8
 -3.3017486496953319E-01 a       474     0    32     1     9
 -1.7371595553686897E-01 a       475     0    32     1    10
 -4.6752286286278555E-01 a       476     0    32     1    11
  8.7635816266015509E-01 a       477     0    32     1    12
 -8.5600761976935191E-01 a       478     0    32     1    13
 -5.1212401658300055E-01 a       479     0    32     1    14
 -2.1166444132589135E-01 a       480     0    32     1    15
 -3.8301271205752524E-02 a       481     0    33     1     1
 -1.3103947852441586E+00 a       482     0    33     1     2
  3.3122771134440004E-01 a       483     0    33     1     3
  2.3528088168773642E-01 a       484     0    33     1     4
  9.3018315580570621E-01 a       485     0    33     1     5
 -2.5992512787391819E-01 a       486     0    33     1     6
 -3.3591258506343774E-01 a       487     0    33     1     7
 -5.9366738788558041E-02 a       488     0    33     1     8
  4.2234620747309715E-02 a       489     0    33     1     9
  4.5053896350068867E-01 a       490     0    33     1    10
  2.5149092149584013E-01 a       491     0    33     1    11
 -1.0468077331052116E-01 a       492     0    33     1    12
  2.1624023495907543E-01 a       493     0    33     1    13
  1.1694171178992432E-01 a       494     0    33     1    14
  2.0847051186391255E-01 a       495     0    33     1    15
 -7.2503800971609533E-01 a       496     0    34     1     1
  7.5735626869459713E-02 a       497     0    34     1     2
 -1.2199070435409942E+00 a       498     0    34     1     3
 -8.3344121474108945E-01 a       499     0    34     1     4
  1.5657536205275668E-02 a       500     0    34     1     5
 -5.9405305986720691E-01 a       501     0    34     1     6
 -9.3920053691834801E-02 a       502     0    34     1     7
 -7.5902852400131171E-01 a       503     0    34     1     8
 -5.5262031422390234E-01 a       504     0    34     1     9
  5.2374931162179728E-01 a       505     0    34     1    10
 -1.1111240634204407E+00 a       506     0    34     1    11
 -1.3699235124588574E+00 a       507     0    34     1    12
  1.2537848941659768E+00 a       508     0    34     1    13
 -1.5096796489200887E-01 a       509     0    34     1    14
 -5.6631669420123665E-01 a       510     0    34     1    15
 -3.7964529847634892E-01 a       511     0    35     1     1
  1.5210588534193179E+00 a       512     0    35     1     2
 -3.4689694149485956E-01 a       513     0    35     1     3
  5.3916524903023166E-01 a       514     0    35     1     4
 -9.9714545122191120E-02 a       515     0    35     1     5
  1.0251357824897150E-01 a       516     0    35     1     6
  2.2681584819345130E-01 a       517     0    35     1     7
 -1.0448075062106876E-01 a       518     0    35     1     8
 -8.7406066757627812E-02 a       519     0    35     1     9
  2.1886961163762103E-01 a       520     0    35     1    10
 -5.6370065515693089E-02 a       521     0    35     1    11
  1.3142791072648324E-01 a       522     0    35     1    12
  1.0660590792261868E+00 a       523     0    35     1    13
  7.0449983303853669E-01 a       524     0    35     1    14
 -1.6775504510403189E-01 a       525     0    35     1    15
 -4.2631372248754358E-02 a       526     0    36     1     1
  1.0320864054376324E+00 a       527     0    36     1     2
 -4.1738297833532217E-01 a       528     0    36     1     3
 -5.2515227080174809E-01 a       529     0    36     1     4
  8.7448054528008268E-01 a       530     0    36     1     5
  2.8506456630767685E-01 a       531     0    36     1     6
 -8.5614216320048331E-01 a       532     0    36     1     7
 -1.8646457289662684E-02 a       533     0    36     1     8
 -6.3562567453883015E-02 a       534     0    36     1     9
  8.1466352722526558E-02 a       535     0    36     1    10
 -3.3785688086366467E-01 a       536     0    36     1    11
 -3.7441726320267926E-01 a       537     0    36     1    12
 -2.4220400859455099E-01 a       538     0    36     1    13
  2.6768212512776279E-01 a       539     0    36     1    14
  9.2364727805262073E-02 a       540     0    36     1    15
  1.0995263759020864E+00 a       541     0    37     1     1
 -6.1413139232902030E-02 a       542     0    37     1     2
 -1.2679119820094886E+00 a       543     0    37     1     3
  4.4158056355191316E-01 a       544     0    37     1     4
 -6.6223067610298481E-01 a       545     0    37     1     5
  2.2044267996526079E-01 a       546     0    37     1     6
 -1.0228783708774092E+00 a       547     0    37     1     7
 -2.4979565902747314E-01 a       548     0    37     1     8
 -1.1849810898633976E-01 a       549     0    37     1     9
 -2.0588977689228852E-01 a       550     0    37     1    10
  1.8194869804644367E-01 a       551     0    37     1    11
 -1.8638683995079935E-01 a       552     0    37     1    12
 -6.3258800799791959E-02 a       553     0    37     1    13
  5.0099271894765862E-01 a       554     0    37     1    14
  5.6631115319296665E-01 a       555     0    37     1    15
  9.4027267650695268E-01 a       556     0    38     1     1
  2.1236825195117853E-02 a       557     0    38     1     2
 -6.2990757615514459E-01 a       558     0    38     1     3
  1.4851687488893759E+00 a       559     0    38     1     4
  5.0817294898047805E-01 a       560     0    38     1     5
  6.9072414163690823E-02 a       561     0    38     1     6
  4.5409929118181519E-01 a       562     0    38     1     7
 -5.4389564489414866E-01 a       563     0    38     1     8
  1.5827054268673335E-01 a       564     0    38     1     9
 -1.1118581282294805E-01 a       565     0    38     1    10
 -4.2762998068812530E-01 a       566     0    38     1    11
 -2.3479609220614092E-01 a       567     0    38     1    12
 -8.6661547105994075E-01 a       568     0    38     1    13
  8.7814896180901103E-01 a       569     0    38     1    14
 -3.5547453392685496E-01 a       570     0    38     1    15
  2.9625211013223440E-01 a       571     0    39     1     1
 -1.1568790256588488E+00 a       572     0    39     1     2
 -8.5528661945193196E-01 a       573     0    39     1     3
  2.1349096043646121E-01 a       574     0    39     1     4
  1.4017163076521080E-01 a       575     0    39     1     5
 -4.9952881320210757E-01 a       576     0    39     1     6
  6.4348739223960352E-02 a       577     0    39     1     7
 -2.8467702970978193E-01 a       578     0    39     1     8
 -4.8644420336149477E-02 a       579     0    39     1     9
 -4.7181319831867707E-01 a       580     0    39     1    10
 -1.0152323586471257E+00 a       581     0    39     1    11
  2.2559112740196471E-01 a       582     0    39     1    12
  4.7170580949469423E-02 a       583     0    39     1    13
 -1.6993205849736273E-01 a       584     0    39     1    14
 -8.6822387532667258E-02 a       585     0    39     1    15
  9.4081494248365205E-01 a       586     0    40     1     1
  5.5971171428767219E-01 a       587     0    40     1     2
  4.6156825498838411E-01 a       588     0    40     1     3
 -6.6675325096410332E-01 a       589     0    40     1     4
  6.4668388640179664E-01 a       590     0    40     1     5
 -8.6545315757209113E-02 a       591     0    40     1     6
  7.5567126707546295E-01 a       592     0    40     1     7
 -2.2246668782173604E-02 a       593     0    40     1     8
 -1.2476726139461411E-03 a       594     0    40     1     9
  5.4945750549953570E-02 a       595     0    40     1    10
 -1.2136884821685061E-01 a       596     0    40     1    11
  5.5161361504255935E-01 a       597     0    40     1    12
  6.7072133215621099E-01 a       598     0    40     1    13
  2.3861346206316075E-01 a       599     0    40     1    14
  1.4561128420829267E-01 a       600     0    40     1    15
 -3.0638937529026455E-01 a       601     0    41     1     1
  3.9450507830136389E-01 a       602     0    41     1     2
  2.9878794449949958E-01 a       603     0    41     1     3
 -1.6532272834242596E+00 a       604     0    41     1     4
 -1.4980256650214033E-01 a       605     0    41     1     5
 -5.8685130124568952E-01 a       606     0    41     1     6
 -3.4833084239501849E-02 a       607     0    41     1     7
  6.7987551166334370E-01 a       608     0    41     1     8
 -1.1814764893858661E-01 a       609     0    41     1     9
  5.5461930504197299E-01 a       610     0    41     1    10
  3.9711933653834469E-01 a       611     0    41     1    11
 -1.1926043717124490E+00 a       612     0    41     1    12
  3.9982744448019825E-01 a       613     0    41     1    13
 -3.1243846493826793E-01 a       614     0    41     1    14
  1.4592840452682751E-01 a       615     0    41     1    15
 -5.4451913331993995E-01 a       616     0    42     1     1
 -2.6611106158627862E-01 a       617     0    42     1     2
  3.9988229442194756E-01 a       618     0    42     1     3
 -4.7472974996738948E-01 a       619     0    42     1     4
 -2.9239446380960238E-01 a       620     0    42     1     5
  1.2666792150881929E+00 a       621     0    42     1     6
  9.9498436774443144E-01 a       622     0    42     1     7
  4.6515050682515158E-01 a       623     0    42     1     8
  3.0747745954062513E-02 a       624     0    42     1     9
 -4.4677681362637828E-01 a       625     0    42     1    10
  2.2333039810746175E-01 a       626     0    42     1    11
  2.1298457106311000E-01 a       627     0    42     1    12
  8.5073596753503566E-01 a       628     0    42     1    13
  4.0712789626004942E-02 a       629     0    42     1    14
 -1.4787054130805258E-01 a       630     0    42     1    15
 -6.7692571319360417E-01 a       631     0    43     1     1
 -3.2269323417924384E-01 a       632     0    43     1     2
  4.3534685885041097E-01 a       633     0    43     1     3
  2.4681598744311712E-02 a       634     0    43     1     4
  3.7865522317286565E-01 a       635     0    43     1     5
 -1.2408647525342376E-01 a       636     0    43     1     6
  6.2320303506311103E-01 a       637     0    43     1     7
 -3.1829148052952422E-02 a       638     0    43     1     8
 -3.7269617483422718E-01 a       639     0    43     1     9
 -1.0485319020374890E+00 a       640     0    43     1    10
  7.1639836830005493E-02 a       641     0    43     1    11
  1.0747628614287894E+00 a       642     0    43     1    12
 -4.5244404416171219E-01 a       643     0    43     1    13
  9.4940890201072284E-02 a       644     0    43     1    14
 -1.7446503101874508E-01 a       645     0    43     1    15
 -1.4653787132695881E+00 a       646     0    44     1     1
  4.2561216627581772E-01 a       647     0    44     1     2
 -9.8453329390150768E-01 a       648     0    44     1     3
  1.6627633143934800E-01 a       649     0    44     1     4
  1.2481950760123341E-02 a       650     0    44     1     5
  8.0957791473830121E-01 a       651     0    44     1     6
  3.2459220046975096E-01 a       652     0    44     1     7
  2.3672107652304267E-01 a       653     0    44     1     8
  1.3579263719896778E-01 a       654     0    44     1     9
  1.0724094848290728E+00 a       655     0    44     1    10
  1.1177298886112355E+00 a       656     0    44     1    11
  2.0978109858507826E-02 a       657     0    44     1    12
  2.3018123442979435E-01 a       658     0    44     1    13
 -8.4669569112909515E-01 a       659     0    44     1    14
  9.9744110519148915E-03 a       660     0    44     1    15
 -7.1084076145917008E-01 a       661     0    45     1     1
  7.5082311442492933E-01 a       662     0    45     1     2
  5.2040844639207140E-01 a       663     0    45     1     3
  1.3252159968204999E-01 a       664     0    45     1     4
 -2.2250368774854776E-01 a       665     0    45     1     5
 -5.8282593757655876E-02 a       666     0    45     1     6
 -1.0900798519686723E-01 a       667     0    45     1     7
 -6.0059405273276023E-01 a       668     0    45     1     8
  3.1877176504721036E-02 a       669     0    45     1     9
 -6.4737907324835808E-02 a       670     0    45     1    10
  4.6916615106698778E-01 a       671     0    45     1    11
  1.3475801137501586E-01 a       672     0    45     1    12
 -7.1718016610151269E-01 a       673     0    45     1    13
 -7.2002803277980670E-02 a       674     0    45     1    14
 -9.0987397362928804E-05 a       675     0    45     1    15
 -3.7272950480782563E-01 a       676     0    46     1     1
 -3.9961090496973301E-01 a       677     0    46     1     2
 -7.4129587212090486E-01 a       678     0    46     1     3
 -9.5841795447718800E-02 a       679     0    46     1     4
 -2.1847138273262789E-01 a       680     0    46     1     5
  4.1717990122841692E-01 a       681     0    46     1     6
 -8.4177986546212691E-01 a       682     0    46     1     7
 -6.6010910264295375E-01 a       683     0    46     1     8
  3.6552010395131568E-01 a       684     0    46     1     9
  6.3001890775400471E-01 a       685     0    46     1    10
 -8.3523147778159265E-02 a       686     0    46     1    11
 -1.5732039767021984E+00 a       687     0    46     1    12
 -2.0107196052111773E-01 a       688     0    46     1    13
 -7.9543812170634876E-01 a       689     0    46     1    14
  6.5201224362949051E-01 a       690     0    46     1    15
 -5.0357285052133705E-01 a       691     0    47     1     1
 -1.0063527143260680E+00 a       692     0    47     1     2
  3.4129988912613285E-01 a       693     0    47     1     3
  4.7186611785201664E-02 a       694     0    47     1     4
  5.3813883863635212E-02 a       695     0    47     1     5
 -4.6902426307168460E-01 a       696     0    47     1     6
 -4.6774992400710869E-01 a       697     0    47     1     7
  2.1776438766443668E-01 a       698     0    47     1     8
  1.7303648652065705E-02 a       699     0    47     1     9
 -5.0687533212667168E-01 a       700     0    47     1    10
 -4.2231414452830335E-01 a       701     0    47     1    11
 -4.2251735555982867E-01 a       702     0    47     1    12
 -4.2224623666170225E-01 a       703     0    47     1    13
 -1.1912719196660546E-01 a       704     0    47     1    14
 -1.4915959518558311E-01 a       705     0    47     1    15
 -4.5956236576085406E-02 a       706     0    48     1     1
 -4.0013244415857485E-01 a       707     0    48     1     2
  4.0512296203849563E-01 a       708     0    48     1     3
 -9.4513519859006370E-02 a       709     0    48     1     4
 -5.0526382535569292E-01 a       710     0    48     1     5
 -3.7775046475722063E-01 a       711     0    48     1     6
  3.0109298623411468E-01 a       712     0    48     1     7
 -5.0107291493183903E-01 a       713     0    48     1     8
  6.4548419401883370E-02 a       714     0    48     1     9
 -2.8449574213073359E-01 a       715     0    48     1    10
 -2.3664241969423235E-02 a       716     0    48     1    11
  1.1620168510807881E-01 a       717     0    48     1    12
  8.8089513716102436E-02 a       718     0    48     1    13
 -3.5195375167811760E-01 a       719     0    48     1    14
  9.8108026207516408E-02 a       720     0    48     1    15
  3.8448800811909967E-01 a       721     0    49     1     1
 -6.6070786578630891E-01 a       722     0    49     1     2
  1.0746977188701539E+00 a       723     0    49     1     3
 -1.4173355231132787E-01 a       724     0    49     1     4
  1.8496515753393190E+00 a       725     0    49     1     5
 -7.4543399133838129E-01 a       726     0    49     1     6
  4.6898280605065340E-01 a       727     0    49     1     7
  7.8764162587331654E-01 a       728     0    49     1     8
  1.3349130960271507E-02 a       729     0    49     1     9
 -4.8177040469427007E-01 a       730     0    49     1    10
 -5.4246525761376341E-01 a       731     0    49     1    11
  4.1676264048726086E-01 a       732     0    49     1    12
  4.9737752597741458E-01 a       733     0    49     1    13
  1.4548383465121789E-01 a       734     0    49     1    14
 -7.9720268206779979E-02 a       735     0    49     1    15
  1.5614402914348080E-01 a       736     0    50     1     1
  4.3671139449298185E-01 a       737     0    50     1     2
  1.2577841198177983E-01 a       738     0    50     1     3
  1.9899153142503578E-01 a       739     0    50     1     4
 -6.2431681295587560E-01 a       740     0    50     1     5
 -9.2311186297256353E-01 a       741     0    50     1     6
 -1.7560856237725408E-01 a       742     0    50     1     7
  2.5058733774871345E-01 a       743     0    50     1     8
 -4.6201777679780419E-02 a       744     0    50     1     9
 -2.5838216872710934E-01 a       745     0    50     1    10
 -6.4930558361395829E-01 a       746     0    50     1    11
 -5.9104878328829058E-01 a       747     0    50     1    12
 -5.3416363452038755E-02 a       748     0    50     1    13
  6.8622158135375799E-01 a       749     0    50     1    14
  8.1100339313901676E-02 a       750     0    50     1    15
  1.0456408788233092E-01 a       751     0    51     1     1
  2.3046644019544785E-01 a       752     0    51     1     2
  2.0652696355024945E-02 a       753     0    51     1     3
 -4.8950475531284676E-01 a       754     0    51     1     4
 -4.7971941170504628E-01 a       755     0    51     1     5
  3.7209843003211324E-01 a       756     0    51     1     6
 -1.6450516111651489E-01 a       757     0    51     1     7
  4.7309530667610061E-01 a       758     0    51     1     8
 -5.0415419816467405E-03 a       759     0    51     1     9
  6.8763158919262890E-01 a       760     0    51     1    10
  2.6528623890108199E-01 a       761     0    51     1    11
 -3.2371926943704504E-01 a       762     0    51     1    12
  1.6507888921024158E-02 a       763     0    51     1    13
 -3.0906572496622012E-03 a       764     0    51     1    14
 -7.2715508545748951E-03 a       765     0    51     1    15
  4.0496948269091892E-01 a       766     0    52     1     1
 -3.6677256198694697E-01 a       767     0    52     1     2
  8.7911773721537953E-02 a       768     0    52     1     3
  1.8144054010034832E-01 a       769     0    52     1     4
 -4.4674571807492303E-01 a       770     0    52     1     5
  6.4022329298281144E-01 a       771     0    52     1     6
 -3.2547643112222652E-01 a       772     0    52     1     7
  6.9784710103713876E-01 a       773     0    52     1     8
 -9.8266510121669242E-03 a       774     0    52     1     9
 -6.7294367797961585E-01 a       775     0    52     1    10
  3.6978472462628847E-01 a       776     0    52     1    11
  1.2268489092936441E-01 a       777     0    52     1    12
 -2.7948060049316942E-01 a       778     0    52     1    13
  1.6691684287636235E-01 a       779     0    52     1    14
 -8.2744127347159635E-02 a       780     0    52     1    15
  2.9168285477306971E-01 a       781     0    53     1     1
 -3.4611818731246946E-01 a       782     0    53     1     2
  3.9340017748602144E-02 a       783     0    53     1     3
  4.4505361590238179E-01 a       784     0    53     1     4
 -2.3326291319062370E-01 a       785     0    53     1     5
 -2.3601156048819533E-01 a       786     0    53     1     6
  2.2843656218234773E-01 a       787     0    53     1     7
 -4.0737384716135405E-01 a       788     0    53     1     8
  5.9853302505953235E-02 a       789     0    53     1     9
 -6.8218393153977286E-01 a       790     0    53     1    10
 -4.0897928521916316E-01 a       791     0    53     1    11
  4.5367046639087411E-01 a       792     0    53     1    12
 -4.0288799548031490E-01 a       793     0    53     1    13
  2.6055568497345163E-02 a       794     0    53     1    14
 -2.3951044156029377E-01 a       795     0    53     1    15
  2.0530922854993644E-01 a       796     0    54     1     1
  6.6231549915773280E-01 a       797     0    54     1     2
 -2.6135222553019727E-01 a       798     0    54     1     3
  1.6750942708723318E-01 a       799     0    54     1     4
  1.0463698691161258E-01 a       800     0    54     1     5
 -3.2079512440425850E-01 a       801     0    54     1     6
 -2.4548407976843223E-01 a       802     0    54     1     7
 -4.9707253061138129E-01 a       803     0    54     1     8
 -1.1440177900757031E-02 a       804     0    54     1     9
 -6.0749184380466292E-01 a       805     0    54     1    10
  6.3967807214686168E-01 a       806     0    54     1    11
  2.9683861129731814E-01 a       807     0    54     1    12
 -1.0925323871043785E-01 a       808     0    54     1    13
  3.9184313958605067E-03 a       809     0    54     1    14
  2.9159503585245952E-02 a       810     0    54     1    15
 -9.3608835344173150E-02 a       811     0    55     1     1
  1.0928634670105104E+00 a       812     0    55     1     2
  7.5976570130234539E-02 a       813     0    55     1     3
  4.3958420819471106E-01 a       814     0    55     1     4
  4.8062071602768286E-01 a       815     0    55     1     5
 -4.7532568067010728E-02 a       816     0    55     1     6
  2.7868035996087559E-02 a       817     0    55     1     7
 -5.1977556283098159E-01 a       818     0    55     1     8
  1.5513749114350522E-01 a       819     0    55     1     9
  4.5573479329205624E-01 a       820     0    55     1    10
  3.4917404499712046E-01 a       821     0    55     1    11
 -2.2599679462712322E-01 a       822     0    55     1    12
  3.5391500834431100E-01 a       823     0    55     1    13
  3.3401133222462923E-02 a       824     0    55     1    14
  9.9593678919987633E-02 a       825     0    55     1    15
  1.6049888230888032E-01 a       826     0    56     1     1
  3.6661095488262652E-01 a       827     0    56     1     2
  2.0066641989402850E-01 a       828     0    56     1     3
  2.8196936444772325E-01 a       829     0    56     1     4
 -6.6347113440589994E-02 a       830     0    56     1     5
 -1.9151413360910027E-01 a       831     0    56     1     6
 -1.7647451045912524E-01 a       832     0    56     1     7
 -1.4861654928655343E-01 a       833     0    56     1     8
 -2.0171405409248940E-02 a       834     0    56     1     9
 -4.9182133087724328E-01 a       835     0    56     1    10
 -7.2351498632777578E-01 a       836     0    56     1    11
 -1.7311386698464892E-01 a       837     0    56     1    12
 -3.0131090963459267E-01 a       838     0    56     1    13
  3.7041970273164060E-01 a       839     0    56     1    14
  1.2651233420166397E-01 a       840     0    56     1    15
  2.0690457693151210E-01 a       841     0    57     1     1
 -3.9488682896381128E-01 a       842     0    57     1     2
 -1.3978873721830008E-03 a       843     0    57     1     3
  1.5299249672920959E-01 a       844     0    57     1     4
  1.8841946270215038E-01 a       845     0    57     1     5
 -1.0063019084039050E-01 a       846     0    57     1     6
 -3.8159487537511007E-02 a       847     0    57     1     7
  4.7039510296603532E-01 a       848     0    57     1     8
 -7.9316615120908398E-03 a       849     0    57     1     9
  6.2136081403679111E-01 a       850     0    57     1    10
 -4.8874330389902021E-01 a       851     0    57     1    11
 -4.1544320129513351E-01 a       852     0    57     1    12
  2.3842182742625118E-01 a       853     0    57     1    13
 -1.0374558873101490E-01 a       854     0    57     1    14
  2.2496729651505228E-02 a       855     0    57     1    15
  9.1530948602643614E-01 a       856     0    58     1     1
 -2.7283279984313175E-01 a       857     0    58     1     2
  6.6967378115422893E-01 a       858     0    58     1     3
  1.4017373034855754E-01 a       859     0    58     1     4
 -3.3828773583816935E-01 a       860     0    58     1     5
 -2.3005957419791431E-01 a       861     0    58     1     6
  3.3286136237765704E-02 a       862     0    58     1     7
  6.6179301962429127E-01 a       863     0    58     1     8
 -1.0454995791451394E-01 a       864     0    58     1     9
  3.7512320676543337E-01 a       865     0    58     1    10
 -1.8082339103199419E-01 a       866     0    58     1    11
  4.1832488195792888E-01 a       867     0    58     1    12
 -3.6759098541725405E-01 a       868     0    58     1    13
  7.2617823242426227E-01 a       869     0    58     1    14
 -2.1923739192539668E-01 a       870     0    58     1    15
  3.9602307772579520E-01 a       871     0    59     1     1
  6.4751572418891934E-01 a       872     0    59     1     2
 -4.6968055690403557E-03 a       873     0    59     1     3
  2.6511724446142405E-02 a       874     0    59     1     4
 -1.9923023162673345E-01 a       875     0    59     1     5
  1.5601807902942177E-01 a       876     0    59     1     6
  1.9190017592732053E-01 a       877     0    59     1     7
 -4.5773879897302125E-02 a       878     0    59     1     8
  6.3418670989304486E-04 a       879     0    59     1     9
  3.4889772539876862E-01 a       880     0    59     1    10
  2.0044976865881667E-01 a       881     0    59     1    11
  2.9222544256175265E-01 a       882     0    59     1    12
  8.8306450863273309E-02 a       883     0    59     1    13
  1.4157690860333144E-01 a       884     0    59     1    14
  1.4168375888837992E-01 a       885     0    59     1    15
 -2.7247034306942530E-02 a       886     0    60     1     1
 -6.4329570511764802E-03 a       887     0    60     1     2
  7.6808696018697874E-03 a       888     0    60     1     3
  3.8128263884667599E-02 a       889     0    60     1     4
  1.9252682299424251E-01 a       890     0    60     1     5
  1.6088713818955630E-01 a       891     0    60     1     6
 -8.6677090217091274E-02 a       892     0    60     1     7
  2.7518312867523609E-01 a       893     0    60     1     8
 -1.7843635854625235E-02 a       894     0    60     1     9
  2.4647613026952497E-01 a       895     0    60     1    10
  1.7125730694560198E-01 a       896     0    60     1    11
 -2.5315848455093326E-02 a       897     0    60     1    12
 -7.6672366622025437E-02 a       898     0    60     1    13
  1.9559546954418189E-01 a       899     0    60     1    14
 -2.5432704667217136E-02 a       900     0    60     1    15
  3.2299339356802015E-02 a       901     0    61     1     1
  4.7180858270424175E-02 a       902     0    61     1     2
 -3.6904834672960796E-01 a       903     0    61     1     3
 -7.8038274121420170E-02 a       904     0    61     1     4
 -9.5255368772741755E-01 a       905     0    61     1     5
  2.3386402335170908E-01 a       906     0    61     1     6
 -2.3239114596263577E-01 a       907     0    61     1     7
 -2.1866314464740758E-01 a       908     0    61     1     8
 -8.9560841937412969E-03 a       909     0    61     1     9
  5.4871147984816449E-01 a       910     0    61     1    10
  1.0796877388588860E-01 a       911     0    61     1    11
 -2.5092846803827634E-01 a       912     0    61     1    12
 -3.0527567159604196E-01 a       913     0    61     1    13
  1.8185015272687407E-03 a       914     0    61     1    14
 -1.9316943064036168E-02 a       915     0    61     1    15
  1.1949979399068110E-01 a       916     0    62     1     1
 -4.9284179707974513E-01 a       917     0    62     1     2
  1.8575978069822030E-01 a       918     0    62     1     3
 -1.5432482877493472E-01 a       919     0    62     1     4
  2.6718723802658245E-01 a       920     0    62     1     5
  5.1821157387885430E-01 a       921     0    62     1     6
  9.5700335579232562E-02 a       922     0    62     1     7
 -3.6614336992240468E-02 a       923     0    62     1     8
 -8.9804128647732878E-03 a       924     0    62     1     9
  6.6226634422145977E-02 a       925     0    62     1    10
  7.0778105112058254E-01 a       926     0    62     1    11
  4.0078388769500528E-01 a       927     0    62     1    12
  2.6399312490382149E-01 a       928     0    62     1    13
 -7.2118716096622926E-01 a       929     0    62     1    14
 -9.5491702874510476E-02 a       930     0    62     1    15
 -9.2951360144731210E-02 a       931     0    63     1     1
  1.2296249856174132E-01 a       932     0    63     1     2
 -8.3458742001388780E-02 a       933     0    63     1     3
  1.4049410128795206E-01 a       934     0    63     1     4
  3.3570740979458724E-02 a       935     0    63     1     5
 -4.7830793554534602E-02 a       936     0    63     1     6
  4.8570725010374322E-02 a       937     0    63     1     7
 -2.8549875470001057E-01 a       938     0    63     1     8
  1.2802482020918320E-02 a       939     0    63     1     9
 -2.6717291199339593E-01 a       940     0    63     1    10
  1.6986067883120612E-01 a       941     0    63     1    11
  1.5555626633554617E-01 a       942     0    63     1    12
 -9.3421574503896695E-02 a       943     0    63     1    13
  2.3330809896366009E-01 a       944     0    63     1    14
  1.1350735698715666E-02 a       945     0    63     1    15
  1.2975102138852246E-01 a       946     0    64     1     1
 -1.3812638228681104E-01 a       947     0    64     1     2
  2.3207694916329846E-01 a       948     0    64     1     3
  2.7741762278735921E-01 a       949     0    64     1     4
  2.3942082727594663E-01 a       950     0    64     1     5
 -6.1462684834292694E-02 a       951     0    64     1     6
  9.0464851062768470E-02 a       952     0    64     1     7
 -1.8906248972828632E-01 a       953     0    64     1     8
 -2.0084027431075006E-02 a       954     0    64     1     9
  4.8353060472375115E-01 a       955     0    64     1    10
 -2.0794519044587476E-01 a       956     0    64     1    11
 -2.2109981194893266E-01 a       957     0    64     1    12
 -1.1320523746024758E-01 a       958     0    64     1    13
 -4.0753442584179518E-02 a       959     0    64     1    14
 -3.4321908094904298E-02 a       960     0    64     1    15
  4.2976125432975149E-01 b       961     1     1
  1.6433619537873787E+00 b       962     1     2
  8.1280612388119988E-01 b       963     1     3
 -6.1807608112613666E-01 b       964     1     4
  9.5728460682402883E-01 b       965     1     5
 -2.6111193892532392E-01 b       966     1     6
 -9.0681074489292091E-01 b       967     1     7
 -4.7160431480467863E-01 b       968     1     8
  7.1668539153594413E-01 b       969     1     9
  1.8983306528806121E-01 b       970     1    10
  6.8246088932152904E-01 b       971     1    11
 -3.2690422096707084E-01 b       972     1    12
 -8.0735447812922884E-02 b       973     1    13
  9.0656960492139238E-01 b       974     1    14
 -1.2948169317374840E+00 b       975     1    15
  4.6497918768104157E-01 a       976     1     1     2     1
 -1.6246072522213117E-01 a       977     1     1     2     2
 -3.5081207538206344E-01 a       978     1     1     2     3
  1.2974911982940726E-01 a       979     1     1     2     4
  3.5612119600355591E-01 a       980     1     1     2     5
 -5.4798342317020510E-01 a       981     1     1     2     6
  4.2009266037486566E-02 a       982     1     1     2     7
 -1.4228443076310812E-02 a       983     1     1     2     8
 -3.0018735615992859E-01 a       984     1     1     2     9
 -4.5535052456498099E-01 a       985     1     1     2    10
  7.6587206641191397E-01 a       986     1     1     2    11
 -2.4871191872369022E-01 a       987     1     1     2    12
 -1.1621224127459175E-01 a       988     1     1     2    13
 -5.5902542998695792E-02 a       989     1     1     2    14
 -4.3343473606958377E-01 a       990     1     1     2    15
 -3.5156724002553436E-01 a       991     1     2     2     1
  5.4754207888885897E-01 a       992     1     2     2     2
 -4.2204662681938193E-01 a       993     1     2     2     3
 -7.3245078797057148E-02 a       994     1     2     2     4
 -9.0123330339467045E-01 a       995     1     2     2     5
 -1.0241065098809199E+00 a       996     1     2     2     6
 -2.4125540883210705E-01 a       997     1     2     2     7
 -1.0310835074886371E-01 a       998     1     2     2     8
  8.4355590093616617E-01 a       999     1     2     2     9
  4.6607414071896947E-01 a      1000     1     2     2    10
 -2.0089436899636748E-01 a      1001     1     2     2    11
  3.9621301230464140E-01 a      1002     1     2     2    12
  1.1968257280255206E+00 a      1003     1     2     2    13
 -1.2885576129800256E+00 a      1004     1     2     2    14
 -1.1153172747062083E+00 a      1005     1     2     2    15
 -7.4746975522672032E-01 a      1006     1     3     2     1
 -2.4563255846679810E-01 a      1007     1     3     2     2
 -2.0113049768136032E-01 a      1008     1     3     2     3
 -1.4797436621521404E-01 a      1009     1     3     2     4
 -3.1122772284411082E-01 a      1010     1     3     2     5
 -2.0906495888881402E-01 a      1011     1     3     2     6
  7.5104689281983938E-01 a      1012     1     3     2     7
  1.0599189753693077E+00 a      1013     1     3     2     8
  1.8808163448171709E+00 a      1014     1     3     2     9
  6.2716655113844200E-01 a      1015     1     3     2    10
 -7.1081354059225044E-01 a      1016     1     3     2    11
  5.9754899033877196E-01 a      1017     1     3     2    12
 -4.8752669662288239E-01 a      1018     1     3     2    13
 -3.3553178972117834E-02 a      1019     1     3     2    14
  1.4058577669967269E+00 a      1020     1     3     2    15
  4.8680310000170474E-01 a      1021     1     4     2     1
  1.1674681468290686E+00 a      1022     1     4     2     2
 -1.4431120217329607E+00 a      1023     1     4     2     3
 -3.9183309113346321E-01 a      1024     1     4     2     4
 -1.1139561596337557E+00 a      1025     1     4     2     5
  9.6464121029256500E-01 a      1026     1     4     2     6
  6.9546292333994997E-01 a      1027     1     4     2     7
 -6.3497583463198809E-02 a      1028     1     4     2     8
  6.0627859203980183E-01 a      1029     1     4     2     9
  5.0798246423331928E-01 a      1030     1     4     2    10
  7.3476407596907245E-01 a      1031     1     4     2    11
  1.2257335026246703E-01 a      1032     1     4     2    12
  8.5703408186132202E-01 a      1033     1     4     2    13
 -1.9037727938895113E-01 a      1034     1     4     2    14
 -7.1802404754611915E-01 a      1035     1     4     2    15
  1.9466479545778043E-01 a      1036     1     5     2     1
 -4.1049550326347417E-01 a      1037     1     5     2     2
  2.8593393887660072E-02 a      1038     1     5     2     3
  9.7216109634837866E-01 a      1039     1     5     2     4
  1.2144001121963059E-01 a      1040     1     5     2     5
 -1.2790882272893134E+00 a      1041     1     5     2     6
 -4.2559287976257060E-01 a      1042     1     5     2     7
  2.6133185228326156E-02 a      1043     1     5     2     8
  3.1722503696264265E-01 a      1044     1     5     2     9
  2.5603449063395123E-01 a      1045     1     5     2    10
  2.4881253092339012E-01 a      1046     1     5     2    11
 -8.7797954551611102E-01 a      1047     1     5     2    12
 -1.0300161225426292E+00 a      1048     1     5     2    13
  8.5224539423518386E-01 a      1049     1     5     2    14
  2.9434520292254079E-01 a      1050     1     5     2    15
  1.4577511322267539E-01 a      1051     1     6     2     1
  1.2835256067370596E-01 a      1052     1     6     2     2
  5.7721413605212302E-01 a      1053     1     6     2     3
 -1.8549316552387146E-01 a      1054     1     6     2     4
 -4.8095779853768633E-01 a      1055     1     6     2     5
  2.6904981580974247E-01 a      1056     1     6     2     6
 -3.3511517316576089E-01 a      1057     1     6     2     7
 -5.6626288288454374E-01 a      1058     1     6     2     8
 -9.7765671020645994E-01 a      1059     1     6     2     9
 -5.6185696566860999E-01 a      1060     1     6     2    10
 -1.2793283601369465E+00 a      1061     1     6     2    11
 -3.4363406453416778E-01 a      1062     1     6     2    12
  4.8494705783468994E-01 a      1063     1     6     2    13
 -3.2449125018276931E-02 a      1064     1     6     2    14
 -8.1975766767963820E-01 a      1065     1     6     2    15
 -2.2522577850502301E-01 a      1066     1     7     2     1
 -1.8030536860750401E-01 a      1067     1     7     2     2
  1.0693892629112394E+00 a      1068     1     7     2     3
 -3.2297485980018437E-01 a      1069     1     7     2     4
  2.9043649033347102E-01 a      1070     1     7     2     5
  4.6582312949472876E-01 a      1071     1     7     2     6
  1.1875535255741003E+00 a      1072     1     7     2     7
  1.9229574082467392E-03 a      1073     1     7     2     8
 -5.9045283359945755E-01 a      1074     1     7     2     9
 -4.4705050096105869E-01 a      1075     1     7     2    10
 -2.2494128703412003E-01 a      1076     1     7     2    11
 -4.0701068339121060E-01 a      1077     1     7     2    12
  1.2828436170817550E+00 a      1078     1     7     2    13
  3.1390368802991522E-02 a      1079     1     7     2    14
 -6.8883728875027347E-02 a      1080     1     7     2    15
  5.3867606977648641E-02 a      1081     1     8     2     1
 -1.3730354638817277E-01 a      1082     1     8     2     2
  9.2168238161803218E-01 a      1083     1     8     2     3
 -8.6733845459545822E-01 a      1084     1     8     2     4
 -5.3857092803498074E-01 a      1085     1     8     2     5
  5.0333259861024504E-01 a      1086     1     8     2     6
  9.4116799142547525E-01 a      1087     1     8     2     7
  2.1006917287276652E-01 a      1088     1     8     2     8
 -6.8522931270715037E-01 a      1089     1     8     2     9
 -5.0227402340064964E-01 a      1090     1     8     2    10
  2.2287296024857126E-01 a      1091     1     8     2    11
  1.0638850807893531E-01 a      1092     1     8     2    12
  1.1148498917302117E+00 a      1093     1     8     2    13
  6.6274305364250086E-01 a      1094     1     8     2    14
 -5.8699675874517313E-02 a      1095     1     8     2    15
 -1.1436805231983174E+00 a      1096     1     9     2     1
 -1.6975585748743910E-01 a      1097     1     9     2     2
 -6.5519512108385269E-01 a      1098     1     9     2     3
  5.1638043340369599E-01 a      1099     1     9     2     4
 -2.4554356659653669E+00 a      1100     1     9     2     5
 -1.1141798090945572E+00 a      1101     1     9     2     6
  6.1752993417696000E-01 a      1102     1     9     2     7
 -7.9761520759527083E-01 a      1103     1     9     2     8
  6.1643485744489934E-01 a      1104     1     9     2     9
  1.8314616791926483E-01 a      1105     1     9     2    10
 -7.6281369145690481E-01 a      1106     1     9     2    11
  1.4802034311021868E-02 a      1107     1     9     2    12
 -1.3110630301503898E+00 a      1108     1     9     2    13
  1.5128425108262278E+00 a      1109     1     9     2    14
  1.8847053448831022E+00 a      1110     1     9     2    15
  5.7762919809487423E-01 a      1111     1    10     2     1
  1.8504017222407995E-01 a      1112     1    10     2     2
  6.6698922203053970E-02 a      1113     1    10     2     3
 -6.7202997969361359E-03 a      1114     1    10     2     4
  1.2619499590946319E+00 a      1115     1    10     2     5
 -6.0921589021360911E-02 a      1116     1    10     2     6
  3.3260291392064295E-01 a      1117     1    10     2     7
  2.2572523297041364E-01 a      1118     1    10     2     8
 -6.2908956914634440E-01 a      1119     1    10     2     9
 -5.0987767280891882E-01 a      1120     1    10     2    10
  2.9123455750337167E-02 a      1121     1    10     2    11
 -5.5462321700710870E-01 a      1122     1    10     2    12
  4.2398345290083211E-03 a      1123     1    10     2    13
 -4.5170109652965407E-01 a      1124     1    10     2    14
  1.2181331809783362E-01 a      1125     1    10     2    15
  6.0072741439297672E-01 a      1126     1    11     2     1
  1.2182701511847660E-02 a      1127     1    11     2     2
 -6.5261227480363704E-01 a      1128     1    11     2     3
  4.4053733457171029E-01 a      1129     1    11     2     4
  4.9982118769216310E-01 a      1130     1    11     2     5
  5.8331793498300200E-01 a      1131     1    11     2     6
  2.2912071611919355E-01 a      1132     1    11     2     7
  1.9476519199401190E-01 a      1133     1    11     2     8
  1.1217104385646394E-01 a      1134     1    11     2     9
  3.2970715668933870E-01 a      1135     1    11     2    10
 -3.9738401788987715E-01 a      1136     1    11     2    11
 -8.7924664139657674E-02 a      1137     1    11     2    12
 -5.0132136997931021E-01 a      1138     1    11     2    13
  5.0967450472495102E-01 a      1139     1    11     2    14
  5.1104305297770297E-02 a      1140     1    11     2    15
  3.5525332989385405E-01 a      1141     1    12     2     1
  3.6160729121698815E-01 a      1142     1    12     2     2
 -4.5766803208681706E-01 a      1143     1    12     2     3
 -3.8570337633812474E-01 a      1144     1    12     2     4
  1.2732481343349362E+00 a      1145     1    12     2     5
  5.7121327878011119E-01 a      1146     1    12     2     6
  1.2042638674169848E+00 a      1147     1    12     2     7
  1.0968449134417944E-02 a      1148     1    12     2     8
 -4.5243270121144818E-02 a      1149     1    12     2     9
  1.1151852206668279E-01 a      1150     1    12     2    10
 -2.1403412080229881E-01 a      1151     1    12     2    11
  1.3038087418634045E-01 a      1152     1    12     2    12
  2.5748168074609967E-01 a      1153     1    12     2    13
  8.3025599083494972E-01 a      1154     1    12     2    14
  4.0564039356028625E-01 a      1155     1    12     2    15
 -2.1079166218171561E-01 a      1156     1    13     2     1
 -5.8931538262202554E-01 a      1157     1    13     2     2
  1.5653090675348449E+00 a      1158     1    13     2     3
  4.2047263970795412E-01 a      1159     1    13     2     4
  3.0439432808793684E-02 a      1160     1    13     2     5
  6.5628166522925324E-01 a      1161     1    13     2     6
 -1.3492591744094404E-01 a      1162     1    13     2     7
  5.9759652474374514E-01 a      1163     1    13     2     8
 -1.3069898920585854E+00 a      1164     1    13     2     9
 -2.9927641782362691E-01 a      1165     1    13     2    10
  1.1665339372473995E+00 a      1166     1    13     2    11
 -1.3471844396994945E-01 a      1167     1    13     2    12
 -2.5921351762543737E-01 a      1168     1    13     2    13
  6.8846856277271962E-01 a      1169     1    13     2    14
  1.9158279637006076E-01 a      1170     1    13     2    15
 -7.5207602511584315E-02 a      1171     1    14     2     1
 -1.7966168907040764E-01 a      1172     1    14     2     2
  7.1373884024389622E-01 a      1173     1    14     2     3
  1.3909321306257214E-01 a      1174     1    14     2     4
 -5.5763657201070460E-02 a      1175     1    14     2     5
 -1.1781943642321213E-01 a      1176     1    14     2     6
 -3.6439718760705292E-01 a      1177     1    14     2     7
  4.2151687861231701E-01 a      1178     1    14     2     8
 -1.0544976257914029E+00 a      1179     1    14     2     9
 -3.2098316877815070E-01 a      1180     1    14     2    10
 -4.6717265024316834E-01 a      1181     1    14     2    11
  2.4608796203652489E-01 a      1182     1    14     2    12
 -1.1327983564150026E-01 a      1183     1    14     2    13
 -1.6905191444048107E-01 a      1184     1    14     2    14
 -4.5004866658530973E-01 a      1185     1    14     2    15
 -1.4772314451611948E+00 a      1186     1    15     2     1
 -1.5671014302065185E+00 a      1187     1    15     2     2
 -4.2361807252480799E-01 a      1188     1    15     2     3
  2.8363200876456013E-01 a      1189     1    15     2     4
  8.6491702228517253E-01 a      1190     1    15     2     5
  1.4866727472646555E+00 a      1191     1    15     2     6
  5.9508361304336906E-02 a      1192     1    15     2     7
  1.3550348010761886E+00 a      1193     1    15     2     8
  1.5612981888411515E+00 a      1194     1    15     2     9
 -1.3673535104239456E+00 a      1195     1    15     2    10
 -1.8834184320166623E+00 a      1196     1    15     2    11
 -1.3935376663772434E+00 a      1197     1    15     2    12
  1.6674134892256367E+00 a      1198     1    15     2    13
 -1.4959613590761585E+00 a      1199     1    15     2    14
  6.8085973027353419E-01 a      1200     1    15     2    15
  3.9840324423974205E-01 b      1201     2     1
 -8.0516527467428356E-01 b      1202     2     2
  9.1813823688388008E-01 b      1203     2     3
 -8.6095525459220612E-02 b      1204     2     4
  1.1538007157678201E+00 b      1205     2     5
  4.2517448837920568E-01 b      1206     2     6
  3.0696137679662028E-01 b      1207     2     7
  1.3915722965660510E-01 b      1208     2     8
 -3.4728188045850628E-01 b      1209     2     9
  3.2285561819222930E-02 b      1210     2    10
 -6.1930912987749998E-01 b      1211     2    11
 -3.1602482307585694E-02 b      1212     2    12
 -5.4417370602344717E-01 b      1213     2    13
  3.6115824661734901E-02 b      1214     2    14
 -5.4920486313964156E-01 b      1215     2    15
 -6.5380704976607718E-01 a      1216     2     1     3     1
 -9.4124633622851550E-01 a      1217     2     2     3     1
 -4.0198265405831229E-01 a      1218     2     3     3     1
 -1.4169413714548038E+00 a      1219     2     4     3     1
  2.1327679601478111E-01 a      1220     2     5     3     1
  1.7385686830361038E-01 a      1221     2     6     3     1
  3.5829863351328778E-01 a      1222     2     7     3     1
  5.0545603484461243E-01 a      1223     2     8     3     1
 -3.8641787200701389E-01 a      1224     2     9     3     1
  1.2115303299305760E+00 a      1225     2    10     3     1
  8.4802375112346343E-03 a      1226     2    11     3     1
 -1.0756565141272663E+00 a      1227     2    12     3     1
 -5.7086924692423668E-01 a      1228     2    13     3     1
 -2.3399502988389953E-01 a      1229     2    14     3     1
 -7.4435014856196202E-01 a      1230     2    15     3     1
  1.6230697895072272E+00 b      1231     3     1
