################################################################################
# Neural network connection values (weights and biases).
################################################################################
# Col  Name       Description
################################################################################
# 1    connection Neural network connection value.
# 2    t          Connection type (a = weight, b = bias).
# 3    index      Index enumerating weights.
# 4    l_s        Starting point layer (end point layer for biases).
# 5    n_s        Starting point neuron in starting layer (end point neuron for biases).
# 6    l_e        End point layer.
# 7    n_e        End point neuron in end layer.
################################################################################
#                      1 2         3     4     5     6     7
#             connection t     index   l_s   n_s   l_e   n_e
############################################################
 -3.3752511224429543E-01 a         1     0     1     1     1
 -4.6318182540764419E-01 a         2     0     1     1     2
 -1.4322920938033998E+00 a         3     0     1     1     3
  9.3361816918135176E-01 a         4     0     1     1     4
 -4.5573825818679647E-01 a         5     0     1     1     5
 -8.1604786885026162E-02 a         6     0     1     1     6
  1.6442645319897398E+00 a         7     0     1     1     7
 -8.8255837195908182E-01 a         8     0     1     1     8
 -5.0974627642679715E-01 a         9     0     1     1     9
  3.6836329249407890E-01 a        10     0     1     1    10
  3.9964340530632092E-01 a        11     0     1     1    11
  4.2508273545875441E-01 a        12     0     1     1    12
  5.1074169473799091E-01 a        13     0     1     1    13
  2.4025307586658337E-01 a        14     0     1     1    14
  3.2026883195916978E-01 a        15     0     1     1    15
 -1.1567515474717607E+00 a        16     0     2     1     1
 -1.3447320101560165E+00 a        17     0     2     1     2
  2.5789319516710334E+00 a        18     0     2     1     3
 -2.3928033331659254E-01 a        19     0     2     1     4
 -3.7154877566518962E-01 a        20     0     2     1     5
  1.5129059299609533E+00 a        21     0     2     1     6
 -5.0926522250425377E+00 a        22     0     2     1     7
 -4.2310358714153820E+00 a        23     0     2     1     8
 -5.2729505875383087E-01 a        24     0     2     1     9
  4.0546568333393807E-01 a        25     0     2     1    10
  6.2560755640182075E-01 a        26     0     2     1    11
  3.5622178832001292E-02 a        27     0     2     1    12
  1.5897512077698644E-01 a        28     0     2     1    13
 -3.3239924176823193E-01 a        29     0     2     1    14
  1.2456875927125333E+00 a        30     0     2     1    15
  1.6429921906665473E-01 a        31     0     3     1     1
 -9.8451555883922370E-01 a        32     0     3     1     2
  4.0203034690803474E-01 a        33     0     3     1     3
 -2.3078235670689171E-01 a        34     0     3     1     4
  1.7096706919791413E-01 a        35     0     3     1     5
 -5.2018995842362947E-01 a        36     0     3     1     6
 -9.4347034479053915E-01 a        37     0     3     1     7
  3.4194903988767394E-01 a        38     0     3     1     8
 -1.1766465758742766E+00 a        39     0     3     1     9
 -9.4663391304980558E-03 a        40     0     3     1    10
 -3.1117936334451574E-01 a        41     0     3     1    11
  3.8959222069675192E-01 a        42     0     3     1    12
  5.7992324143852164E-02 a        43     0     3     1    13
 -3.5989118702400075E-01 a        44     0     3     1    14
 -1.0528271768410800E+00 a        45     0     3     1    15
 -1.6278376125860425E-01 a        46     0     4     1     1
  1.1227557778161605E+00 a        47     0     4     1     2
 -1.9373488642867105E+00 a        48     0     4     1     3
  1.5831317383721755E+00 a        49     0     4     1     4
 -1.0787275864236885E+00 a        50     0     4     1     5
  5.0028105604996875E-01 a        51     0     4     1     6
  3.4388098876147843E+00 a        52     0     4     1     7
  3.7165756863552475E+00 a        53     0     4     1     8
 -1.3868399590946638E+00 a        54     0     4     1     9
  9.9298774733877371E-01 a        55     0     4     1    10
 -1.6582340126463901E+00 a        56     0     4     1    11
  8.9777697615307439E-01 a        57     0     4     1    12
 -1.1674430094249892E+00 a        58     0     4     1    13
  1.4485604068085458E+00 a        59     0     4     1    14
  6.0076202360900270E-02 a        60     0     4     1    15
 -1.2330887830007478E+00 a        61     0     5     1     1
  4.2295812021469337E-01 a        62     0     5     1     2
 -5.7117138250846855E-02 a        63     0     5     1     3
 -5.5944465020902878E-01 a        64     0     5     1     4
 -1.0289069832023046E+00 a        65     0     5     1     5
  1.6809190982222291E-01 a        66     0     5     1     6
 -2.0351423552007961E-01 a        67     0     5     1     7
  1.1288203565740569E-02 a        68     0     5     1     8
  1.2541501186009282E-01 a        69     0     5     1     9
  6.0677054323976776E-01 a        70     0     5     1    10
 -1.8795191245247861E-01 a        71     0     5     1    11
 -6.5676820429129124E-01 a        72     0     5     1    12
 -2.5865194693981682E-02 a        73     0     5     1    13
 -1.0456472229675480E+00 a        74     0     5     1    14
 -4.4997411905862922E-01 a        75     0     5     1    15
 -1.5521858155958423E+00 a        76     0     6     1     1
  8.6856490534113340E-01 a        77     0     6     1     2
 -2.4855675185789647E+00 a        78     0     6     1     3
  3.4042201721655518E-01 a        79     0     6     1     4
  6.8915376071032741E-01 a        80     0     6     1     5
 -2.4927930320870688E+00 a        81     0     6     1     6
  3.2227574193838837E+00 a        82     0     6     1     7
  5.9446722644059777E+00 a        83     0     6     1     8
 -2.2439034995046545E+00 a        84     0     6     1     9
 -7.9883685422783435E-01 a        85     0     6     1    10
 -6.2921888215129906E-01 a        86     0     6     1    11
  3.2654334526870388E-01 a        87     0     6     1    12
  1.8079165155971426E+00 a        88     0     6     1    13
 -1.4240611075027351E-01 a        89     0     6     1    14
 -3.6831641426001943E-01 a        90     0     6     1    15
 -4.8496302970642575E-03 a        91     0     7     1     1
  1.0518379949584249E+00 a        92     0     7     1     2
 -8.0105723872154075E-02 a        93     0     7     1     3
 -7.0394229288808036E-02 a        94     0     7     1     4
  2.7196237466872847E-01 a        95     0     7     1     5
  3.6802983034093434E-01 a        96     0     7     1     6
  3.3419129443090487E-02 a        97     0     7     1     7
  1.9881577154004801E-01 a        98     0     7     1     8
  5.4931100699212942E-01 a        99     0     7     1     9
 -1.2422712987535354E+00 a       100     0     7     1    10
  9.5350719551115432E-02 a       101     0     7     1    11
  1.2665337286105309E+00 a       102     0     7     1    12
 -1.2083948855251530E+00 a       103     0     7     1    13
  1.3555965691376032E-01 a       104     0     7     1    14
 -6.5933975261619859E-01 a       105     0     7     1    15
 -2.3264333085117181E+00 a       106     0     8     1     1
 -1.8798518122843577E+00 a       107     0     8     1     2
  8.0077226248086097E-01 a       108     0     8     1     3
 -3.5745060246842684E+00 a       109     0     8     1     4
  1.7863505581842432E+00 a       110     0     8     1     5
 -2.7317772508058673E+00 a       111     0     8     1     6
 -2.7608446175707435E+00 a       112     0     8     1     7
 -9.2270652301465770E+00 a       113     0     8     1     8
 -4.6358122567441346E-01 a       114     0     8     1     9
 -3.1095939377656050E+00 a       115     0     8     1    10
  1.7356617197750726E+00 a       116     0     8     1    11
  9.9138680805795076E-01 a       117     0     8     1    12
 -4.1881767670009840E-01 a       118     0     8     1    13
 -1.2662587498769471E+00 a       119     0     8     1    14
  9.0315396291264827E-01 a       120     0     8     1    15
 -2.3226173045541237E-02 a       121     0     9     1     1
  7.8382698526553207E-01 a       122     0     9     1     2
 -1.2950771583302425E+00 a       123     0     9     1     3
  1.0458611285489405E-01 a       124     0     9     1     4
  2.2017739218741688E+00 a       125     0     9     1     5
 -1.2700778193577866E+00 a       126     0     9     1     6
 -7.0575394782895096E-01 a       127     0     9     1     7
 -3.5772096980955503E-01 a       128     0     9     1     8
 -1.9894385739002055E-01 a       129     0     9     1     9
  9.3433250284126107E-02 a       130     0     9     1    10
 -2.2995338383937018E-02 a       131     0     9     1    11
 -8.5721351185030625E-01 a       132     0     9     1    12
  1.0052541595403699E+00 a       133     0     9     1    13
  1.2699158185739416E+00 a       134     0     9     1    14
 -5.8252709055786452E-02 a       135     0     9     1    15
 -1.0822791698584948E+00 a       136     0    10     1     1
  1.1003534871863900E+00 a       137     0    10     1     2
 -3.4937814154303903E+00 a       138     0    10     1     3
  2.9098141335489656E+00 a       139     0    10     1     4
 -2.8144816470733045E+00 a       140     0    10     1     5
  1.6165062179705769E+00 a       141     0    10     1     6
 -4.3390654765833353E-01 a       142     0    10     1     7
  3.2607697818156400E+00 a       143     0    10     1     8
  7.8195790074597937E-01 a       144     0    10     1     9
  3.2142426077648074E+00 a       145     0    10     1    10
 -3.5462346128294536E-01 a       146     0    10     1    11
 -2.9545798197033326E+00 a       147     0    10     1    12
 -7.6373042064637520E-01 a       148     0    10     1    13
 -1.5964956469263369E+00 a       149     0    10     1    14
  1.5293319406607062E+00 a       150     0    10     1    15
 -1.5158716460082211E+00 a       151     0    11     1     1
 -3.7338925660161398E-01 a       152     0    11     1     2
  9.7615048339933297E-01 a       153     0    11     1     3
  5.5993945693685720E-01 a       154     0    11     1     4
 -1.4513919042589720E+00 a       155     0    11     1     5
  6.0062674485186773E-01 a       156     0    11     1     6
 -2.2845760481609553E-01 a       157     0    11     1     7
 -8.8759407621003505E-01 a       158     0    11     1     8
  4.9865975547995778E-01 a       159     0    11     1     9
  1.6882763258620334E-01 a       160     0    11     1    10
 -1.0028394634407709E+00 a       161     0    11     1    11
  1.6583741771319097E-01 a       162     0    11     1    12
 -2.9969316203703200E-01 a       163     0    11     1    13
 -5.6665730165501649E-01 a       164     0    11     1    14
 -1.0095867424364804E+00 a       165     0    11     1    15
 -1.0345116914047554E+00 a       166     0    12     1     1
 -2.2103713364545885E+00 a       167     0    12     1     2
  2.0806910783018946E+00 a       168     0    12     1     3
 -9.4136343798628208E-01 a       169     0    12     1     4
  2.6670717782010129E+00 a       170     0    12     1     5
 -1.3438348201853283E+00 a       171     0    12     1     6
  2.2195143134883328E+00 a       172     0    12     1     7
 -9.1270013479254364E-01 a       173     0    12     1     8
  6.4034004318985177E-02 a       174     0    12     1     9
 -1.1808596223680254E+00 a       175     0    12     1    10
 -6.7144105026522016E-02 a       176     0    12     1    11
  2.3876320205172457E+00 a       177     0    12     1    12
  1.0698702806937899E+00 a       178     0    12     1    13
  2.2970671261143893E+00 a       179     0    12     1    14
 -3.1283099050242416E+00 a       180     0    12     1    15
  6.0666133488205565E-01 a       181     0    13     1     1
  6.0906287190905489E-02 a       182     0    13     1     2
 -7.3580826950979772E-01 a       183     0    13     1     3
  3.4571510471037525E-01 a       184     0    13     1     4
  8.8780197058607924E-01 a       185     0    13     1     5
 -2.4286274161711011E-01 a       186     0    13     1     6
  3.4877426809940371E-01 a       187     0    13     1     7
  1.0365064195813033E-03 a       188     0    13     1     8
  1.3390298479885313E-01 a       189     0    13     1     9
  8.7578057902617601E-01 a       190     0    13     1    10
  4.3688250751992913E-01 a       191     0    13     1    11
 -2.0004229188130182E-01 a       192     0    13     1    12
  4.6776608398720015E-01 a       193     0    13     1    13
  5.9712452216702538E-01 a       194     0    13     1    14
  6.4425555536361312E-01 a       195     0    13     1    15
 -1.3357151443346702E+00 a       196     0    14     1     1
  1.2408380498642931E-01 a       197     0    14     1     2
  1.4506466176414282E-01 a       198     0    14     1     3
  3.7227155454248495E-01 a       199     0    14     1     4
 -4.3111988661990364E-01 a       200     0    14     1     5
  6.7190233421346512E-01 a       201     0    14     1     6
 -4.8668604467765458E-01 a       202     0    14     1     7
 -4.3602108808934427E-02 a       203     0    14     1     8
 -4.1724916103685028E-01 a       204     0    14     1     9
  5.6117903100580491E-01 a       205     0    14     1    10
 -3.6761943388705376E-01 a       206     0    14     1    11
 -6.5412970706683260E-01 a       207     0    14     1    12
 -1.7414492087967851E-01 a       208     0    14     1    13
 -9.3022898011804767E-01 a       209     0    14     1    14
  5.8625800304265918E-01 a       210     0    14     1    15
 -2.9894485853938707E-01 a       211     0    15     1     1
 -3.0259607895433110E-01 a       212     0    15     1     2
  1.3697268543562044E-01 a       213     0    15     1     3
 -1.5725445099311264E-01 a       214     0    15     1     4
 -2.4764965463564625E-01 a       215     0    15     1     5
  2.2699091924818358E-02 a       216     0    15     1     6
  4.5890630643933839E-02 a       217     0    15     1     7
  4.9349140078374827E-02 a       218     0    15     1     8
 -1.0121541248400391E-01 a       219     0    15     1     9
 -2.0402564067182336E-01 a       220     0    15     1    10
 -1.9791159049875426E-02 a       221     0    15     1    11
  9.8482909253402556E-02 a       222     0    15     1    12
 -1.3750293425311433E-01 a       223     0    15     1    13
 -2.2097380149945117E-01 a       224     0    15     1    14
 -1.9300075992489912E-01 a       225     0    15     1    15
  1.5852543013462855E-01 a       226     0    16     1     1
 -9.2166266957199899E-02 a       227     0    16     1     2
 -4.7813122708241375E-02 a       228     0    16     1     3
 -9.2713788563239308E-02 a       229     0    16     1     4
  5.4828520778724944E-02 a       230     0    16     1     5
 -8.4613179089060159E-02 a       231     0    16     1     6
  1.2753941509358727E-01 a       232     0    16     1     7
  2.0171430533189413E-02 a       233     0    16     1     8
  6.3172957416982783E-02 a       234     0    16     1     9
  9.9633819136607210E-02 a       235     0    16     1    10
  1.7255843786229949E-01 a       236     0    16     1    11
  4.2740159990868981E-01 a       237     0    16     1    12
 -6.0941273865285019E-04 a       238     0    16     1    13
  8.3050710795123620E-02 a       239     0    16     1    14
 -4.3208288669064460E-01 a       240     0    16     1    15
 -5.2308627076708025E-01 a       241     0    17     1     1
 -4.8561885063784493E-01 a       242     0    17     1     2
 -2.4777786305630701E-02 a       243     0    17     1     3
 -2.2025699298913765E-01 a       244     0    17     1     4
  5.4965161846251873E-02 a       245     0    17     1     5
 -4.0843474991848865E-02 a       246     0    17     1     6
  3.8448639319894845E-01 a       247     0    17     1     7
  3.3833252573639833E-01 a       248     0    17     1     8
 -1.7209922970390565E-01 a       249     0    17     1     9
 -1.2808116261569069E-01 a       250     0    17     1    10
 -1.9275237933958794E-01 a       251     0    17     1    11
  2.2414523920846685E-01 a       252     0    17     1    12
 -4.1234393994082730E-01 a       253     0    17     1    13
 -4.3985008932868636E-01 a       254     0    17     1    14
 -7.3305948525583109E-01 a       255     0    17     1    15
  5.9383656414985087E-01 a       256     0    18     1     1
 -5.8941694026102964E-01 a       257     0    18     1     2
  4.9783174875915653E-01 a       258     0    18     1     3
 -1.8225532079510259E-01 a       259     0    18     1     4
  1.7482163095126035E-01 a       260     0    18     1     5
 -2.1317859856955848E-01 a       261     0    18     1     6
  4.5853845203375171E-01 a       262     0    18     1     7
  4.8688237143840053E-02 a       263     0    18     1     8
 -9.0611244700042753E-02 a       264     0    18     1     9
  8.2401606028323117E-03 a       265     0    18     1    10
 -9.4088425650090624E-01 a       266     0    18     1    11
 -5.1336475751124178E-01 a       267     0    18     1    12
 -1.5855579308426345E-02 a       268     0    18     1    13
 -1.4429284153483174E-01 a       269     0    18     1    14
  8.1097949209477893E-01 a       270     0    18     1    15
  4.4128217394000158E-01 a       271     0    19     1     1
 -8.2787380530256482E-01 a       272     0    19     1     2
  7.6347011257775310E-01 a       273     0    19     1     3
  1.4677412242601386E+00 a       274     0    19     1     4
 -5.1972571752863195E-01 a       275     0    19     1     5
  9.5184474048288625E-01 a       276     0    19     1     6
 -2.8361812361779874E-03 a       277     0    19     1     7
 -5.5519738921124817E-01 a       278     0    19     1     8
  1.9075833001019427E+00 a       279     0    19     1     9
 -3.2237631023346589E+00 a       280     0    19     1    10
 -8.4292927289420039E-01 a       281     0    19     1    11
  3.4545383158433336E+00 a       282     0    19     1    12
  3.3423660596170564E+00 a       283     0    19     1    13
  1.2175382158880983E+00 a       284     0    19     1    14
 -7.5488276967042389E-01 a       285     0    19     1    15
 -9.2396039373276795E-01 a       286     0    20     1     1
  4.9372668744557896E-01 a       287     0    20     1     2
  2.7297091145981361E-01 a       288     0    20     1     3
 -3.8790211378557832E-01 a       289     0    20     1     4
 -3.2217943639685537E-01 a       290     0    20     1     5
 -2.0376814454458417E-01 a       291     0    20     1     6
 -4.7750943150187700E-02 a       292     0    20     1     7
 -1.4240690761821284E-01 a       293     0    20     1     8
  2.5694367286959747E-02 a       294     0    20     1     9
  1.9851790533423999E-01 a       295     0    20     1    10
 -5.9807776225741971E-01 a       296     0    20     1    11
 -3.6006517708615893E-01 a       297     0    20     1    12
  5.1824658413280089E-01 a       298     0    20     1    13
 -1.0622198198524209E-01 a       299     0    20     1    14
  8.2344489548476774E-01 a       300     0    20     1    15
 -8.4309141728415665E-02 a       301     0    21     1     1
  2.8911965642953441E-01 a       302     0    21     1     2
  6.4960728202235463E-01 a       303     0    21     1     3
 -3.0116346194433374E-01 a       304     0    21     1     4
  2.3083433065136927E-01 a       305     0    21     1     5
 -2.8346871561292480E-01 a       306     0    21     1     6
 -4.9961408312182615E-01 a       307     0    21     1     7
  2.9119592318302379E-01 a       308     0    21     1     8
  7.7833161712914656E-01 a       309     0    21     1     9
 -7.8289108116197326E-01 a       310     0    21     1    10
  2.1114408983879895E-01 a       311     0    21     1    11
 -6.6593295858011159E-02 a       312     0    21     1    12
 -6.4917214207509580E-02 a       313     0    21     1    13
  5.3154438333212584E-01 a       314     0    21     1    14
  6.4453277694065758E-01 a       315     0    21     1    15
  8.8302107784004846E-01 a       316     0    22     1     1
  4.0982687749844937E-01 a       317     0    22     1     2
 -2.7208305063093112E+00 a       318     0    22     1     3
  1.6698019897974550E-01 a       319     0    22     1     4
 -5.6920902597575529E-01 a       320     0    22     1     5
  2.6555735124303146E+00 a       321     0    22     1     6
 -9.0552148160993340E-01 a       322     0    22     1     7
  1.5505154962603229E-01 a       323     0    22     1     8
  7.5363246497207681E-01 a       324     0    22     1     9
  2.5031544995754498E+00 a       325     0    22     1    10
  7.9758082757570326E-01 a       326     0    22     1    11
 -2.1273720738622068E+00 a       327     0    22     1    12
 -2.8776346403078246E+00 a       328     0    22     1    13
  5.7120023052772917E-01 a       329     0    22     1    14
  5.9586799769809762E-01 a       330     0    22     1    15
  2.5352716339095122E-01 a       331     0    23     1     1
  3.6590741126682380E-01 a       332     0    23     1     2
  5.7794706062614679E-02 a       333     0    23     1     3
  2.1508916098609127E-01 a       334     0    23     1     4
  6.3204361422949020E-03 a       335     0    23     1     5
 -7.1830019142247667E-02 a       336     0    23     1     6
 -2.8285755872832502E-01 a       337     0    23     1     7
 -1.1797232655376343E-01 a       338     0    23     1     8
  2.7332848891465605E-03 a       339     0    23     1     9
 -1.8646329657879315E-01 a       340     0    23     1    10
 -2.4838952998663395E-03 a       341     0    23     1    11
 -1.0591877855389691E-01 a       342     0    23     1    12
  1.1769496406221497E-01 a       343     0    23     1    13
  4.0612002111029127E-01 a       344     0    23     1    14
  2.0871661286588883E-01 a       345     0    23     1    15
  6.9731507156915151E-01 a       346     0    24     1     1
 -3.3044859491987838E-01 a       347     0    24     1     2
 -5.3618821576961839E-01 a       348     0    24     1     3
 -4.7034703346572062E-04 a       349     0    24     1     4
  1.0969483098739834E-03 a       350     0    24     1     5
 -2.3915849582573129E-03 a       351     0    24     1     6
 -4.2818640785077959E-02 a       352     0    24     1     7
  2.5009729963511934E-01 a       353     0    24     1     8
 -8.3689082294845035E-02 a       354     0    24     1     9
 -4.9966140911601320E-01 a       355     0    24     1    10
  9.8229294669131861E-01 a       356     0    24     1    11
  2.6616863899282400E-01 a       357     0    24     1    12
 -2.7497138943291993E-01 a       358     0    24     1    13
  2.9467673546161899E-01 a       359     0    24     1    14
 -4.4434312061147306E-02 a       360     0    24     1    15
  2.3229687764994673E+00 a       361     0    25     1     1
 -3.9920772347536670E-01 a       362     0    25     1     2
 -7.1350380517272716E-01 a       363     0    25     1     3
 -9.0346493564402963E-01 a       364     0    25     1     4
  1.6998222301270753E+00 a       365     0    25     1     5
 -3.0993978179874029E+00 a       366     0    25     1     6
  1.6253259865004643E+00 a       367     0    25     1     7
 -2.3601775233986426E-02 a       368     0    25     1     8
 -2.2725384170639491E+00 a       369     0    25     1     9
  7.0760716115480382E-01 a       370     0    25     1    10
  3.2845196143106720E-01 a       371     0    25     1    11
 -2.0777932763147100E+00 a       372     0    25     1    12
 -1.0340770978633644E+00 a       373     0    25     1    13
 -3.7887682638818854E-01 a       374     0    25     1    14
 -5.3524757108530896E-01 a       375     0    25     1    15
  6.2181229780877079E-01 a       376     0    26     1     1
  5.2450535179494606E-01 a       377     0    26     1     2
  1.0432770384823835E-01 a       378     0    26     1     3
  3.3454263620096819E-01 a       379     0    26     1     4
  4.3589998905430855E-01 a       380     0    26     1     5
  5.7139281817987397E-01 a       381     0    26     1     6
 -3.0938904438084641E-01 a       382     0    26     1     7
  1.7055068987478902E-01 a       383     0    26     1     8
  1.5025992463450721E-01 a       384     0    26     1     9
 -1.8465303726123453E-01 a       385     0    26     1    10
  4.3602171108884846E-01 a       386     0    26     1    11
  2.0631850448912448E-01 a       387     0    26     1    12
 -2.9774682387760409E-01 a       388     0    26     1    13
  4.9121509774937527E-01 a       389     0    26     1    14
 -7.5240234242499271E-01 a       390     0    26     1    15
 -2.0165354991018483E-01 a       391     0    27     1     1
  1.4108272975391480E+00 a       392     0    27     1     2
  4.2550505395105111E-02 a       393     0    27     1     3
 -2.0080424952734197E-02 a       394     0    27     1     4
  3.6836696611071079E-01 a       395     0    27     1     5
  6.1599782321334218E-01 a       396     0    27     1     6
 -7.0402525248349235E-01 a       397     0    27     1     7
 -1.3905200435954129E-01 a       398     0    27     1     8
  3.5272722465457290E-01 a       399     0    27     1     9
  8.3789650114665915E-01 a       400     0    27     1    10
 -2.8328558968707762E-01 a       401     0    27     1    11
 -8.3709012023976015E-02 a       402     0    27     1    12
 -1.1929060020984797E-01 a       403     0    27     1    13
 -4.1402251777345833E-01 a       404     0    27     1    14
 -8.0342508404035340E-01 a       405     0    27     1    15
 -1.5593631320535490E+00 a       406     0    28     1     1
  8.5055061735361481E-01 a       407     0    28     1     2
  1.4027349707137524E+00 a       408     0    28     1     3
 -1.1232323324950082E+00 a       409     0    28     1     4
 -3.9466995041283121E-01 a       410     0    28     1     5
 -1.5895412659772841E+00 a       411     0    28     1     6
  6.1770053874469355E-01 a       412     0    28     1     7
 -2.7886298203621124E-01 a       413     0    28     1     8
  8.7150710837833967E-01 a       414     0    28     1     9
 -1.1076834505931221E+00 a       415     0    28     1    10
 -4.3197797002493893E-01 a       416     0    28     1    11
  6.5978121626886210E-01 a       417     0    28     1    12
  9.4023541746011730E-01 a       418     0    28     1    13
 -1.9612580556438335E+00 a       419     0    28     1    14
 -1.0644329134177899E+00 a       420     0    28     1    15
  1.5984845096157815E-01 a       421     0    29     1     1
  1.2707724368228790E-01 a       422     0    29     1     2
 -3.0339405181652407E-01 a       423     0    29     1     3
 -1.7080832209922767E-01 a       424     0    29     1     4
 -3.8659946071883680E-02 a       425     0    29     1     5
 -7.1652999983600432E-02 a       426     0    29     1     6
 -2.3868762221580808E-01 a       427     0    29     1     7
 -4.5022129843694747E-01 a       428     0    29     1     8
  4.1357864959570712E-01 a       429     0    29     1     9
  3.6413626006112154E-01 a       430     0    29     1    10
  1.8293656510371237E-02 a       431     0    29     1    11
 -3.2975687555284972E-01 a       432     0    29     1    12
  8.6014102384827984E-01 a       433     0    29     1    13
  4.3185349135967799E-01 a       434     0    29     1    14
  2.6850217381774621E-01 a       435     0    29     1    15
 -1.3183569210576490E-01 a       436     0    30     1     1
  8.7881836440980288E-01 a       437     0    30     1     2
  2.2115041928121520E-01 a       438     0    30     1     3
  6.8985420043126389E-01 a       439     0    30     1     4
  1.3435084728811839E+00 a       440     0    30     1     5
 -4.9210880658887825E-02 a       441     0    30     1     6
 -7.8272293122176639E-01 a       442     0    30     1     7
 -2.9373755913364180E-01 a       443     0    30     1     8
  7.3892517489774623E-01 a       444     0    30     1     9
  4.3950071518956364E-02 a       445     0    30     1    10
 -1.2348999826959038E-01 a       446     0    30     1    11
 -1.7398139239460314E-01 a       447     0    30     1    12
  4.1699089616404128E-01 a       448     0    30     1    13
  1.6543943366360966E-01 a       449     0    30     1    14
 -7.4920671019056650E-01 a       450     0    30     1    15
  5.4449461463319526E-01 a       451     0    31     1     1
  2.2338594008354158E+00 a       452     0    31     1     2
  2.9478252237812193E+00 a       453     0    31     1     3
 -2.3768485216770223E+00 a       454     0    31     1     4
  1.1351372915281024E-01 a       455     0    31     1     5
  6.9450948846980354E-01 a       456     0    31     1     6
  4.0058158934003760E+00 a       457     0    31     1     7
  1.4613783469511407E-01 a       458     0    31     1     8
  2.0535355357970053E-01 a       459     0    31     1     9
  1.7648014291448448E+00 a       460     0    31     1    10
  2.2131860155521840E-01 a       461     0    31     1    11
 -5.2455640250327367E+00 a       462     0    31     1    12
 -2.9303550256571997E-01 a       463     0    31     1    13
 -1.7450036996550911E+00 a       464     0    31     1    14
 -1.5807806984378714E-01 a       465     0    31     1    15
  7.6248557147649310E-01 a       466     0    32     1     1
 -3.1047600637252071E-01 a       467     0    32     1     2
  7.8269559369425867E-02 a       468     0    32     1     3
  4.3853121426289710E-01 a       469     0    32     1     4
  9.2872621150269119E-02 a       470     0    32     1     5
  4.6261253603676877E-01 a       471     0    32     1     6
 -2.2319519960726597E-01 a       472     0    32     1     7
  3.8325762324867751E-01 a       473     0    32     1     8
 -5.2348124884833147E-02 a       474     0    32     1     9
 -6.0404358400589220E-02 a       475     0    32     1    10
  2.8686919853139875E-01 a       476     0    32     1    11
  2.2083130153242095E-01 a       477     0    32     1    12
 -7.8042042418421886E-01 a       478     0    32     1    13
 -2.8423964472528584E-01 a       479     0    32     1    14
  4.0412503386337778E-01 a       480     0    32     1    15
  3.5051587219916763E-01 a       481     0    33     1     1
 -3.4909001087065017E-01 a       482     0    33     1     2
 -3.7963578041383544E-01 a       483     0    33     1     3
  4.3809292059335309E-01 a       484     0    33     1     4
 -1.6802848110468838E+00 a       485     0    33     1     5
  1.3820781394346751E+00 a       486     0    33     1     6
  1.0572146314004232E+00 a       487     0    33     1     7
  6.9031036149947689E-01 a       488     0    33     1     8
 -1.3920821400871022E-01 a       489     0    33     1     9
  3.2151050961523781E-01 a       490     0    33     1    10
  9.2226369205088088E-01 a       491     0    33     1    11
 -3.0505066414092463E-01 a       492     0    33     1    12
 -4.7494327560245619E-01 a       493     0    33     1    13
  8.7640428420628125E-01 a       494     0    33     1    14
  8.2423429442465268E-01 a       495     0    33     1    15
 -4.6099343360416384E-01 a       496     0    34     1     1
  3.1243420372354489E+00 a       497     0    34     1     2
  1.1094318064974169E-01 a       498     0    34     1     3
  1.6812735744401162E+00 a       499     0    34     1     4
 -1.4180951164693760E+00 a       500     0    34     1     5
  2.0544832883786674E+00 a       501     0    34     1     6
 -2.4167155336294357E+00 a       502     0    34     1     7
  6.2023888039338604E-01 a       503     0    34     1     8
  4.6198968938590719E+00 a       504     0    34     1     9
 -7.3440421598427830E-01 a       505     0    34     1    10
  3.2397313344398815E-01 a       506     0    34     1    11
  1.4133201871980905E+00 a       507     0    34     1    12
 -7.7668082855306561E-02 a       508     0    34     1    13
  6.8495148541362283E-01 a       509     0    34     1    14
 -1.2624679305013151E+00 a       510     0    34     1    15
 -1.3678667238560877E-01 a       511     0    35     1     1
 -4.3601807608433041E-01 a       512     0    35     1     2
 -2.8727061199303903E-03 a       513     0    35     1     3
 -9.8433073728510456E-02 a       514     0    35     1     4
  2.5457046588213277E-02 a       515     0    35     1     5
  2.1187265179385981E-01 a       516     0    35     1     6
  2.3769944935839926E-01 a       517     0    35     1     7
  9.9771339860005775E-02 a       518     0    35     1     8
 -6.1265974300088698E-02 a       519     0    35     1     9
  2.7947527622420798E-01 a       520     0    35     1    10
  1.5628729460121213E-01 a       521     0    35     1    11
  1.4411518590766434E-01 a       522     0    35     1    12
 -1.9259672953728255E-01 a       523     0    35     1    13
 -3.9253262222079682E-01 a       524     0    35     1    14
  2.1079925163149858E-02 a       525     0    35     1    15
  1.1371200471635441E+00 a       526     0    36     1     1
  1.1371607813858780E+00 a       527     0    36     1     2
  3.9763506622892614E-01 a       528     0    36     1     3
  4.7426865640889319E-02 a       529     0    36     1     4
 -9.1205579809822490E-01 a       530     0    36     1     5
 -3.8576633177094000E-01 a       531     0    36     1     6
 -1.6616391635852418E-01 a       532     0    36     1     7
 -5.9241456351055277E-01 a       533     0    36     1     8
  5.5044394840985285E-03 a       534     0    36     1     9
  4.8701579822732838E-01 a       535     0    36     1    10
 -6.7374679527061154E-01 a       536     0    36     1    11
 -3.5584671206617324E-01 a       537     0    36     1    12
  7.0442370545620681E-01 a       538     0    36     1    13
  1.0698176169711249E-01 a       539     0    36     1    14
  4.0486940678868422E-01 a       540     0    36     1    15
  2.3505013465220603E-01 a       541     0    37     1     1
 -5.2349032673361862E-01 a       542     0    37     1     2
 -6.4712964496345463E-02 a       543     0    37     1     3
  8.6782255789683194E-01 a       544     0    37     1     4
 -8.9153634444968677E-01 a       545     0    37     1     5
  7.7234302832613778E-03 a       546     0    37     1     6
 -3.2945082147701243E+00 a       547     0    37     1     7
  6.0700737056424370E-01 a       548     0    37     1     8
  1.1668661855851734E+00 a       549     0    37     1     9
  4.5934787048509695E-01 a       550     0    37     1    10
 -2.4604828575583655E+00 a       551     0    37     1    11
  1.7580426374626206E+00 a       552     0    37     1    12
  2.6520743799353980E-01 a       553     0    37     1    13
  9.2848639355029494E-01 a       554     0    37     1    14
  1.7245889433675603E+00 a       555     0    37     1    15
 -3.4561968603315657E-01 a       556     0    38     1     1
 -9.7895991483354328E-01 a       557     0    38     1     2
 -7.8323292783592610E-02 a       558     0    38     1     3
 -3.4880410916307319E-01 a       559     0    38     1     4
 -3.9910352433384627E-01 a       560     0    38     1     5
 -6.9836730401247049E-01 a       561     0    38     1     6
  3.8510488639027213E-01 a       562     0    38     1     7
 -2.1190149607848582E-01 a       563     0    38     1     8
 -1.9848857293614786E-01 a       564     0    38     1     9
  1.3886967643610431E-02 a       565     0    38     1    10
 -2.6800782739566625E-01 a       566     0    38     1    11
 -1.1310198615917014E-01 a       567     0    38     1    12
  3.1124882806375814E-01 a       568     0    38     1    13
 -4.1776104146849602E-01 a       569     0    38     1    14
  4.6374300080783948E-01 a       570     0    38     1    15
 -3.4261981959692184E-01 a       571     0    39     1     1
 -1.8208783851877732E+00 a       572     0    39     1     2
  4.9835780295030124E-01 a       573     0    39     1     3
 -3.7330382601803103E-01 a       574     0    39     1     4
  3.0353222596050772E-01 a       575     0    39     1     5
 -3.1512794615760742E-01 a       576     0    39     1     6
  3.7499234334770754E-01 a       577     0    39     1     7
 -3.5623277667739157E-02 a       578     0    39     1     8
 -3.3302572852018208E-01 a       579     0    39     1     9
 -3.4505509667936168E-01 a       580     0    39     1    10
  1.1116022555518992E-01 a       581     0    39     1    11
  4.0613234835051099E-01 a       582     0    39     1    12
  1.4004231115432578E-01 a       583     0    39     1    13
 -6.9510020950654949E-01 a       584     0    39     1    14
  3.4845033733479003E-01 a       585     0    39     1    15
  7.3384106005949357E-01 a       586     0    40     1     1
 -1.6953348809221651E+00 a       587     0    40     1     2
  7.8541802861806731E-01 a       588     0    40     1     3
  4.9603499763921294E-01 a       589     0    40     1     4
  9.5380579782824448E-01 a       590     0    40     1     5
  6.1977325419803886E-01 a       591     0    40     1     6
 -9.0098899992996417E-02 a       592     0    40     1     7
  2.8259761168798886E-02 a       593     0    40     1     8
 -3.4241804825715865E+00 a       594     0    40     1     9
  4.7740737989930887E-01 a       595     0    40     1    10
  9.4532509245366225E-01 a       596     0    40     1    11
  9.7502328537074801E-01 a       597     0    40     1    12
 -3.4287812022264036E-01 a       598     0    40     1    13
  8.4728672628355306E-01 a       599     0    40     1    14
 -8.3126666979432640E-01 a       600     0    40     1    15
  2.7802150310004925E-01 a       601     0    41     1     1
  3.0131236549303109E-01 a       602     0    41     1     2
  1.9384493398881383E-01 a       603     0    41     1     3
  3.6901527411338197E-01 a       604     0    41     1     4
  4.7833430896465370E-02 a       605     0    41     1     5
  3.8264692038128062E-01 a       606     0    41     1     6
 -2.0695703105493554E-01 a       607     0    41     1     7
  9.0250611294904956E-02 a       608     0    41     1     8
 -2.4289198869373849E-01 a       609     0    41     1     9
 -5.1943587200054742E-01 a       610     0    41     1    10
 -1.5478104419979735E-01 a       611     0    41     1    11
  1.7677217754954519E-01 a       612     0    41     1    12
 -5.1878076880115009E-01 a       613     0    41     1    13
 -2.9971044497603100E-01 a       614     0    41     1    14
  4.7992383155094792E-01 a       615     0    41     1    15
 -1.3613315078660837E-01 a       616     0    42     1     1
 -5.5618268441478547E-01 a       617     0    42     1     2
  2.9536260076504395E-01 a       618     0    42     1     3
 -3.5469660977204476E-01 a       619     0    42     1     4
  2.8620406478703658E-01 a       620     0    42     1     5
  5.5654505752630579E-01 a       621     0    42     1     6
  4.2195802307681080E-01 a       622     0    42     1     7
  2.7755582668911483E-01 a       623     0    42     1     8
 -4.3833967644356425E-01 a       624     0    42     1     9
 -9.0559363906532897E-01 a       625     0    42     1    10
  2.2490405165163896E-01 a       626     0    42     1    11
  2.5825097254932150E-01 a       627     0    42     1    12
 -2.8928113575864761E-01 a       628     0    42     1    13
 -5.2439044171276261E-01 a       629     0    42     1    14
  1.2692384036503670E+00 a       630     0    42     1    15
  1.2785667417584110E+00 a       631     0    43     1     1
 -2.5024001440981323E+00 a       632     0    43     1     2
 -3.8816919346321582E-01 a       633     0    43     1     3
 -6.1578765219079312E-01 a       634     0    43     1     4
 -9.3227747155481738E-02 a       635     0    43     1     5
 -2.9731447876761918E+00 a       636     0    43     1     6
 -4.7929869878301268E-01 a       637     0    43     1     7
  1.4750655232373513E+00 a       638     0    43     1     8
  8.2662799708854304E-02 a       639     0    43     1     9
 -1.2178760606791152E+00 a       640     0    43     1    10
  1.8870126854499485E+00 a       641     0    43     1    11
  3.0751115285141593E+00 a       642     0    43     1    12
 -6.4467228140047128E-02 a       643     0    43     1    13
 -8.5767398894318725E-02 a       644     0    43     1    14
  1.2650975653874672E+00 a       645     0    43     1    15
 -5.2604573427195600E-01 a       646     0    44     1     1
 -3.0776121842031456E-01 a       647     0    44     1     2
 -1.9053163481858770E-01 a       648     0    44     1     3
 -5.0013972093755177E-01 a       649     0    44     1     4
 -6.4576721901821998E-01 a       650     0    44     1     5
 -1.1715539578798463E-02 a       651     0    44     1     6
  6.8718760564888937E-01 a       652     0    44     1     7
  5.8700667607667602E-02 a       653     0    44     1     8
 -1.2395028504952993E-01 a       654     0    44     1     9
  3.6717586596542645E-01 a       655     0    44     1    10
  4.9808640062573728E-01 a       656     0    44     1    11
 -4.4931171259990930E-02 a       657     0    44     1    12
  2.8514195762234373E-01 a       658     0    44     1    13
 -1.7380710248015921E-01 a       659     0    44     1    14
 -7.5038584576757006E-01 a       660     0    44     1    15
 -1.7629922228647366E-01 a       661     0    45     1     1
 -7.3795863272530099E-02 a       662     0    45     1     2
  4.1383286324877644E-01 a       663     0    45     1     3
 -3.8085300001317840E-01 a       664     0    45     1     4
  2.7336420290788238E-01 a       665     0    45     1     5
 -1.1605367343560145E-01 a       666     0    45     1     6
 -4.5548634353704470E-01 a       667     0    45     1     7
  4.0533011182284318E-01 a       668     0    45     1     8
  1.3073675724932318E-01 a       669     0    45     1     9
  2.9116719627598237E-02 a       670     0    45     1    10
 -2.4275276912518673E-01 a       671     0    45     1    11
 -1.5819424377065036E-01 a       672     0    45     1    12
  2.5022968233614547E-02 a       673     0    45     1    13
 -2.0637720618392714E-02 a       674     0    45     1    14
 -3.7464477534579504E-01 a       675     0    45     1    15
  1.2512491429775954E+00 a       676     0    46     1     1
 -2.4847435349456774E-03 a       677     0    46     1     2
 -6.9611699358982204E-02 a       678     0    46     1     3
  5.4611997634528786E-01 a       679     0    46     1     4
  1.1551043335266200E+00 a       680     0    46     1     5
  2.1732922113645450E+00 a       681     0    46     1     6
  1.1505702830892892E+00 a       682     0    46     1     7
 -5.7381884447317844E-01 a       683     0    46     1     8
 -2.0424427650701218E+00 a       684     0    46     1     9
 -6.9152393467562012E-01 a       685     0    46     1    10
  1.4394152885664431E+00 a       686     0    46     1    11
 -4.0530288703265760E-01 a       687     0    46     1    12
 -1.9074479905886874E-01 a       688     0    46     1    13
 -7.5956728799134926E-02 a       689     0    46     1    14
  1.1499243255210716E-01 a       690     0    46     1    15
 -2.2311325575666952E-01 a       691     0    47     1     1
  2.7532813037183218E-01 a       692     0    47     1     2
  7.1933646948769761E-02 a       693     0    47     1     3
 -1.0994820839724991E-01 a       694     0    47     1     4
 -1.8591803525285747E-01 a       695     0    47     1     5
 -2.9191535072482167E-01 a       696     0    47     1     6
  1.8502779013442598E-02 a       697     0    47     1     7
  1.1246358359828150E-01 a       698     0    47     1     8
 -7.9192729427007072E-03 a       699     0    47     1     9
 -2.0617828790553089E-01 a       700     0    47     1    10
 -3.5027523527057992E-04 a       701     0    47     1    11
 -7.4460374482474445E-02 a       702     0    47     1    12
  1.6271757141864973E-01 a       703     0    47     1    13
  1.9151252607741356E-01 a       704     0    47     1    14
 -2.1825332406489170E-01 a       705     0    47     1    15
  2.9805271740342393E-01 a       706     0    48     1     1
 -4.3520572475616048E-01 a       707     0    48     1     2
 -3.5185906248277360E-01 a       708     0    48     1     3
 -1.7172903574714852E-02 a       709     0    48     1     4
  9.6877838713309558E-02 a       710     0    48     1     5
 -8.2358772399510227E-02 a       711     0    48     1     6
 -1.4235794579499261E-01 a       712     0    48     1     7
  1.4549156254982279E-01 a       713     0    48     1     8
  1.0316003859751267E-01 a       714     0    48     1     9
  4.1569852952840258E-01 a       715     0    48     1    10
 -6.3869850996285296E-02 a       716     0    48     1    11
  1.6343559711710686E-03 a       717     0    48     1    12
  5.5834896195129269E-02 a       718     0    48     1    13
  4.0988714393688688E-02 a       719     0    48     1    14
 -1.1758350810414783E-01 a       720     0    48     1    15
 -1.4798430240238500E-01 a       721     0    49     1     1
  2.9418977941986413E-01 a       722     0    49     1     2
 -6.4927313778204909E-01 a       723     0    49     1     3
  1.8121852287867370E-02 a       724     0    49     1     4
 -7.5101628937595122E-01 a       725     0    49     1     5
  9.9207343750777433E-01 a       726     0    49     1     6
  7.5214454065942904E-01 a       727     0    49     1     7
 -7.6975572524445890E-01 a       728     0    49     1     8
 -1.9592159153928981E-01 a       729     0    49     1     9
  2.8646396798733487E-01 a       730     0    49     1    10
  3.6103280246015107E-01 a       731     0    49     1    11
 -1.4163089265738624E+00 a       732     0    49     1    12
  3.4187936663700597E-01 a       733     0    49     1    13
  5.6272233559416927E-02 a       734     0    49     1    14
 -9.4803624330861272E-02 a       735     0    49     1    15
  6.2254353972015390E-02 a       736     0    50     1     1
  4.9065415099180354E-01 a       737     0    50     1     2
  3.9732760903433827E-02 a       738     0    50     1     3
  2.3333236660496839E-01 a       739     0    50     1     4
  4.4522376085499493E-01 a       740     0    50     1     5
  4.7872049356949908E-01 a       741     0    50     1     6
 -2.8206164011618073E-01 a       742     0    50     1     7
  5.4137268679161361E-02 a       743     0    50     1     8
  6.6225825670186395E-02 a       744     0    50     1     9
 -5.8852938333712065E-02 a       745     0    50     1    10
 -5.6683917021003644E-02 a       746     0    50     1    11
  8.7440965350389019E-02 a       747     0    50     1    12
 -8.7122132525065885E-02 a       748     0    50     1    13
  4.7660777741152560E-01 a       749     0    50     1    14
 -2.1526373053298900E-01 a       750     0    50     1    15
  5.7625768626809459E-01 a       751     0    51     1     1
  8.9275479700640958E-01 a       752     0    51     1     2
 -2.3691866265945613E-01 a       753     0    51     1     3
  2.4359809411051858E-01 a       754     0    51     1     4
  6.7868459330389749E-02 a       755     0    51     1     5
 -1.3541358736215792E-01 a       756     0    51     1     6
 -2.1589013740554077E-03 a       757     0    51     1     7
 -2.1621607740361184E-01 a       758     0    51     1     8
 -1.7774808529948483E-01 a       759     0    51     1     9
  7.7188266178527712E-02 a       760     0    51     1    10
  9.7540983102114408E-03 a       761     0    51     1    11
  9.9196559549666177E-02 a       762     0    51     1    12
  1.4161699507228309E-01 a       763     0    51     1    13
  2.4291175020528913E-01 a       764     0    51     1    14
 -1.9313903323816733E-01 a       765     0    51     1    15
  2.4548217438314004E+00 a       766     0    52     1     1
  1.6223747559946053E+00 a       767     0    52     1     2
  1.2364907241315962E-01 a       768     0    52     1     3
 -5.0497554086967333E-01 a       769     0    52     1     4
  1.8458343813071282E-01 a       770     0    52     1     5
 -5.0257966043684643E-01 a       771     0    52     1     6
 -1.2134531439306950E+00 a       772     0    52     1     7
  2.1120012659530848E-01 a       773     0    52     1     8
  1.3206432545511926E+00 a       774     0    52     1     9
  5.6917988595883773E-01 a       775     0    52     1    10
 -2.9173688825915187E+00 a       776     0    52     1    11
 -9.7775303041002681E-01 a       777     0    52     1    12
  9.3536382035375482E-02 a       778     0    52     1    13
 -1.1455785580235131E-01 a       779     0    52     1    14
  6.7507363994748293E-01 a       780     0    52     1    15
 -1.0963745069674957E-01 a       781     0    53     1     1
 -1.9973216264030394E-01 a       782     0    53     1     2
 -3.8394550937450797E-02 a       783     0    53     1     3
 -1.6462890916456918E-01 a       784     0    53     1     4
 -9.4880696827682187E-02 a       785     0    53     1     5
  1.1090519947458575E-02 a       786     0    53     1     6
  9.7948171268589040E-02 a       787     0    53     1     7
 -4.4404722621404638E-03 a       788     0    53     1     8
  5.7959312386955217E-02 a       789     0    53     1     9
  2.4034251820250480E-01 a       790     0    53     1    10
  8.1163360646101732E-02 a       791     0    53     1    11
 -5.5106697125237435E-02 a       792     0    53     1    12
  4.8686088825081235E-02 a       793     0    53     1    13
  2.3008335081675835E-01 a       794     0    53     1    14
 -1.1910930291299747E-01 a       795     0    53     1    15
  6.0048799884335669E-01 a       796     0    54     1     1
  2.0206080690758596E-01 a       797     0    54     1     2
 -2.4593591288405808E-02 a       798     0    54     1     3
  9.9743697979466958E-02 a       799     0    54     1     4
 -3.2793381341347111E-01 a       800     0    54     1     5
  1.5758985708237298E-02 a       801     0    54     1     6
 -1.8241553204669392E-01 a       802     0    54     1     7
 -5.6304275822965266E-02 a       803     0    54     1     8
  1.3829262032083517E-01 a       804     0    54     1     9
  9.5804196614295484E-02 a       805     0    54     1    10
 -1.2173581810031621E-02 a       806     0    54     1    11
 -8.1253684601558587E-02 a       807     0    54     1    12
  1.3499122705970645E-01 a       808     0    54     1    13
  2.3930201153299732E-01 a       809     0    54     1    14
 -2.3812763393895428E-01 a       810     0    54     1    15
  1.1560268649659229E+00 a       811     0    55     1     1
 -2.4839775619102733E+00 a       812     0    55     1     2
 -1.6514725050605020E-01 a       813     0    55     1     3
  3.0526574321247579E-01 a       814     0    55     1     4
 -3.5436772728408832E-02 a       815     0    55     1     5
  5.8308125828604063E-01 a       816     0    55     1     6
  6.5256522932695515E-01 a       817     0    55     1     7
 -4.2198658518495208E-01 a       818     0    55     1     8
 -5.8622920150377143E-02 a       819     0    55     1     9
 -2.1240059562870467E-01 a       820     0    55     1    10
 -2.8878444028801414E-01 a       821     0    55     1    11
  3.3437992420300827E-01 a       822     0    55     1    12
  6.1265778541147349E-02 a       823     0    55     1    13
  2.7759148377058857E-01 a       824     0    55     1    14
  3.7046983372215306E-02 a       825     0    55     1    15
  7.0019491608256962E-02 a       826     0    56     1     1
  3.0550838919594842E-01 a       827     0    56     1     2
  1.1184421384100551E-01 a       828     0    56     1     3
  1.5562895906196972E-01 a       829     0    56     1     4
  3.3175305082426054E-01 a       830     0    56     1     5
 -1.8796652413250362E-01 a       831     0    56     1     6
 -2.6129508449749639E-01 a       832     0    56     1     7
  4.3142179830151110E-02 a       833     0    56     1     8
  3.7422020454614589E-02 a       834     0    56     1     9
 -2.0328156073567874E-01 a       835     0    56     1    10
 -1.6862410148664211E-01 a       836     0    56     1    11
 -1.7517398376764255E-02 a       837     0    56     1    12
 -7.2761970236990652E-03 a       838     0    56     1    13
 -4.1468836437545210E-02 a       839     0    56     1    14
  6.6762819291924388E-02 a       840     0    56     1    15
 -1.4139511097058299E-01 a       841     0    57     1     1
  2.7676385756978006E-01 a       842     0    57     1     2
 -5.1030412547532190E-02 a       843     0    57     1     3
 -3.6448910557378153E-03 a       844     0    57     1     4
  6.7701616049185148E-02 a       845     0    57     1     5
 -4.9040052915635769E-02 a       846     0    57     1     6
 -2.7906567985906218E-02 a       847     0    57     1     7
 -5.9589099630057554E-02 a       848     0    57     1     8
 -1.1733897653954521E-02 a       849     0    57     1     9
 -1.8009749175291648E-01 a       850     0    57     1    10
 -5.6685412502004810E-02 a       851     0    57     1    11
 -3.3830943495435126E-02 a       852     0    57     1    12
 -4.0619509893359905E-02 a       853     0    57     1    13
  9.1934420247610695E-03 a       854     0    57     1    14
 -1.4731222744497857E-01 a       855     0    57     1    15
 -1.3513548578625745E+00 a       856     0    58     1     1
  2.2169539162569980E+00 a       857     0    58     1     2
  2.0897341460491836E-01 a       858     0    58     1     3
 -3.4848099650632908E-01 a       859     0    58     1     4
 -1.2446797511925559E-01 a       860     0    58     1     5
 -3.9112897203721197E-01 a       861     0    58     1     6
 -5.4991743355150391E-01 a       862     0    58     1     7
  1.6769733855195840E-01 a       863     0    58     1     8
 -4.6665390473627014E-02 a       864     0    58     1     9
  6.2692372100578964E-01 a       865     0    58     1    10
 -1.6678474867205811E-01 a       866     0    58     1    11
 -1.5168386131549585E+00 a       867     0    58     1    12
 -1.2475256776104329E-01 a       868     0    58     1    13
 -1.6165440803087813E-01 a       869     0    58     1    14
  6.1215328342532493E-01 a       870     0    58     1    15
  3.6753697004469836E-02 a       871     0    59     1     1
 -1.3797493739060279E-01 a       872     0    59     1     2
 -6.8854543867804693E-02 a       873     0    59     1     3
  5.3047209106416714E-02 a       874     0    59     1     4
  8.2018872652644792E-02 a       875     0    59     1     5
  1.3673742173616826E-01 a       876     0    59     1     6
 -4.0621863181411852E-02 a       877     0    59     1     7
 -7.9927721807494065E-02 a       878     0    59     1     8
  2.0752151203940739E-02 a       879     0    59     1     9
  9.5887567019154935E-02 a       880     0    59     1    10
 -4.5658993923598609E-02 a       881     0    59     1    11
  2.4799788176143197E-02 a       882     0    59     1    12
 -2.9385112266653184E-02 a       883     0    59     1    13
 -6.4183981499107493E-02 a       884     0    59     1    14
  5.9687070609297732E-02 a       885     0    59     1    15
 -3.3896863866772114E-01 a       886     0    60     1     1
  1.2316692685788218E-02 a       887     0    60     1     2
  1.1469021477106296E-01 a       888     0    60     1     3
 -4.8166897655502507E-02 a       889     0    60     1     4
  2.1293645402654013E-01 a       890     0    60     1     5
 -4.4305616390170270E-02 a       891     0    60     1     6
  9.1190194061015986E-02 a       892     0    60     1     7
  2.2973044064279090E-02 a       893     0    60     1     8
 -4.8231385743412167E-02 a       894     0    60     1     9
 -1.4071523935026498E-01 a       895     0    60     1    10
  2.2598373472982033E-02 a       896     0    60     1    11
  1.8743777349934619E-02 a       897     0    60     1    12
 -9.9147283714639906E-02 a       898     0    60     1    13
 -6.3583997554227639E-02 a       899     0    60     1    14
  1.6347898025409733E-02 a       900     0    60     1    15
 -4.4250379307328042E-01 a       901     0    61     1     1
  1.1344924920985633E+00 a       902     0    61     1     2
  1.2764442844346299E-01 a       903     0    61     1     3
 -9.9620414709407495E-02 a       904     0    61     1     4
  2.4815289513412844E-02 a       905     0    61     1     5
 -1.8224431811531655E-01 a       906     0    61     1     6
 -3.8257997340677735E-01 a       907     0    61     1     7
  1.9068427930983212E-01 a       908     0    61     1     8
 -6.4339484678992864E-02 a       909     0    61     1     9
  1.4669246565854860E-01 a       910     0    61     1    10
 -1.0213090809692990E-01 a       911     0    61     1    11
  2.7786438708524008E-01 a       912     0    61     1    12
 -4.8175581277733810E-02 a       913     0    61     1    13
 -6.2439810662916935E-02 a       914     0    61     1    14
 -2.3543962260425305E-01 a       915     0    61     1    15
  1.7737822838466655E-01 a       916     0    62     1     1
 -1.5754264434353157E-01 a       917     0    62     1     2
 -2.6543007103530122E-02 a       918     0    62     1     3
 -4.8377404691599360E-02 a       919     0    62     1     4
 -1.5747122934724656E-01 a       920     0    62     1     5
 -3.6122078416099983E-02 a       921     0    62     1     6
  7.2630365734472652E-02 a       922     0    62     1     7
 -5.8706410696175444E-02 a       923     0    62     1     8
 -2.5115487648158106E-02 a       924     0    62     1     9
  4.9617867401622454E-02 a       925     0    62     1    10
 -5.3041550590203091E-03 a       926     0    62     1    11
 -2.4116417460419332E-02 a       927     0    62     1    12
 -9.2670278376738528E-03 a       928     0    62     1    13
 -8.3450589226114022E-02 a       929     0    62     1    14
  1.5708694905898268E-01 a       930     0    62     1    15
 -1.1310567079896939E-02 a       931     0    63     1     1
 -1.3122544319752621E-01 a       932     0    63     1     2
  3.3674524972025811E-02 a       933     0    63     1     3
  7.0316757730164454E-03 a       934     0    63     1     4
 -7.5596191551009620E-02 a       935     0    63     1     5
  9.5089305361431661E-02 a       936     0    63     1     6
 -1.2887065419757312E-02 a       937     0    63     1     7
  3.3490331315341029E-02 a       938     0    63     1     8
  2.7521086230354798E-02 a       939     0    63     1     9
  2.9263259783481651E-02 a       940     0    63     1    10
  5.3858533342515572E-02 a       941     0    63     1    11
  2.1664653850034063E-02 a       942     0    63     1    12
 -2.1387164563528967E-02 a       943     0    63     1    13
 -3.8243425204902967E-02 a       944     0    63     1    14
  1.7653201581224470E-01 a       945     0    63     1    15
 -1.6725643722919548E+00 a       946     0    64     1     1
 -6.8917178386871214E-01 a       947     0    64     1     2
 -1.4861511531676441E-01 a       948     0    64     1     3
  2.2203081494652233E-01 a       949     0    64     1     4
 -2.2692732104932437E-01 a       950     0    64     1     5
 -2.6457350900104071E-01 a       951     0    64     1     6
  1.8683056743430737E-01 a       952     0    64     1     7
 -1.2436141223100641E-01 a       953     0    64     1     8
  7.3911362505753489E-02 a       954     0    64     1     9
 -3.7073905519129935E-01 a       955     0    64     1    10
  3.7418681456428787E-01 a       956     0    64     1    11
  1.1998532745999864E+00 a       957     0    64     1    12
  9.7297983530247670E-02 a       958     0    64     1    13
  1.2897937239031856E-01 a       959     0    64     1    14
 -1.6132853178509967E+00 a       960     0    64     1    15
  5.7705220557913528E-01 b       961     1     1
  1.8331325103991827E-01 b       962     1     2
 -7.8853886982366250E-01 b       963     1     3
  6.6160743160267199E-01 b       964     1     4
  3.1530794869121720E-01 b       965     1     5
  6.9950750974218682E-03 b       966     1     6
  6.2577645459776199E-01 b       967     1     7
 -1.7293524224326277E-03 b       968     1     8
 -2.8951949634777990E-01 b       969     1     9
  2.6287899512207330E-01 b       970     1    10
 -4.4557726866622271E-01 b       971     1    11
 -4.8001890821370234E-02 b       972     1    12
  4.5857751415111664E-01 b       973     1    13
  2.7584091689111068E-01 b       974     1    14
 -6.6894617784452226E-01 b       975     1    15
  2.5487534985768212E-01 a       976     1     1     2     1
  1.0767425136350341E-01 a       977     1     1     2     2
 -5.0652903142820693E-01 a       978     1     1     2     3
 -3.1783930295725744E-02 a       979     1     1     2     4
  1.9339503293274374E-01 a       980     1     1     2     5
 -2.5496575247058484E-01 a       981     1     1     2     6
 -4.5882650085436644E-01 a       982     1     1     2     7
 -1.4463450651961046E-01 a       983     1     1     2     8
 -9.7657904028292519E-01 a       984     1     1     2     9
  5.9145660346977202E-01 a       985     1     1     2    10
  8.4421413925680344E-01 a       986     1     1     2    11
 -2.9165997139026500E-01 a       987     1     1     2    12
  1.1177673276001766E-01 a       988     1     1     2    13
  5.6792214700666388E-01 a       989     1     1     2    14
  1.5669578519973448E-01 a       990     1     1     2    15
 -2.5231873610906747E-01 a       991     1     2     2     1
  1.1958467443557118E-01 a       992     1     2     2     2
  9.3822325054132483E-01 a       993     1     2     2     3
  1.0083100267710381E-01 a       994     1     2     2     4
 -4.4614635983429440E-01 a       995     1     2     2     5
  8.8700439132511244E-01 a       996     1     2     2     6
  7.1941069483680775E-01 a       997     1     2     2     7
 -1.0853974295461376E-01 a       998     1     2     2     8
 -2.1662820866062058E-02 a       999     1     2     2     9
  3.0637312779255971E-01 a      1000     1     2     2    10
  9.3322762055578334E-01 a      1001     1     2     2    11
 -5.5363343332744452E-02 a      1002     1     2     2    12
 -3.9238816760756412E-01 a      1003     1     2     2    13
 -7.3494667045795825E-01 a      1004     1     2     2    14
  2.3631964975231803E-01 a      1005     1     2     2    15
  4.5396842160206813E-02 a      1006     1     3     2     1
 -8.3168364143804785E-01 a      1007     1     3     2     2
 -1.1264267259729857E+00 a      1008     1     3     2     3
 -8.7315050849499615E-02 a      1009     1     3     2     4
  6.5628761045253647E-01 a      1010     1     3     2     5
  1.2036933705362702E+00 a      1011     1     3     2     6
  1.0359812556752281E+00 a      1012     1     3     2     7
 -1.1211280466915126E+00 a      1013     1     3     2     8
  7.0570114332081679E-01 a      1014     1     3     2     9
  3.2897756883085361E-01 a      1015     1     3     2    10
 -4.8334877213157812E-01 a      1016     1     3     2    11
 -7.7466871626123124E-01 a      1017     1     3     2    12
  9.0809600731938445E-01 a      1018     1     3     2    13
 -4.1007328825886230E-01 a      1019     1     3     2    14
  4.9624713749034827E-01 a      1020     1     3     2    15
  1.3224383307135921E+00 a      1021     1     4     2     1
  5.2836518867170201E-01 a      1022     1     4     2     2
 -2.1607058538712081E+00 a      1023     1     4     2     3
  1.4294960706088309E+00 a      1024     1     4     2     4
  1.9464861564279159E+00 a      1025     1     4     2     5
  1.0303311953304291E+00 a      1026     1     4     2     6
 -5.8814196692979737E-01 a      1027     1     4     2     7
 -1.0606341108560311E+00 a      1028     1     4     2     8
 -7.7536630759195579E-01 a      1029     1     4     2     9
 -1.4471221857851502E+00 a      1030     1     4     2    10
 -1.9646128702376148E-01 a      1031     1     4     2    11
  7.5094311983844619E-01 a      1032     1     4     2    12
  8.8691525653807024E-01 a      1033     1     4     2    13
  1.5830814899424563E+00 a      1034     1     4     2    14
 -2.5648610080545869E-01 a      1035     1     4     2    15
  6.8804978934862801E-02 a      1036     1     5     2     1
  1.7765478800220660E-01 a      1037     1     5     2     2
 -1.5514578745427241E+00 a      1038     1     5     2     3
 -2.2763667011214850E-01 a      1039     1     5     2     4
 -7.1730661862750333E-01 a      1040     1     5     2     5
  2.0149426545872318E-01 a      1041     1     5     2     6
 -3.9730990035584342E-02 a      1042     1     5     2     7
  8.5023067184394918E-01 a      1043     1     5     2     8
 -9.1371663189292796E-01 a      1044     1     5     2     9
  9.0137014566822882E-01 a      1045     1     5     2    10
  1.6814334877466017E+00 a      1046     1     5     2    11
  5.0736453672146276E-01 a      1047     1     5     2    12
 -1.1620429527968965E+00 a      1048     1     5     2    13
 -1.3371797902160151E-01 a      1049     1     5     2    14
 -4.3661792485679189E-02 a      1050     1     5     2    15
  4.2369556596016926E-02 a      1051     1     6     2     1
  1.2490693483515041E+00 a      1052     1     6     2     2
  5.5466253731632587E-01 a      1053     1     6     2     3
 -2.2677666885676800E-01 a      1054     1     6     2     4
  1.4171597650278703E-01 a      1055     1     6     2     5
 -2.1536026944444148E-01 a      1056     1     6     2     6
 -1.7946205775271553E+00 a      1057     1     6     2     7
 -1.2607286259954242E-01 a      1058     1     6     2     8
 -8.4871730354720024E-02 a      1059     1     6     2     9
  5.5378676055384035E-01 a      1060     1     6     2    10
  1.5742575098725711E-01 a      1061     1     6     2    11
 -5.9837218052233143E-01 a      1062     1     6     2    12
 -8.8520958650351689E-01 a      1063     1     6     2    13
  9.8607614673619781E-01 a      1064     1     6     2    14
  5.3152403067554699E-01 a      1065     1     6     2    15
 -5.2740227986834931E-01 a      1066     1     7     2     1
  1.0856031258042764E+00 a      1067     1     7     2     2
  1.6182376924369635E+00 a      1068     1     7     2     3
  5.7439762716059245E-02 a      1069     1     7     2     4
 -1.2830562806853407E+00 a      1070     1     7     2     5
  6.3901608520531294E-01 a      1071     1     7     2     6
 -1.2751520598300818E+00 a      1072     1     7     2     7
  6.1908705616144488E-01 a      1073     1     7     2     8
 -5.1504965207778342E-01 a      1074     1     7     2     9
 -4.9370505154549305E-01 a      1075     1     7     2    10
  1.2728384956837151E+00 a      1076     1     7     2    11
 -7.6332479480470681E-03 a      1077     1     7     2    12
 -3.4834270243782023E-01 a      1078     1     7     2    13
  4.2434026792222651E-01 a      1079     1     7     2    14
  1.1619296180033496E-01 a      1080     1     7     2    15
  4.2754634972412964E-01 a      1081     1     8     2     1
  1.2335234412820351E+00 a      1082     1     8     2     2
 -1.2848085623840082E+00 a      1083     1     8     2     3
 -8.4592083532120440E-03 a      1084     1     8     2     4
  1.3296946251462668E-04 a      1085     1     8     2     5
 -7.7677759541821179E-01 a      1086     1     8     2     6
  6.7278961850381136E-01 a      1087     1     8     2     7
  5.7891637055893552E-01 a      1088     1     8     2     8
 -2.8164322826144148E+00 a      1089     1     8     2     9
 -6.4909462307871435E-01 a      1090     1     8     2    10
 -9.3083491939086116E-01 a      1091     1     8     2    11
  3.8657787047076869E-01 a      1092     1     8     2    12
 -8.9640462616551342E-01 a      1093     1     8     2    13
 -7.1894622512335771E-01 a      1094     1     8     2    14
 -6.7258987413976068E-01 a      1095     1     8     2    15
 -1.6348000122437764E-01 a      1096     1     9     2     1
 -7.4487684118964392E-01 a      1097     1     9     2     2
 -6.4054926311524940E-01 a      1098     1     9     2     3
 -5.0937202255817948E-01 a      1099     1     9     2     4
 -1.3357556718465962E+00 a      1100     1     9     2     5
  5.6951505181413409E-01 a      1101     1     9     2     6
  5.7615153057151547E-01 a      1102     1     9     2     7
 -1.8317346657539244E-01 a      1103     1     9     2     8
 -1.4222636888554863E+00 a      1104     1     9     2     9
 -9.9774267500696912E-01 a      1105     1     9     2    10
  1.3434136800108023E+00 a      1106     1     9     2    11
 -1.6426935362635234E-01 a      1107     1     9     2    12
  7.5123405461132686E-01 a      1108     1     9     2    13
 -5.8108484930200477E-01 a      1109     1     9     2    14
  3.7186590933245578E-01 a      1110     1     9     2    15
 -2.6982530810435063E-01 a      1111     1    10     2     1
  1.6853260899267003E-01 a      1112     1    10     2     2
 -1.3945621443774606E-01 a      1113     1    10     2     3
  3.8019549852493933E-01 a      1114     1    10     2     4
  9.2834214965319539E-01 a      1115     1    10     2     5
  5.5035911611495258E-01 a      1116     1    10     2     6
  9.9422059759298975E-01 a      1117     1    10     2     7
  7.4663723136824989E-01 a      1118     1    10     2     8
 -6.8381702819372314E-01 a      1119     1    10     2     9
  4.8278072149520838E-03 a      1120     1    10     2    10
  1.1233933809009541E-01 a      1121     1    10     2    11
  2.9322385859424960E-01 a      1122     1    10     2    12
  2.6514602534760989E-01 a      1123     1    10     2    13
 -6.4591062512648911E-01 a      1124     1    10     2    14
 -1.0675448236807741E+00 a      1125     1    10     2    15
  3.6744840659601881E-02 a      1126     1    11     2     1
 -4.2638380817881599E-01 a      1127     1    11     2     2
 -6.9679744076704242E-01 a      1128     1    11     2     3
 -2.7024745623148266E-01 a      1129     1    11     2     4
  6.2337099661007334E-01 a      1130     1    11     2     5
 -9.9035168243930982E-01 a      1131     1    11     2     6
 -3.2897022515646418E-01 a      1132     1    11     2     7
  3.8773538381627404E-01 a      1133     1    11     2     8
  2.9258857986262743E-01 a      1134     1    11     2     9
  1.9140431433929106E-01 a      1135     1    11     2    10
 -1.4546709929062476E+00 a      1136     1    11     2    11
  3.1171950937080045E-01 a      1137     1    11     2    12
 -4.6742964583451074E-01 a      1138     1    11     2    13
  2.5119840485574840E-01 a      1139     1    11     2    14
 -4.4735711445643211E-01 a      1140     1    11     2    15
 -4.4812117267156221E-01 a      1141     1    12     2     1
 -1.1052613998398311E+00 a      1142     1    12     2     2
  1.1771213923672896E+00 a      1143     1    12     2     3
 -7.5214889333349122E-01 a      1144     1    12     2     4
  5.2662507906538947E-01 a      1145     1    12     2     5
  1.8027682685823314E+00 a      1146     1    12     2     6
  1.6880868225463116E-01 a      1147     1    12     2     7
  3.7516448592680185E-01 a      1148     1    12     2     8
 -1.9030052667457992E-01 a      1149     1    12     2     9
  7.4690077147229184E-01 a      1150     1    12     2    10
 -6.6552842466350959E-01 a      1151     1    12     2    11
 -1.1011059466406237E+00 a      1152     1    12     2    12
  6.4188374209194410E-01 a      1153     1    12     2    13
 -7.3607178143853111E-03 a      1154     1    12     2    14
 -4.0567659692175656E-01 a      1155     1    12     2    15
  9.7668632072725536E-01 a      1156     1    13     2     1
 -4.9981283977177754E-01 a      1157     1    13     2     2
  1.2130366479311736E+00 a      1158     1    13     2     3
 -1.5669899132354370E-01 a      1159     1    13     2     4
 -5.9325721467687498E-01 a      1160     1    13     2     5
 -2.1748623093052490E+00 a      1161     1    13     2     6
 -8.3342204197177716E-01 a      1162     1    13     2     7
 -7.7387677727620729E-01 a      1163     1    13     2     8
  5.1296876026034754E-01 a      1164     1    13     2     9
 -1.6806221000327093E+00 a      1165     1    13     2    10
 -2.1787981365966518E+00 a      1166     1    13     2    11
  4.1081337011516306E-01 a      1167     1    13     2    12
  4.4125746850418246E-01 a      1168     1    13     2    13
  8.5882834874707270E-01 a      1169     1    13     2    14
  5.3013929198061926E-01 a      1170     1    13     2    15
 -8.3714647552821131E-01 a      1171     1    14     2     1
 -5.8722054188866402E-01 a      1172     1    14     2     2
  1.8249485069197917E+00 a      1173     1    14     2     3
 -1.5385681292014358E-01 a      1174     1    14     2     4
  4.6969629916836486E-01 a      1175     1    14     2     5
  6.6472082895032095E-03 a      1176     1    14     2     6
  6.5310088695094015E-01 a      1177     1    14     2     7
  7.1354628021523403E-01 a      1178     1    14     2     8
 -7.3150622851734981E-01 a      1179     1    14     2     9
  4.7636158112965415E-01 a      1180     1    14     2    10
 -2.4741514455176433E-01 a      1181     1    14     2    11
  1.7283374393821455E-01 a      1182     1    14     2    12
  1.2953744676506357E-01 a      1183     1    14     2    13
 -6.3582696545470430E-01 a      1184     1    14     2    14
 -3.9910962486642249E-01 a      1185     1    14     2    15
 -8.6083844074559090E-01 a      1186     1    15     2     1
 -1.8431873467016524E-01 a      1187     1    15     2     2
  9.1090652531543193E-01 a      1188     1    15     2     3
 -6.1884780183288113E-01 a      1189     1    15     2     4
 -1.8046916510454225E+00 a      1190     1    15     2     5
 -1.4317326463578464E+00 a      1191     1    15     2     6
 -1.0682915877625647E+00 a      1192     1    15     2     7
  7.6644914281928933E-01 a      1193     1    15     2     8
  3.7837360460623698E-01 a      1194     1    15     2     9
  4.1522911693840603E-01 a      1195     1    15     2    10
 -8.3985066193059052E-02 a      1196     1    15     2    11
 -3.7482989237161979E-01 a      1197     1    15     2    12
  7.8073141220813824E-01 a      1198     1    15     2    13
 -4.0589321824442798E-01 a      1199     1    15     2    14
 -9.2712340718833317E-02 a      1200     1    15     2    15
  1.0299756770574640E+00 b      1201     2     1
  2.9611346130542149E-01 b      1202     2     2
  7.0724590796133824E-01 b      1203     2     3
 -4.6040443222387029E-01 b      1204     2     4
  3.7344908797740478E-01 b      1205     2     5
  5.0331700990797779E-01 b      1206     2     6
  2.3802414740402084E-01 b      1207     2     7
 -5.2184989639136170E-01 b      1208     2     8
  1.7495793041410153E+00 b      1209     2     9
  9.2005166225789192E-01 b      1210     2    10
  1.2435105813550493E+00 b      1211     2    11
 -5.8279744811554512E-01 b      1212     2    12
 -1.3630635662070123E+00 b      1213     2    13
 -6.7261057884000852E-01 b      1214     2    14
  6.7990304687038416E-01 b      1215     2    15
 -1.0171479951855706E+00 a      1216     2     1     3     1
  6.5291275714863273E-01 a      1217     2     2     3     1
  9.8585912412314361E-02 a      1218     2     3     3     1
 -1.5091746114618443E+00 a      1219     2     4     3     1
 -2.0439778992301330E-01 a      1220     2     5     3     1
  2.7015135656120703E-01 a      1221     2     6     3     1
  5.1161028341968728E-01 a      1222     2     7     3     1
 -9.5792924044363215E-01 a      1223     2     8     3     1
  2.0366925163626426E-01 a      1224     2     9     3     1
  3.3927055005894852E-01 a      1225     2    10     3     1
  1.0304026590580330E-01 a      1226     2    11     3     1
  1.0345489301470170E+00 a      1227     2    12     3     1
  4.4311854360726410E-01 a      1228     2    13     3     1
  7.5429213341250612E-01 a      1229     2    14     3     1
 -7.5084202865903915E-01 a      1230     2    15     3     1
  2.2736916649320583E-02 b      1231     3     1
